SVM-light Version V6.02
2 # kernel type
3 # kernel parameter -d 
0.005 # kernel parameter -g 
1 # kernel parameter -s 
1 # kernel parameter -r 
empty# kernel parameter -u 
400 # highest feature index 
659 # number of training documents 
268 # number of support vectors plus 1 
4.1006664 # threshold b, each following line is a SV (starting with alpha*y)
-0.4015415973376413316664468311501 1:1.4400001 2:0 3:1.4400001 4:0.72000003 5:0 6:0 7:0 8:1.4400001 9:0 10:0 11:0.72000003 12:0 13:0 14:0 15:0.72000003 16:0 17:0.72000003 18:0 19:0 20:0 21:0 22:0.72000003 23:0 24:0 25:0 26:0 27:0 28:0 29:0 30:0.72000003 31:0 32:0 33:0 34:0 35:0 36:0 37:0 38:0 39:0 40:0 41:1.4400001 42:0 43:0 44:0 45:0 46:0 47:0 48:0 49:0 50:0 51:0.72000003 52:0 53:0.72000003 54:0 55:0 56:0 57:1.4400001 58:1.4400001 59:0 60:0 61:0 62:0 63:0.72000003 64:0 65:0.72000003 66:0 67:0 68:0 69:0 70:0 71:0 72:0 73:0.72000003 74:0.72000003 75:0.72000003 76:0 77:0.72000003 78:0 79:0 80:0 81:0 82:0.72000003 83:0 84:0 85:0 86:1.4400001 87:0 88:0 89:0 90:0.72000003 91:0 92:0.72000003 93:0 94:0 95:0.72000003 96:0.72000003 97:0.72000003 98:0 99:0 100:0 101:0 102:0 103:0.72000003 104:0 105:0 106:0 107:0 108:0.72000003 109:0.72000003 110:0 111:0 112:0 113:0.72000003 114:1.4400001 115:0.72000003 116:0 117:0 118:0 119:0 120:0 121:0.72000003 122:0 123:0 124:0 125:0 126:0 127:0 128:0 129:0 130:0 131:0 132:0 133:0 134:0 135:0 136:0.72000003 137:0 138:0 139:0 140:0 141:0 142:0 143:0 144:1.4400001 145:0.72000003 146:0 147:0 148:0 149:0 150:0.72000003 151:0 152:0 153:0 154:0 155:0 156:0.72000003 157:0 158:0 159:0 160:0.72000003 161:0 162:0 163:0 164:0 165:1.4400001 166:0 167:0 168:0 169:0 170:0 171:0 172:0 173:0 174:0 175:1.4400001 176:0 177:0 178:0.72000003 179:0 180:0 181:0 182:0 183:0 184:0 185:0.72000003 186:1.4400001 187:0 188:0 189:0.72000003 190:2.1600001 191:0.72000003 192:0 193:0.72000003 194:0.72000003 195:0.72000003 196:0.72000003 197:0 198:0 199:0 200:0 201:0 202:0 203:0.72000003 204:0 205:0 206:0.72000003 207:0 208:0 209:0 210:0.72000003 211:0 212:0 213:0 214:1.4400001 215:0 216:0 217:0.72000003 218:0 219:0 220:0 221:0 222:0 223:0 224:0 225:0 226:0 227:0 228:0 229:0 230:0 231:0 232:0 233:0 234:0.72000003 235:0 236:0.72000003 237:0 238:0 239:0 240:0.72000003 241:0.72000003 242:0 243:0.72000003 244:0.72000003 245:0 246:0 247:0 248:0 249:0 250:0.72000003 251:0.72000003 252:0 253:0 254:0.72000003 255:0 256:0 257:0 258:0.72000003 259:0 260:0 261:0 262:0 263:0.72000003 264:0 265:0 266:0 267:0 268:0.72000003 269:0 270:0.72000003 271:0 272:0.72000003 273:0 274:0 275:2.1600001 276:0.72000003 277:1.4400001 278:0 279:0 280:0 281:0.72000003 282:0 283:0 284:1.4400001 285:1.4400001 286:0 287:1.4400001 288:0 289:1.4400001 290:1.4400001 291:0 292:0 293:0 294:0 295:0 296:0 297:0 298:0.72000003 299:0 300:0 301:1.4400001 302:0 303:0 304:0 305:0 306:0.72000003 307:0 308:0.72000003 309:0 310:0 311:0 312:0 313:0.72000003 314:0.72000003 315:0 316:2.1600001 317:0 318:0.72000003 319:0 320:1.4400001 321:0 322:0 323:0 324:0 325:0.72000003 326:0 327:0 328:0 329:0 330:0 331:0 332:0.72000003 333:0.72000003 334:1.4400001 335:0 336:2.1600001 337:0 338:0.72000003 339:0 340:0 341:0.72000003 342:0 343:0.72000003 344:0 345:0 346:0 347:0 348:0.72000003 349:0.72000003 350:0.72000003 351:0.72000003 352:0 353:0 354:0 355:0 356:0 357:0.72000003 358:0.72000003 359:0 360:0.72000003 361:0 362:0 363:0 364:0 365:0 366:0 367:0 368:0 369:0 370:0 371:0 372:0 373:0 374:0 375:0 376:0 377:0 378:0 379:0 380:0 381:0 382:0 383:0 384:0 385:0 386:0.72000003 387:0 388:0 389:0 390:0 391:0 392:0 393:0.72000003 394:0 395:1.4400001 396:0 397:0 398:0.72000003 399:0 400:0 #
-1.4982207757707439732541843113722 1:0 2:0.33000001 3:0.33000001 4:0.66000003 5:0.33000001 6:0.33000001 7:0.33000001 8:0.33000001 9:0 10:0.66000003 11:0 12:0 13:0 14:0 15:0 16:0.66000003 17:1.3200001 18:0 19:0 20:0 21:0 22:0 23:0 24:0 25:0 26:0 27:0 28:0 29:0 30:0.33000001 31:0 32:0.33000001 33:0 34:0 35:0.33000001 36:0.33000001 37:0.33000001 38:0 39:0.33000001 40:0 41:0 42:0.33000001 43:0 44:0 45:0 46:0.66000003 47:0 48:0 49:0 50:0.33000001 51:0 52:0 53:0.33000001 54:0 55:0.33000001 56:0.33000001 57:0 58:0.66000003 59:0 60:0 61:0 62:0 63:0.33000001 64:0.66000003 65:0 66:0.33000001 67:0 68:0 69:0 70:0.33000001 71:0 72:0.66000003 73:0.66000003 74:0 75:0 76:0 77:0 78:0.33000001 79:0 80:0 81:0.66000003 82:0 83:0 84:0 85:0 86:0 87:0 88:0.33000001 89:0 90:0.66000003 91:0 92:0.33000001 93:0 94:0.33000001 95:0.33000001 96:0.99000001 97:0.99000001 98:0 99:0 100:0.66000003 101:0.66000003 102:0 103:0 104:0.33000001 105:0.33000001 106:0 107:0.33000001 108:0.33000001 109:0.33000001 110:0.33000001 111:0 112:0.66000003 113:0 114:0.99000001 115:0.66000003 116:0.33000001 117:0.66000003 118:0.33000001 119:0 120:0 121:0 122:0 123:0 124:0 125:0.33000001 126:0 127:0.66000003 128:0 129:0 130:0.33000001 131:0 132:0 133:0 134:0 135:0.66000003 136:0.33000001 137:0 138:0 139:0.33000001 140:0 141:0.33000001 142:0.33000001 143:0 144:0.33000001 145:0 146:0.33000001 147:0 148:0 149:0.33000001 150:0 151:0 152:0.33000001 153:0.33000001 154:0.33000001 155:0 156:0 157:0 158:0 159:0 160:0 161:0.33000001 162:0 163:0 164:0.33000001 165:0 166:0 167:0.33000001 168:0 169:0 170:0 171:0 172:0 173:0 174:0.33000001 175:0 176:0.66000003 177:0.33000001 178:0.33000001 179:0 180:0 181:0 182:0.33000001 183:0 184:0 185:0.33000001 186:0.66000003 187:0 188:0.33000001 189:0 190:0 191:0.33000001 192:0.33000001 193:0.99000001 194:0.33000001 195:0.66000003 196:0.99000001 197:0.33000001 198:0.33000001 199:0.33000001 200:0 201:0.99000001 202:0 203:0 204:0.33000001 205:0 206:0.33000001 207:0.33000001 208:0 209:0.33000001 210:0 211:0 212:0 213:0.33000001 214:0 215:0.33000001 216:0.33000001 217:0 218:0 219:0 220:0 221:0.33000001 222:0 223:0.66000003 224:0.33000001 225:0.33000001 226:0 227:0.33000001 228:0 229:0.33000001 230:0 231:0 232:0 233:0 234:0.66000003 235:0 236:0.66000003 237:0 238:0.66000003 239:0 240:0.33000001 241:0 242:0 243:0.33000001 244:0 245:0.66000003 246:0.99000001 247:0 248:0 249:0 250:0.66000003 251:0.33000001 252:0.33000001 253:1.66 254:0.66000003 255:1.66 256:0.99000001 257:0.66000003 258:0.66000003 259:0 260:0.33000001 261:0 262:0 263:0.33000001 264:0 265:0.33000001 266:0.33000001 267:0.33000001 268:0.33000001 269:0.66000003 270:0 271:0 272:0.33000001 273:1.3200001 274:0.66000003 275:0.66000003 276:0 277:0.33000001 278:0.33000001 279:0 280:0 281:0 282:0.33000001 283:0 284:0 285:0.33000001 286:0.99000001 287:0 288:0 289:0 290:0 291:0.99000001 292:0.66000003 293:1.3200001 294:0.99000001 295:0.33000001 296:0.66000003 297:0 298:0 299:0 300:0 301:0.66000003 302:0 303:0 304:0.33000001 305:1.66 306:0.66000003 307:0 308:0.33000001 309:0 310:1.3200001 311:0.66000003 312:0.33000001 313:2.3199999 314:0 315:0 316:2.6500001 317:0.66000003 318:0 319:0 320:0.66000003 321:0.99000001 322:0.33000001 323:0.33000001 324:0 325:0.33000001 326:0 327:0 328:0.33000001 329:0 330:0.66000003 331:0.33000001 332:0.33000001 333:0.33000001 334:0.33000001 335:0 336:1.66 337:0.33000001 338:1.3200001 339:0 340:0.33000001 341:0 342:0 343:0.33000001 344:0 345:0.33000001 346:0.33000001 347:0 348:0 349:0.66000003 350:0.33000001 351:0.33000001 352:0 353:0.33000001 354:0.33000001 355:0 356:0.33000001 357:1.3200001 358:1.3200001 359:0.33000001 360:0 361:0 362:0 363:0.33000001 364:0 365:0 366:0 367:0 368:0 369:0 370:0 371:0 372:0 373:0 374:0 375:0.66000003 376:0 377:0.33000001 378:0 379:0 380:0 381:0.33000001 382:0 383:0 384:0 385:0 386:0.33000001 387:0 388:0.33000001 389:0 390:0.33000001 391:0 392:0 393:0 394:0 395:0 396:0.33000001 397:0.33000001 398:0 399:0 400:0.33000001 #
2.9964415515414879465083686227445 1:0.34999999 2:0.18000001 3:0 4:0.34999999 5:0.18000001 6:0.34999999 7:0.34999999 8:0.52999997 9:0.34999999 10:0.70999998 11:0.18000001 12:0.88999999 13:0.52999997 14:0 15:0.18000001 16:0.70999998 17:0.18000001 18:0.18000001 19:0 20:0.18000001 21:0 22:0 23:0.88999999 24:0 25:0.18000001 26:0 27:0 28:0.34999999 29:0.18000001 30:0 31:0 32:0 33:0 34:0.18000001 35:0.70999998 36:0.18000001 37:0.18000001 38:0.18000001 39:0 40:0 41:0.52999997 42:0 43:0.70999998 44:0.34999999 45:0.18000001 46:0.70999998 47:0.18000001 48:0.70999998 49:0.52999997 50:0.18000001 51:0.18000001 52:0.18000001 53:0.18000001 54:0.18000001 55:0.52999997 56:1.42 57:0.52999997 58:0.34999999 59:0 60:0.52999997 61:0.34999999 62:0 63:0.88999999 64:0.18000001 65:0 66:0 67:0.18000001 68:0.34999999 69:0 70:0.88999999 71:0.34999999 72:0.52999997 73:0.18000001 74:0.18000001 75:0.34999999 76:0.34999999 77:0.18000001 78:0.18000001 79:0.18000001 80:0 81:0.34999999 82:0.18000001 83:0.18000001 84:0 85:0.34999999 86:0.52999997 87:0 88:0 89:0.18000001 90:0.18000001 91:0 92:0 93:0.18000001 94:0.34999999 95:0.18000001 96:0.34999999 97:0.18000001 98:0 99:0 100:0 101:0.70999998 102:0.18000001 103:0.34999999 104:0.52999997 105:0.18000001 106:0.18000001 107:0 108:0 109:0.18000001 110:0.52999997 111:0.34999999 112:0.18000001 113:0 114:0 115:0.18000001 116:0 117:0.18000001 118:0.18000001 119:0 120:0.18000001 121:0.34999999 122:0 123:0.18000001 124:0 125:0.18000001 126:0 127:0 128:0.34999999 129:0 130:0.34999999 131:0.18000001 132:0 133:0.34999999 134:0.34999999 135:0 136:0.18000001 137:0.18000001 138:0 139:0 140:0.18000001 141:0 142:0.18000001 143:0.88999999 144:0.70999998 145:0 146:0.18000001 147:0.18000001 148:0.52999997 149:0.70999998 150:0.52999997 151:0 152:0.18000001 153:0.34999999 154:0.18000001 155:0 156:0.88999999 157:0.34999999 158:0.18000001 159:0 160:0 161:0.52999997 162:0.18000001 163:0.34999999 164:0.18000001 165:0.18000001 166:0.18000001 167:0.18000001 168:0.18000001 169:0.18000001 170:0.34999999 171:0.34999999 172:0.34999999 173:0 174:0.52999997 175:0.52999997 176:0.34999999 177:0 178:0 179:0 180:0 181:0.52999997 182:0.18000001 183:1.0599999 184:0.52999997 185:0.18000001 186:0.70999998 187:0 188:0.18000001 189:0.34999999 190:2.48 191:0 192:0.70999998 193:0.34999999 194:0.52999997 195:0.52999997 196:0.88999999 197:0 198:0.52999997 199:0 200:0 201:0.34999999 202:0 203:0 204:0.34999999 205:0.18000001 206:0 207:0.34999999 208:0.18000001 209:0.52999997 210:0.34999999 211:0.34999999 212:0 213:0 214:0 215:0 216:0.18000001 217:0 218:0 219:0 220:0 221:0.18000001 222:0.52999997 223:0.70999998 224:0.18000001 225:0 226:0.34999999 227:0.18000001 228:0.34999999 229:0.34999999 230:0.52999997 231:0 232:0.52999997 233:0.18000001 234:0.70999998 235:0.34999999 236:0.70999998 237:0.18000001 238:0.34999999 239:0 240:0.52999997 241:0.52999997 242:0 243:0.18000001 244:0.34999999 245:0 246:0 247:0.18000001 248:0 249:0 250:0.18000001 251:0 252:0.34999999 253:0.52999997 254:0.34999999 255:0 256:0.52999997 257:0.70999998 258:0.52999997 259:0 260:0 261:0 262:0.34999999 263:0 264:0.18000001 265:0 266:0 267:0.18000001 268:0.18000001 269:0.18000001 270:0.52999997 271:0.18000001 272:0.34999999 273:0.18000001 274:0.52999997 275:0.34999999 276:0.70999998 277:0.34999999 278:0.34999999 279:0 280:0.34999999 281:0.34999999 282:0 283:0.34999999 284:0.52999997 285:0.70999998 286:0.34999999 287:0.52999997 288:0.52999997 289:0.34999999 290:0.18000001 291:0 292:0.18000001 293:0.34999999 294:0.18000001 295:0.52999997 296:0.70999998 297:0.18000001 298:0 299:0 300:0.18000001 301:0.52999997 302:0.52999997 303:0.52999997 304:0.52999997 305:0.34999999 306:0.18000001 307:0 308:0.88999999 309:0.18000001 310:0.70999998 311:0.52999997 312:1.77 313:0.70999998 314:0 315:1.42 316:0.70999998 317:0 318:0.34999999 319:0 320:0.18000001 321:0.18000001 322:0.18000001 323:0 324:0 325:0 326:0.18000001 327:0.18000001 328:0.34999999 329:0.18000001 330:0.34999999 331:0 332:0.34999999 333:0.34999999 334:0.18000001 335:0 336:0.70999998 337:0.70999998 338:0.34999999 339:0.18000001 340:0 341:0.34999999 342:0.18000001 343:0.34999999 344:0.34999999 345:0.34999999 346:0 347:0.18000001 348:0 349:0.18000001 350:0.52999997 351:0 352:0.18000001 353:0 354:0.34999999 355:0.34999999 356:0.34999999 357:0 358:0.18000001 359:0 360:0.18000001 361:0.18000001 362:0 363:0 364:0 365:0 366:0 367:0 368:0 369:0 370:0 371:0 372:0 373:0 374:0.18000001 375:0 376:0 377:0 378:0 379:0 380:0 381:0 382:0.18000001 383:0.52999997 384:0 385:0 386:0.18000001 387:0 388:0.34999999 389:0 390:0.18000001 391:0 392:0.18000001 393:0 394:0 395:0 396:0.18000001 397:0.34999999 398:0.18000001 399:0 400:0 #
1.1906650228220545528756701969542 1:0.18000001 2:0 3:0.36000001 4:0.18000001 5:0.36000001 6:0.18000001 7:0.18000001 8:0.72000003 9:0.36000001 10:0.72000003 11:0.36000001 12:0.18000001 13:0.36000001 14:0.18000001 15:0.36000001 16:0.72000003 17:0 18:0.18000001 19:0 20:0.18000001 21:0 22:0 23:0 24:0.36000001 25:0 26:0.18000001 27:0 28:0.36000001 29:0.36000001 30:0.18000001 31:0 32:0.18000001 33:0.36000001 34:0.18000001 35:0.18000001 36:0 37:0 38:0 39:0.18000001 40:0 41:0 42:0 43:0.18000001 44:0.36000001 45:0.36000001 46:0.18000001 47:0.18000001 48:0 49:0.36000001 50:0.36000001 51:0 52:0 53:0.18000001 54:0.54000002 55:0.72000003 56:0 57:0 58:0.54000002 59:0 60:0.72000003 61:0.54000002 62:0 63:0.36000001 64:0.36000001 65:0.18000001 66:0.36000001 67:0.18000001 68:0.18000001 69:0.72000003 70:0.88999999 71:0.18000001 72:0.54000002 73:0.36000001 74:0.54000002 75:0 76:0.36000001 77:0.36000001 78:0.18000001 79:0.18000001 80:0.18000001 81:0 82:0 83:0.18000001 84:0 85:0.36000001 86:0.54000002 87:0 88:0 89:0.54000002 90:0.54000002 91:0 92:0.18000001 93:0.18000001 94:0.36000001 95:0.18000001 96:0.36000001 97:0 98:0.36000001 99:0 100:0 101:0 102:0 103:0.54000002 104:0.36000001 105:0.18000001 106:0.18000001 107:0.18000001 108:0 109:0.18000001 110:1.25 111:0.18000001 112:0 113:0.18000001 114:0.36000001 115:0.18000001 116:0.36000001 117:0.18000001 118:0.18000001 119:0 120:0.72000003 121:0.18000001 122:0 123:0 124:0 125:0.18000001 126:0.88999999 127:0 128:0.18000001 129:0 130:0.18000001 131:0 132:0 133:0 134:0 135:0.36000001 136:0.36000001 137:0 138:0.54000002 139:0 140:0.18000001 141:0.18000001 142:0 143:0.36000001 144:0.36000001 145:0.36000001 146:0 147:0.18000001 148:0.18000001 149:0.18000001 150:0.36000001 151:0.18000001 152:0 153:0.36000001 154:0.36000001 155:0.36000001 156:0.54000002 157:0.18000001 158:0.18000001 159:0 160:0.18000001 161:0.18000001 162:0.36000001 163:0 164:0.18000001 165:0.54000002 166:0.36000001 167:0.54000002 168:0.18000001 169:0.36000001 170:0.88999999 171:0.36000001 172:0.18000001 173:0 174:0.36000001 175:1.0700001 176:0.18000001 177:0.18000001 178:0.54000002 179:0 180:0 181:0.18000001 182:0.54000002 183:0.36000001 184:1.0700001 185:0.36000001 186:0 187:0.36000001 188:0.72000003 189:1.0700001 190:1.79 191:0 192:0 193:1.0700001 194:0.54000002 195:0.36000001 196:0.54000002 197:0.36000001 198:1.0700001 199:0 200:0.18000001 201:0.36000001 202:0 203:0.18000001 204:0 205:0 206:0.18000001 207:0 208:0 209:0.36000001 210:0.36000001 211:0.18000001 212:0 213:0.54000002 214:0.18000001 215:0.18000001 216:0.36000001 217:0.18000001 218:0.18000001 219:0 220:0.18000001 221:0.18000001 222:0.36000001 223:0 224:0 225:0.18000001 226:0.36000001 227:0 228:0.18000001 229:0.18000001 230:0.54000002 231:0.18000001 232:0.54000002 233:0 234:0.36000001 235:0.54000002 236:0 237:0.18000001 238:0 239:0 240:0.36000001 241:0.72000003 242:0 243:0.54000002 244:0.54000002 245:0.18000001 246:0.18000001 247:0.54000002 248:0.36000001 249:0.36000001 250:0.18000001 251:0.18000001 252:0.18000001 253:0.36000001 254:0.36000001 255:0 256:0.18000001 257:0.18000001 258:0.18000001 259:0 260:0.72000003 261:0.54000002 262:0 263:0.18000001 264:0.72000003 265:0.36000001 266:0.18000001 267:0 268:0.18000001 269:0.36000001 270:0.36000001 271:0.36000001 272:0.88999999 273:0.18000001 274:0.54000002 275:0.36000001 276:0 277:0.54000002 278:0.88999999 279:0 280:0 281:1.25 282:0.18000001 283:0.18000001 284:0.54000002 285:0.18000001 286:0.18000001 287:0.18000001 288:0 289:0.18000001 290:0.54000002 291:0.18000001 292:0.36000001 293:0.18000001 294:0.36000001 295:0.18000001 296:0.88999999 297:0.18000001 298:0 299:0 300:0.18000001 301:0.72000003 302:0.18000001 303:0.36000001 304:0.54000002 305:0 306:0.36000001 307:0.36000001 308:0.88999999 309:0.36000001 310:0.54000002 311:0.36000001 312:0.18000001 313:0.88999999 314:0.36000001 315:0.18000001 316:1.25 317:0 318:0 319:0 320:0.36000001 321:0 322:0.36000001 323:0.18000001 324:0.54000002 325:0 326:0.36000001 327:0 328:0.18000001 329:0 330:0.36000001 331:0.18000001 332:0 333:0.18000001 334:0.18000001 335:0 336:0.54000002 337:0 338:0.18000001 339:0 340:0 341:0.54000002 342:0.36000001 343:0.36000001 344:0.54000002 345:0 346:0.18000001 347:0 348:0.18000001 349:0.18000001 350:0.18000001 351:0.18000001 352:0.54000002 353:0.18000001 354:0.54000002 355:0.54000002 356:0.36000001 357:0.36000001 358:0.18000001 359:0 360:0 361:0.18000001 362:0 363:0 364:0 365:0 366:0 367:0 368:0 369:0 370:0 371:0 372:0 373:0 374:0 375:0 376:0.18000001 377:0 378:0 379:0 380:0 381:0 382:0.18000001 383:0.36000001 384:0 385:0 386:0.36000001 387:0.18000001 388:0 389:0.36000001 390:0.36000001 391:0.18000001 392:0.18000001 393:0.36000001 394:0.36000001 395:0.18000001 396:0.72000003 397:0.36000001 398:0 399:0 400:0.18000001 #
-1.4982207757707439732541843113722 1:0.41 2:0.37 3:0.090000004 4:0.41 5:0.090000004 6:0.46000001 7:0 8:0.31999999 9:0.090000004 10:0.31999999 11:0.090000004 12:0.090000004 13:0.82999998 14:0.28 15:0.18000001 16:0.50999999 17:0.63999999 18:0.28 19:0.090000004 20:0.14 21:0.23 22:0 23:0.23 24:0.63999999 25:0 26:0.18000001 27:0.050000001 28:0.41 29:0.14 30:0.41 31:0.090000004 32:0.090000004 33:0.41 34:0.55000001 35:0.14 36:0.090000004 37:0.090000004 38:0.41 39:0.090000004 40:0.18000001 41:0.18000001 42:0.23 43:0 44:0.41 45:0.14 46:0.63999999 47:0.050000001 48:0.14 49:0.18000001 50:0.18000001 51:0.090000004 52:0.090000004 53:0.050000001 54:0.050000001 55:0.18000001 56:0.37 57:0.18000001 58:0.37 59:0 60:0.090000004 61:0.18000001 62:0.41 63:0.31999999 64:0.82999998 65:0.23 66:0.46000001 67:0.18000001 68:0.55000001 69:0.37 70:0.37 71:0 72:0.14 73:0.41 74:0.090000004 75:0.14 76:0.77999997 77:0.63999999 78:0.69 79:0.050000001 80:0.23 81:0.14 82:0 83:0.14 84:0.090000004 85:0.23 86:0.28 87:0 88:0.14 89:0.090000004 90:0.090000004 91:0 92:0.14 93:0.14 94:0.18000001 95:0.18000001 96:0.41 97:0.50999999 98:0.18000001 99:0 100:0.090000004 101:0.50999999 102:0.23 103:0.37 104:0.37 105:0.46000001 106:0.97000003 107:0.37 108:0.14 109:0.18000001 110:0.74000001 111:0.050000001 112:0.050000001 113:0.41 114:0.18000001 115:0.74000001 116:0.97000003 117:0.63999999 118:0.60000002 119:0.14 120:0.41 121:0.050000001 122:0.18000001 123:0.18000001 124:0.23 125:0.090000004 126:0.28 127:0.69 128:0.050000001 129:0.050000001 130:0.23 131:0 132:0.090000004 133:0.14 134:0.050000001 135:0.18000001 136:0.090000004 137:0.14 138:0.050000001 139:0.050000001 140:0.090000004 141:0.23 142:0.23 143:0.23 144:0.31999999 145:0.18000001 146:0.37 147:0 148:0.28 149:0.23 150:0.46000001 151:0.090000004 152:0.18000001 153:0.31999999 154:0.23 155:0.23 156:0.41 157:0.46000001 158:0.18000001 159:0 160:0.090000004 161:0.14 162:0.18000001 163:0.23 164:0.050000001 165:0.090000004 166:0.23 167:0.050000001 168:0.18000001 169:0.090000004 170:0.50999999 171:0.090000004 172:0.14 173:0.31999999 174:0.050000001 175:0.090000004 176:0.18000001 177:0.050000001 178:0.090000004 179:0.050000001 180:0 181:0.69 182:0.37 183:0.55000001 184:0.37 185:0.050000001 186:0.63999999 187:0.23 188:0.41 189:0.31999999 190:0.77999997 191:0.23 192:0.31999999 193:1.01 194:0.46000001 195:0.23 196:0.50999999 197:0.28 198:0.23 199:0.14 200:0.23 201:0.18000001 202:0 203:0.050000001 204:0.050000001 205:0 206:0.18000001 207:0.050000001 208:0 209:0.090000004 210:0.23 211:0 212:0.050000001 213:0.090000004 214:0.090000004 215:0 216:0.23 217:0 218:0.090000004 219:0 220:0 221:0.18000001 222:0.18000001 223:0.14 224:0.18000001 225:0.14 226:0.69 227:0.090000004 228:0.23 229:0.050000001 230:0.14 231:0 232:0.23 233:0.28 234:0.050000001 235:0 236:0.18000001 237:0.18000001 238:0.14 239:0.050000001 240:0.090000004 241:0.74000001 242:0.41 243:0.18000001 244:0.60000002 245:0.18000001 246:0.28 247:0.31999999 248:0.31999999 249:0.090000004 250:0.82999998 251:0.14 252:0.14 253:1.33 254:0.28 255:0.46000001 256:0.74000001 257:1.24 258:0.50999999 259:0 260:0.090000004 261:0.18000001 262:0.090000004 263:0.090000004 264:0.23 265:0.28 266:0.28 267:0.14 268:0.14 269:0.090000004 270:0.23 271:0.050000001 272:0.18000001 273:0.41 274:0 275:0.18000001 276:0.18000001 277:0.41 278:0.090000004 279:0 280:0.090000004 281:0.23 282:0.28 283:0.14 284:0.14 285:0.14 286:0.50999999 287:0.050000001 288:0.41 289:0.090000004 290:0.23 291:0.090000004 292:0.28 293:0.28 294:0.090000004 295:0.31999999 296:0.60000002 297:0.28 298:0.18000001 299:0.090000004 300:0 301:0.41 302:0.31999999 303:0.18000001 304:0.87 305:0.37 306:1.01 307:0.18000001 308:0.23 309:0.37 310:0.77999997 311:0 312:0.31999999 313:0.63999999 314:0.18000001 315:0.37 316:1.47 317:0.55000001 318:0.69 319:0 320:0.28 321:0.69 322:0.50999999 323:0 324:0.50999999 325:0.14 326:0.69 327:0.18000001 328:0.50999999 329:0.18000001 330:0.63999999 331:0.18000001 332:0.37 333:0.92000002 334:0.23 335:0.28 336:0.69 337:1.75 338:0.60000002 339:0.18000001 340:0.050000001 341:0.23 342:0.28 343:0.31999999 344:0.60000002 345:0.18000001 346:0.23 347:0.050000001 348:0.14 349:0 350:0.31999999 351:0.050000001 352:0.18000001 353:0.74000001 354:0.28 355:0.46000001 356:0.60000002 357:0.82999998 358:0.60000002 359:0 360:0.050000001 361:0 362:0 363:0.050000001 364:0 365:0 366:0.050000001 367:0.14 368:0 369:0.050000001 370:0.23 371:0 372:0.050000001 373:0.090000004 374:0 375:0 376:0.090000004 377:0.090000004 378:0.050000001 379:0 380:0.050000001 381:0.090000004 382:0.18000001 383:0.14 384:0.18000001 385:0.050000001 386:0.090000004 387:0.090000004 388:0.14 389:0.050000001 390:0.31999999 391:0.090000004 392:0.090000004 393:0.050000001 394:0.050000001 395:0.050000001 396:0.14 397:0.31999999 398:0.14 399:0 400:0.050000001 #
2.9964415515414879465083686227445 1:0.41999999 2:0.28 3:0.41999999 4:0.28 5:0 6:0.70999998 7:0.28 8:0.28 9:0.14 10:0.56 11:0.28 12:0.28 13:0.56 14:0.14 15:0.41999999 16:0.99000001 17:0.41999999 18:0.14 19:0 20:0.14 21:0.28 22:0 23:0 24:0.14 25:0 26:0.41999999 27:0.14 28:0.14 29:0.28 30:0.28 31:0.28 32:0 33:0.28 34:0.14 35:0.14 36:0.41999999 37:0 38:0.14 39:0 40:0.14 41:0.28 42:0.14 43:0.14 44:0.41999999 45:0.28 46:0 47:0.28 48:0.14 49:0.28 50:0.41999999 51:0.14 52:0.41999999 53:0.14 54:0.14 55:0 56:0.56 57:0.56 58:0 59:0 60:0.28 61:0.14 62:0 63:0.14 64:0.56 65:0.41999999 66:0.41999999 67:0 68:0.41999999 69:0 70:0.28 71:0.28 72:0.28 73:0.41999999 74:0.28 75:0.14 76:0.70999998 77:0.14 78:0.28 79:0 80:0.14 81:0.28 82:0.14 83:0.28 84:0 85:0.14 86:0.28 87:0.14 88:0.28 89:0.14 90:0.14 91:0 92:0 93:0.14 94:0.14 95:0.28 96:0.28 97:0.14 98:0.28 99:0.14 100:0.14 101:0.14 102:0.28 103:0.28 104:0.28 105:0.14 106:0.14 107:0.28 108:0.28 109:0 110:0.41999999 111:0.28 112:0.28 113:0.14 114:0 115:0.28 116:0.56 117:0.14 118:0.56 119:0.14 120:0.41999999 121:0 122:0 123:0.14 124:0.14 125:0 126:0 127:0.28 128:0.14 129:0.14 130:0.70999998 131:0.14 132:0.14 133:0 134:0.14 135:0 136:0.41999999 137:0.14 138:0.14 139:0 140:0.14 141:0.14 142:0.14 143:0.14 144:0.14 145:0.14 146:0 147:0.28 148:0.14 149:0.56 150:0.41999999 151:0 152:0.14 153:0.28 154:0.56 155:0.14 156:0.41999999 157:0 158:0.70999998 159:0.14 160:0 161:0.41999999 162:0.14 163:0.41999999 164:0.28 165:0 166:0.14 167:0 168:0.28 169:0.28 170:0.70999998 171:0.28 172:0.14 173:0.14 174:0.14 175:0.28 176:0.41999999 177:0.28 178:0.28 179:0.14 180:0.14 181:0.28 182:0.70999998 183:0.14 184:0.28 185:0.14 186:0.85000002 187:0.56 188:0.41999999 189:0.56 190:1.13 191:0.56 192:0.70999998 193:0.85000002 194:0.28 195:0.41999999 196:1.13 197:1.13 198:0.14 199:0 200:0.41999999 201:0.28 202:0 203:0.41999999 204:0.28 205:0 206:0.14 207:0.14 208:0.14 209:0.14 210:0.14 211:0.14 212:0 213:0.28 214:0.14 215:0.56 216:0.28 217:0 218:0.28 219:0 220:0 221:0.14 222:0.14 223:0.28 224:0.14 225:0.14 226:0.14 227:0.14 228:0.41999999 229:0 230:0.41999999 231:0.28 232:0.28 233:0.28 234:0 235:0.14 236:0.41999999 237:0.41999999 238:0.14 239:0 240:0.28 241:0.85000002 242:0.14 243:0.56 244:0.28 245:0.28 246:0.56 247:0 248:0.14 249:0.28 250:0.85000002 251:0 252:0.14 253:0.14 254:0.85000002 255:0.28 256:0.28 257:0.14 258:0.14 259:0 260:0.14 261:0.85000002 262:0 263:0.14 264:0.14 265:0.28 266:0 267:0 268:0.28 269:0.14 270:0.41999999 271:0.14 272:0.28 273:0.41999999 274:0.28 275:0.28 276:0.56 277:0.14 278:0.14 279:0 280:0.14 281:0.56 282:0 283:0.14 284:0.41999999 285:0.14 286:0 287:0 288:0.14 289:0.41999999 290:0.56 291:0 292:0.41999999 293:0 294:0.28 295:0.41999999 296:0.41999999 297:0 298:0.41999999 299:0 300:0.14 301:0.70999998 302:0.14 303:0.56 304:0.70999998 305:0.70999998 306:0.70999998 307:0 308:0.41999999 309:0.28 310:1.27 311:0.14 312:0.28 313:0.85000002 314:0.85000002 315:0.14 316:1.27 317:0.85000002 318:0.41999999 319:0.28 320:0.41999999 321:0.56 322:0.56 323:0.14 324:0 325:0.14 326:0.14 327:0 328:0 329:0.85000002 330:0.41999999 331:0 332:0.41999999 333:0.41999999 334:0.14 335:0.14 336:0.56 337:0 338:0.56 339:0 340:0.14 341:0.28 342:0.14 343:0.14 344:0.56 345:0.28 346:0.14 347:0.14 348:0.28 349:0.41999999 350:0.85000002 351:0 352:0 353:0.70999998 354:0 355:0.28 356:0.14 357:0.41999999 358:0.56 359:0 360:0.14 361:0.14 362:0.14 363:0 364:0 365:0 366:0 367:0 368:0 369:0.14 370:0 371:0.14 372:0 373:0 374:0 375:0.14 376:0.14 377:0 378:0 379:0 380:0 381:0 382:0.14 383:0.14 384:0 385:0.14 386:0.28 387:0.14 388:0.14 389:0 390:0.70999998 391:0.14 392:0 393:0 394:0.14 395:0 396:0.99000001 397:0.28 398:0.14 399:0 400:0 #
0.59089446323656746873353995397338 1:2.01 2:0.31 3:0.62 4:0.15000001 5:0.31 6:0.76999998 7:0.15000001 8:0 9:0.15000001 10:0.62 11:0.31 12:0.46000001 13:0.46000001 14:0.15000001 15:0.31 16:0.62 17:0.15000001 18:0.76999998 19:0 20:0 21:0 22:0 23:0 24:0.15000001 25:0 26:0.15000001 27:0 28:0.15000001 29:0.62 30:0.31 31:0 32:0 33:0 34:0 35:0.15000001 36:0 37:0 38:0 39:0 40:0 41:0.15000001 42:0.15000001 43:0.76999998 44:0.76999998 45:0 46:0.62 47:0.15000001 48:0 49:0 50:0.76999998 51:0 52:0.31 53:0.31 54:0.15000001 55:0 56:0.46000001 57:0.15000001 58:0.15000001 59:0 60:0.15000001 61:0.62 62:0.15000001 63:0.93000001 64:1.39 65:0 66:0.15000001 67:0.15000001 68:0.62 69:0.15000001 70:0.46000001 71:0 72:0.31 73:0.31 74:0.31 75:0.31 76:0.15000001 77:0.62 78:0.15000001 79:0 80:0.15000001 81:0.31 82:0 83:0 84:0 85:0.15000001 86:0.31 87:0.15000001 88:0 89:0.15000001 90:0.31 91:0 92:0.15000001 93:0.31 94:0 95:0 96:0 97:0.15000001 98:0 99:0 100:0.15000001 101:0.76999998 102:0.15000001 103:0 104:0.46000001 105:0.15000001 106:2.79 107:0.15000001 108:0.15000001 109:0.31 110:0.62 111:0.62 112:0.15000001 113:0 114:0.46000001 115:0.62 116:1.39 117:0.15000001 118:0.46000001 119:0 120:0.31 121:0.15000001 122:0.15000001 123:0.15000001 124:0 125:0.15000001 126:0 127:0.46000001 128:0 129:0.31 130:0.62 131:0 132:0.46000001 133:0.46000001 134:0.31 135:0 136:0.62 137:0 138:0 139:0 140:0 141:0 142:0 143:0.31 144:0.62 145:0 146:0 147:0.15000001 148:0.31 149:0.15000001 150:0.15000001 151:0 152:0.15000001 153:0 154:0 155:0 156:0.76999998 157:0 158:0 159:0 160:0 161:0.15000001 162:0.15000001 163:0.15000001 164:0.31 165:0 166:0.15000001 167:0.15000001 168:0.15000001 169:0.31 170:0.31 171:0 172:0.46000001 173:0.15000001 174:0.15000001 175:0.46000001 176:0.93000001 177:0.31 178:0.62 179:0 180:0 181:0.15000001 182:0 183:0.62 184:0.15000001 185:0.31 186:0.62 187:0.15000001 188:0.15000001 189:0.62 190:0.76999998 191:0.31 192:0 193:0.62 194:0.15000001 195:0.15000001 196:0.76999998 197:0.46000001 198:0.31 199:0 200:0.31 201:0.15000001 202:0 203:0 204:0 205:0 206:0 207:0 208:0 209:0.15000001 210:0.31 211:0.31 212:0.31 213:0.46000001 214:0 215:0.15000001 216:0.31 217:0.15000001 218:0.15000001 219:0 220:0 221:0.31 222:0 223:0.15000001 224:0.15000001 225:0 226:0.62 227:0.31 228:0 229:0.15000001 230:0.15000001 231:0 232:2.6300001 233:0.46000001 234:0.31 235:0.15000001 236:1.08 237:0.15000001 238:0 239:0.15000001 240:0 241:1.24 242:0 243:0.15000001 244:0.76999998 245:0.46000001 246:1.08 247:0.31 248:0.15000001 249:0 250:0.31 251:0 252:0.31 253:1.55 254:0.15000001 255:0.15000001 256:0.62 257:0.31 258:0.46000001 259:0 260:0.15000001 261:0.46000001 262:0 263:0.46000001 264:0.31 265:0 266:0.31 267:0.31 268:0 269:0 270:0 271:0.15000001 272:0.15000001 273:0.15000001 274:1.55 275:0.15000001 276:0.15000001 277:0.15000001 278:0 279:0 280:0 281:0.15000001 282:0 283:0 284:0.31 285:0.31 286:0.15000001 287:0 288:0 289:0.31 290:0.46000001 291:0 292:0 293:0.31 294:0.15000001 295:0.15000001 296:0.62 297:0.31 298:0.15000001 299:0 300:0.15000001 301:0.15000001 302:0 303:0.62 304:0.62 305:0.15000001 306:1.39 307:0.76999998 308:0.76999998 309:0.62 310:0.15000001 311:0.46000001 312:0.62 313:1.39 314:0.31 315:0.46000001 316:2.48 317:0.31 318:0.76999998 319:0 320:0.15000001 321:0.46000001 322:0.31 323:0.15000001 324:0.31 325:0 326:0.15000001 327:0.31 328:0.15000001 329:0.46000001 330:0 331:0 332:0.15000001 333:0.93000001 334:0 335:0 336:0.46000001 337:0.62 338:0 339:0 340:0 341:0.76999998 342:0.15000001 343:0 344:0.46000001 345:0 346:0.15000001 347:0 348:0 349:0.46000001 350:0.15000001 351:0.15000001 352:0 353:0.15000001 354:0.15000001 355:0.31 356:0.46000001 357:0.46000001 358:0.31 359:0 360:0 361:0 362:0 363:0 364:0 365:0.15000001 366:0 367:0 368:0 369:0 370:0 371:0 372:0 373:0 374:0 375:0 376:0 377:0 378:0 379:0 380:0 381:0.31 382:0 383:0 384:0 385:0 386:0.31 387:0.15000001 388:0 389:0 390:0.15000001 391:0 392:0.15000001 393:0.15000001 394:0 395:0 396:0.31 397:0 398:0 399:0 400:0 #
2.9964415515414879465083686227445 1:2.1400001 2:0.20999999 3:0.18000001 4:0.64999998 5:0.1 6:0.68000001 7:0.13 8:0.20999999 9:0.38999999 10:0.51999998 11:0.13 12:0.38999999 13:0.68000001 14:0.55000001 15:0.44 16:1.1 17:1.41 18:0.5 19:0 20:0.079999998 21:0.37 22:0.1 23:0.1 24:0.18000001 25:0.050000001 26:0.25999999 27:0 28:0.050000001 29:0.1 30:0.18000001 31:0 32:0.13 33:0.13 34:0.16 35:0.13 36:0.23999999 37:0.23999999 38:0.079999998 39:0.050000001 40:0.13 41:0.38999999 42:0.1 43:0.83999997 44:0.41999999 45:0.1 46:0.37 47:0.079999998 48:0.20999999 49:0.28999999 50:0.25999999 51:0.1 52:0.34 53:0.1 54:0.029999999 55:0.050000001 56:0.20999999 57:0.20999999 58:0.20999999 59:0.029999999 60:0.1 61:0.68000001 62:0.1 63:0.47 64:0.51999998 65:0.18000001 66:0.18000001 67:0.050000001 68:0.1 69:0.38999999 70:0.51999998 71:0.16 72:0.16 73:0.41999999 74:0.37 75:0.1 76:0.37 77:0.38999999 78:0.34 79:0.029999999 80:0.13 81:0.16 82:0.079999998 83:0.029999999 84:0.25999999 85:0.029999999 86:0.20999999 87:0.029999999 88:0.1 89:0.23999999 90:0.20999999 91:0.029999999 92:0.079999998 93:0.13 94:0.23999999 95:0.079999998 96:0.13 97:0.20999999 98:0.23999999 99:0.029999999 100:0.029999999 101:0.51999998 102:0.079999998 103:0.16 104:0.23999999 105:0.18000001 106:0.73000002 107:0.13 108:0.13 109:0.16 110:0.51999998 111:0.029999999 112:0.51999998 113:0.16 114:0.23999999 115:0.1 116:0.81 117:0.34 118:0.28999999 119:0 120:0.1 121:0.079999998 122:0 123:0.029999999 124:0.079999998 125:0.029999999 126:0.13 127:0.079999998 128:0.1 129:0.13 130:0.1 131:0.050000001 132:0.050000001 133:0 134:0.25999999 135:0.050000001 136:0.23999999 137:0.079999998 138:0.029999999 139:0 140:0.079999998 141:0.28999999 142:0.13 143:0.25999999 144:0.25999999 145:0.13 146:0.18000001 147:0.050000001 148:0.23999999 149:0.18000001 150:0.28999999 151:0.079999998 152:0.20999999 153:0.079999998 154:0.25999999 155:0.079999998 156:0.31 157:0.18000001 158:0.34 159:0.029999999 160:0.050000001 161:0.31 162:0.38999999 163:0.20999999 164:0.41999999 165:0.16 166:0.13 167:0.18000001 168:0.34 169:0.51999998 170:0.44 171:0.050000001 172:0.31 173:0.44 174:0.37 175:0.34 176:0.60000002 177:0.31 178:0.34 179:0.029999999 180:0.16 181:0.60000002 182:0.13 183:0.38999999 184:0.5 185:0.18000001 186:0.44 187:0.029999999 188:0.34 189:0.77999997 190:0.77999997 191:0.079999998 192:0.38999999 193:0.56999999 194:1.02 195:0.18000001 196:0.81 197:0.44 198:0.23999999 199:0 200:0.18000001 201:0.13 202:0.029999999 203:0.079999998 204:0.079999998 205:0.079999998 206:0.029999999 207:0.029999999 208:0.079999998 209:0.13 210:0.18000001 211:0.029999999 212:0 213:0.050000001 214:0.18000001 215:0.1 216:0.23999999 217:0.050000001 218:0.079999998 219:0.029999999 220:0.079999998 221:0.55000001 222:0.28999999 223:0.31 224:0.23999999 225:0.13 226:0.34 227:0.050000001 228:0.16 229:0.25999999 230:0.5 231:0.029999999 232:0.23999999 233:0.31 234:0.18000001 235:0.20999999 236:0.63 237:0.23999999 238:0.28999999 239:0.050000001 240:0.18000001 241:0.70999998 242:0.079999998 243:0.13 244:0.23999999 245:0.050000001 246:0.23999999 247:0.050000001 248:0.37 249:0.38999999 250:0.60000002 251:0.23999999 252:0.28999999 253:0.20999999 254:0.63 255:0.20999999 256:0.37 257:0.55000001 258:0.18000001 259:0.050000001 260:0.050000001 261:0.56999999 262:0.029999999 263:0.029999999 264:0.25999999 265:0.28999999 266:0.18000001 267:0.31 268:0.079999998 269:0.31 270:0.94 271:0.18000001 272:0.37 273:0.81 274:2.74 275:0.34 276:0.47 277:0.51999998 278:0.31 279:0.029999999 280:0.079999998 281:0.16 282:0.23999999 283:0.029999999 284:0.13 285:0.1 286:0.20999999 287:0.079999998 288:0.13 289:0.38999999 290:0.28999999 291:0.050000001 292:0.23999999 293:0.23999999 294:0.23999999 295:0.25999999 296:0.44 297:0.16 298:0.1 299:0.029999999 300:0.050000001 301:0.99000001 302:0.25999999 303:0.41999999 304:0.37 305:0.31 306:0.5 307:0.079999998 308:0.5 309:0.64999998 310:0.56999999 311:0.16 312:0.63 313:0.38999999 314:0.5 315:0.44 316:1.23 317:0.88999999 318:0.41999999 319:0.079999998 320:0.1 321:1.2 322:0.1 323:0.28999999 324:0.31 325:0.20999999 326:0.37 327:0 328:0.18000001 329:0.20999999 330:0.47 331:0.13 332:0.5 333:0.41999999 334:0.55000001 335:0.20999999 336:0.81 337:1.12 338:0.38999999 339:0.029999999 340:0.20999999 341:0.44 342:0.20999999 343:0.31 344:0.28999999 345:0.13 346:0.13 347:0.1 348:0.25999999 349:0.34 350:0.51999998 351:0.1 352:0.25999999 353:0.41999999 354:0.31 355:0.079999998 356:0.34 357:0.28999999 358:0.34 359:0 360:0.029999999 361:0.029999999 362:0 363:0 364:0.050000001 365:0.029999999 366:0 367:0.029999999 368:0 369:0.050000001 370:0.1 371:0 372:0 373:0.029999999 374:0 375:0.050000001 376:0.079999998 377:0 378:0.050000001 379:0 380:0 381:0.18000001 382:0.13 383:0.18000001 384:0.18000001 385:0.029999999 386:0.13 387:0.1 388:0.050000001 389:0.13 390:0.079999998 391:0.029999999 392:0.1 393:0.029999999 394:0.050000001 395:0.079999998 396:0.079999998 397:0.079999998 398:0.16 399:0.029999999 400:0.050000001 #
2.9964415515414879465083686227445 1:1.21 2:0.27000001 3:0.30000001 4:0.47999999 5:0.079999998 6:0.62 7:0.13 8:0.31999999 9:0.31999999 10:0.46000001 11:0.19 12:0.43000001 13:0.43000001 14:0.46000001 15:0.46000001 16:1.13 17:0.77999997 18:0.34999999 19:0.029999999 20:0.050000001 21:0.27000001 22:0.079999998 23:0.13 24:0.11 25:0.050000001 26:0.30000001 27:0 28:0.029999999 29:0.11 30:0.11 31:0.029999999 32:0.079999998 33:0.13 34:0.16 35:0.11 36:0.31999999 37:0.23999999 38:0.079999998 39:0.050000001 40:0.13 41:0.38 42:0.13 43:0.62 44:0.46000001 45:0.11 46:0.40000001 47:0.050000001 48:0.20999999 49:0.27000001 50:0.27000001 51:0.13 52:0.30000001 53:0.11 54:0.20999999 55:0.11 56:0.30000001 57:0.19 58:0.19 59:0.029999999 60:0.11 61:0.43000001 62:0.079999998 63:0.58999997 64:0.69999999 65:0.23999999 66:0.34999999 67:0.079999998 68:0.11 69:0.38 70:0.43000001 71:0.16 72:0.16 73:0.40000001 74:0.38 75:0.050000001 76:0.38 77:0.31999999 78:0.34999999 79:0.029999999 80:0.13 81:0.11 82:0.079999998 83:0.029999999 84:0.23999999 85:0.079999998 86:0.27000001 87:0.029999999 88:0.079999998 89:0.16 90:0.27000001 91:0 92:0.050000001 93:0.16 94:0.23999999 95:0.13 96:0.30000001 97:0.11 98:0.20999999 99:0.029999999 100:0.050000001 101:0.67000002 102:0.079999998 103:0.34999999 104:0.43000001 105:0.11 106:0.69999999 107:0.079999998 108:0.20999999 109:0.34999999 110:0.50999999 111:0.11 112:0.58999997 113:0.16 114:0.19 115:0.19 116:1.15 117:0.46000001 118:0.40000001 119:0.029999999 120:0.079999998 121:0.029999999 122:0.029999999 123:0.029999999 124:0.050000001 125:0.050000001 126:0.16 127:0.029999999 128:0.16 129:0.11 130:0.050000001 131:0 132:0 133:0.029999999 134:0.11 135:0.079999998 136:0.19 137:0.11 138:0.050000001 139:0 140:0.050000001 141:0.20999999 142:0.13 143:0.16 144:0.16 145:0.13 146:0.13 147:0.13 148:0.20999999 149:0.20999999 150:0.31999999 151:0.11 152:0.11 153:0.27000001 154:0.27000001 155:0.079999998 156:0.56 157:0.11 158:0.38 159:0.029999999 160:0.050000001 161:0.38 162:0.27000001 163:0.23999999 164:0.38 165:0.19 166:0.16 167:0.11 168:0.31999999 169:0.50999999 170:0.46000001 171:0.16 172:0.30000001 173:0.46000001 174:0.31999999 175:0.38 176:0.67000002 177:0.30000001 178:0.31999999 179:0.029999999 180:0.16 181:0.56 182:0.11 183:0.38 184:0.56 185:0.13 186:0.47999999 187:0 188:0.30000001 189:0.72000003 190:0.62 191:0.029999999 192:0.38 193:0.56 194:0.82999998 195:0.16 196:0.62 197:0.40000001 198:0.23999999 199:0 200:0.19 201:0.16 202:0.050000001 203:0.19 204:0.13 205:0.079999998 206:0.11 207:0 208:0.13 209:0.079999998 210:0.19 211:0.029999999 212:0.029999999 213:0.079999998 214:0.13 215:0.13 216:0.13 217:0.13 218:0.079999998 219:0.029999999 220:0.050000001 221:0.46000001 222:0.19 223:0.19 224:0.30000001 225:0.16 226:0.47999999 227:0.050000001 228:0.050000001 229:0.16 230:0.46000001 231:0.079999998 232:0.16 233:0.30000001 234:0.34999999 235:0.16 236:0.63999999 237:0.20999999 238:0.27000001 239:0.029999999 240:0.20999999 241:0.47999999 242:0.11 243:0.16 244:0.20999999 245:0.029999999 246:0.30000001 247:0.079999998 248:0.34999999 249:0.31999999 250:0.54000002 251:0.19 252:0.23999999 253:0.27000001 254:0.67000002 255:0.19 256:0.75 257:0.50999999 258:0.31999999 259:0.050000001 260:0.050000001 261:0.69999999 262:0.050000001 263:0.11 264:0.20999999 265:0.27000001 266:0.20999999 267:0.079999998 268:0.20999999 269:0.23999999 270:0.62 271:0.19 272:0.47999999 273:0.91000003 274:1.66 275:0.40000001 276:0.47999999 277:0.30000001 278:0.54000002 279:0.029999999 280:0.11 281:0.11 282:0.19 283:0.050000001 284:0.16 285:0.11 286:0.27000001 287:0.050000001 288:0.20999999 289:0.38 290:0.23999999 291:0.050000001 292:0.31999999 293:0.19 294:0.23999999 295:0.23999999 296:0.43000001 297:0.19 298:0.16 299:0.029999999 300:0.050000001 301:1.21 302:0.30000001 303:0.30000001 304:0.30000001 305:0.20999999 306:1.21 307:0.13 308:0.58999997 309:0.88999999 310:0.67000002 311:0.11 312:0.62 313:0.67000002 314:0.50999999 315:0.34999999 316:2.0899999 317:1.1 318:0.50999999 319:0.029999999 320:0.050000001 321:0.72000003 322:0.13 323:0.27000001 324:0.30000001 325:0.31999999 326:0.43000001 327:0.050000001 328:0.11 329:0.27000001 330:0.40000001 331:0.13 332:0.40000001 333:0.31999999 334:0.56 335:0.16 336:0.91000003 337:0.67000002 338:0.40000001 339:0.029999999 340:0.20999999 341:0.31999999 342:0.13 343:0.23999999 344:0.31999999 345:0.20999999 346:0.19 347:0.079999998 348:0.11 349:0.40000001 350:0.43000001 351:0.20999999 352:0.19 353:0.30000001 354:0.46000001 355:0.19 356:0.56 357:0.54000002 358:0.43000001 359:0 360:0.13 361:0 362:0 363:0 364:0.050000001 365:0.029999999 366:0 367:0.029999999 368:0 369:0.050000001 370:0.079999998 371:0 372:0 373:0.050000001 374:0 375:0.029999999 376:0.11 377:0 378:0.050000001 379:0 380:0 381:0.079999998 382:0.11 383:0.23999999 384:0.19 385:0.029999999 386:0.079999998 387:0.11 388:0.050000001 389:0.16 390:0.16 391:0.029999999 392:0.11 393:0.029999999 394:0.050000001 395:0.079999998 396:0.11 397:0.16 398:0.11 399:0.029999999 400:0.050000001 #
-1.4982207757707439732541843113722 1:3.5699999 2:0.079999998 3:0.40000001 4:0.47999999 5:0.079999998 6:0.70999998 7:0.56 8:0.079999998 9:0.16 10:0.63999999 11:0.079999998 12:0.23999999 13:0.56 14:0.63999999 15:0.079999998 16:1.51 17:0.63999999 18:0.40000001 19:0 20:0.079999998 21:0 22:0 23:0 24:0 25:0 26:0 27:0 28:0 29:0.079999998 30:0.079999998 31:0 32:0.079999998 33:0.23999999 34:0 35:0 36:0.23999999 37:0 38:0.079999998 39:0 40:0 41:0.40000001 42:0.16 43:0.079999998 44:0.47999999 45:0.16 46:0.63999999 47:0.23999999 48:0.079999998 49:0.079999998 50:0.70999998 51:0 52:0.23999999 53:0.16 54:0.079999998 55:0.31999999 56:0.70999998 57:0.23999999 58:0.16 59:0.079999998 60:0.079999998 61:0.40000001 62:0 63:0.63999999 64:0.40000001 65:0.079999998 66:0.16 67:0.16 68:0.16 69:0.16 70:0.23999999 71:0.16 72:0.079999998 73:0.31999999 74:0.63999999 75:0.79000002 76:0 77:0.40000001 78:0.079999998 79:0 80:0.079999998 81:0 82:0.079999998 83:0.16 84:0.079999998 85:0 86:0.079999998 87:0.079999998 88:0 89:0.079999998 90:0 91:0.079999998 92:0.079999998 93:0 94:0.079999998 95:0 96:0.079999998 97:0.079999998 98:0 99:0.079999998 100:0 101:0.31999999 102:0.079999998 103:0.56 104:0.40000001 105:0.079999998 106:1.03 107:0.47999999 108:0.23999999 109:0.16 110:0.47999999 111:0 112:0.87 113:0.31999999 114:0.31999999 115:0.40000001 116:1.03 117:0.16 118:0.40000001 119:0 120:0 121:0.47999999 122:0.079999998 123:0.16 124:0.31999999 125:0 126:0.31999999 127:1.03 128:0.16 129:0.079999998 130:0.31999999 131:0.079999998 132:0.47999999 133:0.23999999 134:0.56 135:0.56 136:0.87 137:0.16 138:0 139:0 140:0 141:0.31999999 142:0.079999998 143:0.079999998 144:0.079999998 145:0.16 146:0.16 147:0 148:0.16 149:0.31999999 150:0.16 151:0 152:0.31999999 153:0.31999999 154:0.16 155:0.16 156:0.56 157:0 158:0.079999998 159:0 160:0.079999998 161:0.23999999 162:0.079999998 163:0.16 164:0.079999998 165:0 166:0.23999999 167:0 168:0.23999999 169:0.079999998 170:0.63999999 171:0.23999999 172:0.16 173:0.40000001 174:0 175:0.31999999 176:0.47999999 177:0.16 178:0.31999999 179:0.079999998 180:0.079999998 181:0.87 182:0 183:0.31999999 184:0.79000002 185:0 186:0.47999999 187:0.40000001 188:0.23999999 189:0.47999999 190:1.11 191:0.23999999 192:0.31999999 193:0.23999999 194:0.31999999 195:0.079999998 196:0.87 197:0.23999999 198:0.40000001 199:0 200:0.079999998 201:0.23999999 202:0 203:0.16 204:0 205:0 206:0.079999998 207:0.079999998 208:0 209:0.079999998 210:0.16 211:0.16 212:0.079999998 213:0.16 214:0 215:0.16 216:0.079999998 217:0.23999999 218:0 219:0 220:0.079999998 221:0.70999998 222:0 223:0.31999999 224:0.16 225:0.079999998 226:1.1900001 227:0.40000001 228:0.31999999 229:0.56 230:0.23999999 231:0 232:1.27 233:0.23999999 234:0.31999999 235:0.23999999 236:1.1900001 237:0.079999998 238:0.079999998 239:0 240:0.16 241:0.31999999 242:0.079999998 243:0.16 244:0.47999999 245:0.079999998 246:0.23999999 247:0.40000001 248:0.47999999 249:0.40000001 250:0.31999999 251:0.16 252:0.63999999 253:0.31999999 254:0.16 255:0.16 256:1.11 257:0.31999999 258:0.079999998 259:0 260:0 261:0.23999999 262:0 263:0.23999999 264:0.23999999 265:0.16 266:0.079999998 267:0.94999999 268:0.16 269:0.079999998 270:0.79000002 271:0.079999998 272:0.16 273:0.23999999 274:2.54 275:0.40000001 276:0.31999999 277:0.31999999 278:0 279:0 280:0 281:0.31999999 282:0 283:0.47999999 284:0.31999999 285:0.079999998 286:0.23999999 287:0.31999999 288:0.23999999 289:0.31999999 290:0.56 291:0.16 292:0.47999999 293:0.31999999 294:0.16 295:0.16 296:0.56 297:0.16 298:0.079999998 299:0 300:0 301:1.4299999 302:0 303:0.70999998 304:0.47999999 305:0.079999998 306:0.94999999 307:0.47999999 308:0.63999999 309:0.31999999 310:0.79000002 311:0.16 312:1.4299999 313:1.03 314:0.63999999 315:0.70999998 316:3.4200001 317:0.31999999 318:0.23999999 319:0 320:0.23999999 321:0.47999999 322:0 323:0.16 324:0 325:0 326:0.23999999 327:0.079999998 328:0 329:0 330:0.23999999 331:0 332:0.31999999 333:0.56 334:0.23999999 335:0.16 336:0.79000002 337:0.23999999 338:0.40000001 339:0 340:0.079999998 341:0.56 342:0.079999998 343:0.16 344:0.079999998 345:0 346:0.31999999 347:0.16 348:0 349:0.23999999 350:0.079999998 351:0.079999998 352:0.31999999 353:0.16 354:0.079999998 355:0 356:0.16 357:0.16 358:0 359:0 360:0.16 361:0 362:0 363:0 364:0 365:0 366:0 367:0 368:0 369:0.079999998 370:0 371:0 372:0 373:0 374:0 375:0.079999998 376:0 377:0.079999998 378:0 379:0 380:0 381:0.079999998 382:0 383:0.16 384:0.079999998 385:0 386:0.16 387:0.079999998 388:0 389:0.23999999 390:0 391:0 392:0 393:0.079999998 394:0.079999998 395:0.16 396:0.079999998 397:0 398:0 399:0 400:0.079999998 #
-1.4982207757707439732541843113722 1:3.5899999 2:0 3:0 4:0.25999999 5:0 6:0.77999997 7:0.25999999 8:0.25999999 9:0.13 10:0.58999997 11:0.2 12:0.25999999 13:0.77999997 14:0.25999999 15:0.2 16:1.89 17:2.48 18:0.64999998 19:0 20:0.13 21:0 22:0 23:0 24:0 25:0 26:0 27:0 28:0 29:0 30:0.07 31:0 32:0 33:0 34:0 35:0 36:0 37:0.07 38:0 39:0 40:0 41:0.07 42:0 43:0.07 44:0 45:0.07 46:0.07 47:0.13 48:0.07 49:0.07 50:0.25999999 51:0.07 52:0.07 53:0.07 54:0.07 55:0.13 56:0.25999999 57:0.2 58:0.2 59:0 60:0.07 61:0.13 62:0 63:0.07 64:0.07 65:0 66:0.07 67:0.38999999 68:0.13 69:0.2 70:0.07 71:0 72:0.07 73:0 74:0.38999999 75:0.2 76:0.33000001 77:0.07 78:0.2 79:0 80:0.13 81:0 82:0 83:0.07 84:0 85:0 86:0 87:0 88:0 89:0 90:0.13 91:0 92:0 93:0.07 94:0.07 95:0 96:0.13 97:0.25999999 98:0 99:0 100:0 101:1.11 102:0 103:0.2 104:0.07 105:0 106:2.02 107:0.07 108:0.33000001 109:0.33000001 110:0.25999999 111:0.25999999 112:0.72000003 113:0.07 114:0.13 115:0.2 116:1.3 117:0.72000003 118:0.91000003 119:0 120:0.13 121:0.33000001 122:0 123:0 124:0.07 125:0.07 126:0.07 127:0.91000003 128:0.07 129:0.07 130:0.25999999 131:0.2 132:0.2 133:0.2 134:0.58999997 135:0.46000001 136:0.46000001 137:0.25999999 138:0.25999999 139:0 140:0 141:0.64999998 142:0 143:0.13 144:0.07 145:0 146:0.33000001 147:0 148:0.2 149:0.2 150:0.13 151:0 152:0.13 153:0.25999999 154:0.07 155:0.07 156:0.25999999 157:0.07 158:0 159:0 160:0.07 161:0.13 162:0 163:0.2 164:0.25999999 165:0.07 166:0.07 167:0.2 168:0.13 169:0.33000001 170:0.07 171:0.07 172:0.13 173:0.07 174:0.13 175:0.25999999 176:0.2 177:0.13 178:0 179:0 180:0 181:0.46000001 182:0 183:0.13 184:0.25999999 185:0.07 186:0.46000001 187:0.46000001 188:0.07 189:0.25999999 190:0.46000001 191:0.13 192:0.33000001 193:0.33000001 194:0.51999998 195:0.33000001 196:0.77999997 197:0.38999999 198:0.13 199:0 200:0.13 201:0.2 202:0 203:0.25999999 204:0.13 205:0.07 206:0.13 207:0 208:0 209:0 210:0.25999999 211:0.25999999 212:0.13 213:0.13 214:0 215:0 216:0.51999998 217:0 218:0.13 219:0 220:0 221:0.58999997 222:0.07 223:0 224:0.07 225:0 226:0.25999999 227:0.33000001 228:0.13 229:0.25999999 230:0.58999997 231:0.25999999 232:0.51999998 233:0.46000001 234:0.2 235:0.13 236:0.85000002 237:0.25999999 238:0.38999999 239:0 240:0.07 241:0.77999997 242:0 243:0.13 244:0 245:0.07 246:0.46000001 247:0.2 248:0.25999999 249:0.07 250:0.38999999 251:0.13 252:0.25999999 253:0.51999998 254:0.25999999 255:0 256:0.91000003 257:0.72000003 258:0.33000001 259:0 260:0 261:0.2 262:0 263:0.07 264:0.13 265:0.2 266:0.13 267:0.72000003 268:0.07 269:0.07 270:0.51999998 271:0 272:0.25999999 273:0.25999999 274:2.22 275:0.2 276:0.91000003 277:0.38999999 278:0.07 279:0.07 280:0 281:0.13 282:0 283:0.33000001 284:0.51999998 285:0.07 286:0.25999999 287:0.25999999 288:0.07 289:0.2 290:0.13 291:0 292:0.13 293:0.07 294:0.07 295:0.25999999 296:0.38999999 297:0.2 298:0.2 299:0 300:0 301:1.63 302:0 303:0.13 304:0.25999999 305:0 306:1.96 307:0.25999999 308:0.46000001 309:0.07 310:0.85000002 311:0.33000001 312:1.24 313:0.91000003 314:0.91000003 315:0.46000001 316:4.96 317:1.83 318:0.58999997 319:0 320:0.25999999 321:1.5700001 322:0.07 323:0.07 324:0.13 325:0.07 326:0.58999997 327:0.2 328:0.33000001 329:0.13 330:0.38999999 331:0.25999999 332:0.46000001 333:0.77999997 334:0.33000001 335:0.13 336:2.28 337:3.8499999 338:0.38999999 339:0 340:0.13 341:0.98000002 342:0 343:0.07 344:0 345:0 346:1.11 347:0.07 348:0.07 349:0 350:0.2 351:0 352:0.46000001 353:0.38999999 354:0.25999999 355:0.13 356:0.64999998 357:0.2 358:0.33000001 359:0 360:0 361:0 362:0 363:0 364:0.07 365:0 366:0 367:0 368:0 369:0 370:0 371:0 372:0 373:0 374:0 375:0 376:0 377:0 378:0 379:0 380:0 381:0.2 382:0 383:0 384:0.13 385:0 386:0.07 387:0 388:0 389:0.07 390:0.07 391:0 392:0.07 393:0.13 394:0 395:0.13 396:0.07 397:0.07 398:0.13 399:0 400:0 #
-1.4982207757707439732541843113722 1:1.2 2:0.15000001 3:0.60000002 4:0.44999999 5:0.15000001 6:0.44999999 7:0 8:0.30000001 9:0.15000001 10:1.35 11:0.44999999 12:0.30000001 13:0 14:0.44999999 15:0.30000001 16:1.35 17:0.30000001 18:0.15000001 19:0 20:0 21:0 22:0 23:0.60000002 24:0.44999999 25:0 26:0.15000001 27:0 28:0 29:0 30:0.15000001 31:0 32:0.89999998 33:0 34:0 35:0 36:0.15000001 37:0 38:0 39:0 40:0 41:0.44999999 42:0 43:0.30000001 44:0.60000002 45:0.15000001 46:0.15000001 47:0 48:0.30000001 49:0.15000001 50:0.44999999 51:0.15000001 52:0.30000001 53:0 54:0.15000001 55:0.30000001 56:0.30000001 57:0.30000001 58:0.15000001 59:0 60:0 61:0.30000001 62:0.30000001 63:0.30000001 64:0.30000001 65:0.15000001 66:0.15000001 67:0.15000001 68:0.15000001 69:0.30000001 70:0.60000002 71:0.15000001 72:0.60000002 73:0 74:0.30000001 75:0.15000001 76:0.89999998 77:0.30000001 78:0.44999999 79:0 80:0 81:0.44999999 82:0.15000001 83:0 84:0 85:0.15000001 86:0.15000001 87:0 88:0.15000001 89:0.15000001 90:0.60000002 91:0 92:0.15000001 93:0.30000001 94:0 95:0.30000001 96:0.15000001 97:0 98:0 99:0 100:0 101:0.44999999 102:0 103:0.15000001 104:0.15000001 105:0 106:0.44999999 107:0.30000001 108:0.60000002 109:0.30000001 110:0.15000001 111:0.30000001 112:0.15000001 113:0 114:0.44999999 115:0.15000001 116:1.2 117:0.30000001 118:0 119:0 120:0 121:0 122:0 123:0 124:0 125:0 126:0.30000001 127:0.30000001 128:0 129:0.44999999 130:0.15000001 131:0.15000001 132:0.30000001 133:0.15000001 134:0.15000001 135:0.15000001 136:0.30000001 137:0 138:0 139:0 140:0 141:0.89999998 142:0.30000001 143:0.30000001 144:0.15000001 145:0 146:0 147:0 148:0 149:0 150:0.30000001 151:0 152:0.15000001 153:0.15000001 154:0.30000001 155:0 156:0.60000002 157:0.15000001 158:0.30000001 159:0 160:0 161:0.30000001 162:0 163:0.30000001 164:0.44999999 165:0 166:0 167:0.44999999 168:0 169:0.30000001 170:0 171:0.15000001 172:0.44999999 173:0.15000001 174:0.60000002 175:0.15000001 176:0.15000001 177:0.44999999 178:0.15000001 179:0.30000001 180:0.15000001 181:0.60000002 182:0.15000001 183:0.60000002 184:0.30000001 185:0.30000001 186:0.60000002 187:0 188:0 189:0.44999999 190:0.75 191:0.30000001 192:0.60000002 193:1.2 194:0.75 195:0.44999999 196:1.65 197:0.15000001 198:0.30000001 199:0 200:0 201:0.15000001 202:0.15000001 203:0 204:0 205:0 206:0 207:0.15000001 208:0.15000001 209:0 210:0.44999999 211:0.30000001 212:0.15000001 213:0.60000002 214:0.15000001 215:0 216:0 217:0 218:0.30000001 219:0 220:0.15000001 221:0.60000002 222:0.30000001 223:0.15000001 224:0.30000001 225:0.30000001 226:0.44999999 227:0 228:0.44999999 229:0.44999999 230:0.75 231:0.15000001 232:0.60000002 233:0 234:0.60000002 235:0.30000001 236:0.60000002 237:0.44999999 238:0.75 239:0 240:0.15000001 241:0.15000001 242:0 243:0 244:0.15000001 245:0.44999999 246:0.60000002 247:0 248:0.15000001 249:0.30000001 250:0.60000002 251:0.15000001 252:0.30000001 253:0.44999999 254:0.30000001 255:0 256:1.35 257:0.89999998 258:0 259:0 260:0.15000001 261:0.30000001 262:0 263:0.15000001 264:0.75 265:0 266:0.15000001 267:0.44999999 268:0.30000001 269:0.15000001 270:1.05 271:0 272:0.60000002 273:0.44999999 274:1.2 275:0.15000001 276:0.60000002 277:0.15000001 278:0.15000001 279:0 280:0.30000001 281:0.30000001 282:0.15000001 283:0 284:0.30000001 285:0 286:0.30000001 287:0 288:0 289:0 290:0 291:0.15000001 292:0.30000001 293:0.15000001 294:0.30000001 295:0 296:0.30000001 297:0.60000002 298:0.15000001 299:0 300:0.15000001 301:1.2 302:0.15000001 303:0.15000001 304:0.75 305:0.44999999 306:0.44999999 307:0.15000001 308:0.30000001 309:0.89999998 310:0.89999998 311:0.15000001 312:0.30000001 313:2.0999999 314:0.89999998 315:0.44999999 316:2.0999999 317:1.2 318:1.05 319:0 320:0 321:0.30000001 322:0 323:0.30000001 324:0.30000001 325:0 326:0.44999999 327:0.30000001 328:0.15000001 329:0.30000001 330:0.44999999 331:0 332:0.75 333:0 334:0.15000001 335:0.15000001 336:1.5 337:0.89999998 338:0.44999999 339:0 340:0.15000001 341:0.44999999 342:0.30000001 343:0.30000001 344:0.30000001 345:0.15000001 346:0.30000001 347:0.15000001 348:0.44999999 349:0 350:0.30000001 351:0 352:0.30000001 353:0.30000001 354:0.15000001 355:0.15000001 356:0.44999999 357:0.30000001 358:0.15000001 359:0 360:0 361:0 362:0 363:0 364:0 365:0 366:0 367:0 368:0.15000001 369:0.15000001 370:0 371:0 372:0 373:0 374:0 375:0 376:0 377:0 378:0 379:0 380:0 381:0 382:0.30000001 383:0 384:0 385:0.44999999 386:0 387:0 388:0 389:0 390:0.15000001 391:0 392:0.15000001 393:0 394:0 395:0 396:0 397:0.15000001 398:0 399:0 400:0 #
2.9964415515414879465083686227445 1:0.38999999 2:0 3:0 4:0.38999999 5:0.38999999 6:0 7:0.76999998 8:0 9:0 10:0.76999998 11:0 12:0 13:1.16 14:1.16 15:0.38999999 16:1.9299999 17:0 18:0.38999999 19:0 20:0.38999999 21:0.38999999 22:0 23:0 24:0.38999999 25:0 26:0 27:0.38999999 28:0 29:0 30:1.16 31:0 32:0 33:0.38999999 34:0.76999998 35:0.38999999 36:0 37:0.38999999 38:0 39:0.38999999 40:0 41:0 42:0 43:0 44:0 45:0 46:0 47:0 48:0.38999999 49:0 50:0.38999999 51:0.38999999 52:0 53:0.38999999 54:0.38999999 55:0 56:0 57:0.38999999 58:1.16 59:0 60:0 61:1.16 62:0 63:0.76999998 64:0.38999999 65:0 66:0.38999999 67:0 68:0 69:0 70:0.76999998 71:0 72:0 73:0.76999998 74:0 75:0 76:0.38999999 77:0 78:0.76999998 79:0 80:0.38999999 81:0 82:0.38999999 83:0 84:0.38999999 85:0.38999999 86:0 87:0 88:0 89:0 90:0.76999998 91:0 92:0.38999999 93:0 94:0 95:0.38999999 96:0 97:0 98:0 99:0.38999999 100:0 101:0.76999998 102:0.38999999 103:0.38999999 104:0 105:0 106:0 107:0 108:0 109:0.38999999 110:0.76999998 111:0 112:0 113:1.16 114:0 115:0.38999999 116:0.38999999 117:0.38999999 118:0.38999999 119:0 120:0 121:0.38999999 122:0.76999998 123:0 124:0.38999999 125:0 126:0 127:0 128:0.38999999 129:0 130:0.38999999 131:0 132:0 133:0.38999999 134:0 135:0.76999998 136:0 137:0 138:0 139:0.38999999 140:0 141:0.38999999 142:0 143:0 144:0 145:0 146:0.38999999 147:0 148:0 149:0 150:1.9299999 151:0 152:0 153:0 154:0 155:0 156:0.38999999 157:0.38999999 158:0 159:0 160:0 161:0 162:0 163:0 164:0.38999999 165:0 166:0.38999999 167:0 168:0.38999999 169:0.38999999 170:0 171:0 172:0.38999999 173:0 174:0 175:0 176:0 177:0.38999999 178:0 179:0 180:0 181:1.16 182:1.16 183:0.38999999 184:2.3199999 185:1.16 186:1.16 187:0.38999999 188:0 189:1.16 190:3.8599999 191:0.38999999 192:0 193:0.76999998 194:0.76999998 195:0.76999998 196:0.38999999 197:0 198:0.38999999 199:0 200:0.38999999 201:0.76999998 202:0 203:0 204:0 205:0 206:0 207:0 208:0 209:0 210:0.38999999 211:0 212:0 213:0 214:0 215:0 216:0.38999999 217:0 218:0 219:0 220:0 221:0 222:0 223:0 224:0 225:0 226:0 227:0 228:0.38999999 229:0 230:0.38999999 231:0 232:0 233:0.38999999 234:0 235:0 236:0.38999999 237:0 238:0 239:0 240:0 241:0.76999998 242:0.38999999 243:0.76999998 244:0 245:0 246:0.76999998 247:0.76999998 248:0 249:0.38999999 250:0.38999999 251:0.38999999 252:0.38999999 253:0.76999998 254:0.38999999 255:0.38999999 256:1.16 257:0.38999999 258:1.16 259:0.38999999 260:0 261:0 262:0 263:0.38999999 264:0.38999999 265:0 266:1.16 267:0.76999998 268:0 269:0 270:0 271:0 272:0 273:0.76999998 274:0.76999998 275:0.38999999 276:0.38999999 277:0 278:0 279:0.38999999 280:0 281:0 282:0 283:0 284:0.38999999 285:0 286:0 287:0 288:0.38999999 289:0 290:1.16 291:0 292:0.38999999 293:1.16 294:0 295:0.38999999 296:0.38999999 297:0.76999998 298:0 299:0 300:0 301:0.38999999 302:0.76999998 303:0 304:0 305:0.76999998 306:0.76999998 307:0.76999998 308:0.38999999 309:0 310:0.76999998 311:0 312:0 313:0.38999999 314:0.76999998 315:0.38999999 316:0.76999998 317:0.38999999 318:0 319:0 320:0 321:0 322:0.38999999 323:0 324:0.38999999 325:0.38999999 326:0 327:0 328:0.76999998 329:0 330:1.16 331:0 332:0 333:0 334:0 335:0.38999999 336:0 337:0 338:0.76999998 339:0 340:0 341:0.76999998 342:0.38999999 343:0.76999998 344:0 345:0 346:0 347:0 348:0.38999999 349:0 350:0.76999998 351:0 352:0 353:0.76999998 354:0.38999999 355:0.38999999 356:0 357:0.38999999 358:0 359:0 360:0 361:0.38999999 362:0 363:0 364:0 365:0 366:0.38999999 367:0 368:0 369:0 370:0.38999999 371:0 372:0 373:0 374:0 375:0 376:0.38999999 377:0 378:0 379:0 380:0.38999999 381:0.38999999 382:0 383:0 384:0 385:0 386:0 387:0 388:0 389:0 390:0.38999999 391:0 392:0 393:0.38999999 394:0 395:0 396:0 397:0.38999999 398:0 399:0 400:0 #
0.18763094822312420539844879385782 1:0.37 2:0 3:0.18000001 4:0.55000001 5:0 6:0.18000001 7:0 8:0.37 9:0.55000001 10:0.55000001 11:0 12:0.18000001 13:0.18000001 14:0 15:0 16:0.37 17:0 18:0.37 19:0.18000001 20:0.18000001 21:0 22:0 23:0.18000001 24:0.37 25:0 26:0.18000001 27:0 28:0 29:0.18000001 30:0.55000001 31:0 32:0.18000001 33:0.18000001 34:0.18000001 35:0.74000001 36:0.18000001 37:0 38:0 39:0 40:0 41:0.37 42:0.55000001 43:0.18000001 44:0 45:0 46:0.18000001 47:0.18000001 48:0 49:0.37 50:1.11 51:0.74000001 52:0.18000001 53:0 54:0.18000001 55:1.29 56:0.18000001 57:0.37 58:0.18000001 59:0 60:0.18000001 61:0.18000001 62:0 63:0.18000001 64:0.37 65:0.74000001 66:0.18000001 67:0 68:0.18000001 69:0.18000001 70:1.11 71:0.37 72:0 73:0.55000001 74:0 75:0.37 76:0.18000001 77:0.18000001 78:0.37 79:0 80:0.18000001 81:0.74000001 82:0.18000001 83:0.18000001 84:0.18000001 85:0.37 86:0.37 87:0.18000001 88:0.18000001 89:0 90:0.18000001 91:0.37 92:0.92000002 93:0.18000001 94:0.18000001 95:0.55000001 96:0 97:0.37 98:0.18000001 99:0 100:0 101:0 102:0.18000001 103:0.37 104:0 105:0.55000001 106:0 107:0 108:0 109:0.18000001 110:0.37 111:0.18000001 112:0.18000001 113:0 114:0.37 115:0.18000001 116:0.18000001 117:0.37 118:0.37 119:0 120:0 121:0 122:0.37 123:0.37 124:0 125:0.18000001 126:0.18000001 127:0.55000001 128:0.18000001 129:0.18000001 130:0.18000001 131:0 132:0.18000001 133:0.37 134:0 135:0.18000001 136:2.4000001 137:0 138:0.37 139:0 140:0.18000001 141:0 142:0 143:0.18000001 144:0.37 145:0.18000001 146:0 147:0.74000001 148:0.18000001 149:0 150:0.55000001 151:0.18000001 152:0.18000001 153:0.18000001 154:0.18000001 155:0.18000001 156:0 157:0 158:0.18000001 159:0 160:0 161:0.55000001 162:0.37 163:0.18000001 164:0 165:0.37 166:0.18000001 167:0 168:0 169:0.37 170:0.55000001 171:0.37 172:0 173:0.55000001 174:0.18000001 175:0 176:0.92000002 177:0.55000001 178:0 179:0 180:0.18000001 181:0.18000001 182:0.18000001 183:0.74000001 184:0.92000002 185:0.55000001 186:0.18000001 187:0.37 188:0 189:0.92000002 190:1.66 191:0.18000001 192:0.18000001 193:0.55000001 194:1.29 195:0.55000001 196:1.66 197:0.37 198:0.92000002 199:0 200:0.18000001 201:0.18000001 202:0.18000001 203:0.37 204:0.18000001 205:0 206:0 207:0 208:0 209:0.37 210:0.18000001 211:0.18000001 212:0.55000001 213:0.18000001 214:0 215:0.18000001 216:0.18000001 217:0.55000001 218:0.18000001 219:0 220:0 221:0 222:0.18000001 223:0.55000001 224:0 225:0 226:0 227:1.29 228:0.18000001 229:0.55000001 230:0.18000001 231:0 232:0 233:0.37 234:0 235:0 236:0.55000001 237:0 238:0.18000001 239:0 240:0 241:0.18000001 242:0 243:1.29 244:0.37 245:0.37 246:0.37 247:0.37 248:0.18000001 249:0.18000001 250:0.74000001 251:0 252:0 253:0.37 254:0.37 255:0.37 256:0.37 257:0.18000001 258:0.18000001 259:0 260:0.18000001 261:0.37 262:0 263:0 264:0.74000001 265:0.18000001 266:0.18000001 267:0 268:0.18000001 269:0.37 270:0.92000002 271:0.18000001 272:0 273:0 274:0 275:0.18000001 276:0.18000001 277:0 278:0.37 279:0 280:0.37 281:0.37 282:0 283:0.18000001 284:0.37 285:0.37 286:0 287:0.37 288:0.37 289:0.18000001 290:0.18000001 291:0.18000001 292:0.55000001 293:0.55000001 294:0.74000001 295:0.55000001 296:1.29 297:0.18000001 298:0.18000001 299:0 300:0 301:0.37 302:0.18000001 303:0.37 304:0 305:1.11 306:0.55000001 307:1.29 308:0.37 309:0.18000001 310:1.11 311:0 312:0.18000001 313:1.66 314:0.18000001 315:0.55000001 316:0.37 317:0.18000001 318:0.74000001 319:0 320:0.37 321:0.18000001 322:0 323:0.37 324:0.37 325:0 326:0 327:0.18000001 328:0.18000001 329:0.37 330:0.74000001 331:0.18000001 332:0 333:0 334:0 335:0.37 336:0 337:0.18000001 338:0.37 339:0 340:0.37 341:0.18000001 342:0.37 343:0.18000001 344:0.55000001 345:0.18000001 346:0.18000001 347:0.18000001 348:0.74000001 349:0.18000001 350:0.55000001 351:0.18000001 352:0.37 353:0 354:0.18000001 355:0.37 356:0.18000001 357:0.18000001 358:0 359:0 360:0.37 361:0 362:0 363:0 364:0 365:0 366:0 367:0 368:0 369:0 370:0 371:0 372:0 373:0 374:0 375:0 376:0.18000001 377:0 378:0 379:0 380:0 381:0 382:0.18000001 383:0.18000001 384:0 385:0.18000001 386:0.55000001 387:0.18000001 388:0 389:0 390:0.18000001 391:0 392:0.18000001 393:0.18000001 394:0.18000001 395:0 396:0.37 397:0.18000001 398:0 399:0 400:0 #
2.9964415515414879465083686227445 1:0.31999999 2:0.31999999 3:0.31999999 4:0.64999998 5:0 6:0.64999998 7:0.64999998 8:0 9:0.64999998 10:1.3 11:0.31999999 12:0 13:0.31999999 14:0.64999998 15:0.31999999 16:0.31999999 17:0.31999999 18:0.31999999 19:0 20:0.31999999 21:0 22:0 23:0 24:0.64999998 25:0 26:0.64999998 27:0.31999999 28:0 29:0.31999999 30:0.64999998 31:0 32:0 33:0.64999998 34:0 35:0.31999999 36:0.31999999 37:0 38:0.31999999 39:0 40:0 41:0.31999999 42:0 43:0 44:0.64999998 45:0 46:0.31999999 47:0 48:0.31999999 49:0 50:0.31999999 51:0.31999999 52:0 53:0 54:0.97000003 55:0.64999998 56:0 57:0 58:0 59:0 60:0 61:0.64999998 62:0 63:0.97000003 64:0.64999998 65:0 66:0.31999999 67:0 68:0.97000003 69:0 70:0.97000003 71:0.31999999 72:0 73:0 74:0.64999998 75:0 76:0 77:0 78:0.31999999 79:0 80:0 81:0.64999998 82:0.31999999 83:0 84:0.31999999 85:0.31999999 86:0 87:0 88:0.31999999 89:0 90:0.64999998 91:0.31999999 92:0.31999999 93:0 94:0 95:0.97000003 96:0 97:0.31999999 98:0.31999999 99:0 100:0 101:0.97000003 102:0.31999999 103:0.31999999 104:0 105:0.31999999 106:0 107:0 108:0 109:0 110:0.64999998 111:0.31999999 112:0 113:0.64999998 114:0.31999999 115:0 116:0.31999999 117:0.31999999 118:0.31999999 119:0 120:0.64999998 121:0 122:0.31999999 123:0 124:0 125:0.64999998 126:0 127:0.31999999 128:0.64999998 129:0 130:0.31999999 131:0.31999999 132:0 133:0 134:0.31999999 135:0 136:0 137:0.31999999 138:0 139:0 140:0 141:0 142:0.64999998 143:0.31999999 144:0.64999998 145:0 146:0.31999999 147:0.31999999 148:0 149:0.64999998 150:0.31999999 151:0 152:0.64999998 153:0 154:0.64999998 155:0.31999999 156:0.31999999 157:0 158:0.31999999 159:0 160:0 161:0 162:0.31999999 163:0.64999998 164:0.31999999 165:0.31999999 166:0.97000003 167:0 168:0 169:0 170:0.31999999 171:0 172:0 173:0 174:0.31999999 175:0 176:0.31999999 177:0.31999999 178:0 179:0 180:0 181:0.97000003 182:0.31999999 183:0.31999999 184:0 185:0.31999999 186:0.64999998 187:0 188:0.31999999 189:0.31999999 190:1.62 191:0 192:0.31999999 193:1.3 194:1.95 195:1.3 196:0.97000003 197:0.64999998 198:0.31999999 199:0 200:0.31999999 201:0.64999998 202:0 203:0 204:0 205:0.31999999 206:0.31999999 207:0 208:0.31999999 209:0 210:0 211:0.31999999 212:0 213:0.31999999 214:0 215:0.31999999 216:0 217:0 218:0.31999999 219:0 220:0 221:0.31999999 222:0.31999999 223:0 224:0.31999999 225:0.31999999 226:0 227:0 228:0 229:0 230:0 231:0 232:0 233:0 234:0 235:0 236:0 237:0.64999998 238:0 239:0 240:0 241:0.64999998 242:0 243:0 244:0 245:0.31999999 246:0.31999999 247:0 248:0.31999999 249:0 250:1.3 251:0 252:0 253:0.31999999 254:0 255:0.31999999 256:0 257:0.64999998 258:0.97000003 259:0 260:0 261:0.64999998 262:0 263:0 264:0.97000003 265:0.64999998 266:0.31999999 267:0.31999999 268:0.64999998 269:0.31999999 270:0.64999998 271:0 272:0.31999999 273:0.31999999 274:0.64999998 275:1.3 276:0.31999999 277:0.64999998 278:0.31999999 279:0 280:0 281:0.64999998 282:0 283:0.97000003 284:0.31999999 285:0.31999999 286:0 287:0.64999998 288:0 289:0.31999999 290:0.31999999 291:0 292:0.31999999 293:0.97000003 294:0 295:1.62 296:0.64999998 297:0.64999998 298:0 299:0 300:0.31999999 301:0.64999998 302:0.31999999 303:0 304:0 305:0 306:0 307:0 308:0.64999998 309:0.97000003 310:0.64999998 311:0 312:0 313:0 314:0 315:0.31999999 316:0 317:0 318:0 319:0 320:0.31999999 321:0 322:0.64999998 323:0 324:0 325:0.64999998 326:0.31999999 327:0.31999999 328:0.31999999 329:0.31999999 330:0.97000003 331:0.31999999 332:0 333:0.31999999 334:0.97000003 335:0.31999999 336:0 337:0.31999999 338:0.31999999 339:0 340:0 341:0 342:0.31999999 343:0 344:0.31999999 345:0.31999999 346:0 347:0 348:0.31999999 349:0 350:0.97000003 351:0 352:0 353:0 354:0.64999998 355:0 356:0.64999998 357:0.64999998 358:0.31999999 359:0 360:0 361:0 362:0 363:0 364:0 365:0 366:0 367:0 368:0 369:0 370:0 371:0 372:0 373:0 374:0 375:0 376:0 377:0 378:0 379:0 380:0 381:0.31999999 382:0 383:0 384:0 385:0 386:0.31999999 387:0.31999999 388:0.31999999 389:0 390:0 391:0 392:0 393:0 394:0.31999999 395:0 396:0 397:0.31999999 398:0 399:0 400:0 #
0.97879555832134845783087939707912 1:6.6700001 2:0.20999999 3:0.62 4:0.41999999 5:0.41999999 6:0.41999999 7:0.20999999 8:0.20999999 9:0.20999999 10:0.20999999 11:0.20999999 12:0.20999999 13:0.20999999 14:0.20999999 15:0.41999999 16:1.46 17:0.82999998 18:0.62 19:0 20:0.20999999 21:0 22:0 23:0 24:0.20999999 25:0 26:0.20999999 27:0 28:0.20999999 29:0.82999998 30:0.41999999 31:0 32:0 33:0 34:0 35:0.20999999 36:0.62 37:0.20999999 38:0.20999999 39:0 40:0.20999999 41:0.41999999 42:0 43:0.41999999 44:0.20999999 45:0 46:0.41999999 47:0 48:0 49:0.20999999 50:0.41999999 51:0 52:0 53:0 54:0 55:0 56:0.41999999 57:0 58:0.62 59:0 60:0 61:0.41999999 62:0.41999999 63:0 64:0 65:0 66:0.20999999 67:0.62 68:0 69:0 70:0.20999999 71:0.20999999 72:0 73:0.20999999 74:0.20999999 75:0 76:0.41999999 77:0.20999999 78:0 79:0 80:0 81:0.20999999 82:0 83:0 84:0 85:0.41999999 86:1.04 87:0.20999999 88:0 89:0.20999999 90:0 91:0 92:0.20999999 93:0.20999999 94:0.20999999 95:0 96:0.20999999 97:0.41999999 98:0.20999999 99:0 100:0 101:0.62 102:0.20999999 103:0.20999999 104:0.62 105:0.62 106:0.82999998 107:0.20999999 108:0 109:0.41999999 110:0.20999999 111:0.20999999 112:0 113:0.20999999 114:0 115:0.41999999 116:0.41999999 117:0 118:0 119:0 120:0.62 121:0.41999999 122:0.20999999 123:0 124:0.41999999 125:0.41999999 126:0 127:0 128:0 129:0 130:0.82999998 131:0 132:0.20999999 133:0.41999999 134:0.62 135:0.20999999 136:1.46 137:0.41999999 138:0 139:0 140:0 141:0 142:0 143:0.41999999 144:0 145:0.20999999 146:0.41999999 147:0.41999999 148:0.20999999 149:0 150:0 151:0 152:0 153:0 154:0 155:0.20999999 156:0.41999999 157:0.20999999 158:0 159:0 160:0 161:0.41999999 162:0.41999999 163:0 164:0 165:0 166:0.20999999 167:0.20999999 168:0.20999999 169:0.20999999 170:0.20999999 171:0.20999999 172:0.41999999 173:0 174:0 175:0.20999999 176:0.41999999 177:0.20999999 178:0.20999999 179:0 180:0.20999999 181:0.41999999 182:0 183:0 184:0.20999999 185:0.20999999 186:0.41999999 187:0 188:0 189:0 190:0.82999998 191:0 192:0.20999999 193:1.04 194:0.62 195:0.20999999 196:0.62 197:0.20999999 198:0 199:0 200:0 201:0.20999999 202:0 203:0.20999999 204:0 205:0 206:0 207:0 208:0 209:0.20999999 210:0 211:0.20999999 212:0.20999999 213:0 214:0.20999999 215:0.20999999 216:0.41999999 217:0 218:0 219:0 220:0.20999999 221:0.41999999 222:0 223:0.41999999 224:0 225:0 226:0 227:0 228:0.20999999 229:0 230:0 231:0 232:0.20999999 233:0.20999999 234:0.20999999 235:0.20999999 236:0.41999999 237:0.20999999 238:0.20999999 239:0.20999999 240:0 241:0.62 242:0 243:0 244:0.20999999 245:0.41999999 246:0.82999998 247:0.62 248:0.41999999 249:0 250:0.41999999 251:0.41999999 252:0 253:1.04 254:0.82999998 255:0 256:0.20999999 257:0.41999999 258:0.41999999 259:0 260:0 261:0.20999999 262:0 263:0.41999999 264:0.41999999 265:0 266:0 267:0.82999998 268:0 269:0.20999999 270:0.62 271:0 272:0 273:0.41999999 274:3.54 275:0.20999999 276:1.67 277:0.20999999 278:0 279:0 280:0 281:0.20999999 282:0 283:0 284:0 285:0 286:0 287:0.41999999 288:0 289:0.41999999 290:0.20999999 291:0 292:0 293:0 294:0.62 295:0.41999999 296:0.82999998 297:0.20999999 298:0 299:0 300:0.41999999 301:1.46 302:0.20999999 303:0.20999999 304:0.20999999 305:0.62 306:0 307:1.04 308:0.41999999 309:0.41999999 310:0.41999999 311:0.41999999 312:0.41999999 313:1.67 314:1.04 315:0.62 316:2.71 317:1.04 318:0.62 319:0 320:0.20999999 321:0.62 322:0.62 323:0 324:0.20999999 325:0 326:0.41999999 327:0.20999999 328:0.62 329:0 330:0 331:0 332:0.41999999 333:1.04 334:0 335:0 336:0.82999998 337:0.82999998 338:0.41999999 339:0 340:0 341:0.62 342:1.04 343:0.20999999 344:0 345:0 346:0.20999999 347:0.20999999 348:0 349:0.20999999 350:0 351:0 352:0 353:0.20999999 354:0.20999999 355:0 356:0.20999999 357:0.20999999 358:0 359:0 360:0 361:0 362:0 363:0 364:0 365:0.20999999 366:0 367:0 368:0 369:0 370:0 371:0 372:0 373:0 374:0 375:0 376:0 377:0 378:0 379:0 380:0 381:0 382:0 383:0 384:0 385:0 386:0.20999999 387:0.41999999 388:0 389:0.20999999 390:0 391:0 392:0.41999999 393:0 394:0.20999999 395:0.20999999 396:0 397:0.41999999 398:0 399:0 400:0.20999999 #
-1.1707974823768116934274985396769 1:0.94 2:0 3:0.77999997 4:0.94 5:0 6:0.63 7:0.16 8:0.16 9:0.63 10:0.63 11:0.31 12:0.77999997 13:0.16 14:0.47 15:0.63 16:0.63 17:0.16 18:0.31 19:0.16 20:0 21:0.31 22:0 23:0 24:0.16 25:0 26:0 27:0.16 28:0.16 29:0 30:0.16 31:0 32:0 33:0 34:0 35:0.31 36:0.16 37:0.16 38:0 39:0 40:0.31 41:0.31 42:0.16 43:1.1 44:0.16 45:0.47 46:0.63 47:0 48:0.47 49:0.63 50:0.47 51:0 52:0.16 53:0.77999997 54:0.63 55:0.16 56:0.47 57:0.16 58:1.1 59:0.16 60:0.31 61:1.26 62:0.31 63:0.94 64:0.63 65:0.31 66:0.47 67:0 68:0 69:0.47 70:0.47 71:0 72:0.16 73:0.47 74:0.31 75:0 76:0.31 77:0.31 78:0.63 79:0.16 80:0 81:0.16 82:0 83:0.16 84:0.16 85:0.16 86:0.31 87:0.16 88:0.16 89:0.16 90:0.47 91:0 92:0.16 93:0.16 94:0.16 95:0.16 96:0.47 97:0.16 98:0.16 99:0 100:0 101:0.47 102:0.31 103:0.63 104:0.47 105:0.16 106:0.31 107:0 108:0.31 109:0.47 110:0.63 111:0 112:0.16 113:0.31 114:0.16 115:0.31 116:0.31 117:0.31 118:0.16 119:0 120:0.31 121:0 122:0.16 123:0.16 124:0 125:0 126:0 127:0.16 128:0.31 129:0.16 130:0.16 131:0 132:0 133:0.31 134:0 135:0 136:0.16 137:0 138:0.31 139:0 140:0 141:0.63 142:0 143:0.63 144:0.63 145:0.31 146:0.16 147:0.16 148:0.16 149:0.47 150:0.63 151:0.16 152:0.16 153:0.16 154:0 155:0.47 156:0.31 157:0 158:0.63 159:0.16 160:0 161:0.31 162:0.16 163:0.63 164:0.47 165:0.16 166:0.47 167:0.16 168:0.47 169:0.77999997 170:0.94 171:0 172:0.16 173:0.47 174:0.31 175:0.47 176:0.94 177:0 178:0.31 179:0 180:0.16 181:0.47 182:0 183:0.94 184:0.47 185:0.94 186:0.47 187:0.16 188:1.1 189:0.47 190:0.63 191:0 192:0.47 193:0.16 194:0.63 195:0.31 196:0.47 197:0.47 198:0.63 199:0.16 200:0 201:0.31 202:0.16 203:0.31 204:0.16 205:0 206:0 207:0.16 208:0 209:0.16 210:0 211:0 212:0.47 213:0 214:0 215:0 216:0 217:0 218:0.16 219:0 220:0 221:0.47 222:0.16 223:0 224:0.47 225:0 226:0.31 227:0.16 228:0.47 229:0.16 230:0.47 231:0.16 232:0.16 233:0.47 234:0.16 235:0.47 236:0.16 237:0.31 238:0.31 239:0 240:0 241:0.31 242:0.16 243:0.63 244:0.47 245:0 246:0.16 247:0 248:0.16 249:0.47 250:0.31 251:0 252:0.31 253:0.47 254:0.31 255:0.31 256:0.47 257:0.31 258:0.31 259:0 260:0 261:0.47 262:0.16 263:0.47 264:0.31 265:0.47 266:0.16 267:0 268:0.16 269:0.16 270:0.31 271:0.16 272:0.16 273:0.31 274:0.31 275:0.16 276:0.16 277:0 278:0.47 279:0 280:0 281:0.63 282:0 283:0 284:0.16 285:0.16 286:0.16 287:0 288:0.16 289:0.77999997 290:0.47 291:0.31 292:0.47 293:0 294:0.31 295:0 296:0.16 297:0.31 298:0.31 299:0 300:0.16 301:0.16 302:0 303:0.47 304:0.47 305:0 306:0.63 307:0.16 308:0.47 309:0.47 310:0.16 311:0.31 312:0.47 313:0.31 314:0.16 315:0.47 316:0.16 317:0.94 318:0.16 319:0 320:0.16 321:0.31 322:0 323:0.16 324:0.47 325:0.16 326:0.31 327:0 328:0.77999997 329:0.47 330:0.47 331:0.16 332:0.31 333:0.16 334:0.16 335:0 336:0.31 337:0.31 338:0.31 339:0 340:0 341:0.31 342:0.16 343:0.16 344:0.31 345:0 346:0.63 347:0.31 348:0.31 349:0.47 350:1.1 351:0.16 352:0.16 353:0.47 354:0.31 355:0.16 356:0.47 357:0.77999997 358:0.31 359:0.16 360:0 361:0.47 362:0 363:0.16 364:0.16 365:0 366:0 367:0 368:0 369:0 370:0 371:0 372:0 373:0 374:0 375:0.16 376:0 377:0 378:0 379:0 380:0 381:0.16 382:0 383:0.16 384:0.16 385:0 386:0 387:0 388:0 389:0 390:0.47 391:0 392:0.16 393:0 394:0 395:0 396:0 397:0.16 398:0.16 399:0 400:0 #
-0.21358333870271795085216126608429 1:1.09 2:0.41 3:0.41 4:0.68000001 5:0.14 6:0 7:0.14 8:0.14 9:0.68000001 10:0.54000002 11:0.27000001 12:0 13:0.27000001 14:0.27000001 15:0.68000001 16:0.68000001 17:0.54000002 18:0.14 19:0 20:0 21:0.14 22:0.14 23:0 24:0 25:0.14 26:0 27:0 28:0 29:0.14 30:0.14 31:0 32:0 33:0 34:0.14 35:0.27000001 36:0.14 37:0.27000001 38:0 39:0.14 40:0 41:0.14 42:0 43:0.54000002 44:0.27000001 45:0.14 46:0.41 47:0 48:0.27000001 49:0.27000001 50:0.68000001 51:0 52:0.41 53:0 54:0.14 55:0.27000001 56:0.27000001 57:0.54000002 58:0.41 59:0 60:0.14 61:0.81 62:0.14 63:0.81 64:1.9 65:0.14 66:0.54000002 67:0.27000001 68:0.94999999 69:1.36 70:1.49 71:0.14 72:0 73:0.27000001 74:0.14 75:0.41 76:0.41 77:0.41 78:0.54000002 79:0 80:0 81:0 82:0 83:0 84:0.27000001 85:0.14 86:0 87:0 88:0 89:0.14 90:0.68000001 91:0.14 92:0 93:0.14 94:0.27000001 95:0.27000001 96:0.27000001 97:0 98:0.14 99:0 100:0 101:0 102:0 103:0 104:0.94999999 105:0.14 106:0.14 107:0.14 108:0 109:0.14 110:0.41 111:0.14 112:0.27000001 113:0.68000001 114:0.41 115:0.27000001 116:0.14 117:0.27000001 118:0.27000001 119:0.14 120:0 121:0 122:0 123:0 124:0.14 125:0 126:0.14 127:0.14 128:0.14 129:0.14 130:0.27000001 131:0 132:0 133:0.14 134:0 135:0 136:0.14 137:0.14 138:0 139:0 140:0.14 141:0.14 142:0.14 143:0.68000001 144:0.54000002 145:0 146:0.27000001 147:0 148:0 149:0.54000002 150:0.68000001 151:0.14 152:0.14 153:0.27000001 154:0.27000001 155:0.14 156:0.68000001 157:0.41 158:0.27000001 159:0 160:0 161:0.68000001 162:0 163:0.54000002 164:1.9 165:0.14 166:0.54000002 167:0.14 168:0.41 169:0.54000002 170:1.36 171:0 172:0.41 173:0 174:0.27000001 175:0.41 176:0.68000001 177:0.14 178:0.54000002 179:0 180:0.14 181:0.27000001 182:0.27000001 183:0.54000002 184:1.22 185:0.41 186:0.68000001 187:0.27000001 188:0.68000001 189:1.36 190:0.81 191:0 192:0.14 193:0.94999999 194:0.94999999 195:0.94999999 196:1.09 197:1.22 198:0.81 199:0.27000001 200:0 201:0.27000001 202:0 203:0 204:0.14 205:0 206:0 207:0 208:0.14 209:0.14 210:0.27000001 211:0 212:0 213:0 214:0 215:0.41 216:0 217:0 218:0 219:0 220:0.14 221:0.14 222:0 223:0 224:0.14 225:0.14 226:0.14 227:0 228:0.27000001 229:0.68000001 230:0.14 231:0.14 232:0.14 233:0 234:0 235:0 236:0 237:0 238:0 239:0 240:0 241:0.68000001 242:0 243:0.14 244:0.68000001 245:0.27000001 246:0.27000001 247:0 248:0 249:0 250:0.27000001 251:0 252:0.14 253:0.41 254:0.41 255:0.27000001 256:0.54000002 257:0.27000001 258:0.81 259:0 260:0 261:0.14 262:0 263:0.41 264:0.54000002 265:0.14 266:0.14 267:0 268:0.41 269:0.41 270:0.68000001 271:0.14 272:0 273:0.27000001 274:0.41 275:0.14 276:0.41 277:0.14 278:0.41 279:0.14 280:0.14 281:0.81 282:0.14 283:0.14 284:0.41 285:0.27000001 286:0.68000001 287:0.14 288:0.27000001 289:0.14 290:1.09 291:0.14 292:0 293:0.54000002 294:0.14 295:0.27000001 296:0.27000001 297:0.27000001 298:0.27000001 299:0 300:0 301:0.68000001 302:0.41 303:0.14 304:0.54000002 305:0 306:0 307:0 308:0.68000001 309:0.68000001 310:1.09 311:0 312:0.14 313:0.54000002 314:0.14 315:0.41 316:0.27000001 317:0.54000002 318:0.41 319:0 320:0 321:0.27000001 322:0 323:0.14 324:0.27000001 325:0.14 326:0.54000002 327:0 328:0.14 329:0.54000002 330:1.22 331:0.14 332:0.14 333:0.41 334:0.68000001 335:0.41 336:0.41 337:0.41 338:0.14 339:0.14 340:0 341:0.81 342:0 343:0.41 344:0.14 345:0.14 346:0 347:0 348:0.54000002 349:0.94999999 350:0.54000002 351:0 352:0.14 353:0.27000001 354:0.41 355:0.27000001 356:0 357:0.27000001 358:0.94999999 359:0 360:0.27000001 361:0 362:0 363:0 364:0 365:0 366:0 367:0.14 368:0.14 369:0 370:0.14 371:0 372:0 373:0 374:0 375:0.14 376:0 377:0.27000001 378:0 379:0 380:0 381:0 382:0 383:0 384:0 385:0 386:0 387:0.14 388:0.14 389:0 390:0.41 391:0 392:0 393:0 394:0 395:0 396:0.27000001 397:0 398:0 399:0 400:0.14 #
-1.4982207757707439732541843113722 1:0.97000003 2:0 3:0.47999999 4:0.97000003 5:0.19 6:0 7:0.1 8:0.19 9:0.68000001 10:1.0599999 11:0.28999999 12:0.28999999 13:0.28999999 14:0.38999999 15:0.38999999 16:0.38999999 17:0.28999999 18:0.97000003 19:0.1 20:0.38999999 21:0.19 22:0.1 23:0.1 24:0.28999999 25:0.1 26:0 27:0 28:0.19 29:0.19 30:0.38999999 31:0 32:0.19 33:0.1 34:0.1 35:0.1 36:0.1 37:0 38:0.1 39:0 40:0 41:0.19 42:0.19 43:0.47999999 44:0.76999998 45:0.19 46:0.1 47:0 48:0.19 49:0.38999999 50:0.57999998 51:0.19 52:0.1 53:0.38999999 54:0.1 55:0.28999999 56:0.38999999 57:0.28999999 58:0.87 59:0 60:0.19 61:0.97000003 62:0.1 63:0.87 64:1.36 65:0.19 66:0.57999998 67:0.19 68:0.76999998 69:0.68000001 70:0.76999998 71:0.19 72:1.16 73:0.57999998 74:0.1 75:0.38999999 76:0.28999999 77:0.57999998 78:0.38999999 79:0 80:0 81:0.28999999 82:0 83:0.28999999 84:0 85:0.1 86:0.1 87:0.1 88:0.19 89:0 90:0.47999999 91:0 92:0.19 93:0.19 94:0 95:0.1 96:0.28999999 97:0 98:0.28999999 99:0 100:0 101:0.1 102:0.19 103:0.19 104:0.28999999 105:0.1 106:0.28999999 107:0 108:0.19 109:0.28999999 110:0.47999999 111:0.1 112:0 113:0.1 114:0.1 115:0.47999999 116:0.1 117:0.1 118:0.1 119:0 120:0 121:0.1 122:0.1 123:0.19 124:0 125:0.1 126:0.1 127:0 128:0.1 129:0 130:0.47999999 131:0 132:0.1 133:0.1 134:0.1 135:0.19 136:0 137:0 138:0 139:0 140:0 141:0.28999999 142:0.19 143:0.1 144:0.28999999 145:0.19 146:0.28999999 147:0.19 148:0.1 149:0.28999999 150:0.87 151:0.1 152:0.1 153:0.1 154:0.38999999 155:0.38999999 156:0.38999999 157:0.1 158:0.28999999 159:0 160:0.1 161:0.76999998 162:0.1 163:0.68000001 164:1.0599999 165:0.19 166:0.38999999 167:0.1 168:0.38999999 169:0.19 170:1.16 171:0 172:0.38999999 173:0.19 174:0.28999999 175:0.19 176:0.38999999 177:0.38999999 178:0.57999998 179:0 180:0 181:0.76999998 182:0.28999999 183:0.68000001 184:0.68000001 185:0.68000001 186:0.19 187:0.19 188:1.26 189:1.0599999 190:1.9400001 191:0.19 192:0.57999998 193:0.76999998 194:1.16 195:0.38999999 196:0.97000003 197:0.68000001 198:0.57999998 199:0.1 200:0.1 201:0.19 202:0.1 203:0.28999999 204:0.19 205:0.1 206:0 207:0 208:0 209:0.1 210:0.19 211:0 212:0 213:0 214:0.1 215:0 216:0 217:0.19 218:0.19 219:0 220:0 221:0.57999998 222:0.28999999 223:0.28999999 224:0.76999998 225:0.1 226:0.1 227:0.1 228:0.1 229:0.38999999 230:0.47999999 231:0.1 232:0 233:0.47999999 234:0.1 235:0 236:0.47999999 237:0.28999999 238:0.38999999 239:0 240:0 241:0.38999999 242:0 243:0.28999999 244:0.68000001 245:0 246:0.19 247:0 248:0.19 249:0.19 250:0.38999999 251:0 252:0.1 253:0 254:0.19 255:0 256:0.47999999 257:0.38999999 258:0.76999998 259:0 260:0 261:0.38999999 262:0.19 263:0.19 264:0.68000001 265:0 266:0.1 267:0.1 268:0.19 269:0.28999999 270:0.68000001 271:0 272:0.47999999 273:0 274:0.19 275:0.19 276:0.28999999 277:0.28999999 278:0.19 279:0 280:0.1 281:0.76999998 282:0 283:0 284:0.38999999 285:0.1 286:0.1 287:0.1 288:0.28999999 289:0.57999998 290:0.57999998 291:0 292:0.1 293:0.19 294:0.19 295:0.47999999 296:0.38999999 297:0.28999999 298:0.57999998 299:0 300:0.1 301:0.47999999 302:0.1 303:0.1 304:0.76999998 305:0.1 306:0.47999999 307:0.1 308:0.1 309:0.68000001 310:0.97000003 311:0.1 312:0.28999999 313:0.38999999 314:0.47999999 315:0.47999999 316:0.47999999 317:0.1 318:0.28999999 319:0 320:0.1 321:0.38999999 322:0.1 323:0.28999999 324:0.47999999 325:0 326:0 327:0 328:0.19 329:0.47999999 330:0.57999998 331:0.1 332:0.47999999 333:0.19 334:0.1 335:0.28999999 336:0.28999999 337:0 338:0.38999999 339:0 340:0 341:0.38999999 342:0.19 343:0.38999999 344:0.47999999 345:0.19 346:0.19 347:0.38999999 348:0.1 349:0.97000003 350:0.87 351:0.19 352:0.38999999 353:0.19 354:0.28999999 355:0.68000001 356:0.57999998 357:0.38999999 358:0 359:0 360:0.19 361:0 362:0 363:0 364:0 365:0 366:0 367:0 368:0 369:0 370:0.1 371:0 372:0 373:0 374:0 375:0.1 376:0 377:0 378:0 379:0 380:0.1 381:0.19 382:0 383:0 384:0 385:0 386:0 387:0 388:0 389:0 390:0.19 391:0 392:0.19 393:0 394:0.19 395:0.1 396:0.28999999 397:0 398:0.1 399:0.1 400:0 #
0.8483995858507027421069324191194 1:1.39 2:0 3:0.20999999 4:0.49000001 5:0 6:0.55000001 7:0.34999999 8:0.20999999 9:0.20999999 10:0.41999999 11:0.20999999 12:0.20999999 13:0.62 14:0.41999999 15:0.49000001 16:1.11 17:0.28 18:0.28 19:0 20:0.14 21:0.14 22:0.14 23:0 24:0.14 25:0 26:0.14 27:0.07 28:0.07 29:0.14 30:0.14 31:0.07 32:0.07 33:0.07 34:0.28 35:0.28 36:0.28 37:0.07 38:0 39:0.07 40:0 41:0.55000001 42:0.07 43:0.14 44:0.14 45:0.14 46:0.34999999 47:0.07 48:0.20999999 49:0.14 50:0.20999999 51:0.07 52:0 53:0.07 54:0.14 55:0.14 56:0.41999999 57:0.07 58:0.07 59:0 60:0.07 61:0.28 62:0.14 63:0.14 64:0.14 65:0.34999999 66:0.07 67:0.07 68:0.14 69:0.41999999 70:0.28 71:0.14 72:0.14 73:0.41999999 74:0.14 75:0.41999999 76:0.20999999 77:0.28 78:0 79:0 80:0.07 81:0.20999999 82:0.07 83:0.20999999 84:0.14 85:0.07 86:0.07 87:0.07 88:0 89:0 90:0.14 91:0 92:0.07 93:0.07 94:0.20999999 95:0.28 96:0.07 97:0.14 98:0.20999999 99:0 100:0.07 101:0.41999999 102:0.20999999 103:0.14 104:0.28 105:0.20999999 106:1.11 107:0.07 108:0.14 109:0 110:0.62 111:0.20999999 112:0.49000001 113:0.14 114:0.14 115:0.34999999 116:1.25 117:0.34999999 118:0.41999999 119:0 120:0 121:0.34999999 122:0 123:0 124:0 125:0.07 126:0.14 127:0.49000001 128:0.14 129:0.14 130:0.55000001 131:0.07 132:0.07 133:0.14 134:0.41999999 135:0.07 136:0.62 137:0.14 138:0.41999999 139:0 140:0.14 141:0.41999999 142:0.14 143:0.14 144:0.20999999 145:0.07 146:0.28 147:0 148:0.34999999 149:0.07 150:0.20999999 151:0 152:0.14 153:0.14 154:0.28 155:0.20999999 156:0.07 157:0.28 158:0.41999999 159:0.07 160:0 161:0.34999999 162:0.07 163:0 164:0.14 165:0.20999999 166:0.14 167:0.14 168:0.07 169:0.14 170:0.28 171:0.07 172:0.14 173:0.07 174:0.07 175:0.34999999 176:0.20999999 177:0.07 178:0.28 179:0.07 180:0 181:0.34999999 182:0.07 183:0.20999999 184:0.41999999 185:0.20999999 186:0.28 187:0.49000001 188:0.28 189:0.41999999 190:0.49000001 191:0.14 192:0.28 193:0.28 194:0.28 195:0.41999999 196:0.41999999 197:0.75999999 198:0.14 199:0 200:0.14 201:0.14 202:0.07 203:0.28 204:0.07 205:0.07 206:0 207:0.20999999 208:0.07 209:0.14 210:0.07 211:0 212:0.14 213:0.14 214:0 215:0.20999999 216:0.07 217:0.14 218:0 219:0.07 220:0.07 221:0.20999999 222:0.14 223:0 224:0.20999999 225:0.07 226:0.49000001 227:0.14 228:0.07 229:0.07 230:0.20999999 231:0.07 232:0.20999999 233:0.07 234:0.28 235:0.41999999 236:1.04 237:0.07 238:0.07 239:0 240:0.07 241:0.14 242:0.34999999 243:0.34999999 244:0.34999999 245:0 246:0.34999999 247:0.20999999 248:0.14 249:0.20999999 250:0.49000001 251:0 252:0.07 253:2.6400001 254:0.69 255:0.49000001 256:0.97000003 257:0.20999999 258:0.55000001 259:0 260:0 261:0.20999999 262:0.14 263:0.20999999 264:0.14 265:0.07 266:0.20999999 267:0.55000001 268:0.20999999 269:0.14 270:0.28 271:0.14 272:0.41999999 273:0.41999999 274:4.3000002 275:0.62 276:0.62 277:0.14 278:0.20999999 279:0.07 280:0.41999999 281:0.41999999 282:0.07 283:0.28 284:0.34999999 285:0.20999999 286:0.20999999 287:0.49000001 288:0.20999999 289:0.20999999 290:0.34999999 291:0.14 292:0.28 293:0.41999999 294:0.69 295:0.89999998 296:0.89999998 297:0.41999999 298:0.34999999 299:0.20999999 300:0.14 301:1.04 302:0.20999999 303:0.34999999 304:0.07 305:0.07 306:1.46 307:0.41999999 308:0.41999999 309:0.14 310:0.49000001 311:0.20999999 312:0.89999998 313:1.39 314:0.34999999 315:0.49000001 316:5.48 317:1.04 318:0.89999998 319:0.14 320:0 321:0.49000001 322:0.14 323:0.14 324:0.28 325:0.07 326:0.28 327:0.07 328:0.07 329:0.14 330:0.41999999 331:0.07 332:0.20999999 333:0.82999998 334:0.20999999 335:0.28 336:0.69 337:0.55000001 338:0.20999999 339:0 340:0 341:0.34999999 342:0.07 343:0.14 344:0.20999999 345:0.07 346:0.20999999 347:0.07 348:0.55000001 349:0.07 350:0.34999999 351:0.14 352:0.07 353:0.28 354:0.49000001 355:0.55000001 356:0.89999998 357:0 358:0.49000001 359:0 360:0.07 361:0.07 362:0 363:0 364:0.07 365:0.07 366:0.07 367:0 368:0 369:0 370:0 371:0.07 372:0.07 373:0 374:0 375:0.14 376:0.07 377:0.07 378:0 379:0 380:0 381:0.07 382:0.07 383:0.14 384:0 385:0.07 386:0.14 387:0 388:0.14 389:0.07 390:0.07 391:0.07 392:0 393:0 394:0.14 395:0.14 396:0.14 397:0.07 398:0.07 399:0 400:0 #
2.6747659986333971460226166527718 1:0.17 2:0.17 3:0.34999999 4:0 5:0.17 6:0.51999998 7:0.34999999 8:0.17 9:0.17 10:0.87 11:0.34999999 12:0.34999999 13:0 14:0 15:0.17 16:0.69 17:0.17 18:0.51999998 19:0 20:0.17 21:0 22:0 23:0 24:0.17 25:0 26:0.34999999 27:0.17 28:0 29:0.34999999 30:0.34999999 31:0 32:0 33:0.51999998 34:0.17 35:0.17 36:0.17 37:0.17 38:0 39:0 40:0 41:0.34999999 42:0 43:0 44:0 45:0.17 46:0.34999999 47:0.17 48:0 49:0 50:0.51999998 51:0 52:0 53:0.34999999 54:0.17 55:0.17 56:0.87 57:0.17 58:0.34999999 59:0 60:0.17 61:0.34999999 62:0 63:0.51999998 64:0.87 65:0.34999999 66:0.17 67:0 68:0.17 69:0.51999998 70:0.17 71:0.34999999 72:0.17 73:0 74:0.51999998 75:0.17 76:0.69 77:0.69 78:0.69 79:0 80:0 81:0.17 82:0 83:0.34999999 84:0.17 85:0.17 86:0.17 87:0.17 88:0 89:0.51999998 90:0.17 91:0.17 92:0 93:0.17 94:0.17 95:0.34999999 96:0.17 97:0.87 98:0 99:0 100:0 101:0.17 102:0.17 103:0.34999999 104:0.34999999 105:0.51999998 106:0.51999998 107:0.17 108:0.17 109:0.17 110:0.34999999 111:0.17 112:0.17 113:0.69 114:0.51999998 115:0.34999999 116:0.34999999 117:0.69 118:0.34999999 119:0 120:0 121:0.34999999 122:0.17 123:0.17 124:0.17 125:0 126:0.34999999 127:0 128:0 129:0 130:0.17 131:0 132:0.17 133:0.34999999 134:0.34999999 135:0 136:0.69 137:0.17 138:0.17 139:0 140:0.17 141:0.51999998 142:0 143:0 144:0 145:0.17 146:0.17 147:0 148:0 149:0 150:0 151:0.17 152:0.34999999 153:0.34999999 154:0.34999999 155:0.17 156:0.17 157:0.34999999 158:0.17 159:0.17 160:0 161:0.51999998 162:0.34999999 163:0.17 164:0.17 165:0 166:0.17 167:0 168:0.17 169:0.34999999 170:0.51999998 171:0 172:0.34999999 173:0 174:0.17 175:0.34999999 176:0.34999999 177:0.17 178:0.51999998 179:0 180:0.17 181:0.17 182:0.17 183:0 184:0.34999999 185:0.34999999 186:0.17 187:0.17 188:0.34999999 189:0.51999998 190:1.39 191:0 192:1.04 193:0.17 194:0.69 195:0.51999998 196:1.04 197:0.17 198:0.87 199:0 200:0 201:0.17 202:0 203:0.17 204:0.17 205:0.17 206:0 207:0.34999999 208:0 209:0 210:0.17 211:0.17 212:0.51999998 213:0 214:0.17 215:0.17 216:0.51999998 217:0 218:0 219:0 220:0.17 221:0.17 222:0 223:0.17 224:0.34999999 225:0 226:0.34999999 227:0.34999999 228:0.17 229:0 230:0.17 231:0.34999999 232:1.21 233:0.17 234:0.51999998 235:0.69 236:0.87 237:0.17 238:0.34999999 239:0 240:0.17 241:0.17 242:0 243:0.34999999 244:0.51999998 245:0 246:0.17 247:0.17 248:0.17 249:0.17 250:0 251:0.17 252:0.17 253:0.34999999 254:0.51999998 255:0.51999998 256:0.51999998 257:0.17 258:0.17 259:0 260:0.17 261:0.17 262:0.17 263:0.17 264:0.69 265:0 266:0.69 267:0.17 268:0.17 269:0.17 270:0.17 271:0 272:0.69 273:0 274:0.34999999 275:0.17 276:0.51999998 277:0.34999999 278:0.17 279:0 280:0.17 281:0.69 282:0.17 283:0.17 284:0.34999999 285:0.51999998 286:0.17 287:0.17 288:0.51999998 289:0.34999999 290:0.17 291:0.34999999 292:0.17 293:0.17 294:0 295:0.17 296:1.5599999 297:0 298:0 299:0 300:0 301:0.69 302:0.87 303:0.34999999 304:1.21 305:0.34999999 306:1.39 307:0.51999998 308:0.34999999 309:0 310:1.5599999 311:0.51999998 312:0.51999998 313:1.04 314:0.17 315:0.69 316:3.6400001 317:0.69 318:0.51999998 319:0 320:0.17 321:0.17 322:0 323:0.17 324:0.34999999 325:0.87 326:0.17 327:0.17 328:0 329:0.87 330:0.69 331:0 332:0 333:0.17 334:0.17 335:0.17 336:1.21 337:0 338:0.17 339:0 340:0 341:0.34999999 342:0.34999999 343:0.34999999 344:0.34999999 345:0 346:0.17 347:0.34999999 348:0.34999999 349:0.17 350:0.69 351:0 352:0.17 353:0.17 354:0 355:0.69 356:0.69 357:0.34999999 358:0.51999998 359:0 360:0 361:0 362:0 363:0 364:0.17 365:0 366:0 367:0 368:0 369:0 370:0 371:0 372:0 373:0 374:0 375:0 376:0 377:0 378:0 379:0 380:0 381:0 382:0 383:0 384:0 385:0 386:0.17 387:0 388:0.34999999 389:0.17 390:0 391:0 392:0.17 393:0 394:0 395:0 396:0.51999998 397:0 398:0.17 399:0 400:0 #
2.7804570481806956117054596688831 1:0.49000001 2:0.99000001 3:0.25 4:0 5:0.49000001 6:0.25 7:0.25 8:0.74000001 9:0.49000001 10:0.25 11:0.25 12:0 13:0 14:0.74000001 15:0 16:0 17:0 18:0.25 19:0 20:0 21:0.25 22:0 23:0.25 24:0.25 25:0 26:0.49000001 27:0 28:0.25 29:0.49000001 30:0.49000001 31:0 32:0.25 33:0 34:0.25 35:0.49000001 36:0 37:0 38:0 39:0 40:0 41:0.99000001 42:0 43:0.25 44:0.25 45:0.74000001 46:0.25 47:0 48:0.25 49:0.25 50:0.49000001 51:0 52:0 53:0.25 54:0.25 55:0 56:0 57:0.25 58:0 59:0 60:0 61:0.25 62:0 63:0.25 64:0.25 65:0.25 66:0.49000001 67:0 68:0 69:0.49000001 70:0 71:0.25 72:0 73:0.74000001 74:0 75:0.25 76:0.99000001 77:0.25 78:0.25 79:0 80:0 81:0.49000001 82:0 83:0 84:0.25 85:0.49000001 86:0.25 87:0 88:0 89:0.74000001 90:0.74000001 91:0.25 92:0 93:0.25 94:0.49000001 95:0.25 96:0.49000001 97:0.25 98:0.25 99:0 100:0 101:0.49000001 102:0.25 103:0.25 104:0 105:0.49000001 106:0 107:0 108:0 109:0.49000001 110:0 111:0.25 112:0.49000001 113:0.49000001 114:0 115:0.25 116:0.25 117:0 118:0.25 119:0 120:0 121:0 122:0 123:0 124:0.49000001 125:0 126:0 127:0.25 128:0 129:0 130:0.25 131:0 132:0 133:0 134:0 135:0.74000001 136:0 137:0 138:0.25 139:0 140:0.25 141:0 142:0.25 143:0.49000001 144:0.25 145:0.74000001 146:0 147:0 148:0.74000001 149:0.25 150:0.74000001 151:0 152:0.25 153:0.49000001 154:0.25 155:0.49000001 156:0.99000001 157:0 158:0.49000001 159:0 160:0 161:0.25 162:0.25 163:0.49000001 164:0.25 165:0 166:0 167:0.49000001 168:0.74000001 169:0.74000001 170:0 171:0 172:0.25 173:0.49000001 174:0.25 175:0.25 176:0 177:0.74000001 178:0.49000001 179:0 180:0.25 181:0 182:0.25 183:0.74000001 184:0.49000001 185:0.74000001 186:0.49000001 187:0 188:0.25 189:0.74000001 190:1.23 191:0.25 192:0.49000001 193:1.48 194:0.25 195:0.74000001 196:0.25 197:0.25 198:0.49000001 199:0 200:0 201:0 202:0 203:0.25 204:0 205:0 206:0 207:0 208:0.25 209:0 210:0 211:0.25 212:0.49000001 213:0.25 214:0.49000001 215:0.25 216:0.74000001 217:0 218:0.25 219:0 220:0.25 221:0 222:0 223:0 224:0.25 225:0 226:0 227:0 228:0.25 229:0.49000001 230:0.25 231:0.25 232:0.74000001 233:0.49000001 234:0.74000001 235:0.25 236:0.25 237:0 238:0.99000001 239:0 240:0.25 241:0.49000001 242:0.25 243:0 244:0 245:0 246:0.49000001 247:0.49000001 248:0.49000001 249:0.49000001 250:1.48 251:0 252:0.25 253:1.48 254:0.49000001 255:0.25 256:0.99000001 257:0.49000001 258:0 259:0 260:0 261:0 262:0.25 263:0.25 264:0.74000001 265:0.49000001 266:0 267:0.25 268:0.49000001 269:0 270:0.74000001 271:0.49000001 272:0.25 273:0.25 274:0.49000001 275:0 276:0.49000001 277:0 278:0.25 279:0.25 280:0.25 281:0.49000001 282:0 283:0.49000001 284:0 285:0.25 286:0.25 287:0 288:0.25 289:0 290:0.49000001 291:0.25 292:0.74000001 293:0 294:0.49000001 295:0.74000001 296:0.49000001 297:0.49000001 298:0.25 299:0 300:0 301:0.74000001 302:0.25 303:0.25 304:0.25 305:0.25 306:0.49000001 307:0 308:0.74000001 309:0 310:0 311:0 312:0.49000001 313:0.49000001 314:0.25 315:0.49000001 316:2.22 317:0.49000001 318:0.74000001 319:0.25 320:0.25 321:0 322:0.25 323:0 324:0.25 325:0.25 326:0.25 327:0.25 328:0.49000001 329:0 330:0.49000001 331:0.49000001 332:0 333:0.25 334:0 335:0 336:0.25 337:0.99000001 338:0 339:0 340:0.25 341:0.49000001 342:0.49000001 343:0 344:0.49000001 345:0 346:0.25 347:0.25 348:0.49000001 349:0 350:1.23 351:0.25 352:0 353:0.25 354:0.49000001 355:0.25 356:0.25 357:0.25 358:0 359:0 360:0 361:0 362:0 363:0 364:0 365:0 366:0 367:0 368:0 369:0 370:0.25 371:0 372:0 373:0 374:0 375:0 376:0 377:0 378:0.25 379:0 380:0 381:0 382:0 383:0 384:0.25 385:0 386:0 387:0 388:0 389:0.25 390:0 391:0 392:0.49000001 393:0.49000001 394:0 395:0 396:0 397:0 398:0.25 399:0 400:0.25 #
-1.4982207757707439732541843113722 1:2.4300001 2:0.039999999 3:0.18000001 4:0.25 5:0.07 6:1.11 7:0.20999999 8:0.07 9:0.11 10:0.38999999 11:0.14 12:0.25 13:1.22 14:0.54000002 15:0.20999999 16:1.14 17:0.43000001 18:0.54000002 19:0.11 20:0.20999999 21:0.039999999 22:0 23:0 24:0.039999999 25:0 26:0.07 27:0.039999999 28:0.07 29:0.07 30:0 31:0 32:0 33:0.11 34:0 35:0.07 36:0.11 37:0.07 38:0.07 39:0 40:0.039999999 41:0.18000001 42:0.039999999 43:0.11 44:0.38999999 45:0.07 46:0.18000001 47:0 48:0.18000001 49:0.039999999 50:0.11 51:0.11 52:0.14 53:0.5 54:0.14 55:0.14 56:0.54000002 57:0.14 58:0.18000001 59:0 60:0.11 61:0.25 62:0.11 63:0.28999999 64:0.20999999 65:0.11 66:0.11 67:0.14 68:0.11 69:0.11 70:0.14 71:0.07 72:0.20999999 73:0.28999999 74:0.25 75:0.25 76:0.18000001 77:0.039999999 78:0.11 79:0.039999999 80:0.039999999 81:0.039999999 82:0 83:0.18000001 84:0.07 85:0.039999999 86:0.07 87:0 88:0.07 89:0.039999999 90:0.07 91:0.11 92:0.11 93:0.11 94:0.039999999 95:0.11 96:0.11 97:0.07 98:0.11 99:0 100:0 101:1.54 102:0 103:0.14 104:0.25 105:0.07 106:1.6799999 107:0.14 108:0.28999999 109:0.07 110:0.38999999 111:0.38999999 112:0.14 113:1.79 114:0.75 115:0.11 116:1.25 117:0.54000002 118:0.31999999 119:0.07 120:0.38999999 121:0.18000001 122:0 123:0.039999999 124:0.039999999 125:0.07 126:0.38999999 127:0.14 128:0.11 129:0.039999999 130:0.31999999 131:0.11 132:0 133:0.75 134:0.31999999 135:0.11 136:0.20999999 137:0 138:0.14 139:0.039999999 140:0.14 141:0.31999999 142:0.039999999 143:0.20999999 144:0.07 145:0.14 146:0.07 147:0 148:0.11 149:0.11 150:0.039999999 151:0 152:0.039999999 153:0.14 154:0.14 155:0.039999999 156:0.31999999 157:0.11 158:0.07 159:0 160:0.07 161:0.14 162:0 163:0.11 164:0.11 165:0 166:0.11 167:0.07 168:0.039999999 169:0.25 170:0.25 171:0.039999999 172:0.14 173:0.11 174:0.14 175:0.14 176:0.28999999 177:0.14 178:0 179:0 180:0 181:0.38999999 182:0.18000001 183:0.25 184:0.25 185:0.07 186:0.31999999 187:0.18000001 188:0.18000001 189:0.039999999 190:0.68000001 191:0 192:0.18000001 193:0.38999999 194:0.38999999 195:0.28999999 196:0.31999999 197:0.25 198:0.31999999 199:0 200:0.25 201:0.11 202:0.039999999 203:0.14 204:0.07 205:0.039999999 206:0.25 207:0.18000001 208:0.07 209:0 210:0.11 211:0 212:0.14 213:0.38999999 214:0.14 215:0.07 216:0.11 217:0 218:0.11 219:0 220:0.039999999 221:0.38999999 222:0 223:0.14 224:0.14 225:0.039999999 226:0.18000001 227:0.18000001 228:0.14 229:0.039999999 230:0.20999999 231:0.20999999 232:0.20999999 233:0.25 234:0.25 235:0.18000001 236:0.75 237:0.11 238:0.11 239:0.039999999 240:0.14 241:0.81999999 242:0.039999999 243:0.38999999 244:0.18000001 245:0.20999999 246:2.29 247:0.79000002 248:0.25 249:0.11 250:0.43000001 251:0.18000001 252:0.54000002 253:5.1199999 254:2.04 255:0.25 256:1.0700001 257:0.88999999 258:0.56999999 259:0.07 260:0.61000001 261:0.54000002 262:0.039999999 263:0.25 264:0.18000001 265:0.039999999 266:0.63999999 267:0.72000003 268:0.039999999 269:0.11 270:0.25 271:0.07 272:0.25 273:1.4 274:4.79 275:0.31999999 276:0.56999999 277:0.20999999 278:0.38999999 279:0.11 280:0.43000001 281:0.07 282:0.11 283:0.11 284:0.18000001 285:0.039999999 286:0.28999999 287:0.11 288:0.07 289:0.25 290:0.36000001 291:0.07 292:0.14 293:0.61000001 294:0.14 295:0.31999999 296:0.28999999 297:0.20999999 298:0.14 299:0 300:0.28999999 301:0.88999999 302:0.11 303:0.28999999 304:0.14 305:0.14 306:1.29 307:0.14 308:0.039999999 309:0.18000001 310:0.43000001 311:0.18000001 312:0.68000001 313:1.5 314:0.81999999 315:0.38999999 316:1.1799999 317:0.61000001 318:0.25 319:0.039999999 320:0.18000001 321:0.36000001 322:0 323:0.14 324:0.14 325:0.11 326:0.28999999 327:0.039999999 328:0.07 329:0.14 330:0.20999999 331:0.11 332:0.31999999 333:0.97000003 334:0.18000001 335:0.25 336:0.54000002 337:0.38999999 338:0.25 339:0.07 340:0.039999999 341:0.54000002 342:0.07 343:0.14 344:0.14 345:0.07 346:0.5 347:0 348:0.07 349:0.31999999 350:0.31999999 351:0.18000001 352:0.11 353:0.38999999 354:0.14 355:0.25 356:0.31999999 357:0.20999999 358:0.11 359:0 360:0 361:0.14 362:0 363:0.07 364:0.039999999 365:0 366:0.039999999 367:0 368:0 369:0.039999999 370:0.039999999 371:0 372:0 373:0.07 374:0.039999999 375:0.039999999 376:0 377:0.039999999 378:0.039999999 379:0.07 380:0 381:0.31999999 382:0 383:0.11 384:0.14 385:0 386:0.47 387:0.07 388:0.07 389:0.039999999 390:0.18000001 391:0 392:0.11 393:0.75 394:0.07 395:0.25 396:0.18000001 397:0.14 398:0.07 399:0 400:0.039999999 #
-1.4982207757707439732541843113722 1:0.15000001 2:0.15000001 3:0.15000001 4:0.28999999 5:0 6:0.44 7:0.44 8:0.15000001 9:0 10:0 11:0 12:0.28999999 13:0.74000001 14:0.15000001 15:0.15000001 16:1.1799999 17:0.58999997 18:0.15000001 19:0 20:0 21:0 22:0 23:0.15000001 24:0 25:0 26:0 27:0 28:0.15000001 29:0.28999999 30:0 31:0 32:0 33:0 34:0 35:0.15000001 36:0.15000001 37:0 38:0.15000001 39:0.15000001 40:0 41:0.15000001 42:0 43:0 44:0.15000001 45:0.15000001 46:0.44 47:0.44 48:0.15000001 49:0 50:0.44 51:0 52:0.28999999 53:0.15000001 54:0 55:0.15000001 56:0.28999999 57:0.15000001 58:0.28999999 59:0 60:0.15000001 61:0 62:0 63:0 64:0.44 65:0.44 66:0.28999999 67:0 68:0.15000001 69:0.15000001 70:0.58999997 71:0 72:0.15000001 73:0 74:0.44 75:0 76:0.44 77:0.15000001 78:0.15000001 79:0 80:0.15000001 81:0.44 82:0 83:0 84:0 85:0.15000001 86:0.15000001 87:0 88:0 89:0.28999999 90:0.15000001 91:0.44 92:0.44 93:0 94:0.44 95:0 96:0 97:0.15000001 98:0 99:0 100:0 101:0.58999997 102:0 103:0.28999999 104:0.15000001 105:0.15000001 106:2.21 107:0.28999999 108:0 109:0.28999999 110:0.58999997 111:0.15000001 112:0.74000001 113:0.58999997 114:0.58999997 115:0.15000001 116:2.0599999 117:0 118:0.44 119:0 120:0.15000001 121:0.28999999 122:0 123:0 124:0 125:0 126:0.74000001 127:1.76 128:0 129:0.15000001 130:0.88 131:0.44 132:0.88 133:0.44 134:0.44 135:0 136:0.28999999 137:0.44 138:0.15000001 139:0 140:0 141:0.15000001 142:0.15000001 143:0 144:0 145:0.15000001 146:0.15000001 147:0 148:0.44 149:0.15000001 150:0.15000001 151:0.15000001 152:0.15000001 153:0.28999999 154:0 155:0.15000001 156:0.58999997 157:0.44 158:0.15000001 159:0 160:0.15000001 161:0 162:0 163:0.28999999 164:0 165:0 166:0.44 167:0.28999999 168:0.28999999 169:0 170:0.28999999 171:0.15000001 172:0.15000001 173:0 174:0.15000001 175:0.28999999 176:0.58999997 177:0.15000001 178:0 179:0 180:0 181:0.44 182:0.28999999 183:0.15000001 184:0.28999999 185:0 186:0.88 187:0.44 188:0 189:0.44 190:1.03 191:0.15000001 192:0 193:0.44 194:0.88 195:0.15000001 196:0.58999997 197:0.28999999 198:0.28999999 199:0 200:0.44 201:0 202:0.15000001 203:0.28999999 204:0.44 205:0.15000001 206:0.15000001 207:0.15000001 208:0 209:0.28999999 210:0.15000001 211:0.15000001 212:0.28999999 213:0.28999999 214:0 215:0.15000001 216:0 217:0 218:0.15000001 219:0 220:0.15000001 221:0 222:0.15000001 223:0.44 224:0.28999999 225:0.28999999 226:0.15000001 227:0.44 228:0.28999999 229:0.15000001 230:0.58999997 231:0.44 232:0.88 233:0.74000001 234:0.15000001 235:0.44 236:1.91 237:0.44 238:0.15000001 239:0 240:0.15000001 241:0.58999997 242:0.15000001 243:0.15000001 244:0 245:0.15000001 246:0.44 247:0.74000001 248:0.58999997 249:0 250:0.44 251:0.15000001 252:0.88 253:2.21 254:0.58999997 255:0 256:1.03 257:0.28999999 258:0.15000001 259:0 260:0.15000001 261:0.28999999 262:0 263:0.15000001 264:0.28999999 265:0 266:0.44 267:0.88 268:0.28999999 269:0 270:0.28999999 271:0 272:0.15000001 273:0.44 274:1.91 275:0.15000001 276:0.88 277:0.28999999 278:0 279:0 280:0 281:0.28999999 282:0.15000001 283:0 284:0.15000001 285:0 286:0.28999999 287:0.15000001 288:0.28999999 289:0 290:0 291:0 292:0.28999999 293:0.15000001 294:0 295:0.15000001 296:0.28999999 297:0.15000001 298:0.15000001 299:0 300:0.15000001 301:0.88 302:0 303:0.44 304:0.58999997 305:0.58999997 306:1.62 307:0.44 308:0.28999999 309:0.44 310:1.03 311:0.28999999 312:1.3200001 313:1.3200001 314:0.28999999 315:0.28999999 316:2.0599999 317:0.88 318:0.88 319:0 320:0.15000001 321:0.44 322:0 323:0.44 324:0.28999999 325:0.15000001 326:0.15000001 327:0.28999999 328:0.15000001 329:0 330:0.15000001 331:0.15000001 332:0.88 333:0.74000001 334:0.15000001 335:0.15000001 336:0.58999997 337:0.74000001 338:0.15000001 339:0 340:0.15000001 341:0.28999999 342:0 343:0.15000001 344:0.15000001 345:0.15000001 346:0.44 347:0.15000001 348:0.15000001 349:0.15000001 350:0.28999999 351:0.15000001 352:0.28999999 353:0 354:0.15000001 355:0 356:0.44 357:0.44 358:0.15000001 359:0 360:0 361:0 362:0 363:0 364:0 365:0 366:0 367:0 368:0 369:0.15000001 370:0.15000001 371:0 372:0 373:0 374:0 375:0 376:0 377:0 378:0 379:0 380:0 381:0 382:0 383:0.28999999 384:0 385:0.15000001 386:0 387:0 388:0 389:0.15000001 390:0 391:0.15000001 392:0 393:0.15000001 394:0.15000001 395:0.15000001 396:0.44 397:0.15000001 398:0 399:0.15000001 400:0.15000001 #
