SVM-light Version V6.02
1 # kernel type
2 # kernel parameter -d 
1 # kernel parameter -g 
1 # kernel parameter -s 
1 # kernel parameter -r 
empty# kernel parameter -u 
400 # highest feature index 
159 # number of training documents 
76 # number of support vectors plus 1 
0.92603939 # threshold b, each following line is a SV (starting with alpha*y)
-3.7229571204897785735576931642754e-05 1:0.95999998 2:0.72000003 3:0 4:0.72000003 5:0 6:1.2 7:0.47999999 8:0.72000003 9:0 10:0.95999998 11:0.23999999 12:0 13:0 14:0.23999999 15:0.23999999 16:0.95999998 17:0.47999999 18:0.72000003 19:0 20:0 21:0.23999999 22:0.23999999 23:0 24:0.23999999 25:0 26:0.23999999 27:0 28:0.23999999 29:0 30:0.47999999 31:0 32:0.23999999 33:0 34:0.47999999 35:0.23999999 36:0.47999999 37:0 38:0.72000003 39:0 40:0 41:0.23999999 42:0 43:0.23999999 44:0.72000003 45:0 46:0.23999999 47:0.47999999 48:0 49:0.23999999 50:0 51:0.23999999 52:0.23999999 53:0.23999999 54:0 55:0 56:0.72000003 57:0 58:0.72000003 59:0 60:0 61:0 62:0 63:0.95999998 64:0.23999999 65:0.23999999 66:0.23999999 67:0.23999999 68:0 69:0.72000003 70:0.23999999 71:0 72:0 73:0.23999999 74:0.23999999 75:0.47999999 76:0.47999999 77:0.23999999 78:0 79:0 80:0.23999999 81:0 82:0 83:0.23999999 84:0 85:0.47999999 86:0.23999999 87:0 88:0 89:0.23999999 90:0 91:0.23999999 92:0.95999998 93:0.47999999 94:0 95:0.72000003 96:0.47999999 97:0.23999999 98:0 99:0 100:0 101:0.47999999 102:0.23999999 103:0.23999999 104:0.23999999 105:0.47999999 106:0.23999999 107:0.23999999 108:0.47999999 109:0.47999999 110:0 111:0.23999999 112:0.47999999 113:0 114:0 115:0 116:0.47999999 117:0.47999999 118:0.47999999 119:0.23999999 120:0 121:0.23999999 122:0 123:0 124:0 125:0 126:0 127:0 128:0.23999999 129:0 130:0.23999999 131:0 132:0 133:0.23999999 134:0 135:0.23999999 136:0.47999999 137:0.23999999 138:0 139:0 140:0.23999999 141:0.23999999 142:0 143:0 144:0 145:0.47999999 146:0 147:0 148:0.47999999 149:0 150:0.72000003 151:0.23999999 152:0.23999999 153:0.23999999 154:0.23999999 155:0.23999999 156:0.72000003 157:0.47999999 158:0 159:0 160:0.23999999 161:0.72000003 162:0.23999999 163:0.47999999 164:0.23999999 165:0.23999999 166:0.23999999 167:0.23999999 168:0 169:0.47999999 170:0 171:0 172:0 173:0 174:0 175:0.95999998 176:0.23999999 177:0.47999999 178:0.23999999 179:0 180:0 181:0.95999998 182:0.72000003 183:0.72000003 184:0.23999999 185:0.47999999 186:0.23999999 187:0 188:0.23999999 189:0.72000003 190:0.95999998 191:0.23999999 192:0.47999999 193:0.23999999 194:0.47999999 195:0.23999999 196:0.23999999 197:0.72000003 198:0.47999999 199:0.23999999 200:0 201:0 202:0 203:0.23999999 204:0 205:0.23999999 206:0.95999998 207:0 208:0 209:0.47999999 210:0.23999999 211:0.23999999 212:0.47999999 213:0 214:0 215:0 216:0.72000003 217:0 218:0 219:0 220:0 221:0.47999999 222:0.72000003 223:0 224:0.23999999 225:0.47999999 226:0.23999999 227:0 228:0 229:0.47999999 230:0 231:0.23999999 232:0 233:0 234:0.47999999 235:0.23999999 236:0.72000003 237:0.47999999 238:0 239:0 240:0 241:0.95999998 242:0 243:0 244:0 245:0 246:0.23999999 247:0.23999999 248:0 249:0 250:0.95999998 251:0.23999999 252:0 253:0.95999998 254:0.23999999 255:0.47999999 256:0.47999999 257:0.47999999 258:0.23999999 259:0 260:0 261:0.72000003 262:0.23999999 263:0 264:0.23999999 265:0.23999999 266:0 267:0 268:0.23999999 269:0 270:0.23999999 271:0 272:0.47999999 273:0.23999999 274:0.47999999 275:0.47999999 276:0 277:0 278:0 279:0.47999999 280:0 281:0.47999999 282:0.47999999 283:0 284:0.95999998 285:0 286:0.23999999 287:0.23999999 288:0 289:0 290:1.4400001 291:0.23999999 292:0.47999999 293:0.23999999 294:0.47999999 295:0.95999998 296:0.47999999 297:0 298:0 299:0 300:0.23999999 301:0.72000003 302:0 303:0.47999999 304:0.23999999 305:0.72000003 306:0.47999999 307:0 308:0.47999999 309:0.47999999 310:1.2 311:0.47999999 312:0.23999999 313:1.4400001 314:0.23999999 315:0.47999999 316:0.72000003 317:0.47999999 318:1.4400001 319:0 320:0 321:0.47999999 322:0 323:0.23999999 324:0.47999999 325:0 326:0.23999999 327:0 328:0.72000003 329:0.23999999 330:0.23999999 331:0.23999999 332:0.23999999 333:0.23999999 334:0.23999999 335:0 336:0.72000003 337:0.47999999 338:0.47999999 339:0 340:0 341:0.23999999 342:0.23999999 343:0.23999999 344:0 345:0.23999999 346:0 347:0 348:0.95999998 349:0.23999999 350:0.72000003 351:0.23999999 352:0.23999999 353:0.23999999 354:0.23999999 355:0.47999999 356:1.2 357:0 358:0.23999999 359:0 360:0.23999999 361:0.23999999 362:0 363:0.23999999 364:0 365:0 366:0 367:0 368:0 369:0 370:0 371:0 372:0 373:0.23999999 374:0 375:0.23999999 376:0 377:0 378:0 379:0 380:0 381:0.23999999 382:0 383:0 384:0 385:0 386:0.23999999 387:0 388:0 389:0 390:0 391:0 392:0 393:0.23999999 394:0 395:0.23999999 396:0 397:0 398:0.23999999 399:0 400:0 #
-0.00023255682751361153592917219157243 1:0.31 2:0.1 3:0.51999998 4:0.31 5:0.41999999 6:0.20999999 7:0.31 8:0.41999999 9:0.41999999 10:0.20999999 11:0.31 12:0.20999999 13:0.31 14:0.1 15:0.20999999 16:0.41999999 17:0.31 18:0.51999998 19:0.1 20:0.20999999 21:0.1 22:0.20999999 23:0 24:0.20999999 25:0 26:0.1 27:0.1 28:0.31 29:0.20999999 30:0.51999998 31:0.20999999 32:0 33:0.31 34:0.31 35:0.20999999 36:0 37:0.31 38:0.51999998 39:0.1 40:0 41:0.31 42:0 43:0.20999999 44:0.51999998 45:0.20999999 46:0.62 47:0.1 48:0.20999999 49:0.51999998 50:0.51999998 51:0.1 52:0.31 53:0.20999999 54:0.1 55:0.20999999 56:0.41999999 57:0.31 58:0.20999999 59:0 60:0.1 61:0.51999998 62:0.1 63:0.62 64:0.62 65:0.31 66:0.51999998 67:0.20999999 68:0.31 69:0.41999999 70:0.73000002 71:0.20999999 72:0.20999999 73:0.20999999 74:0.20999999 75:0.51999998 76:0.31 77:0.31 78:0.20999999 79:0.1 80:0.41999999 81:0.1 82:0 83:0.1 84:0.1 85:0.20999999 86:0.41999999 87:0 88:0.1 89:0.20999999 90:0.31 91:0 92:0.20999999 93:0 94:0 95:0.20999999 96:0.20999999 97:0.20999999 98:0 99:0.1 100:0.1 101:0.41999999 102:0.62 103:0.31 104:0.51999998 105:0.31 106:0.41999999 107:0.1 108:0.31 109:0.31 110:0.82999998 111:0.20999999 112:0 113:0.41999999 114:0.1 115:0 116:0.41999999 117:0.1 118:0.41999999 119:0 120:0.20999999 121:0.20999999 122:0.20999999 123:0 124:0 125:0.20999999 126:0 127:0 128:0.1 129:0.20999999 130:0.20999999 131:0.20999999 132:0.1 133:0.31 134:0.20999999 135:0.41999999 136:0.1 137:0 138:0.31 139:0.1 140:0.20999999 141:0.31 142:0.31 143:0.41999999 144:0.20999999 145:0.1 146:0.41999999 147:0.1 148:0.20999999 149:0.51999998 150:0.41999999 151:0.20999999 152:0.1 153:0.51999998 154:0.20999999 155:0.1 156:0.51999998 157:0.62 158:0.20999999 159:0 160:0.20999999 161:0.20999999 162:0.51999998 163:0.20999999 164:0.51999998 165:0.31 166:0.51999998 167:0.20999999 168:0.41999999 169:0.31 170:0.31 171:0.1 172:0.31 173:0.31 174:0.20999999 175:0.51999998 176:0.51999998 177:0.31 178:0.82999998 179:0.1 180:0.1 181:0.31 182:0.31 183:0.73000002 184:0.82999998 185:0 186:0.73000002 187:0.31 188:0.51999998 189:0.31 190:1.25 191:0.62 192:0.1 193:0.62 194:0.31 195:0.62 196:0.51999998 197:0.41999999 198:0.82999998 199:0.1 200:0.1 201:0.62 202:0 203:0.20999999 204:0.41999999 205:0.1 206:0 207:0.1 208:0.31 209:0.31 210:0.1 211:0 212:0.1 213:0.31 214:0 215:0 216:0.41999999 217:0.1 218:0.31 219:0 220:0 221:0.20999999 222:0.1 223:0.1 224:0 225:0 226:0.31 227:0 228:0.20999999 229:0.1 230:0.31 231:0 232:0.1 233:0.20999999 234:0.41999999 235:0.1 236:0.31 237:0 238:0.1 239:0.1 240:0.31 241:0.51999998 242:0.1 243:0.1 244:0.51999998 245:0 246:0.1 247:0.41999999 248:0.20999999 249:0.31 250:0.31 251:0.31 252:0.31 253:0.20999999 254:0.31 255:0.1 256:0.82999998 257:0.41999999 258:0.41999999 259:0 260:0.20999999 261:0.20999999 262:0.31 263:0 264:0.31 265:0 266:0.31 267:0.20999999 268:0.31 269:0.1 270:0.73000002 271:0 272:0.20999999 273:0.1 274:0 275:0.1 276:0.20999999 277:0 278:0 279:0 280:0.1 281:0.1 282:0.1 283:0.20999999 284:0.73000002 285:0.20999999 286:0.1 287:0.20999999 288:0.20999999 289:0.62 290:0.31 291:0.20999999 292:0.31 293:0.20999999 294:0 295:0.73000002 296:0.1 297:0.51999998 298:0.20999999 299:0.1 300:0.31 301:0.51999998 302:0.20999999 303:0.31 304:0.31 305:0.1 306:0.41999999 307:0.20999999 308:0.20999999 309:0.73000002 310:0.51999998 311:0.20999999 312:0.1 313:0.62 314:0.20999999 315:0.41999999 316:0.62 317:0.51999998 318:0.31 319:0 320:0.20999999 321:0.31 322:0.1 323:0.20999999 324:0.62 325:0.1 326:0.20999999 327:0.1 328:0.31 329:0.20999999 330:0.51999998 331:0 332:0.1 333:0.62 334:0.1 335:0.41999999 336:0.41999999 337:0 338:0.41999999 339:0 340:0.20999999 341:0.51999998 342:0.31 343:0.62 344:0.20999999 345:0 346:0.41999999 347:0.1 348:0.51999998 349:0.73000002 350:0.62 351:0.1 352:0.1 353:0.20999999 354:0.31 355:0.31 356:0.1 357:0.31 358:0.94 359:0.31 360:0.20999999 361:0 362:0.1 363:0 364:0.20999999 365:0 366:0 367:0 368:0.1 369:0.20999999 370:0.1 371:0.20999999 372:0 373:0 374:0 375:0 376:0.20999999 377:0.1 378:0 379:0 380:0 381:0.1 382:0 383:0.31 384:0 385:0 386:0.20999999 387:0.31 388:0.41999999 389:0.1 390:0.73000002 391:0.1 392:0.1 393:0 394:0.1 395:0.31 396:0.1 397:0.1 398:0.20999999 399:0 400:0 #
-0.00011682612533205804150257534068658 1:0 2:0.51999998 3:0.25999999 4:0 5:0.77999997 6:0.25999999 7:0.25999999 8:0.25999999 9:0.25999999 10:1.29 11:0.51999998 12:0 13:0 14:0 15:0 16:0.25999999 17:0.77999997 18:0.51999998 19:0 20:0.25999999 21:0 22:0 23:0 24:0.51999998 25:0 26:0.77999997 27:0 28:0 29:0.25999999 30:0.51999998 31:0.25999999 32:0.25999999 33:0.25999999 34:0.25999999 35:0.51999998 36:0 37:0 38:0.51999998 39:0 40:0 41:0 42:0.25999999 43:0.51999998 44:0.51999998 45:0.25999999 46:0.25999999 47:0 48:0.77999997 49:0 50:0.25999999 51:0.25999999 52:0 53:0.77999997 54:0.25999999 55:0.51999998 56:0 57:0 58:0.25999999 59:0 60:0 61:1.29 62:0.51999998 63:1.03 64:1.8099999 65:0 66:0.25999999 67:0.25999999 68:0.25999999 69:0.25999999 70:0.77999997 71:0 72:0 73:0.51999998 74:0.51999998 75:0 76:0.51999998 77:0 78:0.77999997 79:0 80:0 81:0.25999999 82:0 83:0.25999999 84:0 85:0.51999998 86:0.25999999 87:0 88:0.51999998 89:0.25999999 90:0.51999998 91:0 92:1.03 93:0 94:0.25999999 95:0.77999997 96:0.51999998 97:0.77999997 98:0 99:0 100:0 101:0.51999998 102:0.25999999 103:0.25999999 104:0.51999998 105:0.51999998 106:0 107:0 108:0 109:0 110:0 111:0.25999999 112:0 113:0 114:0 115:0 116:0.51999998 117:0.25999999 118:0.51999998 119:0 120:0.25999999 121:0 122:0.51999998 123:0 124:0 125:0.51999998 126:0 127:0 128:0.51999998 129:0 130:0 131:0 132:0 133:0 134:0 135:0.25999999 136:0.25999999 137:0.25999999 138:0 139:0 140:0 141:0.51999998 142:0.25999999 143:0 144:0.51999998 145:0 146:0.25999999 147:0.51999998 148:0 149:0.25999999 150:0 151:0.51999998 152:0.51999998 153:0 154:0.51999998 155:0.51999998 156:0.51999998 157:0.25999999 158:0 159:0.25999999 160:0 161:0.25999999 162:0.25999999 163:0 164:0.25999999 165:0 166:0.77999997 167:0 168:0.77999997 169:0.25999999 170:0.25999999 171:0.25999999 172:0.51999998 173:0 174:0.51999998 175:0.51999998 176:0 177:0.51999998 178:0 179:0 180:0 181:0.25999999 182:0 183:0.25999999 184:1.03 185:0.51999998 186:0 187:0 188:0.51999998 189:1.03 190:0.77999997 191:1.29 192:0.51999998 193:0.51999998 194:0.25999999 195:0.77999997 196:0.77999997 197:0.51999998 198:0.25999999 199:0 200:0.25999999 201:0.77999997 202:0 203:0 204:0.51999998 205:0.25999999 206:0 207:0 208:0 209:0.25999999 210:1.03 211:0.25999999 212:0 213:0 214:0 215:0.51999998 216:0.51999998 217:0.77999997 218:0 219:0 220:0 221:0.51999998 222:0 223:0.25999999 224:0.25999999 225:0.51999998 226:0 227:0 228:0 229:0.25999999 230:1.03 231:0 232:0.25999999 233:0.25999999 234:0 235:0.77999997 236:0.51999998 237:0.25999999 238:0 239:0 240:0 241:0 242:0.25999999 243:0.51999998 244:0.25999999 245:0.25999999 246:0.51999998 247:0.25999999 248:0.25999999 249:0.77999997 250:0.51999998 251:0 252:0 253:0.77999997 254:0.51999998 255:0 256:0.25999999 257:0.51999998 258:0 259:0 260:0.25999999 261:0.51999998 262:0 263:0.25999999 264:0.51999998 265:0.25999999 266:0 267:0.25999999 268:0.25999999 269:0 270:0.25999999 271:0 272:1.03 273:0.25999999 274:0.51999998 275:0.25999999 276:0 277:0 278:0 279:0 280:0 281:1.03 282:0 283:0 284:0.25999999 285:0.25999999 286:0 287:0.25999999 288:0.25999999 289:0.51999998 290:0.77999997 291:0.25999999 292:0.25999999 293:0.77999997 294:0 295:1.03 296:0.51999998 297:0.25999999 298:0 299:0 300:0 301:0 302:0.77999997 303:1.03 304:0.77999997 305:0.25999999 306:0 307:0.25999999 308:0 309:0.25999999 310:1.03 311:0 312:0 313:0.77999997 314:0.25999999 315:0 316:0.51999998 317:0 318:0.25999999 319:0 320:0 321:0 322:0.25999999 323:0 324:0.51999998 325:0.51999998 326:0.51999998 327:0 328:0.25999999 329:0.51999998 330:0 331:0.51999998 332:0.25999999 333:0.77999997 334:0.25999999 335:0 336:0.25999999 337:0 338:0 339:0.25999999 340:0.51999998 341:0 342:0.25999999 343:0 344:0.51999998 345:0.25999999 346:0 347:0 348:0.77999997 349:0 350:0.51999998 351:0 352:0 353:0 354:0.25999999 355:0 356:0.25999999 357:0.25999999 358:0.25999999 359:0 360:0 361:0 362:0 363:0.25999999 364:0.25999999 365:0 366:0 367:0 368:0 369:0 370:0 371:0 372:0 373:0 374:0 375:0 376:0 377:0 378:0 379:0 380:0 381:0.25999999 382:0 383:0 384:0 385:0.25999999 386:0 387:0.25999999 388:0 389:0 390:0 391:0.25999999 392:0.25999999 393:0.25999999 394:0 395:0 396:0 397:0 398:0 399:0 400:0 #
-0.00023574992917429728666797728031668 1:0.16 2:0.16 3:0.47999999 4:0.31999999 5:0.31999999 6:0.64999998 7:0.31999999 8:0.31999999 9:0.31999999 10:0.47999999 11:0.16 12:0.16 13:0.81 14:0.64999998 15:0.31999999 16:1.29 17:0.81 18:0.47999999 19:0.16 20:0 21:0.16 22:0 23:0 24:0.16 25:0 26:0 27:0 28:0 29:0.31999999 30:0.16 31:0.31999999 32:0 33:0.31999999 34:0.16 35:0.16 36:0.31999999 37:0.31999999 38:0.16 39:0 40:0.16 41:0.47999999 42:0 43:0 44:0 45:0 46:0.47999999 47:0 48:0 49:0 50:0.81 51:0.16 52:0.16 53:0 54:0.16 55:0.64999998 56:0 57:0 58:0.16 59:0 60:0.64999998 61:0.47999999 62:0.16 63:0 64:0.64999998 65:0.16 66:0.64999998 67:0.16 68:0.47999999 69:0 70:0.64999998 71:0.16 72:0.16 73:0.64999998 74:0.47999999 75:0.47999999 76:0.16 77:0 78:0.16 79:0 80:0 81:0.16 82:0 83:0.31999999 84:0 85:0.16 86:0 87:0 88:0 89:0.16 90:0.16 91:0.16 92:0 93:0 94:0.16 95:0.16 96:0.16 97:0 98:0.31999999 99:0 100:0.16 101:0.81 102:0.16 103:0 104:0.31999999 105:0.31999999 106:0.64999998 107:0.16 108:0.31999999 109:0.31999999 110:0.47999999 111:0.64999998 112:0 113:0 114:0.16 115:0.31999999 116:0.64999998 117:0.47999999 118:0.31999999 119:0 120:0.64999998 121:0 122:0 123:0.16 124:0 125:0 126:0.16 127:0 128:0.16 129:0 130:0.16 131:0.31999999 132:0.16 133:0.16 134:0 135:0.16 136:0.31999999 137:0 138:0.16 139:0 140:0.47999999 141:0.16 142:0 143:0.16 144:0 145:0.31999999 146:0.47999999 147:0.16 148:0.16 149:0 150:0.47999999 151:0.16 152:0 153:0.16 154:0.16 155:0.31999999 156:0.16 157:0.16 158:0 159:0.16 160:0 161:0.31999999 162:0.31999999 163:0 164:0.47999999 165:0 166:0.31999999 167:0.16 168:0 169:0.16 170:0.64999998 171:0 172:0.16 173:0 174:0.16 175:0.16 176:0.47999999 177:0 178:0.47999999 179:0 180:0 181:0.64999998 182:0.16 183:0.47999999 184:0.81 185:0 186:0.31999999 187:0.16 188:0.47999999 189:0.81 190:2.26 191:0.16 192:0.16 193:0.16 194:0.47999999 195:0.64999998 196:1.13 197:0.47999999 198:0.47999999 199:0 200:0.31999999 201:0.47999999 202:0 203:0.16 204:0.16 205:0 206:0 207:0 208:0.31999999 209:0.47999999 210:0.31999999 211:0.31999999 212:0 213:0.16 214:0 215:0 216:0.64999998 217:0 218:0.31999999 219:0 220:0.16 221:0 222:0 223:0.16 224:0.16 225:0 226:0.16 227:0 228:0.16 229:0.16 230:0.16 231:0.47999999 232:0 233:0.47999999 234:0.47999999 235:0.16 236:0.16 237:0 238:0 239:0 240:0 241:0.47999999 242:0.31999999 243:0.16 244:0.47999999 245:0.16 246:0.31999999 247:0 248:0 249:0 250:0.64999998 251:0.31999999 252:0.16 253:0.97000003 254:0.47999999 255:0 256:0.81 257:0.16 258:0.64999998 259:0 260:0.31999999 261:0.47999999 262:0.31999999 263:0.64999998 264:0.16 265:0 266:0.16 267:0.16 268:0 269:0.16 270:0.64999998 271:0 272:0 273:0.16 274:0.47999999 275:0.16 276:0.81 277:0.31999999 278:0.64999998 279:0 280:0 281:0.47999999 282:0 283:0.16 284:0.47999999 285:0.16 286:0.31999999 287:0.31999999 288:0 289:0.47999999 290:0.31999999 291:0 292:0.16 293:0.47999999 294:0.47999999 295:0.81 296:0.81 297:0.31999999 298:0.31999999 299:0 300:0.16 301:1.29 302:0.31999999 303:0.31999999 304:0.47999999 305:0.16 306:1.45 307:0.31999999 308:0.31999999 309:0.16 310:0.64999998 311:0 312:0.47999999 313:1.29 314:0.16 315:1.13 316:1.45 317:0.47999999 318:0.31999999 319:0.31999999 320:0.16 321:0.47999999 322:0 323:0.16 324:0.31999999 325:0.16 326:0.16 327:0 328:0.31999999 329:0 330:0.31999999 331:0 332:0.64999998 333:0.16 334:0.16 335:0.16 336:0.64999998 337:1.13 338:0.16 339:0 340:0 341:0.64999998 342:0.64999998 343:0.16 344:0.47999999 345:0.16 346:0.31999999 347:0.31999999 348:0 349:0.16 350:0.31999999 351:0 352:0 353:0.47999999 354:0.47999999 355:0 356:0.47999999 357:0.16 358:0.16 359:0.16 360:0.31999999 361:0.31999999 362:0 363:0 364:0 365:0 366:0 367:0 368:0 369:0 370:0.16 371:0 372:0 373:0 374:0 375:0.16 376:0.16 377:0 378:0 379:0 380:0 381:0.31999999 382:0.16 383:0.16 384:0.16 385:0 386:0.16 387:0.16 388:0.16 389:0.16 390:0.31999999 391:0 392:0.31999999 393:0.16 394:0 395:0.31999999 396:0.64999998 397:0.16 398:0.16 399:0 400:0.31999999 #
-1.8424442364678780955852821499263e-05 1:0.18000001 2:0 3:0.36000001 4:0 5:0.36000001 6:0 7:0.36000001 8:0.18000001 9:0 10:0.36000001 11:0.18000001 12:0.36000001 13:0 14:0.18000001 15:0.18000001 16:1.08 17:0.36000001 18:0.54000002 19:0.18000001 20:0 21:0 22:0 23:0.18000001 24:0.36000001 25:0 26:0.18000001 27:0 28:0.18000001 29:0.36000001 30:0.36000001 31:0 32:0 33:0 34:0.54000002 35:0.36000001 36:0 37:0.36000001 38:0 39:0 40:0 41:0.18000001 42:0 43:0.18000001 44:0.36000001 45:0.36000001 46:0.54000002 47:0 48:0.54000002 49:0.54000002 50:0 51:0 52:0 53:0.18000001 54:0 55:0 56:0.89999998 57:0.54000002 58:0.18000001 59:0 60:0.18000001 61:0.36000001 62:0 63:0.18000001 64:0.18000001 65:0.36000001 66:0.36000001 67:0 68:0.72000003 69:0 70:0.36000001 71:0.54000002 72:0.36000001 73:0 74:0.18000001 75:0.18000001 76:0.18000001 77:0.18000001 78:0.36000001 79:0 80:0 81:0.18000001 82:0.18000001 83:0.18000001 84:0.18000001 85:0.18000001 86:0 87:0.18000001 88:0.36000001 89:0.54000002 90:0.18000001 91:0 92:0.54000002 93:0.18000001 94:0.54000002 95:0.36000001 96:0.54000002 97:0.18000001 98:0.36000001 99:0 100:0.54000002 101:0.18000001 102:0.54000002 103:0.36000001 104:0 105:0.18000001 106:0 107:0.18000001 108:0 109:0.36000001 110:0.18000001 111:0.36000001 112:0.36000001 113:0 114:0.18000001 115:0.18000001 116:0.36000001 117:0.18000001 118:0.18000001 119:0 120:0.36000001 121:0 122:0 123:0 124:0.36000001 125:0 126:0 127:0.36000001 128:0.54000002 129:0.18000001 130:0.54000002 131:0 132:0.18000001 133:0 134:0.18000001 135:0.18000001 136:0.36000001 137:0.36000001 138:0 139:0 140:0.18000001 141:0.18000001 142:0 143:0.72000003 144:0 145:0 146:0.36000001 147:0.36000001 148:0.36000001 149:0.54000002 150:0.72000003 151:0 152:0.54000002 153:0.36000001 154:0.36000001 155:0.54000002 156:0.54000002 157:0.18000001 158:0.54000002 159:0 160:0.18000001 161:0.54000002 162:0.36000001 163:0.18000001 164:0.36000001 165:0.36000001 166:0.18000001 167:0 168:0.36000001 169:0.36000001 170:0 171:0.36000001 172:0.18000001 173:0.36000001 174:0.54000002 175:0.18000001 176:0.54000002 177:0.18000001 178:0.36000001 179:0 180:0 181:0.36000001 182:0.36000001 183:0.18000001 184:0.36000001 185:0.36000001 186:0 187:0.18000001 188:0.54000002 189:0.18000001 190:1.4400001 191:0.36000001 192:1.08 193:0.89999998 194:0.72000003 195:0.89999998 196:1.08 197:0.36000001 198:0.18000001 199:0 200:0.36000001 201:0 202:0 203:0 204:0 205:0.36000001 206:0 207:0 208:0 209:0.36000001 210:0.36000001 211:0 212:0.18000001 213:0 214:0 215:0.18000001 216:0.54000002 217:0.18000001 218:0 219:0 220:0 221:0.72000003 222:0 223:0.18000001 224:0.36000001 225:0.54000002 226:0.89999998 227:0.89999998 228:0.18000001 229:0 230:0.36000001 231:0 232:0.72000003 233:0.18000001 234:0.18000001 235:0.89999998 236:0 237:0.18000001 238:0.36000001 239:0 240:0.36000001 241:0.18000001 242:0 243:0.54000002 244:0.36000001 245:0.36000001 246:0 247:0 248:0 249:0.18000001 250:1.08 251:0 252:0.18000001 253:0.36000001 254:0 255:0 256:0.36000001 257:0.18000001 258:0.18000001 259:0 260:0.18000001 261:0.18000001 262:0 263:0 264:0.36000001 265:0.36000001 266:0 267:0 268:0.89999998 269:0.18000001 270:1.08 271:0.18000001 272:0.18000001 273:0.18000001 274:0.54000002 275:0.54000002 276:0.36000001 277:0 278:0.18000001 279:0.18000001 280:0.18000001 281:0.36000001 282:0.36000001 283:0.36000001 284:0.36000001 285:0.36000001 286:0.36000001 287:0.18000001 288:0.54000002 289:0.36000001 290:0.72000003 291:0 292:0.36000001 293:0.18000001 294:0.54000002 295:0.36000001 296:0.36000001 297:0 298:0 299:0 300:0.18000001 301:0 302:0.18000001 303:0 304:0.36000001 305:0.72000003 306:0.72000003 307:0.54000002 308:0.72000003 309:0.54000002 310:0.89999998 311:0 312:0.54000002 313:0.89999998 314:0.54000002 315:0.18000001 316:0.89999998 317:0.72000003 318:0.89999998 319:0 320:0 321:0.72000003 322:0.18000001 323:0.54000002 324:0.18000001 325:0.18000001 326:0.18000001 327:0 328:0.36000001 329:0.18000001 330:0.36000001 331:0 332:0.54000002 333:0.18000001 334:0.18000001 335:0 336:0.72000003 337:0.54000002 338:0 339:0 340:0.36000001 341:0.18000001 342:0.54000002 343:0.36000001 344:0.18000001 345:0.18000001 346:0 347:0 348:0 349:0.18000001 350:0.72000003 351:0 352:0.54000002 353:0.18000001 354:0 355:0.54000002 356:0.18000001 357:0.54000002 358:0.36000001 359:0 360:0.18000001 361:0 362:0 363:0 364:0 365:0 366:0 367:0 368:0 369:0 370:0 371:0 372:0 373:0 374:0.18000001 375:0 376:0.18000001 377:0 378:0 379:0 380:0 381:0.36000001 382:0.18000001 383:0.18000001 384:0.18000001 385:0.18000001 386:0.36000001 387:0.18000001 388:0 389:0.36000001 390:0.36000001 391:0 392:0.18000001 393:0 394:0 395:0.18000001 396:0.18000001 397:0.18000001 398:0.18000001 399:0 400:0.18000001 #
0.00046191423490659093333693396843387 1:3.97 2:0.23 3:0.23 4:0.69999999 5:0.23 6:0.69999999 7:0.93000001 8:0.23 9:0.23 10:0.23 11:0.23 12:0 13:0.69999999 14:0.23 15:0.23 16:1.4 17:0.47 18:0.23 19:0 20:0.23 21:0 22:0 23:0 24:0.23 25:0 26:0.23 27:0 28:0.23 29:0.93000001 30:0.69999999 31:0 32:0 33:0 34:0 35:0.23 36:0.23 37:0 38:0.23 39:0 40:0.23 41:0.23 42:0 43:0 44:0 45:0 46:0 47:0 48:0 49:0.23 50:0.23 51:0.23 52:0 53:0.23 54:0.23 55:0 56:0.47 57:0 58:0.47 59:0 60:0 61:0.47 62:0.47 63:0.47 64:0.23 65:0 66:0.69999999 67:0.23 68:0 69:0 70:0 71:0.23 72:0 73:0.23 74:0.23 75:0 76:0.23 77:0.23 78:0.69999999 79:0 80:0 81:0.47 82:0 83:0 84:0 85:0.47 86:0.93000001 87:0.23 88:0 89:0.23 90:0 91:0 92:0.23 93:0.23 94:0.23 95:0 96:0.47 97:0.23 98:0.23 99:0 100:0.23 101:0.69999999 102:0.23 103:0.23 104:0.47 105:0.69999999 106:1.64 107:0 108:0.23 109:0.47 110:0 111:0.23 112:0 113:0.23 114:0 115:0.47 116:0.69999999 117:0 118:0.47 119:0 120:0.47 121:0.47 122:0.23 123:0 124:0.23 125:0.47 126:0 127:0.69999999 128:0 129:0 130:0.47 131:0.23 132:0.23 133:0.69999999 134:0.69999999 135:0.23 136:1.17 137:0.23 138:0 139:0 140:0 141:0.23 142:0 143:0.47 144:0 145:0.23 146:0.23 147:0.23 148:0.23 149:0 150:0 151:0 152:0 153:0 154:0 155:0.23 156:0.47 157:0 158:0 159:0 160:0 161:0.47 162:0.47 163:0 164:0 165:0.23 166:0.23 167:0.23 168:0.23 169:0.23 170:0.23 171:0.23 172:0.47 173:0 174:0 175:0.23 176:0.23 177:0.23 178:0.23 179:0 180:0 181:0.23 182:0 183:0 184:0.47 185:0.23 186:0.47 187:0.47 188:0 189:0 190:0.93000001 191:0 192:0 193:0.47 194:0.23 195:0.23 196:0.93000001 197:0.23 198:0 199:0 200:0 201:0.23 202:0 203:0.23 204:0 205:0 206:0.23 207:0 208:0 209:0.23 210:0 211:0.23 212:0.23 213:0.23 214:0.23 215:0.23 216:0.23 217:0 218:0 219:0 220:0.23 221:0.23 222:0 223:0.23 224:0.23 225:0 226:0 227:0 228:0.23 229:0 230:0 231:0 232:0.23 233:0 234:0.23 235:0.47 236:0 237:0.23 238:0.23 239:0.23 240:0 241:0.47 242:0 243:0 244:0 245:0.47 246:0.47 247:0.93000001 248:0.47 249:0 250:0.69999999 251:0.23 252:0.23 253:0.93000001 254:0 255:0.47 256:0.69999999 257:0.93000001 258:0.93000001 259:0 260:0 261:0.23 262:0 263:0 264:0.93000001 265:0 266:0 267:0 268:0 269:0.23 270:0.47 271:0 272:0.23 273:0.47 274:1.4 275:0 276:1.17 277:0.23 278:0.23 279:0 280:0 281:0.23 282:0 283:0 284:0 285:0.23 286:0.23 287:0.23 288:0 289:0.47 290:0.23 291:0 292:0 293:0 294:0.93000001 295:0.47 296:0.69999999 297:0.23 298:0 299:0 300:0.23 301:2.0999999 302:0 303:0.23 304:0.47 305:0.69999999 306:0.23 307:0.47 308:0.23 309:0.23 310:0.47 311:0.47 312:0.23 313:1.87 314:0.47 315:0.47 316:2.5699999 317:0.23 318:1.64 319:0 320:0.47 321:0.23 322:0.69999999 323:0 324:0 325:0 326:0 327:0.23 328:0.23 329:0 330:0 331:0 332:0 333:0.69999999 334:0 335:0 336:1.17 337:1.4 338:0.23 339:0 340:0 341:0.47 342:0.93000001 343:0.23 344:0.47 345:0 346:0.69999999 347:0.93000001 348:0 349:0.23 350:0 351:0 352:0 353:0.69999999 354:0.23 355:0 356:0.69999999 357:0 358:0.47 359:0 360:0 361:0 362:0 363:0 364:0 365:0.23 366:0 367:0 368:0 369:0 370:0 371:0 372:0 373:0 374:0 375:0 376:0 377:0 378:0 379:0 380:0 381:0 382:0 383:0 384:0 385:0 386:0.23 387:0.23 388:0 389:0.23 390:0.23 391:0 392:0.47 393:0.23 394:0.23 395:0.23 396:0 397:0 398:0 399:0 400:0 #
0.00067664326931920928780150870096577 1:2.01 2:0.31 3:0.62 4:0.15000001 5:0.31 6:0.76999998 7:0.15000001 8:0 9:0.15000001 10:0.62 11:0.31 12:0.46000001 13:0.46000001 14:0.15000001 15:0.31 16:0.62 17:0.15000001 18:0.76999998 19:0 20:0 21:0 22:0 23:0 24:0.15000001 25:0 26:0.15000001 27:0 28:0.15000001 29:0.62 30:0.31 31:0 32:0 33:0 34:0 35:0.15000001 36:0 37:0 38:0 39:0 40:0 41:0.15000001 42:0.15000001 43:0.76999998 44:0.76999998 45:0 46:0.62 47:0.15000001 48:0 49:0 50:0.76999998 51:0 52:0.31 53:0.31 54:0.15000001 55:0 56:0.46000001 57:0.15000001 58:0.15000001 59:0 60:0.15000001 61:0.62 62:0.15000001 63:0.93000001 64:1.39 65:0 66:0.15000001 67:0.15000001 68:0.62 69:0.15000001 70:0.46000001 71:0 72:0.31 73:0.31 74:0.31 75:0.31 76:0.15000001 77:0.62 78:0.15000001 79:0 80:0.15000001 81:0.31 82:0 83:0 84:0 85:0.15000001 86:0.31 87:0.15000001 88:0 89:0.15000001 90:0.31 91:0 92:0.15000001 93:0.31 94:0 95:0 96:0 97:0.15000001 98:0 99:0 100:0.15000001 101:0.76999998 102:0.15000001 103:0 104:0.46000001 105:0.15000001 106:2.79 107:0.15000001 108:0.15000001 109:0.31 110:0.62 111:0.62 112:0.15000001 113:0 114:0.46000001 115:0.62 116:1.39 117:0.15000001 118:0.46000001 119:0 120:0.31 121:0.15000001 122:0.15000001 123:0.15000001 124:0 125:0.15000001 126:0 127:0.46000001 128:0 129:0.31 130:0.62 131:0 132:0.46000001 133:0.46000001 134:0.31 135:0 136:0.62 137:0 138:0 139:0 140:0 141:0 142:0 143:0.31 144:0.62 145:0 146:0 147:0.15000001 148:0.31 149:0.15000001 150:0.15000001 151:0 152:0.15000001 153:0 154:0 155:0 156:0.76999998 157:0 158:0 159:0 160:0 161:0.15000001 162:0.15000001 163:0.15000001 164:0.31 165:0 166:0.15000001 167:0.15000001 168:0.15000001 169:0.31 170:0.31 171:0 172:0.46000001 173:0.15000001 174:0.15000001 175:0.46000001 176:0.93000001 177:0.31 178:0.62 179:0 180:0 181:0.15000001 182:0 183:0.62 184:0.15000001 185:0.31 186:0.62 187:0.15000001 188:0.15000001 189:0.62 190:0.76999998 191:0.31 192:0 193:0.62 194:0.15000001 195:0.15000001 196:0.76999998 197:0.46000001 198:0.31 199:0 200:0.31 201:0.15000001 202:0 203:0 204:0 205:0 206:0 207:0 208:0 209:0.15000001 210:0.31 211:0.31 212:0.31 213:0.46000001 214:0 215:0.15000001 216:0.31 217:0.15000001 218:0.15000001 219:0 220:0 221:0.31 222:0 223:0.15000001 224:0.15000001 225:0 226:0.62 227:0.31 228:0 229:0.15000001 230:0.15000001 231:0 232:2.6300001 233:0.46000001 234:0.31 235:0.15000001 236:1.08 237:0.15000001 238:0 239:0.15000001 240:0 241:1.24 242:0 243:0.15000001 244:0.76999998 245:0.46000001 246:1.08 247:0.31 248:0.15000001 249:0 250:0.31 251:0 252:0.31 253:1.55 254:0.15000001 255:0.15000001 256:0.62 257:0.31 258:0.46000001 259:0 260:0.15000001 261:0.46000001 262:0 263:0.46000001 264:0.31 265:0 266:0.31 267:0.31 268:0 269:0 270:0 271:0.15000001 272:0.15000001 273:0.15000001 274:1.55 275:0.15000001 276:0.15000001 277:0.15000001 278:0 279:0 280:0 281:0.15000001 282:0 283:0 284:0.31 285:0.31 286:0.15000001 287:0 288:0 289:0.31 290:0.46000001 291:0 292:0 293:0.31 294:0.15000001 295:0.15000001 296:0.62 297:0.31 298:0.15000001 299:0 300:0.15000001 301:0.15000001 302:0 303:0.62 304:0.62 305:0.15000001 306:1.39 307:0.76999998 308:0.76999998 309:0.62 310:0.15000001 311:0.46000001 312:0.62 313:1.39 314:0.31 315:0.46000001 316:2.48 317:0.31 318:0.76999998 319:0 320:0.15000001 321:0.46000001 322:0.31 323:0.15000001 324:0.31 325:0 326:0.15000001 327:0.31 328:0.15000001 329:0.46000001 330:0 331:0 332:0.15000001 333:0.93000001 334:0 335:0 336:0.46000001 337:0.62 338:0 339:0 340:0 341:0.76999998 342:0.15000001 343:0 344:0.46000001 345:0 346:0.15000001 347:0 348:0 349:0.46000001 350:0.15000001 351:0.15000001 352:0 353:0.15000001 354:0.15000001 355:0.31 356:0.46000001 357:0.46000001 358:0.31 359:0 360:0 361:0 362:0 363:0 364:0 365:0.15000001 366:0 367:0 368:0 369:0 370:0 371:0 372:0 373:0 374:0 375:0 376:0 377:0 378:0 379:0 380:0 381:0.31 382:0 383:0 384:0 385:0 386:0.31 387:0.15000001 388:0 389:0 390:0.15000001 391:0 392:0.15000001 393:0.15000001 394:0 395:0 396:0.31 397:0 398:0 399:0 400:0 #
0.0031029430951657159531986707179385 1:1.21 2:0.27000001 3:0.30000001 4:0.47999999 5:0.079999998 6:0.62 7:0.13 8:0.31999999 9:0.31999999 10:0.46000001 11:0.19 12:0.43000001 13:0.43000001 14:0.46000001 15:0.46000001 16:1.13 17:0.77999997 18:0.34999999 19:0.029999999 20:0.050000001 21:0.27000001 22:0.079999998 23:0.13 24:0.11 25:0.050000001 26:0.30000001 27:0 28:0.029999999 29:0.11 30:0.11 31:0.029999999 32:0.079999998 33:0.13 34:0.16 35:0.11 36:0.31999999 37:0.23999999 38:0.079999998 39:0.050000001 40:0.13 41:0.38 42:0.13 43:0.62 44:0.46000001 45:0.11 46:0.40000001 47:0.050000001 48:0.20999999 49:0.27000001 50:0.27000001 51:0.13 52:0.30000001 53:0.11 54:0.20999999 55:0.11 56:0.30000001 57:0.19 58:0.19 59:0.029999999 60:0.11 61:0.43000001 62:0.079999998 63:0.58999997 64:0.69999999 65:0.23999999 66:0.34999999 67:0.079999998 68:0.11 69:0.38 70:0.43000001 71:0.16 72:0.16 73:0.40000001 74:0.38 75:0.050000001 76:0.38 77:0.31999999 78:0.34999999 79:0.029999999 80:0.13 81:0.11 82:0.079999998 83:0.029999999 84:0.23999999 85:0.079999998 86:0.27000001 87:0.029999999 88:0.079999998 89:0.16 90:0.27000001 91:0 92:0.050000001 93:0.16 94:0.23999999 95:0.13 96:0.30000001 97:0.11 98:0.20999999 99:0.029999999 100:0.050000001 101:0.67000002 102:0.079999998 103:0.34999999 104:0.43000001 105:0.11 106:0.69999999 107:0.079999998 108:0.20999999 109:0.34999999 110:0.50999999 111:0.11 112:0.58999997 113:0.16 114:0.19 115:0.19 116:1.15 117:0.46000001 118:0.40000001 119:0.029999999 120:0.079999998 121:0.029999999 122:0.029999999 123:0.029999999 124:0.050000001 125:0.050000001 126:0.16 127:0.029999999 128:0.16 129:0.11 130:0.050000001 131:0 132:0 133:0.029999999 134:0.11 135:0.079999998 136:0.19 137:0.11 138:0.050000001 139:0 140:0.050000001 141:0.20999999 142:0.13 143:0.16 144:0.16 145:0.13 146:0.13 147:0.13 148:0.20999999 149:0.20999999 150:0.31999999 151:0.11 152:0.11 153:0.27000001 154:0.27000001 155:0.079999998 156:0.56 157:0.11 158:0.38 159:0.029999999 160:0.050000001 161:0.38 162:0.27000001 163:0.23999999 164:0.38 165:0.19 166:0.16 167:0.11 168:0.31999999 169:0.50999999 170:0.46000001 171:0.16 172:0.30000001 173:0.46000001 174:0.31999999 175:0.38 176:0.67000002 177:0.30000001 178:0.31999999 179:0.029999999 180:0.16 181:0.56 182:0.11 183:0.38 184:0.56 185:0.13 186:0.47999999 187:0 188:0.30000001 189:0.72000003 190:0.62 191:0.029999999 192:0.38 193:0.56 194:0.82999998 195:0.16 196:0.62 197:0.40000001 198:0.23999999 199:0 200:0.19 201:0.16 202:0.050000001 203:0.19 204:0.13 205:0.079999998 206:0.11 207:0 208:0.13 209:0.079999998 210:0.19 211:0.029999999 212:0.029999999 213:0.079999998 214:0.13 215:0.13 216:0.13 217:0.13 218:0.079999998 219:0.029999999 220:0.050000001 221:0.46000001 222:0.19 223:0.19 224:0.30000001 225:0.16 226:0.47999999 227:0.050000001 228:0.050000001 229:0.16 230:0.46000001 231:0.079999998 232:0.16 233:0.30000001 234:0.34999999 235:0.16 236:0.63999999 237:0.20999999 238:0.27000001 239:0.029999999 240:0.20999999 241:0.47999999 242:0.11 243:0.16 244:0.20999999 245:0.029999999 246:0.30000001 247:0.079999998 248:0.34999999 249:0.31999999 250:0.54000002 251:0.19 252:0.23999999 253:0.27000001 254:0.67000002 255:0.19 256:0.75 257:0.50999999 258:0.31999999 259:0.050000001 260:0.050000001 261:0.69999999 262:0.050000001 263:0.11 264:0.20999999 265:0.27000001 266:0.20999999 267:0.079999998 268:0.20999999 269:0.23999999 270:0.62 271:0.19 272:0.47999999 273:0.91000003 274:1.66 275:0.40000001 276:0.47999999 277:0.30000001 278:0.54000002 279:0.029999999 280:0.11 281:0.11 282:0.19 283:0.050000001 284:0.16 285:0.11 286:0.27000001 287:0.050000001 288:0.20999999 289:0.38 290:0.23999999 291:0.050000001 292:0.31999999 293:0.19 294:0.23999999 295:0.23999999 296:0.43000001 297:0.19 298:0.16 299:0.029999999 300:0.050000001 301:1.21 302:0.30000001 303:0.30000001 304:0.30000001 305:0.20999999 306:1.21 307:0.13 308:0.58999997 309:0.88999999 310:0.67000002 311:0.11 312:0.62 313:0.67000002 314:0.50999999 315:0.34999999 316:2.0899999 317:1.1 318:0.50999999 319:0.029999999 320:0.050000001 321:0.72000003 322:0.13 323:0.27000001 324:0.30000001 325:0.31999999 326:0.43000001 327:0.050000001 328:0.11 329:0.27000001 330:0.40000001 331:0.13 332:0.40000001 333:0.31999999 334:0.56 335:0.16 336:0.91000003 337:0.67000002 338:0.40000001 339:0.029999999 340:0.20999999 341:0.31999999 342:0.13 343:0.23999999 344:0.31999999 345:0.20999999 346:0.19 347:0.079999998 348:0.11 349:0.40000001 350:0.43000001 351:0.20999999 352:0.19 353:0.30000001 354:0.46000001 355:0.19 356:0.56 357:0.54000002 358:0.43000001 359:0 360:0.13 361:0 362:0 363:0 364:0.050000001 365:0.029999999 366:0 367:0.029999999 368:0 369:0.050000001 370:0.079999998 371:0 372:0 373:0.050000001 374:0 375:0.029999999 376:0.11 377:0 378:0.050000001 379:0 380:0 381:0.079999998 382:0.11 383:0.23999999 384:0.19 385:0.029999999 386:0.079999998 387:0.11 388:0.050000001 389:0.16 390:0.16 391:0.029999999 392:0.11 393:0.029999999 394:0.050000001 395:0.079999998 396:0.11 397:0.16 398:0.11 399:0.029999999 400:0.050000001 #
-0.00010885646302154446173147267495906 1:1.39 2:0 3:0.20999999 4:0.49000001 5:0 6:0.55000001 7:0.34999999 8:0.20999999 9:0.20999999 10:0.41999999 11:0.20999999 12:0.20999999 13:0.62 14:0.41999999 15:0.49000001 16:1.11 17:0.28 18:0.28 19:0 20:0.14 21:0.14 22:0.14 23:0 24:0.14 25:0 26:0.14 27:0.07 28:0.07 29:0.14 30:0.14 31:0.07 32:0.07 33:0.07 34:0.28 35:0.28 36:0.28 37:0.07 38:0 39:0.07 40:0 41:0.55000001 42:0.07 43:0.14 44:0.14 45:0.14 46:0.34999999 47:0.07 48:0.20999999 49:0.14 50:0.20999999 51:0.07 52:0 53:0.07 54:0.14 55:0.14 56:0.41999999 57:0.07 58:0.07 59:0 60:0.07 61:0.28 62:0.14 63:0.14 64:0.14 65:0.34999999 66:0.07 67:0.07 68:0.14 69:0.41999999 70:0.28 71:0.14 72:0.14 73:0.41999999 74:0.14 75:0.41999999 76:0.20999999 77:0.28 78:0 79:0 80:0.07 81:0.20999999 82:0.07 83:0.20999999 84:0.14 85:0.07 86:0.07 87:0.07 88:0 89:0 90:0.14 91:0 92:0.07 93:0.07 94:0.20999999 95:0.28 96:0.07 97:0.14 98:0.20999999 99:0 100:0.07 101:0.41999999 102:0.20999999 103:0.14 104:0.28 105:0.20999999 106:1.11 107:0.07 108:0.14 109:0 110:0.62 111:0.20999999 112:0.49000001 113:0.14 114:0.14 115:0.34999999 116:1.25 117:0.34999999 118:0.41999999 119:0 120:0 121:0.34999999 122:0 123:0 124:0 125:0.07 126:0.14 127:0.49000001 128:0.14 129:0.14 130:0.55000001 131:0.07 132:0.07 133:0.14 134:0.41999999 135:0.07 136:0.62 137:0.14 138:0.41999999 139:0 140:0.14 141:0.41999999 142:0.14 143:0.14 144:0.20999999 145:0.07 146:0.28 147:0 148:0.34999999 149:0.07 150:0.20999999 151:0 152:0.14 153:0.14 154:0.28 155:0.20999999 156:0.07 157:0.28 158:0.41999999 159:0.07 160:0 161:0.34999999 162:0.07 163:0 164:0.14 165:0.20999999 166:0.14 167:0.14 168:0.07 169:0.14 170:0.28 171:0.07 172:0.14 173:0.07 174:0.07 175:0.34999999 176:0.20999999 177:0.07 178:0.28 179:0.07 180:0 181:0.34999999 182:0.07 183:0.20999999 184:0.41999999 185:0.20999999 186:0.28 187:0.49000001 188:0.28 189:0.41999999 190:0.49000001 191:0.14 192:0.28 193:0.28 194:0.28 195:0.41999999 196:0.41999999 197:0.75999999 198:0.14 199:0 200:0.14 201:0.14 202:0.07 203:0.28 204:0.07 205:0.07 206:0 207:0.20999999 208:0.07 209:0.14 210:0.07 211:0 212:0.14 213:0.14 214:0 215:0.20999999 216:0.07 217:0.14 218:0 219:0.07 220:0.07 221:0.20999999 222:0.14 223:0 224:0.20999999 225:0.07 226:0.49000001 227:0.14 228:0.07 229:0.07 230:0.20999999 231:0.07 232:0.20999999 233:0.07 234:0.28 235:0.41999999 236:1.04 237:0.07 238:0.07 239:0 240:0.07 241:0.14 242:0.34999999 243:0.34999999 244:0.34999999 245:0 246:0.34999999 247:0.20999999 248:0.14 249:0.20999999 250:0.49000001 251:0 252:0.07 253:2.6400001 254:0.69 255:0.49000001 256:0.97000003 257:0.20999999 258:0.55000001 259:0 260:0 261:0.20999999 262:0.14 263:0.20999999 264:0.14 265:0.07 266:0.20999999 267:0.55000001 268:0.20999999 269:0.14 270:0.28 271:0.14 272:0.41999999 273:0.41999999 274:4.3000002 275:0.62 276:0.62 277:0.14 278:0.20999999 279:0.07 280:0.41999999 281:0.41999999 282:0.07 283:0.28 284:0.34999999 285:0.20999999 286:0.20999999 287:0.49000001 288:0.20999999 289:0.20999999 290:0.34999999 291:0.14 292:0.28 293:0.41999999 294:0.69 295:0.89999998 296:0.89999998 297:0.41999999 298:0.34999999 299:0.20999999 300:0.14 301:1.04 302:0.20999999 303:0.34999999 304:0.07 305:0.07 306:1.46 307:0.41999999 308:0.41999999 309:0.14 310:0.49000001 311:0.20999999 312:0.89999998 313:1.39 314:0.34999999 315:0.49000001 316:5.48 317:1.04 318:0.89999998 319:0.14 320:0 321:0.49000001 322:0.14 323:0.14 324:0.28 325:0.07 326:0.28 327:0.07 328:0.07 329:0.14 330:0.41999999 331:0.07 332:0.20999999 333:0.82999998 334:0.20999999 335:0.28 336:0.69 337:0.55000001 338:0.20999999 339:0 340:0 341:0.34999999 342:0.07 343:0.14 344:0.20999999 345:0.07 346:0.20999999 347:0.07 348:0.55000001 349:0.07 350:0.34999999 351:0.14 352:0.07 353:0.28 354:0.49000001 355:0.55000001 356:0.89999998 357:0 358:0.49000001 359:0 360:0.07 361:0.07 362:0 363:0 364:0.07 365:0.07 366:0.07 367:0 368:0 369:0 370:0 371:0.07 372:0.07 373:0 374:0 375:0.14 376:0.07 377:0.07 378:0 379:0 380:0 381:0.07 382:0.07 383:0.14 384:0 385:0.07 386:0.14 387:0 388:0.14 389:0.07 390:0.07 391:0.07 392:0 393:0 394:0.14 395:0.14 396:0.14 397:0.07 398:0.07 399:0 400:0 #
-0.00019666959950287077785353873071728 1:0.81 2:0 3:0.34999999 4:0.57999998 5:0 6:0.69 7:0.46000001 8:0.12 9:0.34999999 10:0.81 11:0.12 12:0.57999998 13:0.12 14:0.12 15:0.34999999 16:1.27 17:0.23 18:0.12 19:0 20:0.34999999 21:0 22:0 23:0.23 24:0.12 25:0 26:0.23 27:0.12 28:0 29:0.23 30:0.46000001 31:0 32:0.12 33:0 34:0.12 35:0.12 36:0.34999999 37:0.12 38:0.23 39:0 40:0 41:0.12 42:0.12 43:0.57999998 44:0.69 45:0.57999998 46:0.34999999 47:0 48:0.12 49:0.12 50:0.23 51:0 52:0.12 53:0.12 54:0.12 55:0.12 56:0.69 57:0.23 58:0.23 59:0.12 60:0 61:0.81 62:0 63:0.92000002 64:2.4300001 65:0.23 66:0.23 67:0 68:0.34999999 69:0.12 70:1.04 71:0 72:0 73:0.12 74:0.57999998 75:0 76:0.34999999 77:0.12 78:0.12 79:0 80:0.12 81:0.34999999 82:0.12 83:0.23 84:0.12 85:0.34999999 86:0.23 87:0 88:0 89:0.12 90:0 91:0 92:0.23 93:0 94:0.12 95:0.12 96:0.34999999 97:0.23 98:0.23 99:0 100:0.12 101:0.69 102:0.34999999 103:0.12 104:0.12 105:0.34999999 106:0.69 107:0.12 108:0.12 109:0.12 110:0.57999998 111:0.46000001 112:0.12 113:0.12 114:0.12 115:0.34999999 116:0.69 117:0.23 118:0.69 119:0 120:0.12 121:0 122:0.12 123:0.12 124:0 125:0.23 126:0 127:0.23 128:0 129:0 130:0.46000001 131:0 132:0.12 133:0.34999999 134:1.04 135:0.23 136:0.23 137:0.12 138:0.23 139:0 140:0.12 141:0.23 142:0 143:0 144:0.34999999 145:0.12 146:0.23 147:0 148:0 149:0.23 150:0.34999999 151:0.12 152:0.12 153:0.23 154:0.12 155:0.23 156:0.23 157:0 158:0.12 159:0.12 160:0 161:0.23 162:0.23 163:0.12 164:0.12 165:0 166:0.12 167:0.23 168:0.23 169:0.12 170:0.34999999 171:0 172:0 173:0 174:0.46000001 175:0.23 176:0.12 177:0.12 178:0.23 179:0 180:0 181:0.46000001 182:0 183:0.23 184:0.69 185:0.23 186:0.34999999 187:0.34999999 188:0.46000001 189:0 190:0.69 191:0.23 192:0.92000002 193:0.34999999 194:1.04 195:0.69 196:0.69 197:0.57999998 198:0.46000001 199:0.12 200:0.23 201:0.12 202:0.34999999 203:0.12 204:0 205:0 206:0.12 207:0 208:0 209:0 210:0 211:0 212:0.12 213:0.12 214:0 215:0.12 216:0.12 217:0 218:0.23 219:0 220:0 221:0.46000001 222:0.23 223:0 224:0.34999999 225:0.23 226:0.57999998 227:0.12 228:0 229:0.12 230:0.12 231:0 232:1.39 233:0.12 234:0 235:0.23 236:0.57999998 237:0.23 238:0.12 239:0.12 240:0 241:0.46000001 242:0.12 243:0.12 244:0.23 245:0 246:0.34999999 247:0.12 248:0 249:0.34999999 250:0.34999999 251:0 252:0 253:0.12 254:0.81 255:0 256:0.57999998 257:0.12 258:0.23 259:0 260:0 261:0.34999999 262:0 263:0.12 264:0.23 265:0.23 266:0.12 267:1.16 268:0.46000001 269:0.34999999 270:1.27 271:0.12 272:0.12 273:0.46000001 274:5.7800002 275:0.23 276:0.12 277:0.23 278:0.23 279:0 280:0.12 281:0.34999999 282:0.23 283:0.46000001 284:0.34999999 285:0.12 286:0 287:0 288:0.12 289:0 290:0.46000001 291:0.12 292:0.12 293:0.12 294:0.23 295:0.23 296:0.81 297:0.12 298:0.57999998 299:0 300:0.12 301:1.27 302:0.23 303:0.46000001 304:0.69 305:0.23 306:0.92000002 307:0.23 308:0.23 309:0.23 310:0.57999998 311:0.12 312:0.57999998 313:0.57999998 314:0.12 315:0.46000001 316:4.0500002 317:0.69 318:0.69 319:0 320:0.12 321:0.12 322:0.12 323:0.12 324:0.23 325:0 326:0 327:0.23 328:0.23 329:0.12 330:0.57999998 331:0 332:0 333:0.57999998 334:0.46000001 335:0.34999999 336:0.57999998 337:0.12 338:0.34999999 339:0 340:0 341:0.57999998 342:0.12 343:0.12 344:0.23 345:0 346:0.57999998 347:0.12 348:0.34999999 349:0.34999999 350:0.12 351:0 352:0.34999999 353:0.46000001 354:0.23 355:0.23 356:0.57999998 357:0.34999999 358:0.57999998 359:0.12 360:0.23 361:0 362:0 363:0 364:0 365:0 366:0 367:0 368:0 369:0 370:0.34999999 371:0 372:0 373:0 374:0.12 375:0 376:0 377:0.12 378:0 379:0 380:0 381:0 382:0.12 383:0.23 384:0 385:0 386:0.34999999 387:0.12 388:0 389:0 390:0.12 391:0 392:0 393:0 394:0.12 395:0.23 396:0.12 397:0.23 398:0 399:0 400:0 #
-0.00026594273763880959442554297034178 1:2.71 2:0.28 3:0.37 4:0.37 5:0.090000004 6:0.56 7:0.19 8:0.28 9:0.19 10:0.56 11:0 12:0.19 13:0.64999998 14:0.47 15:0.090000004 16:1.3099999 17:0.93000001 18:0.19 19:0 20:0.090000004 21:0.28 22:0.090000004 23:0.19 24:0.19 25:0.090000004 26:0.19 27:0 28:0 29:0.090000004 30:0.64999998 31:0 32:0.19 33:0.090000004 34:0.19 35:0.19 36:0.090000004 37:0 38:0 39:0 40:0.090000004 41:0 42:0.090000004 43:0.090000004 44:0.090000004 45:0 46:0.090000004 47:0.090000004 48:0.28 49:0.37 50:0.47 51:0 52:0.28 53:0.19 54:0.28 55:0.090000004 56:0.64999998 57:0.28 58:0.090000004 59:0 60:0.090000004 61:0.47 62:0 63:0.47 64:0.19 65:0.090000004 66:0.19 67:0.090000004 68:0.19 69:0.090000004 70:0.47 71:0 72:0.19 73:0.19 74:0.47 75:0.19 76:0.19 77:0.19 78:0.090000004 79:0.090000004 80:0.090000004 81:0.28 82:0.19 83:0.19 84:0 85:0.28 86:0.090000004 87:0 88:0 89:0.090000004 90:0 91:0 92:0.090000004 93:0.37 94:0.37 95:0 96:0.47 97:0 98:0.19 99:0 100:0.28 101:0.19 102:0.19 103:0.090000004 104:0.19 105:0.090000004 106:0.56 107:0.19 108:0 109:0.28 110:0.19 111:0.090000004 112:0.28 113:0.19 114:0.090000004 115:0.28 116:0.56 117:0.090000004 118:0.19 119:0.090000004 120:0.28 121:0.47 122:0 123:0 124:0.090000004 125:0.19 126:0.19 127:0.37 128:0 129:0 130:0.56 131:0 132:0.56 133:0.19 134:0.75 135:0.090000004 136:0.19 137:0.19 138:0.19 139:0 140:0.28 141:0.090000004 142:0 143:0.19 144:0.19 145:0.19 146:0.19 147:0 148:0.090000004 149:0.28 150:0 151:0.090000004 152:0.28 153:0.19 154:0 155:0 156:0.64999998 157:0.28 158:0.090000004 159:0 160:0.090000004 161:0 162:0.19 163:0 164:0.090000004 165:0 166:0.28 167:0 168:0.47 169:0.19 170:0.56 171:0.090000004 172:0.090000004 173:0.19 174:0.28 175:0.28 176:0.19 177:0.090000004 178:0.28 179:0 180:0.19 181:0.64999998 182:0.28 183:0.090000004 184:0.28 185:0.56 186:0.19 187:0.47 188:0.75 189:0.56 190:1.21 191:0 192:0.37 193:0.93000001 194:1.12 195:0.64999998 196:0.93000001 197:0.83999997 198:0.37 199:0 200:0.19 201:0 202:0 203:0.090000004 204:0.090000004 205:0.090000004 206:0 207:0 208:0 209:0.090000004 210:0.090000004 211:0.090000004 212:0 213:0 214:0 215:0.090000004 216:0.19 217:0 218:0.090000004 219:0 220:0 221:0.47 222:0.28 223:0.090000004 224:0 225:0.19 226:0.37 227:0.19 228:0 229:0 230:0.56 231:0.090000004 232:0.56 233:0.090000004 234:0.28 235:0.090000004 236:1.6799999 237:0.19 238:0 239:0 240:0.19 241:0.83999997 242:0.090000004 243:0.28 244:0.28 245:0.19 246:0.19 247:0 248:0.19 249:0.28 250:0.56 251:0 252:0.28 253:0.83999997 254:0.28 255:0.090000004 256:0.75 257:0.64999998 258:0.28 259:0 260:0 261:0.56 262:0.090000004 263:0 264:0.64999998 265:0.28 266:0.090000004 267:1.12 268:0 269:0.28 270:1.12 271:0.19 272:0.090000004 273:0.090000004 274:5.5 275:0.28 276:0.56 277:0.19 278:0.19 279:0 280:0 281:0.28 282:0.090000004 283:0.28 284:0.090000004 285:0.090000004 286:0.090000004 287:0.19 288:0.19 289:0.090000004 290:0.64999998 291:0 292:0.19 293:0 294:0.090000004 295:0.37 296:0.47 297:0.47 298:0 299:0 300:0.090000004 301:1.4 302:0.28 303:0.47 304:0.47 305:0.28 306:0.37 307:1.12 308:0.28 309:0.19 310:1.59 311:0.19 312:1.12 313:1.3099999 314:0.37 315:0.28 316:2.52 317:0.56 318:0.28 319:0 320:0.090000004 321:0.83999997 322:0.28 323:0.37 324:0.28 325:0.090000004 326:0 327:0.19 328:0.090000004 329:0.19 330:0.75 331:0 332:0.090000004 333:0.28 334:0.19 335:0 336:1.03 337:0.83999997 338:0.37 339:0 340:0.19 341:0 342:0.19 343:0.28 344:0.19 345:0 346:0.28 347:0 348:0.090000004 349:0.19 350:0.28 351:0 352:0 353:0.090000004 354:0.37 355:0.47 356:0.37 357:0.19 358:0.37 359:0 360:0 361:0 362:0 363:0 364:0 365:0 366:0 367:0 368:0 369:0 370:0.090000004 371:0 372:0 373:0 374:0 375:0 376:0.090000004 377:0 378:0 379:0 380:0 381:0 382:0 383:0 384:0.19 385:0.19 386:0.19 387:0.090000004 388:0 389:0 390:0.090000004 391:0 392:0.47 393:0.19 394:0.19 395:0.19 396:0.28 397:0.090000004 398:0.090000004 399:0 400:0 #
0.00033161831351715781402919591691614 1:0.38999999 2:0 3:0 4:0.38999999 5:0.38999999 6:0 7:0.76999998 8:0 9:0 10:0.76999998 11:0 12:0 13:1.16 14:1.16 15:0.38999999 16:1.9299999 17:0 18:0.38999999 19:0 20:0.38999999 21:0.38999999 22:0 23:0 24:0.38999999 25:0 26:0 27:0.38999999 28:0 29:0 30:1.16 31:0 32:0 33:0.38999999 34:0.76999998 35:0.38999999 36:0 37:0.38999999 38:0 39:0.38999999 40:0 41:0 42:0 43:0 44:0 45:0 46:0 47:0 48:0.38999999 49:0 50:0.38999999 51:0.38999999 52:0 53:0.38999999 54:0.38999999 55:0 56:0 57:0.38999999 58:1.16 59:0 60:0 61:1.16 62:0 63:0.76999998 64:0.38999999 65:0 66:0.38999999 67:0 68:0 69:0 70:0.76999998 71:0 72:0 73:0.76999998 74:0 75:0 76:0.38999999 77:0 78:0.76999998 79:0 80:0.38999999 81:0 82:0.38999999 83:0 84:0.38999999 85:0.38999999 86:0 87:0 88:0 89:0 90:0.76999998 91:0 92:0.38999999 93:0 94:0 95:0.38999999 96:0 97:0 98:0 99:0.38999999 100:0 101:0.76999998 102:0.38999999 103:0.38999999 104:0 105:0 106:0 107:0 108:0 109:0.38999999 110:0.76999998 111:0 112:0 113:1.16 114:0 115:0.38999999 116:0.38999999 117:0.38999999 118:0.38999999 119:0 120:0 121:0.38999999 122:0.76999998 123:0 124:0.38999999 125:0 126:0 127:0 128:0.38999999 129:0 130:0.38999999 131:0 132:0 133:0.38999999 134:0 135:0.76999998 136:0 137:0 138:0 139:0.38999999 140:0 141:0.38999999 142:0 143:0 144:0 145:0 146:0.38999999 147:0 148:0 149:0 150:1.9299999 151:0 152:0 153:0 154:0 155:0 156:0.38999999 157:0.38999999 158:0 159:0 160:0 161:0 162:0 163:0 164:0.38999999 165:0 166:0.38999999 167:0 168:0.38999999 169:0.38999999 170:0 171:0 172:0.38999999 173:0 174:0 175:0 176:0 177:0.38999999 178:0 179:0 180:0 181:1.16 182:1.16 183:0.38999999 184:2.3199999 185:1.16 186:1.16 187:0.38999999 188:0 189:1.16 190:3.8599999 191:0.38999999 192:0 193:0.76999998 194:0.76999998 195:0.76999998 196:0.38999999 197:0 198:0.38999999 199:0 200:0.38999999 201:0.76999998 202:0 203:0 204:0 205:0 206:0 207:0 208:0 209:0 210:0.38999999 211:0 212:0 213:0 214:0 215:0 216:0.38999999 217:0 218:0 219:0 220:0 221:0 222:0 223:0 224:0 225:0 226:0 227:0 228:0.38999999 229:0 230:0.38999999 231:0 232:0 233:0.38999999 234:0 235:0 236:0.38999999 237:0 238:0 239:0 240:0 241:0.76999998 242:0.38999999 243:0.76999998 244:0 245:0 246:0.76999998 247:0.76999998 248:0 249:0.38999999 250:0.38999999 251:0.38999999 252:0.38999999 253:0.76999998 254:0.38999999 255:0.38999999 256:1.16 257:0.38999999 258:1.16 259:0.38999999 260:0 261:0 262:0 263:0.38999999 264:0.38999999 265:0 266:1.16 267:0.76999998 268:0 269:0 270:0 271:0 272:0 273:0.76999998 274:0.76999998 275:0.38999999 276:0.38999999 277:0 278:0 279:0.38999999 280:0 281:0 282:0 283:0 284:0.38999999 285:0 286:0 287:0 288:0.38999999 289:0 290:1.16 291:0 292:0.38999999 293:1.16 294:0 295:0.38999999 296:0.38999999 297:0.76999998 298:0 299:0 300:0 301:0.38999999 302:0.76999998 303:0 304:0 305:0.76999998 306:0.76999998 307:0.76999998 308:0.38999999 309:0 310:0.76999998 311:0 312:0 313:0.38999999 314:0.76999998 315:0.38999999 316:0.76999998 317:0.38999999 318:0 319:0 320:0 321:0 322:0.38999999 323:0 324:0.38999999 325:0.38999999 326:0 327:0 328:0.76999998 329:0 330:1.16 331:0 332:0 333:0 334:0 335:0.38999999 336:0 337:0 338:0.76999998 339:0 340:0 341:0.76999998 342:0.38999999 343:0.76999998 344:0 345:0 346:0 347:0 348:0.38999999 349:0 350:0.76999998 351:0 352:0 353:0.76999998 354:0.38999999 355:0.38999999 356:0 357:0.38999999 358:0 359:0 360:0 361:0.38999999 362:0 363:0 364:0 365:0 366:0.38999999 367:0 368:0 369:0 370:0.38999999 371:0 372:0 373:0 374:0 375:0 376:0.38999999 377:0 378:0 379:0 380:0.38999999 381:0.38999999 382:0 383:0 384:0 385:0 386:0 387:0 388:0 389:0 390:0.38999999 391:0 392:0 393:0.38999999 394:0 395:0 396:0 397:0.38999999 398:0 399:0 400:0 #
0.00046248493132356447744835126201224 1:0.38999999 2:0.38999999 3:0 4:0 5:0.38999999 6:0.38999999 7:0 8:0 9:0 10:1.17 11:0 12:0.38999999 13:0.38999999 14:0.77999997 15:0.77999997 16:0.77999997 17:0 18:0.38999999 19:0 20:0.38999999 21:0 22:0 23:0 24:0.38999999 25:0 26:0 27:0 28:0 29:0.77999997 30:0.77999997 31:0 32:0 33:0 34:0 35:0.77999997 36:0.38999999 37:0 38:0 39:0.38999999 40:0 41:0 42:0 43:0 44:0 45:0.38999999 46:0.77999997 47:0 48:0.38999999 49:0 50:0.77999997 51:0.38999999 52:0 53:0 54:0.38999999 55:0.77999997 56:0.77999997 57:0 58:0.38999999 59:0 60:0 61:1.17 62:0 63:0 64:0 65:0 66:0.38999999 67:0 68:0.38999999 69:0 70:0.77999997 71:0 72:0 73:0 74:0.38999999 75:0.77999997 76:0.38999999 77:0 78:0.77999997 79:0 80:0.38999999 81:0.77999997 82:0.38999999 83:0 84:0.38999999 85:0.38999999 86:0 87:0 88:0.38999999 89:0 90:0 91:0.38999999 92:0.77999997 93:0 94:0 95:0.38999999 96:0.38999999 97:0 98:0.38999999 99:0.38999999 100:0 101:0 102:0 103:0.77999997 104:0 105:0 106:0 107:0 108:0 109:0 110:0.77999997 111:0 112:0.38999999 113:0 114:0.38999999 115:0 116:0.38999999 117:0.38999999 118:0.38999999 119:0 120:0 121:0 122:0 123:0 124:0 125:0 126:0 127:0 128:0 129:0 130:0 131:0 132:0 133:0.38999999 134:0 135:0.38999999 136:0 137:0 138:0 139:0 140:0 141:0 142:0.38999999 143:0 144:0 145:0.38999999 146:0.38999999 147:0 148:0 149:0 150:1.95 151:0 152:0 153:0.38999999 154:0 155:0 156:0 157:0.77999997 158:0 159:0 160:0 161:0.38999999 162:0.38999999 163:0 164:0.77999997 165:0.38999999 166:0.38999999 167:0 168:0.38999999 169:0.77999997 170:0.38999999 171:0 172:0.38999999 173:0 174:0 175:0.38999999 176:0.38999999 177:0.38999999 178:0.38999999 179:0 180:0 181:0.38999999 182:0 183:0.38999999 184:0.38999999 185:1.5599999 186:0.38999999 187:0.38999999 188:0.38999999 189:2.3299999 190:2.3299999 191:0 192:0.77999997 193:0.77999997 194:0.77999997 195:0 196:1.5599999 197:0.38999999 198:1.17 199:0 200:0.38999999 201:0.38999999 202:0 203:0.77999997 204:0 205:0 206:0 207:0 208:0 209:0.38999999 210:1.17 211:0 212:0 213:0 214:0 215:0 216:0 217:0 218:0 219:0 220:0 221:0 222:0 223:0.38999999 224:0 225:0.77999997 226:0 227:0 228:0.38999999 229:0 230:0.77999997 231:0 232:0 233:0.77999997 234:0.38999999 235:0.38999999 236:0.38999999 237:0 238:0 239:0 240:0 241:0.38999999 242:0 243:0.77999997 244:0.77999997 245:0 246:0.38999999 247:0.38999999 248:0.38999999 249:0.38999999 250:0.38999999 251:0 252:0.38999999 253:0.38999999 254:0 255:0 256:0.77999997 257:0.77999997 258:0.38999999 259:0 260:0 261:0.77999997 262:0 263:0 264:0.77999997 265:0.38999999 266:0.38999999 267:0 268:0 269:0 270:0.77999997 271:0.38999999 272:0 273:0.38999999 274:0.77999997 275:0 276:0.38999999 277:0 278:0 279:0 280:0 281:0 282:0.77999997 283:0 284:0.38999999 285:0.38999999 286:0 287:0 288:0.38999999 289:0 290:0.38999999 291:0 292:0 293:1.17 294:0 295:0.38999999 296:0 297:0.77999997 298:0.38999999 299:0 300:0 301:0.77999997 302:0.77999997 303:0.38999999 304:0.38999999 305:0 306:0 307:0 308:0.38999999 309:0.77999997 310:0.77999997 311:0.77999997 312:0.38999999 313:0.77999997 314:0.77999997 315:0.38999999 316:0.38999999 317:0.38999999 318:0.38999999 319:0 320:0.38999999 321:0.38999999 322:0 323:0.77999997 324:0.38999999 325:0 326:0 327:0 328:0.38999999 329:0 330:0.38999999 331:0.38999999 332:0 333:0.38999999 334:0 335:0 336:0.77999997 337:0.38999999 338:0.38999999 339:0 340:0 341:0 342:0.38999999 343:0.77999997 344:0.77999997 345:0 346:0 347:0 348:0.38999999 349:0.38999999 350:0.38999999 351:0 352:0 353:0.77999997 354:0.38999999 355:0 356:0.77999997 357:0.38999999 358:0.38999999 359:0 360:0 361:0.38999999 362:0 363:0 364:0 365:0 366:0 367:0 368:0 369:0 370:0 371:0 372:0 373:0 374:0 375:0 376:0.38999999 377:0 378:0 379:0 380:0 381:0.38999999 382:0 383:0 384:0 385:0 386:0 387:0 388:0 389:0 390:0.38999999 391:0 392:0.77999997 393:0 394:0 395:0 396:0 397:0 398:0 399:0 400:0 #
0.00032966156938744206215605170307015 1:0.34999999 2:0.34999999 3:0 4:0 5:0 6:0 7:0.34999999 8:0.69999999 9:0.34999999 10:0.34999999 11:0 12:0.34999999 13:0.34999999 14:0.69999999 15:0.34999999 16:0.34999999 17:0.34999999 18:0.69999999 19:0 20:0.34999999 21:0.69999999 22:0 23:0 24:0 25:0.34999999 26:0.34999999 27:0.34999999 28:0 29:0.34999999 30:0.34999999 31:0 32:0 33:0 34:0 35:0 36:0.34999999 37:0 38:0 39:0.69999999 40:0 41:0 42:0 43:0.34999999 44:0 45:0.34999999 46:0 47:0.34999999 48:0 49:0.69999999 50:0 51:0.34999999 52:0.69999999 53:0 54:0.34999999 55:0 56:0.34999999 57:0 58:0 59:0 60:0 61:0.34999999 62:0 63:0.69999999 64:0.34999999 65:0.34999999 66:0 67:1.05 68:0.34999999 69:0.34999999 70:0.69999999 71:0.34999999 72:0.34999999 73:0.34999999 74:0.34999999 75:0 76:0 77:0.69999999 78:0 79:0 80:0.34999999 81:0 82:0 83:0 84:0.34999999 85:0.34999999 86:0.34999999 87:0 88:0 89:0 90:0.69999999 91:0 92:0.34999999 93:0 94:0.34999999 95:0.34999999 96:0 97:0.34999999 98:0.34999999 99:0 100:0 101:0.34999999 102:0.34999999 103:0 104:0.34999999 105:0 106:0.34999999 107:0 108:0.34999999 109:0 110:1.4 111:0 112:0.34999999 113:0 114:0.34999999 115:0 116:0.69999999 117:0.34999999 118:0 119:0 120:0 121:0 122:0.69999999 123:0 124:0.34999999 125:0 126:0.34999999 127:0.34999999 128:0 129:0.34999999 130:0 131:0 132:0.69999999 133:0 134:0.69999999 135:0 136:0.69999999 137:0 138:0.34999999 139:0 140:0 141:0 142:0 143:0 144:0 145:0 146:0.34999999 147:0 148:0.69999999 149:0.34999999 150:1.05 151:0 152:0.34999999 153:0 154:0.69999999 155:0.34999999 156:1.05 157:0 158:0.69999999 159:0 160:0 161:0.34999999 162:0.69999999 163:0.34999999 164:1.05 165:0 166:0.34999999 167:0 168:0.69999999 169:0.34999999 170:1.05 171:0.34999999 172:0.34999999 173:0 174:0 175:0 176:0.69999999 177:0.34999999 178:0.69999999 179:0 180:0 181:0.69999999 182:0 183:0.34999999 184:1.05 185:1.05 186:0.69999999 187:0.69999999 188:0.34999999 189:1.05 190:1.75 191:0 192:0.34999999 193:1.05 194:0.69999999 195:0.69999999 196:0.69999999 197:0.34999999 198:1.05 199:0 200:0.69999999 201:0.34999999 202:0 203:0.34999999 204:0 205:0 206:0 207:0 208:0.34999999 209:0 210:1.05 211:0 212:0 213:0 214:0 215:0 216:0 217:0 218:0 219:0 220:0 221:1.05 222:0 223:0 224:0.69999999 225:0.34999999 226:0 227:0 228:0.34999999 229:0.69999999 230:0 231:0.34999999 232:0 233:0.34999999 234:0 235:0.34999999 236:1.05 237:0 238:0 239:0 240:0 241:0 242:0.34999999 243:0 244:0 245:0 246:0.69999999 247:0 248:0.34999999 249:0 250:0.69999999 251:0 252:0 253:0 254:0.34999999 255:0 256:0.69999999 257:0 258:0 259:0 260:0 261:0.34999999 262:0 263:0.69999999 264:0.69999999 265:0 266:1.05 267:0.69999999 268:0 269:0.34999999 270:0.69999999 271:0 272:0 273:0 274:0.69999999 275:0.69999999 276:0 277:0 278:0.34999999 279:0 280:0.34999999 281:0 282:0 283:0 284:0 285:0.69999999 286:0 287:0.34999999 288:0.34999999 289:0 290:0.34999999 291:0 292:0 293:0.34999999 294:0 295:0.34999999 296:0.69999999 297:0 298:0 299:0.69999999 300:0 301:0.69999999 302:0.69999999 303:0 304:1.05 305:0 306:0 307:0.34999999 308:0.69999999 309:0.69999999 310:0.69999999 311:0.34999999 312:0 313:0.34999999 314:1.4 315:0.34999999 316:0.34999999 317:0.34999999 318:0.34999999 319:0 320:0 321:0 322:0.34999999 323:0 324:0.34999999 325:0 326:0 327:0 328:0 329:0.69999999 330:0.69999999 331:0 332:0.34999999 333:0 334:0 335:0 336:0.34999999 337:0 338:0.69999999 339:0 340:0 341:0 342:0 343:0.34999999 344:0.34999999 345:0 346:0 347:0 348:0 349:1.05 350:1.4 351:0 352:0.69999999 353:0.34999999 354:0 355:0.34999999 356:0 357:0.69999999 358:0 359:0 360:0 361:0.34999999 362:0 363:0.34999999 364:0 365:0 366:0 367:0 368:0.34999999 369:0 370:0 371:0 372:0 373:0 374:0 375:0 376:0.34999999 377:0 378:0 379:0 380:0 381:0.34999999 382:0 383:0 384:0 385:0 386:0.34999999 387:0 388:0.34999999 389:0 390:0.34999999 391:0 392:0.34999999 393:0 394:0 395:0 396:0 397:0 398:0 399:0 400:0 #
-3.3103954311061527769621815053824e-05 1:0.50999999 2:0.75999999 3:0 4:1.02 5:0 6:0.75999999 7:0.50999999 8:0.25 9:0.50999999 10:1.27 11:0.50999999 12:0 13:0.25 14:0.25 15:0.25 16:1.78 17:0.25 18:0.75999999 19:0.25 20:0 21:0.25 22:0 23:0.25 24:0 25:0 26:0.25 27:0 28:0 29:0 30:0.50999999 31:0 32:0.25 33:0.50999999 34:0.50999999 35:0.50999999 36:0.50999999 37:0 38:0 39:0 40:0 41:0.75999999 42:0 43:0 44:0 45:0 46:0.25 47:0 48:0 49:0.25 50:0 51:0.25 52:0 53:1.27 54:0.50999999 55:0 56:0.50999999 57:0 58:0.25 59:0 60:0 61:0.75999999 62:0 63:0.50999999 64:0.50999999 65:0.50999999 66:0 67:0.25 68:0 69:0.25 70:0.50999999 71:0 72:0.25 73:0.50999999 74:0 75:0.50999999 76:0.25 77:1.52 78:0 79:0 80:0 81:0.25 82:0 83:0 84:0 85:0.50999999 86:0.25 87:0 88:0 89:0.75999999 90:0.75999999 91:0.50999999 92:0 93:0.25 94:0 95:0.75999999 96:0.25 97:0 98:0 99:0 100:0 101:0.50999999 102:0.25 103:0.25 104:0.25 105:0.25 106:0 107:0.25 108:0.50999999 109:0.50999999 110:0.50999999 111:0.50999999 112:0.25 113:0.75999999 114:0 115:0.50999999 116:0.50999999 117:0 118:0.25 119:0 120:0 121:0 122:0 123:0 124:0.25 125:0.25 126:0 127:0.50999999 128:0 129:0 130:0.25 131:0 132:0 133:0.25 134:0 135:0.25 136:0.25 137:0 138:0.25 139:0 140:0.25 141:0 142:0 143:0.25 144:0.25 145:0 146:0.25 147:0.25 148:0 149:0 150:0.25 151:0 152:0 153:0 154:0.25 155:0 156:0.25 157:0.25 158:0 159:0 160:0.50999999 161:0.75999999 162:0.25 163:0.25 164:0.25 165:0 166:0 167:0.25 168:0 169:0.50999999 170:0.75999999 171:0 172:0.50999999 173:0.25 174:0 175:0.25 176:0 177:0.25 178:0 179:0.25 180:0 181:1.27 182:0.25 183:0.75999999 184:0.50999999 185:1.02 186:0.50999999 187:0 188:0.50999999 189:0.75999999 190:2.54 191:0 192:0 193:1.02 194:1.02 195:0.25 196:0.25 197:0.25 198:0.25 199:0 200:0 201:0.75999999 202:0.25 203:0 204:0.50999999 205:0.25 206:0.25 207:0 208:0 209:0 210:0.25 211:0 212:0.25 213:0.25 214:0 215:0 216:0.25 217:0 218:0 219:0 220:0 221:0 222:0 223:0.25 224:0.50999999 225:0 226:0.25 227:0 228:0.25 229:0 230:0.50999999 231:0 232:0 233:0 234:0.50999999 235:0 236:0 237:0.25 238:0 239:0 240:0 241:0.50999999 242:0.25 243:0 244:1.27 245:0.25 246:0.25 247:0 248:0 249:0 250:0.50999999 251:0.25 252:0 253:0.25 254:0 255:0.75999999 256:1.02 257:0.75999999 258:1.27 259:0 260:0 261:0.50999999 262:0.50999999 263:0.50999999 264:0.25 265:0 266:0.25 267:0.25 268:0 269:0 270:0 271:0 272:0.25 273:0.50999999 274:0 275:0 276:0.25 277:0 278:1.02 279:0.25 280:0 281:0.50999999 282:0.25 283:0.25 284:0 285:1.02 286:0.50999999 287:0 288:0.25 289:0.25 290:1.02 291:0 292:0.25 293:0 294:0.25 295:0.50999999 296:0.75999999 297:0 298:0.25 299:0.25 300:0 301:0.75999999 302:0.25 303:0.25 304:0.25 305:0 306:0.75999999 307:0 308:0 309:0.50999999 310:1.27 311:0.25 312:0.50999999 313:1.02 314:1.02 315:0.25 316:1.02 317:0.50999999 318:0.75999999 319:0 320:0 321:0.50999999 322:0.25 323:0 324:0.25 325:0 326:0.50999999 327:0 328:0.50999999 329:0 330:0 331:0.25 332:0 333:0.25 334:0 335:0.75999999 336:0.75999999 337:0 338:0.25 339:0 340:0 341:0.75999999 342:0.25 343:0.50999999 344:0.25 345:0.25 346:0.50999999 347:0.25 348:0.25 349:0.25 350:0.25 351:0.25 352:0 353:0 354:0.25 355:0.50999999 356:0.50999999 357:0.25 358:0.25 359:0 360:0 361:0.25 362:0 363:0 364:0 365:0 366:0.25 367:0 368:0 369:0 370:0 371:0 372:0.25 373:0 374:0 375:0 376:0.25 377:0 378:0 379:0 380:0 381:0.25 382:0 383:0 384:0 385:0 386:0.25 387:0 388:0 389:0 390:0 391:0 392:0 393:0 394:0 395:0.25 396:0 397:0 398:0 399:0 400:0 #
2.7759864144204777331413624974488e-05 1:2.1400001 2:0.20999999 3:0.18000001 4:0.64999998 5:0.1 6:0.68000001 7:0.13 8:0.20999999 9:0.38999999 10:0.51999998 11:0.13 12:0.38999999 13:0.68000001 14:0.55000001 15:0.44 16:1.1 17:1.41 18:0.5 19:0 20:0.079999998 21:0.37 22:0.1 23:0.1 24:0.18000001 25:0.050000001 26:0.25999999 27:0 28:0.050000001 29:0.1 30:0.18000001 31:0 32:0.13 33:0.13 34:0.16 35:0.13 36:0.23999999 37:0.23999999 38:0.079999998 39:0.050000001 40:0.13 41:0.38999999 42:0.1 43:0.83999997 44:0.41999999 45:0.1 46:0.37 47:0.079999998 48:0.20999999 49:0.28999999 50:0.25999999 51:0.1 52:0.34 53:0.1 54:0.029999999 55:0.050000001 56:0.20999999 57:0.20999999 58:0.20999999 59:0.029999999 60:0.1 61:0.68000001 62:0.1 63:0.47 64:0.51999998 65:0.18000001 66:0.18000001 67:0.050000001 68:0.1 69:0.38999999 70:0.51999998 71:0.16 72:0.16 73:0.41999999 74:0.37 75:0.1 76:0.37 77:0.38999999 78:0.34 79:0.029999999 80:0.13 81:0.16 82:0.079999998 83:0.029999999 84:0.25999999 85:0.029999999 86:0.20999999 87:0.029999999 88:0.1 89:0.23999999 90:0.20999999 91:0.029999999 92:0.079999998 93:0.13 94:0.23999999 95:0.079999998 96:0.13 97:0.20999999 98:0.23999999 99:0.029999999 100:0.029999999 101:0.51999998 102:0.079999998 103:0.16 104:0.23999999 105:0.18000001 106:0.73000002 107:0.13 108:0.13 109:0.16 110:0.51999998 111:0.029999999 112:0.51999998 113:0.16 114:0.23999999 115:0.1 116:0.81 117:0.34 118:0.28999999 119:0 120:0.1 121:0.079999998 122:0 123:0.029999999 124:0.079999998 125:0.029999999 126:0.13 127:0.079999998 128:0.1 129:0.13 130:0.1 131:0.050000001 132:0.050000001 133:0 134:0.25999999 135:0.050000001 136:0.23999999 137:0.079999998 138:0.029999999 139:0 140:0.079999998 141:0.28999999 142:0.13 143:0.25999999 144:0.25999999 145:0.13 146:0.18000001 147:0.050000001 148:0.23999999 149:0.18000001 150:0.28999999 151:0.079999998 152:0.20999999 153:0.079999998 154:0.25999999 155:0.079999998 156:0.31 157:0.18000001 158:0.34 159:0.029999999 160:0.050000001 161:0.31 162:0.38999999 163:0.20999999 164:0.41999999 165:0.16 166:0.13 167:0.18000001 168:0.34 169:0.51999998 170:0.44 171:0.050000001 172:0.31 173:0.44 174:0.37 175:0.34 176:0.60000002 177:0.31 178:0.34 179:0.029999999 180:0.16 181:0.60000002 182:0.13 183:0.38999999 184:0.5 185:0.18000001 186:0.44 187:0.029999999 188:0.34 189:0.77999997 190:0.77999997 191:0.079999998 192:0.38999999 193:0.56999999 194:1.02 195:0.18000001 196:0.81 197:0.44 198:0.23999999 199:0 200:0.18000001 201:0.13 202:0.029999999 203:0.079999998 204:0.079999998 205:0.079999998 206:0.029999999 207:0.029999999 208:0.079999998 209:0.13 210:0.18000001 211:0.029999999 212:0 213:0.050000001 214:0.18000001 215:0.1 216:0.23999999 217:0.050000001 218:0.079999998 219:0.029999999 220:0.079999998 221:0.55000001 222:0.28999999 223:0.31 224:0.23999999 225:0.13 226:0.34 227:0.050000001 228:0.16 229:0.25999999 230:0.5 231:0.029999999 232:0.23999999 233:0.31 234:0.18000001 235:0.20999999 236:0.63 237:0.23999999 238:0.28999999 239:0.050000001 240:0.18000001 241:0.70999998 242:0.079999998 243:0.13 244:0.23999999 245:0.050000001 246:0.23999999 247:0.050000001 248:0.37 249:0.38999999 250:0.60000002 251:0.23999999 252:0.28999999 253:0.20999999 254:0.63 255:0.20999999 256:0.37 257:0.55000001 258:0.18000001 259:0.050000001 260:0.050000001 261:0.56999999 262:0.029999999 263:0.029999999 264:0.25999999 265:0.28999999 266:0.18000001 267:0.31 268:0.079999998 269:0.31 270:0.94 271:0.18000001 272:0.37 273:0.81 274:2.74 275:0.34 276:0.47 277:0.51999998 278:0.31 279:0.029999999 280:0.079999998 281:0.16 282:0.23999999 283:0.029999999 284:0.13 285:0.1 286:0.20999999 287:0.079999998 288:0.13 289:0.38999999 290:0.28999999 291:0.050000001 292:0.23999999 293:0.23999999 294:0.23999999 295:0.25999999 296:0.44 297:0.16 298:0.1 299:0.029999999 300:0.050000001 301:0.99000001 302:0.25999999 303:0.41999999 304:0.37 305:0.31 306:0.5 307:0.079999998 308:0.5 309:0.64999998 310:0.56999999 311:0.16 312:0.63 313:0.38999999 314:0.5 315:0.44 316:1.23 317:0.88999999 318:0.41999999 319:0.079999998 320:0.1 321:1.2 322:0.1 323:0.28999999 324:0.31 325:0.20999999 326:0.37 327:0 328:0.18000001 329:0.20999999 330:0.47 331:0.13 332:0.5 333:0.41999999 334:0.55000001 335:0.20999999 336:0.81 337:1.12 338:0.38999999 339:0.029999999 340:0.20999999 341:0.44 342:0.20999999 343:0.31 344:0.28999999 345:0.13 346:0.13 347:0.1 348:0.25999999 349:0.34 350:0.51999998 351:0.1 352:0.25999999 353:0.41999999 354:0.31 355:0.079999998 356:0.34 357:0.28999999 358:0.34 359:0 360:0.029999999 361:0.029999999 362:0 363:0 364:0.050000001 365:0.029999999 366:0 367:0.029999999 368:0 369:0.050000001 370:0.1 371:0 372:0 373:0.029999999 374:0 375:0.050000001 376:0.079999998 377:0 378:0.050000001 379:0 380:0 381:0.18000001 382:0.13 383:0.18000001 384:0.18000001 385:0.029999999 386:0.13 387:0.1 388:0.050000001 389:0.13 390:0.079999998 391:0.029999999 392:0.1 393:0.029999999 394:0.050000001 395:0.079999998 396:0.079999998 397:0.079999998 398:0.16 399:0.029999999 400:0.050000001 #
-0.00026594273763880959442554297034178 1:1.88 2:0 3:0.13 4:0.54000002 5:0.81 6:1.34 7:0.27000001 8:0.13 9:0.27000001 10:0.67000002 11:0.13 12:0.40000001 13:1.21 14:0.67000002 15:0.13 16:2.28 17:0.40000001 18:0.67000002 19:0.13 20:0.13 21:0.13 22:0 23:0 24:0.27000001 25:0 26:0.27000001 27:0 28:0 29:0.13 30:0.27000001 31:0.13 32:0 33:0.27000001 34:0.27000001 35:0.27000001 36:0.13 37:0 38:0.27000001 39:0 40:0 41:0.13 42:0 43:0.13 44:0.13 45:0 46:0 47:0.27000001 48:0.27000001 49:0.13 50:0.40000001 51:0.40000001 52:0.13 53:0.13 54:0.27000001 55:0.13 56:0.27000001 57:0 58:0.27000001 59:0 60:0 61:0.27000001 62:0.13 63:0.13 64:0 65:0 66:0.13 67:0 68:0 69:0.13 70:0.67000002 71:0.13 72:0 73:0.27000001 74:0.40000001 75:0 76:0.13 77:0 78:0 79:0.13 80:0.13 81:0 82:0 83:0.27000001 84:0 85:0.40000001 86:0.40000001 87:0.27000001 88:0 89:0.13 90:0 91:0.27000001 92:0.27000001 93:0.13 94:0.13 95:0 96:0.27000001 97:0.27000001 98:0.13 99:0 100:0 101:0.40000001 102:0.27000001 103:0.40000001 104:0 105:0.27000001 106:1.34 107:1.0700001 108:0.40000001 109:0.40000001 110:0.67000002 111:0.27000001 112:0 113:0.13 114:0.67000002 115:0.13 116:2.6800001 117:0.27000001 118:0.67000002 119:0 120:0 121:0.54000002 122:0 123:0 124:0.13 125:0 126:0.40000001 127:0.54000002 128:0.13 129:0 130:0.40000001 131:0 132:0.13 133:0.13 134:0 135:0.13 136:0.81 137:0 138:0.27000001 139:0 140:0.27000001 141:0.27000001 142:0.13 143:0.40000001 144:0.13 145:0.13 146:0.13 147:0 148:0 149:0.54000002 150:0.13 151:0.13 152:0 153:0.13 154:0 155:0.13 156:0.13 157:0 158:0.13 159:0 160:0 161:0.27000001 162:0.13 163:0.13 164:0.13 165:0 166:0.40000001 167:0.13 168:0 169:0.13 170:0.27000001 171:0.13 172:0.13 173:0 174:0.27000001 175:0.13 176:0.40000001 177:0 178:0.13 179:0 180:0 181:1.21 182:0 183:0.27000001 184:0 185:0.40000001 186:0.67000002 187:0.67000002 188:0.13 189:0.54000002 190:1.21 191:0 192:0.40000001 193:0.40000001 194:0.13 195:0.27000001 196:0.81 197:0.54000002 198:0.27000001 199:0 200:0.27000001 201:0.13 202:0.13 203:0.27000001 204:0 205:0.27000001 206:0.54000002 207:0.13 208:0 209:0 210:0.27000001 211:0 212:0.13 213:0.13 214:0.13 215:0.13 216:0 217:0 218:0 219:0 220:0 221:0.13 222:0.27000001 223:0.13 224:0 225:0 226:0.40000001 227:0 228:0.54000002 229:0 230:0.27000001 231:0 232:0.27000001 233:0.27000001 234:0.27000001 235:0.13 236:0.40000001 237:0 238:0 239:0 240:0 241:0.81 242:0 243:0 244:0.13 245:0.27000001 246:0.67000002 247:0.13 248:0.13 249:0 250:0.81 251:0.27000001 252:0.13 253:0.67000002 254:0.13 255:0.27000001 256:1.21 257:0.81 258:0.54000002 259:0 260:0.27000001 261:1.21 262:0.40000001 263:0.27000001 264:0.40000001 265:0.13 266:0 267:0.13 268:0.27000001 269:0 270:0.13 271:0 272:0.13 273:0.40000001 274:0.54000002 275:0.13 276:0.67000002 277:0.27000001 278:0.67000002 279:0 280:0.27000001 281:0.27000001 282:0 283:0.13 284:0.13 285:0 286:0.27000001 287:0 288:0.13 289:0 290:0.40000001 291:0 292:0.54000002 293:0.13 294:0.13 295:0.27000001 296:0.27000001 297:0 298:0.27000001 299:0.13 300:0.27000001 301:2.8199999 302:0.54000002 303:0.13 304:0.27000001 305:0.27000001 306:2.01 307:0.13 308:0.13 309:0.13 310:1.21 311:0.27000001 312:0.27000001 313:0.67000002 314:0.94 315:0.67000002 316:2.6800001 317:0.67000002 318:0.67000002 319:0 320:0.40000001 321:0.54000002 322:0.13 323:0.13 324:0 325:0 326:0.54000002 327:0 328:0 329:0.13 330:0 331:0 332:0 333:0.81 334:0.27000001 335:0 336:0.81 337:0.67000002 338:0 339:0 340:0.13 341:0.94 342:0.13 343:0.13 344:0.40000001 345:0 346:0.27000001 347:0 348:0.13 349:0 350:0.40000001 351:0 352:0.13 353:1.21 354:0.27000001 355:0.27000001 356:0.27000001 357:0.27000001 358:0.40000001 359:0.13 360:0 361:0.13 362:0 363:0 364:0 365:0 366:0 367:0.13 368:0 369:0 370:0 371:0 372:0 373:0 374:0.13 375:0 376:0.13 377:0 378:0 379:0 380:0 381:0.13 382:0.13 383:0 384:0 385:0 386:0.27000001 387:0 388:0.13 389:0.13 390:0.13 391:0 392:0 393:0.13 394:0.40000001 395:0.13 396:0.54000002 397:0 398:0 399:0 400:0 #
-0.00026594273763880959442554297034178 1:1.17 2:0 3:0.38999999 4:0.19 5:0 6:0.88 7:0 8:0.1 9:0.19 10:0.68000001 11:0.1 12:0.38999999 13:0.19 14:0.1 15:0.28999999 16:0.77999997 17:0.97000003 18:0.28999999 19:0 20:0.1 21:0.19 22:0 23:0.1 24:0.1 25:0.1 26:0.1 27:0.19 28:0.1 29:0.19 30:0.1 31:0.1 32:0 33:0.19 34:0 35:0.1 36:0 37:0 38:0.1 39:0 40:0.1 41:0.28999999 42:0 43:0.49000001 44:0.28999999 45:0.19 46:0.28999999 47:0.19 48:0.1 49:0.28999999 50:0.28999999 51:0.19 52:0.28999999 53:0.1 54:0.28999999 55:0.38999999 56:0.28999999 57:0.19 58:0 59:0.1 60:0.28999999 61:0.49000001 62:0.1 63:0.19 64:0.19 65:0.19 66:0.1 67:0 68:0.28999999 69:0 70:0.38999999 71:0.1 72:0 73:0.1 74:0 75:0.1 76:0.38999999 77:0.1 78:0.49000001 79:0.1 80:0.1 81:0.19 82:0 83:0.19 84:0.28999999 85:0.28999999 86:0.19 87:0 88:0 89:0.28999999 90:0.19 91:0 92:0.28999999 93:0.1 94:0.1 95:0.1 96:0.19 97:0 98:0.19 99:0 100:0.1 101:0.19 102:0 103:0.28999999 104:0.19 105:0.1 106:3.3099999 107:0.38999999 108:0.28999999 109:0.1 110:0.77999997 111:0.1 112:1.66 113:0.57999998 114:0.19 115:0.1 116:1.75 117:0.68000001 118:0.19 119:0 120:0.38999999 121:0.19 122:0.1 123:0.1 124:0.1 125:0 126:0.1 127:0.57999998 128:0.19 129:0.1 130:0.49000001 131:0.19 132:0.1 133:0.1 134:0.38999999 135:0.28999999 136:0.57999998 137:0.1 138:0 139:0 140:0.1 141:0.38999999 142:0 143:0.57999998 144:0.28999999 145:0 146:0.28999999 147:0.19 148:0.19 149:0.19 150:0.28999999 151:0 152:0 153:0.1 154:0.1 155:0.1 156:0.28999999 157:0 158:0.19 159:0 160:0 161:0 162:0.1 163:0.38999999 164:0 165:0.38999999 166:0.19 167:0.19 168:0 169:0.1 170:0.49000001 171:0 172:0.1 173:0.19 174:0.19 175:0.38999999 176:0 177:0.28999999 178:0.38999999 179:0 180:0 181:0.38999999 182:0.28999999 183:0.49000001 184:0.38999999 185:0.49000001 186:0.38999999 187:0.38999999 188:0.19 189:0.28999999 190:1.17 191:0.49000001 192:0.38999999 193:0.38999999 194:1.17 195:0.19 196:0.28999999 197:0.28999999 198:0.19 199:0 200:0.1 201:0.1 202:0.1 203:0.1 204:0.1 205:0 206:0.38999999 207:0 208:0.1 209:0.28999999 210:0.57999998 211:0 212:0.19 213:0.19 214:0.1 215:0.19 216:0.38999999 217:0.1 218:0 219:0 220:0.1 221:0.49000001 222:0 223:0.19 224:0.19 225:0.19 226:1.5599999 227:0.28999999 228:0.28999999 229:0.28999999 230:0.38999999 231:0.19 232:1.75 233:0.68000001 234:0.1 235:0.1 236:1.0700001 237:0.49000001 238:0.28999999 239:0 240:0.1 241:0.19 242:0 243:0.28999999 244:0.1 245:0.1 246:0.38999999 247:0.19 248:0.19 249:0 250:0.19 251:0.57999998 252:0.49000001 253:0.1 254:0.49000001 255:0.1 256:0.68000001 257:0.49000001 258:0.19 259:0 260:0.1 261:0.38999999 262:0 263:0.19 264:0.1 265:0 266:0 267:0.49000001 268:0.1 269:0.38999999 270:0.88 271:0.19 272:0.49000001 273:0 274:1.66 275:0.19 276:0.38999999 277:0.38999999 278:0.68000001 279:0 280:0 281:0.28999999 282:0.1 283:0.1 284:0.19 285:0.19 286:0.38999999 287:0 288:0.1 289:0.38999999 290:0 291:0.1 292:0.38999999 293:0.1 294:0.19 295:0 296:0.28999999 297:0.19 298:0.1 299:0 300:0 301:0.68000001 302:0.38999999 303:0.19 304:0.19 305:0.1 306:1.95 307:0.28999999 308:0.38999999 309:0.1 310:0.57999998 311:0.28999999 312:1.17 313:0.77999997 314:0.28999999 315:0 316:2.3399999 317:0.77999997 318:0.68000001 319:0.1 320:0 321:0.77999997 322:0.28999999 323:0 324:0.1 325:0.1 326:0.38999999 327:0.19 328:0.28999999 329:0.1 330:0.28999999 331:0.1 332:0.38999999 333:0.49000001 334:0.49000001 335:0.1 336:0.88 337:1.46 338:0.38999999 339:0 340:0.1 341:0.19 342:0.19 343:0.28999999 344:0.38999999 345:0.19 346:0.38999999 347:0 348:0.28999999 349:0 350:0.19 351:0.1 352:0.49000001 353:0.28999999 354:0.38999999 355:0.38999999 356:0.49000001 357:0.1 358:0 359:0 360:0.1 361:0.1 362:0 363:0 364:0 365:0 366:0 367:0 368:0 369:0 370:0 371:0 372:0 373:0 374:0.1 375:0 376:0.1 377:0 378:0 379:0 380:0 381:0.1 382:0.1 383:0 384:0 385:0.1 386:0.1 387:0.19 388:0 389:0.1 390:0 391:0.1 392:0.1 393:0.19 394:0.19 395:0 396:0.1 397:0.28999999 398:0.1 399:0 400:0 #
-0.00017812096806852099808299305649939 1:1.4299999 2:0 3:0.72000003 4:0.47999999 5:0.23999999 6:0.60000002 7:0 8:0.82999998 9:0.12 10:0.60000002 11:0.12 12:0.12 13:0.12 14:0.12 15:0.23999999 16:0.94999999 17:0.23999999 18:0.36000001 19:0 20:0 21:0.12 22:0 23:0.12 24:0.23999999 25:0 26:0.12 27:0.12 28:0 29:0.23999999 30:0.12 31:0.12 32:0 33:0.23999999 34:0 35:0.12 36:0.36000001 37:0 38:0.12 39:0 40:0.12 41:0.12 42:0 43:0.36000001 44:0.12 45:0.23999999 46:0.47999999 47:0.12 48:0 49:0.36000001 50:0.47999999 51:0.12 52:0.12 53:0.23999999 54:0.36000001 55:0.36000001 56:0.36000001 57:0.36000001 58:0.12 59:0.12 60:0.36000001 61:0.23999999 62:0 63:0 64:0.36000001 65:0 66:0.36000001 67:0.23999999 68:0.36000001 69:0 70:0.72000003 71:0.12 72:0.12 73:0.23999999 74:0 75:0.12 76:0.36000001 77:0.12 78:0.47999999 79:0.12 80:0 81:0.12 82:0 83:0.47999999 84:0.23999999 85:0.23999999 86:0.12 87:0 88:0.12 89:0.36000001 90:0.12 91:0 92:0.12 93:0 94:0.23999999 95:0 96:0.47999999 97:0 98:0.12 99:0 100:0 101:0.47999999 102:0.12 103:0.23999999 104:0.12 105:0.12 106:2.5 107:0 108:0.47999999 109:0 110:0.47999999 111:0.12 112:0.36000001 113:0.36000001 114:0.36000001 115:0.12 116:1.1900001 117:0.72000003 118:0.72000003 119:0 120:0.36000001 121:0.23999999 122:0.12 123:0.12 124:0.23999999 125:0.12 126:0 127:0.82999998 128:0.47999999 129:0 130:0.23999999 131:0.12 132:0.23999999 133:0.12 134:0.60000002 135:0 136:0.23999999 137:0 138:0.12 139:0 140:0.12 141:0.36000001 142:0.12 143:0.47999999 144:0.36000001 145:0.23999999 146:0.23999999 147:0.23999999 148:0.47999999 149:0.36000001 150:0.12 151:0.12 152:0.23999999 153:0.47999999 154:0.60000002 155:0.12 156:0.36000001 157:0.36000001 158:0 159:0 160:0.12 161:0.12 162:0.12 163:0.12 164:0 165:0.60000002 166:0.12 167:0.12 168:0.23999999 169:0.12 170:0.72000003 171:0 172:0 173:0.12 174:0.12 175:0.47999999 176:0 177:0.23999999 178:0.47999999 179:0 180:0.12 181:0.36000001 182:0.12 183:0.36000001 184:0.23999999 185:0.36000001 186:0.72000003 187:0.82999998 188:0.47999999 189:0.23999999 190:1.4299999 191:0.23999999 192:0.47999999 193:0.12 194:0.82999998 195:0.23999999 196:0.60000002 197:0.47999999 198:0.23999999 199:0.12 200:0.23999999 201:0.12 202:0.12 203:0 204:0.12 205:0 206:0 207:0.23999999 208:0.12 209:0.36000001 210:0.23999999 211:0 212:0 213:0 214:0.12 215:0.23999999 216:0.12 217:0.12 218:0 219:0 220:0.12 221:0 222:0 223:0 224:0.12 225:0 226:0.60000002 227:0 228:0.36000001 229:0.36000001 230:0.36000001 231:0.12 232:0.23999999 233:0.47999999 234:0.47999999 235:0.12 236:0.47999999 237:0.23999999 238:0.23999999 239:0 240:0.12 241:0.23999999 242:0 243:0.36000001 244:0.12 245:0 246:0.23999999 247:0.12 248:0.23999999 249:0.12 250:0.23999999 251:0.23999999 252:0 253:0.12 254:0.36000001 255:0 256:1.0700001 257:0.72000003 258:0.23999999 259:0 260:0.23999999 261:0.23999999 262:0.36000001 263:0.12 264:0.36000001 265:0 266:0.12 267:0.47999999 268:0.23999999 269:0.23999999 270:0.47999999 271:0.12 272:0.72000003 273:0.60000002 274:0.60000002 275:0.36000001 276:0.60000002 277:0.60000002 278:0.47999999 279:0 280:0 281:0.23999999 282:0.12 283:0.23999999 284:0.12 285:0.12 286:0.47999999 287:0 288:0 289:0.47999999 290:0.12 291:0.12 292:0.23999999 293:0 294:0.36000001 295:0 296:0 297:0.23999999 298:0.12 299:0 300:0 301:0.94999999 302:0.36000001 303:0.47999999 304:0.23999999 305:0.36000001 306:1.3099999 307:0 308:0.36000001 309:0.23999999 310:0.94999999 311:0 312:0.47999999 313:0.82999998 314:0.47999999 315:0 316:2.74 317:1.55 318:0.36000001 319:0.12 320:0.12 321:1.0700001 322:0.36000001 323:0.23999999 324:0 325:0 326:0.12 327:0.12 328:0.36000001 329:0.23999999 330:0.72000003 331:0 332:0.60000002 333:0.12 334:0.36000001 335:0.12 336:1.3099999 337:1.79 338:0.72000003 339:0 340:0 341:0.72000003 342:0.12 343:0.36000001 344:0.23999999 345:0 346:0.60000002 347:0.12 348:0 349:0 350:0.47999999 351:0.12 352:0.12 353:0.36000001 354:0.60000002 355:0.36000001 356:0.47999999 357:0.12 358:0.23999999 359:0 360:0.12 361:0.12 362:0 363:0 364:0 365:0 366:0 367:0 368:0 369:0 370:0 371:0.12 372:0 373:0 374:0.12 375:0 376:0.12 377:0 378:0 379:0 380:0 381:0 382:0.12 383:0 384:0.23999999 385:0.12 386:0.12 387:0.36000001 388:0.23999999 389:0.12 390:0.12 391:0 392:0.12 393:0.12 394:0 395:0 396:0.12 397:0.36000001 398:0 399:0 400:0 #
0.00054747069781150724167989585211558 1:0.34 2:0.34 3:0 4:0.34 5:0.34 6:0 7:0.34 8:0.68000001 9:0.34 10:0.68000001 11:0 12:0 13:0.68000001 14:0.68000001 15:0 16:1.36 17:0.34 18:1.02 19:0 20:0.34 21:0 22:0 23:0 24:0 25:0.34 26:0.34 27:0 28:0 29:0.34 30:0.34 31:0 32:0 33:0.34 34:0 35:0.68000001 36:0.34 37:0 38:0 39:0.34 40:0 41:0 42:0 43:0.68000001 44:0 45:0.34 46:0 47:0 48:0.68000001 49:0 50:0.34 51:0 52:0 53:0 54:0.34 55:1.02 56:0 57:0.34 58:0 59:0 60:0 61:1.02 62:0 63:0.68000001 64:0.68000001 65:0 66:0.68000001 67:0.34 68:0 69:0 70:0.34 71:0.34 72:0 73:0.34 74:0.34 75:0 76:0 77:0.68000001 78:0.68000001 79:0 80:0.34 81:0.34 82:0 83:0 84:0.34 85:0.34 86:0 87:0 88:0 89:0 90:0.34 91:0 92:0.34 93:0 94:0.34 95:0.68000001 96:0 97:0 98:0.34 99:0 100:0.34 101:1.02 102:0.68000001 103:0 104:0 105:0 106:0.34 107:0 108:0 109:0.34 110:0.68000001 111:0 112:0 113:0 114:0.34 115:0.34 116:0.34 117:0.34 118:0.68000001 119:0.34 120:0 121:0 122:0 123:0 124:0 125:0 126:0 127:0 128:0 129:0 130:0.34 131:0 132:0 133:0.34 134:0.34 135:0.34 136:0 137:0.34 138:0.34 139:0 140:0.34 141:0.34 142:0 143:0 144:0.68000001 145:0 146:0.34 147:0.34 148:0 149:0.34 150:1.02 151:0 152:0 153:0 154:0.34 155:0.34 156:0.68000001 157:0 158:0 159:0 160:0 161:0.68000001 162:0.34 163:0 164:0.34 165:0 166:0.34 167:0 168:0 169:0.34 170:0.34 171:0 172:0.34 173:0.34 174:0 175:0 176:0.34 177:0.34 178:0 179:0 180:0 181:0.34 182:0 183:0 184:0.68000001 185:1.02 186:0.34 187:0.34 188:1.02 189:1.02 190:0.68000001 191:0.34 192:0.34 193:0.34 194:1.02 195:1.6900001 196:0.34 197:0.34 198:1.36 199:0 200:0.34 201:0.34 202:0 203:0 204:0.34 205:0.34 206:0 207:0 208:0 209:0 210:0.68000001 211:0 212:0 213:0 214:0 215:0 216:0 217:0 218:0 219:0 220:0 221:0 222:0 223:0 224:0.34 225:0 226:0 227:0 228:0.34 229:0 230:0 231:0 232:0.68000001 233:0.34 234:0 235:0.34 236:0.34 237:0 238:0.34 239:0 240:0 241:0 242:0.34 243:0.68000001 244:0.34 245:0 246:0.34 247:0 248:0 249:0 250:0.34 251:0 252:0 253:0.68000001 254:0.68000001 255:0 256:0.68000001 257:0 258:0.68000001 259:0 260:0 261:0.68000001 262:0 263:0.34 264:0.34 265:0 266:0 267:1.02 268:0 269:0.34 270:0.68000001 271:0 272:0.34 273:0 274:1.36 275:0.34 276:0.68000001 277:0 278:0.34 279:0 280:0 281:0.34 282:0.68000001 283:0 284:1.02 285:0.68000001 286:1.02 287:0 288:0.34 289:0 290:0.68000001 291:0 292:0.34 293:0.34 294:0.68000001 295:1.02 296:0.68000001 297:0 298:0.34 299:0 300:0 301:1.02 302:0.34 303:0.34 304:0.34 305:0 306:0.68000001 307:0 308:0.68000001 309:0 310:0.68000001 311:0.68000001 312:0 313:0.68000001 314:0 315:0 316:2.3699999 317:0.68000001 318:0.68000001 319:0 320:0 321:0.34 322:0.34 323:0 324:0.34 325:0 326:0.34 327:0 328:0 329:0.34 330:1.02 331:0 332:0 333:0 334:0 335:0.68000001 336:0 337:0.68000001 338:0.68000001 339:0 340:0 341:0.34 342:0 343:1.02 344:0.34 345:0 346:0.34 347:0 348:0.34 349:0.68000001 350:2.03 351:0 352:0.34 353:0.34 354:0 355:0.68000001 356:0.34 357:0.68000001 358:0.68000001 359:0 360:0 361:0.34 362:0 363:0 364:0 365:0 366:0 367:0 368:0 369:0 370:0 371:0 372:0 373:0 374:0 375:0 376:0.34 377:0 378:0 379:0 380:0 381:0.34 382:0 383:0 384:0 385:0 386:0.34 387:0 388:0.34 389:0 390:0.34 391:0 392:0 393:0 394:0 395:0 396:0.34 397:0 398:0 399:0 400:0 #
0.00077024239947313683646301640806087 1:0.88 2:0.44 3:0 4:0.22 5:0.88 6:0 7:0.22 8:0 9:0 10:0.22 11:0 12:0.44 13:0.66000003 14:0.44 15:0.22 16:0.44 17:0 18:0.22 19:0 20:0 21:0.44 22:0 23:0 24:0 25:0 26:0 27:0 28:0.22 29:0.22 30:0.44 31:0.22 32:0.22 33:0 34:0.44 35:0.44 36:0 37:0 38:0 39:0 40:0 41:0.66000003 42:0.22 43:0.44 44:0 45:0.44 46:0.88 47:0 48:0.22 49:0.66000003 50:0 51:0.22 52:0.22 53:0 54:0.22 55:0 56:0.66000003 57:0.44 58:0.22 59:0 60:0.22 61:0 62:0 63:0.22 64:0 65:0.44 66:0.22 67:0 68:0.22 69:0.22 70:0.44 71:0.22 72:0.66000003 73:0 74:0.66000003 75:0 76:0.44 77:0 78:0 79:0 80:0.44 81:0.22 82:0 83:0.88 84:0.22 85:0.88 86:0.66000003 87:0.22 88:0 89:0.22 90:0 91:0.22 92:0.66000003 93:1.54 94:0.88 95:0.44 96:0.22 97:0.88 98:0 99:0 100:0.44 101:0.44 102:0 103:0 104:0.44 105:0.66000003 106:0.22 107:0.22 108:0.22 109:0.22 110:0.88 111:0.22 112:0.22 113:0.22 114:0.22 115:0.22 116:0.88 117:0.44 118:0 119:0 120:0.22 121:0.44 122:0 123:0.22 124:0 125:0.66000003 126:0 127:0 128:0.22 129:0.22 130:0 131:0 132:0.22 133:0.44 134:0.22 135:0 136:0.22 137:0.22 138:0 139:0 140:0 141:0 142:0.22 143:0.44 144:0.22 145:0.22 146:0.44 147:0 148:0 149:0.44 150:0 151:0 152:0 153:0.44 154:0.22 155:0 156:0.44 157:0.22 158:0.22 159:0 160:0.22 161:0 162:0 163:0.22 164:0 165:0.44 166:0 167:0.22 168:0.22 169:0.22 170:0.22 171:0 172:0.22 173:0.44 174:0.44 175:1.1 176:0.44 177:0.44 178:0 179:0 180:0.22 181:0.22 182:0 183:0.22 184:0.44 185:0 186:0 187:0.66000003 188:0.66000003 189:0.66000003 190:0.44 191:0.22 192:0 193:0.44 194:0.44 195:0 196:0.44 197:0.22 198:0 199:0 200:0 201:0.22 202:0 203:0.22 204:0.22 205:0 206:0.22 207:0 208:0.22 209:0.22 210:0.44 211:0 212:0 213:0 214:0 215:0.44 216:0 217:0.66000003 218:0 219:0 220:0.22 221:0.44 222:0 223:0.22 224:0 225:0.44 226:0.66000003 227:0 228:0.22 229:0 230:0.44 231:0 232:0.66000003 233:0.44 234:0.22 235:0.22 236:0.44 237:0.44 238:0.66000003 239:0 240:0 241:0.44 242:0 243:0.44 244:0.22 245:1.3200001 246:0.66000003 247:0.44 248:0.44 249:0.44 250:0.66000003 251:0 252:0.66000003 253:1.54 254:0.66000003 255:0.88 256:0.66000003 257:0 258:0.44 259:0.22 260:0 261:0.22 262:0.22 263:0.22 264:0.44 265:0.88 266:0 267:0.22 268:0 269:0 270:0.22 271:0.22 272:0 273:1.54 274:1.1 275:0.66000003 276:0.44 277:0.44 278:0.22 279:0 280:0 281:0 282:0.44 283:0.44 284:0.22 285:0.22 286:0 287:0.22 288:0.44 289:0.66000003 290:0 291:0.66000003 292:0.66000003 293:0.22 294:0 295:0.44 296:0.22 297:0.66000003 298:0 299:0 300:0.22 301:0.22 302:0.22 303:0.66000003 304:0.66000003 305:0.66000003 306:0.88 307:0 308:0 309:0 310:0 311:0.22 312:0 313:0.44 314:0.22 315:0.22 316:0.88 317:1.3200001 318:0.22 319:0 320:0.44 321:0.44 322:0.22 323:0.44 324:0.66000003 325:0.44 326:0.44 327:0.66000003 328:0.44 329:0.22 330:0.22 331:0.44 332:0.88 333:0.44 334:0 335:0 336:0 337:0.44 338:0.44 339:0 340:0 341:0 342:0.44 343:0.22 344:0.22 345:0 346:0 347:0 348:0 349:0.22 350:0.44 351:0 352:0 353:0.66000003 354:0.44 355:0 356:0.22 357:0 358:0 359:0 360:0 361:0 362:0 363:0 364:0 365:0 366:0.22 367:0 368:0 369:0 370:0 371:0 372:0 373:0 374:0 375:0 376:0 377:0 378:0 379:0 380:0 381:0 382:0.22 383:0.22 384:0 385:0 386:0.44 387:0 388:0 389:0 390:0 391:0 392:0 393:0.66000003 394:0.22 395:0.44 396:0.22 397:0 398:0.22 399:0 400:0 #
0.00046850114849960217437360721071116 1:0.63999999 2:0.41999999 3:0.20999999 4:0.85000002 5:0.20999999 6:0.85000002 7:0.20999999 8:0.20999999 9:0.41999999 10:0.20999999 11:0.20999999 12:0 13:1.27 14:0.85000002 15:0.63999999 16:0.85000002 17:0.63999999 18:0.41999999 19:0 20:0.20999999 21:0.63999999 22:0.41999999 23:0 24:0.20999999 25:0.63999999 26:1.0599999 27:0 28:0 29:0 30:0 31:0 32:0 33:0 34:0 35:0 36:0 37:0.20999999 38:0.20999999 39:0.85000002 40:0 41:0.20999999 42:0 43:0.20999999 44:0 45:0 46:0 47:0.41999999 48:0 49:0 50:0.20999999 51:0.20999999 52:0 53:0.20999999 54:0.41999999 55:0 56:0 57:0.20999999 58:0.20999999 59:0 60:0 61:0.85000002 62:0 63:0.20999999 64:0.63999999 65:0 66:0.85000002 67:0.41999999 68:0.20999999 69:0 70:0.63999999 71:0.63999999 72:0.20999999 73:0.63999999 74:0.63999999 75:0.41999999 76:0 77:0.41999999 78:0.20999999 79:0.20999999 80:0.41999999 81:0 82:0.41999999 83:0 84:0.20999999 85:0.63999999 86:0.20999999 87:0 88:0.20999999 89:0.20999999 90:0.41999999 91:0 92:0.20999999 93:0 94:0.20999999 95:0.20999999 96:0 97:0 98:0.20999999 99:0 100:0 101:0.85000002 102:0.41999999 103:0 104:1.27 105:0 106:0.85000002 107:0.20999999 108:0.20999999 109:0 110:1.0599999 111:0 112:0 113:0.41999999 114:0.41999999 115:0.20999999 116:0.63999999 117:0.41999999 118:0.20999999 119:0 120:0 121:0.20999999 122:0 123:0 124:0 125:0.20999999 126:0 127:0 128:0.20999999 129:0 130:0.41999999 131:0 132:0 133:0.63999999 134:0 135:0.20999999 136:0 137:0 138:0.20999999 139:0 140:0 141:0 142:0 143:0.20999999 144:0.20999999 145:0 146:0.20999999 147:0 148:0.20999999 149:0.20999999 150:1.0599999 151:0 152:0.20999999 153:0.20999999 154:0 155:0.41999999 156:0.20999999 157:0.20999999 158:0 159:0 160:0 161:0 162:0.20999999 163:0.20999999 164:0.20999999 165:0 166:0.20999999 167:0.20999999 168:0 169:0 170:0.20999999 171:0 172:0 173:0 174:0.20999999 175:0 176:0.20999999 177:0.20999999 178:0 179:0 180:0.41999999 181:0.20999999 182:0.20999999 183:0.20999999 184:0.41999999 185:0.63999999 186:0.41999999 187:0.20999999 188:0.20999999 189:0.63999999 190:1.7 191:0.41999999 192:0.41999999 193:1.0599999 194:0.63999999 195:0.41999999 196:0.41999999 197:0.85000002 198:0.63999999 199:0 200:1.27 201:0.41999999 202:0 203:0.20999999 204:0.20999999 205:0 206:0 207:0 208:0 209:0 210:1.0599999 211:0.63999999 212:0 213:0 214:0.20999999 215:0 216:0.20999999 217:0 218:0.20999999 219:0 220:0 221:0.20999999 222:0 223:0 224:0 225:0 226:0 227:0.20999999 228:0.20999999 229:0 230:0.20999999 231:0 232:0 233:0.20999999 234:0 235:0 236:0.41999999 237:0.20999999 238:0 239:0 240:0 241:0.85000002 242:0.41999999 243:0.20999999 244:0.85000002 245:0 246:0.41999999 247:0 248:0.20999999 249:0 250:0.63999999 251:0 252:0 253:0 254:1.0599999 255:0.85000002 256:0.41999999 257:0 258:0.41999999 259:0.41999999 260:0 261:1.27 262:0.41999999 263:0.20999999 264:0.85000002 265:0 266:0.63999999 267:0 268:0.85000002 269:0.20999999 270:0.41999999 271:0.20999999 272:0 273:1.0599999 274:0.85000002 275:0.41999999 276:0.41999999 277:0.41999999 278:0.20999999 279:0.20999999 280:0 281:0.41999999 282:0.41999999 283:0 284:0.85000002 285:0.63999999 286:0.20999999 287:0 288:0 289:0 290:0.63999999 291:0.20999999 292:0 293:0.20999999 294:0.85000002 295:0.41999999 296:0.85000002 297:0.20999999 298:0 299:0 300:0 301:1.7 302:0.20999999 303:0.20999999 304:0 305:0.20999999 306:0.41999999 307:0 308:0.41999999 309:0 310:0.85000002 311:0.41999999 312:0 313:0.20999999 314:0.20999999 315:0.20999999 316:0 317:0.20999999 318:0.63999999 319:0 320:0.41999999 321:0 322:0 323:0 324:0.85000002 325:0 326:0 327:0.20999999 328:0 329:0.20999999 330:0.41999999 331:0 332:0.41999999 333:0.63999999 334:1.0599999 335:0.20999999 336:0.20999999 337:0.41999999 338:0.20999999 339:0 340:0 341:0.41999999 342:0.41999999 343:0 344:0 345:0 346:0.41999999 347:0 348:0 349:0.41999999 350:0.63999999 351:0 352:0 353:0 354:0.41999999 355:0.41999999 356:0.85000002 357:0.20999999 358:0.41999999 359:0 360:0 361:0.20999999 362:0 363:0.20999999 364:0 365:0 366:0.41999999 367:0 368:0 369:0 370:0 371:0 372:0 373:0 374:0.41999999 375:0.20999999 376:0.20999999 377:0 378:0 379:0.41999999 380:0 381:0.20999999 382:0.20999999 383:0 384:0 385:0 386:0 387:0 388:0.20999999 389:0 390:0.41999999 391:0 392:0.20999999 393:0 394:0.20999999 395:0.63999999 396:0.41999999 397:0 398:0.20999999 399:0 400:0 #
-0.00012024524883360589947584040615425 1:4.48 2:0.31999999 3:0.43000001 4:0.75 5:0.31999999 6:2.03 7:0.20999999 8:0.11 9:0 10:1.17 11:0.11 12:0 13:2.45 14:0.31999999 15:0.52999997 16:0.95999998 17:0.20999999 18:0.20999999 19:0.20999999 20:0.11 21:0.31999999 22:0.11 23:0 24:0 25:0 26:0.31999999 27:0.11 28:0.11 29:0.11 30:0.43000001 31:0.11 32:0 33:0.43000001 34:0.11 35:0.20999999 36:0.20999999 37:0 38:0.20999999 39:0 40:0 41:1.0700001 42:0.20999999 43:0.20999999 44:0.20999999 45:0.31999999 46:0.31999999 47:0 48:0.11 49:0.11 50:0.20999999 51:0 52:0.20999999 53:0.31999999 54:0.11 55:0.20999999 56:0.31999999 57:0.11 58:0.20999999 59:0 60:0 61:0.43000001 62:0.11 63:0.31999999 64:0.52999997 65:0.31999999 66:0.95999998 67:0 68:0 69:0 70:0.11 71:0.20999999 72:0 73:0.52999997 74:0.20999999 75:0.20999999 76:0.43000001 77:0.11 78:0.11 79:0 80:0 81:0.52999997 82:0 83:0 84:0.20999999 85:0.11 86:0.11 87:0.11 88:0.20999999 89:0.20999999 90:0.20999999 91:0 92:0.11 93:0.31999999 94:0.11 95:0.11 96:0.20999999 97:0 98:0.11 99:0 100:0.20999999 101:2.24 102:0.43000001 103:0.43000001 104:0.20999999 105:0.20999999 106:0.63999999 107:0.11 108:0.11 109:0.52999997 110:0.63999999 111:0.20999999 112:0 113:1.0700001 114:0.43000001 115:0.43000001 116:0.52999997 117:0.31999999 118:0.31999999 119:0.11 120:0.11 121:0.11 122:0 123:0.20999999 124:0 125:0 126:0.11 127:0 128:0.11 129:0.20999999 130:0.11 131:0 132:0.11 133:0 134:0 135:0 136:0.11 137:0 138:0.31999999 139:0 140:0.11 141:0.11 142:0.20999999 143:0.11 144:0.11 145:0 146:0.11 147:0.11 148:0 149:0.20999999 150:0.31999999 151:0 152:0.11 153:0.43000001 154:0.31999999 155:0.20999999 156:0.11 157:0.11 158:0.11 159:0 160:0.11 161:0.52999997 162:0.11 163:0.20999999 164:0.43000001 165:0.20999999 166:0.43000001 167:0.11 168:0.43000001 169:0.20999999 170:0.20999999 171:0 172:0.11 173:0.31999999 174:0.11 175:0.11 176:0.11 177:0 178:0.31999999 179:0.11 180:0 181:0.63999999 182:0.43000001 183:0.20999999 184:0.43000001 185:0.20999999 186:0.85000002 187:0.43000001 188:0.63999999 189:0.31999999 190:1.28 191:0.31999999 192:0.52999997 193:1.39 194:0.11 195:0.63999999 196:0.43000001 197:0.43000001 198:0.11 199:0 200:0.52999997 201:0 202:0 203:0.11 204:0.11 205:0 206:0 207:0 208:0 209:0.20999999 210:0.11 211:0.20999999 212:0 213:0 214:0 215:0.20999999 216:0.43000001 217:0.11 218:0.31999999 219:0.11 220:0 221:0 222:0.11 223:0.11 224:0.20999999 225:0 226:0 227:0 228:0 229:0.11 230:0.31999999 231:0 232:0 233:0 234:0.20999999 235:0 236:0 237:0.31999999 238:0 239:0 240:0.20999999 241:1.8099999 242:0.20999999 243:0.63999999 244:0.52999997 245:0.11 246:1.39 247:0.20999999 248:0.11 249:0.43000001 250:1.49 251:0 252:0.11 253:1.28 254:0.75 255:1.39 256:1.0700001 257:0 258:0.20999999 259:0 260:0.20999999 261:0.31999999 262:0 263:0.43000001 264:0.20999999 265:0.11 266:0.43000001 267:0.11 268:0.20999999 269:0.20999999 270:0.85000002 271:0.11 272:0.11 273:0.75 274:0 275:0.31999999 276:0.20999999 277:0.11 278:0.20999999 279:0 280:0.20999999 281:0.63999999 282:0.11 283:0.20999999 284:0.11 285:0.11 286:0.52999997 287:0 288:0.11 289:0.31999999 290:0.52999997 291:0.11 292:0.20999999 293:0.75 294:0.52999997 295:0.43000001 296:0.75 297:0.31999999 298:0.31999999 299:0 300:0 301:0.75 302:0.20999999 303:0.43000001 304:0.11 305:0.31999999 306:0.43000001 307:0 308:0.11 309:0.11 310:0.75 311:0 312:0 313:1.39 314:0.95999998 315:0.75 316:1.17 317:0.11 318:0.20999999 319:0.11 320:0.20999999 321:0.43000001 322:0.11 323:0 324:0.11 325:0.11 326:0.11 327:0 328:0.11 329:0.20999999 330:0.20999999 331:0.20999999 332:0 333:0 334:0.11 335:0.11 336:0.31999999 337:0.11 338:0 339:0 340:0.11 341:0.43000001 342:0 343:0.11 344:0.20999999 345:0.31999999 346:0.11 347:0 348:0.20999999 349:0.43000001 350:0.52999997 351:0.11 352:0 353:0.31999999 354:0 355:0.11 356:0.31999999 357:0 358:0.20999999 359:0 360:0.11 361:0 362:0 363:0 364:0.11 365:0 366:0 367:0 368:0 369:0 370:0 371:0.11 372:0 373:0.11 374:0.11 375:0.11 376:0.11 377:0 378:0 379:0 380:0 381:0.11 382:0.11 383:0.11 384:0 385:0.11 386:0.20999999 387:0 388:0.11 389:0.20999999 390:0.43000001 391:0 392:0 393:0.11 394:0.43000001 395:0 396:0.31999999 397:0 398:0 399:0 400:0 #
-0.00018355790117535774382678814831138 1:1.9 2:0.70999998 3:0.23999999 4:0.47999999 5:0.47999999 6:0.23999999 7:0.23999999 8:0.47999999 9:0.23999999 10:1.1900001 11:0 12:0.23999999 13:0.23999999 14:0.70999998 15:0.47999999 16:0 17:0.47999999 18:1.1900001 19:0.23999999 20:0 21:0 22:0 23:0.23999999 24:0.23999999 25:0 26:0.23999999 27:0 28:0.23999999 29:0.47999999 30:0.47999999 31:0 32:0 33:0.23999999 34:0 35:0.94999999 36:0.23999999 37:0 38:0 39:0 40:0 41:0.94999999 42:0 43:0 44:0.23999999 45:0 46:0.23999999 47:0 48:0.47999999 49:0.23999999 50:0 51:0.23999999 52:0.23999999 53:0.23999999 54:0.23999999 55:0.23999999 56:0.23999999 57:0 58:0 59:0 60:0 61:0.23999999 62:0.23999999 63:0.23999999 64:0.47999999 65:0.23999999 66:0.23999999 67:0 68:0.23999999 69:0.23999999 70:0.70999998 71:0 72:0.23999999 73:0.47999999 74:0 75:0.47999999 76:0.70999998 77:0 78:1.1900001 79:0 80:0 81:0.23999999 82:0 83:0 84:0 85:0.70999998 86:0.23999999 87:0 88:0 89:0.70999998 90:0 91:0.23999999 92:0 93:0.47999999 94:0 95:0.94999999 96:0.23999999 97:0.23999999 98:0.23999999 99:0 100:0 101:0.70999998 102:0.47999999 103:0.47999999 104:0 105:0.47999999 106:0.47999999 107:0.23999999 108:0.23999999 109:0.47999999 110:0.70999998 111:0.23999999 112:0.47999999 113:0.47999999 114:0 115:0.23999999 116:0.47999999 117:0.23999999 118:0.23999999 119:0 120:0 121:0 122:0 123:0 124:0.47999999 125:0.23999999 126:0.23999999 127:0 128:0 129:0.23999999 130:0 131:0 132:0 133:0 134:0 135:0.23999999 136:0.23999999 137:0.23999999 138:0 139:0 140:0.23999999 141:0.47999999 142:0 143:0 144:0.23999999 145:0 146:0.23999999 147:0.23999999 148:0.23999999 149:0.23999999 150:0.23999999 151:0 152:0 153:0.47999999 154:0.23999999 155:0.47999999 156:0.47999999 157:0.23999999 158:0.23999999 159:0 160:0 161:0.23999999 162:0.47999999 163:0.23999999 164:0.47999999 165:0 166:0 167:0.23999999 168:0.23999999 169:0.47999999 170:0.47999999 171:0 172:0 173:0 174:0.23999999 175:0.23999999 176:0.70999998 177:0.47999999 178:0.23999999 179:0.23999999 180:0.23999999 181:0.70999998 182:0 183:0.47999999 184:1.1900001 185:0.47999999 186:0.70999998 187:0 188:0 189:0.47999999 190:2.1400001 191:0.23999999 192:0.47999999 193:0.70999998 194:0.70999998 195:0.70999998 196:0.47999999 197:0.23999999 198:0.23999999 199:0 200:0.47999999 201:0 202:0 203:0 204:0 205:0.23999999 206:0 207:0 208:0 209:0 210:0.23999999 211:0 212:0.47999999 213:0 214:0 215:0 216:0.23999999 217:0 218:0 219:0 220:0.47999999 221:0.23999999 222:0 223:0 224:0 225:0 226:0.70999998 227:0 228:0 229:0.47999999 230:0 231:0.23999999 232:0 233:0 234:0.47999999 235:0.23999999 236:0.23999999 237:0.47999999 238:0.23999999 239:0 240:0 241:0.94999999 242:0.47999999 243:0 244:0.47999999 245:0 246:0.70999998 247:0.47999999 248:0.23999999 249:0.23999999 250:0.23999999 251:0.23999999 252:0 253:0 254:0 255:0.47999999 256:0.94999999 257:0.70999998 258:0.47999999 259:0.23999999 260:0 261:0.23999999 262:0.23999999 263:0.47999999 264:0.23999999 265:0 266:0.23999999 267:0.23999999 268:0 269:0.23999999 270:0.94999999 271:0 272:0 273:0.47999999 274:0 275:0 276:0 277:0.23999999 278:0.23999999 279:0.23999999 280:0 281:0.70999998 282:0 283:0 284:0.23999999 285:0.47999999 286:0.47999999 287:0 288:0.23999999 289:0.23999999 290:0.94999999 291:0 292:0.70999998 293:0.23999999 294:0.47999999 295:0.23999999 296:0.94999999 297:0.47999999 298:0 299:0 300:0.23999999 301:0.47999999 302:0 303:0.47999999 304:0.47999999 305:0.23999999 306:1.4299999 307:0 308:0.70999998 309:0 310:0.70999998 311:0 312:0 313:0.70999998 314:0.23999999 315:0 316:0.47999999 317:0.94999999 318:0.47999999 319:0 320:0.23999999 321:0.23999999 322:0 323:0.23999999 324:0.47999999 325:0.23999999 326:0 327:0.47999999 328:0.70999998 329:0 330:0.94999999 331:0 332:0 333:0.70999998 334:0.47999999 335:0.47999999 336:0.23999999 337:0.23999999 338:0 339:0 340:0.23999999 341:0.70999998 342:0.70999998 343:0.47999999 344:0 345:0.23999999 346:0 347:0 348:0 349:0 350:0.23999999 351:0 352:0.47999999 353:0.70999998 354:0.23999999 355:0 356:0.70999998 357:0.47999999 358:0.23999999 359:0 360:0.23999999 361:0.47999999 362:0 363:0 364:0 365:0 366:0 367:0 368:0 369:0 370:0 371:0 372:0 373:0.23999999 374:0 375:0.23999999 376:0 377:0 378:0 379:0 380:0 381:0.23999999 382:0 383:0 384:0.23999999 385:0.23999999 386:0.23999999 387:0 388:0.23999999 389:0.23999999 390:0.23999999 391:0 392:0 393:0.47999999 394:0 395:0 396:0 397:0 398:0.23999999 399:0 400:0 #
