SVM-light Version V6.02
2 # kernel type
3 # kernel parameter -d 
0.005 # kernel parameter -g 
1 # kernel parameter -s 
1 # kernel parameter -r 
empty# kernel parameter -u 
400 # highest feature index 
159 # number of training documents 
119 # number of support vectors plus 1 
2.7794973 # threshold b, each following line is a SV (starting with alpha*y)
-1.92342929503726089990323089296 1:2 2:0.44 3:0 4:0.88999999 5:0.67000002 6:0.67000002 7:0.22 8:0.22 9:0 10:0.88999999 11:0.88999999 12:0.44 13:0 14:0.44 15:0.22 16:0.67000002 17:0.22 18:0.44 19:0 20:0.22 21:0.22 22:0 23:0.22 24:0 25:0.22 26:0 27:0.22 28:0 29:0.44 30:0.22 31:0 32:0 33:0 34:0 35:0.67000002 36:0 37:0 38:0.22 39:0 40:0 41:0.67000002 42:0 43:0 44:0 45:0 46:0.22 47:0.22 48:0.22 49:0.22 50:0.44 51:0.44 52:0 53:0 54:0.44 55:0 56:0.22 57:0 58:0 59:0 60:0 61:0 62:0.22 63:0.22 64:0.44 65:0.22 66:0.22 67:0.44 68:0.44 69:0 70:0.44 71:0.22 72:0.22 73:0 74:0 75:0.22 76:0.88999999 77:0.22 78:0.67000002 79:0 80:0.22 81:0.22 82:0 83:0 84:0.22 85:0.88999999 86:0 87:0 88:0.22 89:0.44 90:0 91:0 92:0 93:0.22 94:0.67000002 95:0.44 96:0.22 97:0.44 98:0.22 99:0 100:0 101:0.22 102:0.22 103:0.22 104:0.22 105:0.67000002 106:0 107:0.44 108:0.22 109:0.44 110:0.67000002 111:0.44 112:0 113:0.22 114:0 115:0 116:0.67000002 117:0 118:0.44 119:0 120:0 121:0.22 122:0 123:0 124:0.22 125:0 126:0.22 127:0.67000002 128:0.22 129:0.22 130:0.44 131:0.44 132:0.44 133:0.67000002 134:0.22 135:0.22 136:0.22 137:0 138:0.22 139:0 140:0.22 141:0 142:0 143:0.22 144:0.22 145:0 146:0.22 147:0 148:0 149:0.44 150:0.88999999 151:0.22 152:0 153:0.22 154:0.22 155:0.22 156:0.44 157:0.22 158:0.22 159:0 160:0.22 161:0 162:0.22 163:0.44 164:0.44 165:0 166:0 167:0.22 168:0.22 169:0 170:0 171:0 172:0.22 173:0 174:0.22 175:0.22 176:0.67000002 177:0.44 178:0.67000002 179:0 180:0.22 181:0.67000002 182:0.44 183:0.22 184:0.44 185:0.88999999 186:0.22 187:0.22 188:0.22 189:0 190:1.33 191:0.88999999 192:0.44 193:0.67000002 194:0 195:0.67000002 196:0.44 197:0.44 198:0 199:0 200:0.22 201:0.88999999 202:0 203:0.22 204:0 205:0 206:0.44 207:0.44 208:0 209:0 210:0 211:0.44 212:0.88999999 213:1.11 214:0.22 215:0.22 216:0 217:0 218:0.22 219:0 220:0.44 221:0.44 222:0 223:0.22 224:0 225:0.22 226:0 227:0 228:0.22 229:0.22 230:0 231:0 232:0 233:0 234:0.44 235:0.22 236:0.88999999 237:0.22 238:0.22 239:0.22 240:0.22 241:0.67000002 242:0.22 243:0.44 244:0 245:0 246:0.44 247:0.22 248:0 249:0 250:0.22 251:1.11 252:0.22 253:1.11 254:0.44 255:0.44 256:0.67000002 257:0.44 258:0.22 259:0 260:0 261:0 262:0.22 263:0 264:0.22 265:0 266:0.44 267:0.22 268:0.22 269:0.44 270:0.88999999 271:0 272:0 273:0.44 274:0 275:0.67000002 276:0.22 277:0.22 278:0 279:0 280:0.44 281:1.11 282:0 283:0.22 284:0.44 285:0.22 286:0.44 287:0.22 288:0.22 289:0.88999999 290:0.67000002 291:0 292:0.44 293:0 294:0.22 295:0.44 296:0.67000002 297:0.22 298:0.22 299:0 300:0 301:1.11 302:0 303:0.22 304:0.44 305:0.22 306:0.67000002 307:0 308:0.44 309:0 310:0.22 311:0 312:0 313:1.11 314:0.67000002 315:0.67000002 316:1.55 317:0.67000002 318:0.67000002 319:0.22 320:0 321:0.67000002 322:0 323:0 324:0.67000002 325:0 326:0.44 327:0.44 328:0.67000002 329:0 330:0.44 331:0 332:0 333:0.22 334:0 335:0.44 336:0 337:0 338:0 339:0 340:0 341:0.22 342:0.44 343:0.22 344:0 345:0 346:0.22 347:0.44 348:0 349:0 350:0.44 351:0 352:0.22 353:0.88999999 354:0.44 355:0.67000002 356:0.22 357:0.22 358:0.44 359:0 360:0.22 361:0 362:0 363:0 364:0 365:0 366:0 367:0 368:0.22 369:0.22 370:0 371:0 372:0 373:0 374:0 375:0 376:0 377:0 378:0 379:0 380:0 381:0.22 382:0 383:0 384:0.44 385:0 386:0.22 387:0.22 388:0.22 389:0.22 390:0.22 391:0.22 392:0.22 393:0 394:0 395:0 396:0.22 397:0 398:0.22 399:0 400:0 #
-0.87383159522804421115438344713766 1:3.97 2:0.23 3:0.23 4:0.69999999 5:0.23 6:0.69999999 7:0.93000001 8:0.23 9:0.23 10:0.23 11:0.23 12:0 13:0.69999999 14:0.23 15:0.23 16:1.4 17:0.47 18:0.23 19:0 20:0.23 21:0 22:0 23:0 24:0.23 25:0 26:0.23 27:0 28:0.23 29:0.93000001 30:0.69999999 31:0 32:0 33:0 34:0 35:0.23 36:0.23 37:0 38:0.23 39:0 40:0.23 41:0.23 42:0 43:0 44:0 45:0 46:0 47:0 48:0 49:0.23 50:0.23 51:0.23 52:0 53:0.23 54:0.23 55:0 56:0.47 57:0 58:0.47 59:0 60:0 61:0.47 62:0.47 63:0.47 64:0.23 65:0 66:0.69999999 67:0.23 68:0 69:0 70:0 71:0.23 72:0 73:0.23 74:0.23 75:0 76:0.23 77:0.23 78:0.69999999 79:0 80:0 81:0.47 82:0 83:0 84:0 85:0.47 86:0.93000001 87:0.23 88:0 89:0.23 90:0 91:0 92:0.23 93:0.23 94:0.23 95:0 96:0.47 97:0.23 98:0.23 99:0 100:0.23 101:0.69999999 102:0.23 103:0.23 104:0.47 105:0.69999999 106:1.64 107:0 108:0.23 109:0.47 110:0 111:0.23 112:0 113:0.23 114:0 115:0.47 116:0.69999999 117:0 118:0.47 119:0 120:0.47 121:0.47 122:0.23 123:0 124:0.23 125:0.47 126:0 127:0.69999999 128:0 129:0 130:0.47 131:0.23 132:0.23 133:0.69999999 134:0.69999999 135:0.23 136:1.17 137:0.23 138:0 139:0 140:0 141:0.23 142:0 143:0.47 144:0 145:0.23 146:0.23 147:0.23 148:0.23 149:0 150:0 151:0 152:0 153:0 154:0 155:0.23 156:0.47 157:0 158:0 159:0 160:0 161:0.47 162:0.47 163:0 164:0 165:0.23 166:0.23 167:0.23 168:0.23 169:0.23 170:0.23 171:0.23 172:0.47 173:0 174:0 175:0.23 176:0.23 177:0.23 178:0.23 179:0 180:0 181:0.23 182:0 183:0 184:0.47 185:0.23 186:0.47 187:0.47 188:0 189:0 190:0.93000001 191:0 192:0 193:0.47 194:0.23 195:0.23 196:0.93000001 197:0.23 198:0 199:0 200:0 201:0.23 202:0 203:0.23 204:0 205:0 206:0.23 207:0 208:0 209:0.23 210:0 211:0.23 212:0.23 213:0.23 214:0.23 215:0.23 216:0.23 217:0 218:0 219:0 220:0.23 221:0.23 222:0 223:0.23 224:0.23 225:0 226:0 227:0 228:0.23 229:0 230:0 231:0 232:0.23 233:0 234:0.23 235:0.47 236:0 237:0.23 238:0.23 239:0.23 240:0 241:0.47 242:0 243:0 244:0 245:0.47 246:0.47 247:0.93000001 248:0.47 249:0 250:0.69999999 251:0.23 252:0.23 253:0.93000001 254:0 255:0.47 256:0.69999999 257:0.93000001 258:0.93000001 259:0 260:0 261:0.23 262:0 263:0 264:0.93000001 265:0 266:0 267:0 268:0 269:0.23 270:0.47 271:0 272:0.23 273:0.47 274:1.4 275:0 276:1.17 277:0.23 278:0.23 279:0 280:0 281:0.23 282:0 283:0 284:0 285:0.23 286:0.23 287:0.23 288:0 289:0.47 290:0.23 291:0 292:0 293:0 294:0.93000001 295:0.47 296:0.69999999 297:0.23 298:0 299:0 300:0.23 301:2.0999999 302:0 303:0.23 304:0.47 305:0.69999999 306:0.23 307:0.47 308:0.23 309:0.23 310:0.47 311:0.47 312:0.23 313:1.87 314:0.47 315:0.47 316:2.5699999 317:0.23 318:1.64 319:0 320:0.47 321:0.23 322:0.69999999 323:0 324:0 325:0 326:0 327:0.23 328:0.23 329:0 330:0 331:0 332:0 333:0.69999999 334:0 335:0 336:1.17 337:1.4 338:0.23 339:0 340:0 341:0.47 342:0.93000001 343:0.23 344:0.47 345:0 346:0.69999999 347:0.93000001 348:0 349:0.23 350:0 351:0 352:0 353:0.69999999 354:0.23 355:0 356:0.69999999 357:0 358:0.47 359:0 360:0 361:0 362:0 363:0 364:0 365:0.23 366:0 367:0 368:0 369:0 370:0 371:0 372:0 373:0 374:0 375:0 376:0 377:0 378:0 379:0 380:0 381:0 382:0 383:0 384:0 385:0 386:0.23 387:0.23 388:0 389:0.23 390:0.23 391:0 392:0.47 393:0.23 394:0.23 395:0.23 396:0 397:0 398:0 399:0 400:0 #
-1.9373282121577408698698263833649 1:2.01 2:0.31 3:0.62 4:0.15000001 5:0.31 6:0.76999998 7:0.15000001 8:0 9:0.15000001 10:0.62 11:0.31 12:0.46000001 13:0.46000001 14:0.15000001 15:0.31 16:0.62 17:0.15000001 18:0.76999998 19:0 20:0 21:0 22:0 23:0 24:0.15000001 25:0 26:0.15000001 27:0 28:0.15000001 29:0.62 30:0.31 31:0 32:0 33:0 34:0 35:0.15000001 36:0 37:0 38:0 39:0 40:0 41:0.15000001 42:0.15000001 43:0.76999998 44:0.76999998 45:0 46:0.62 47:0.15000001 48:0 49:0 50:0.76999998 51:0 52:0.31 53:0.31 54:0.15000001 55:0 56:0.46000001 57:0.15000001 58:0.15000001 59:0 60:0.15000001 61:0.62 62:0.15000001 63:0.93000001 64:1.39 65:0 66:0.15000001 67:0.15000001 68:0.62 69:0.15000001 70:0.46000001 71:0 72:0.31 73:0.31 74:0.31 75:0.31 76:0.15000001 77:0.62 78:0.15000001 79:0 80:0.15000001 81:0.31 82:0 83:0 84:0 85:0.15000001 86:0.31 87:0.15000001 88:0 89:0.15000001 90:0.31 91:0 92:0.15000001 93:0.31 94:0 95:0 96:0 97:0.15000001 98:0 99:0 100:0.15000001 101:0.76999998 102:0.15000001 103:0 104:0.46000001 105:0.15000001 106:2.79 107:0.15000001 108:0.15000001 109:0.31 110:0.62 111:0.62 112:0.15000001 113:0 114:0.46000001 115:0.62 116:1.39 117:0.15000001 118:0.46000001 119:0 120:0.31 121:0.15000001 122:0.15000001 123:0.15000001 124:0 125:0.15000001 126:0 127:0.46000001 128:0 129:0.31 130:0.62 131:0 132:0.46000001 133:0.46000001 134:0.31 135:0 136:0.62 137:0 138:0 139:0 140:0 141:0 142:0 143:0.31 144:0.62 145:0 146:0 147:0.15000001 148:0.31 149:0.15000001 150:0.15000001 151:0 152:0.15000001 153:0 154:0 155:0 156:0.76999998 157:0 158:0 159:0 160:0 161:0.15000001 162:0.15000001 163:0.15000001 164:0.31 165:0 166:0.15000001 167:0.15000001 168:0.15000001 169:0.31 170:0.31 171:0 172:0.46000001 173:0.15000001 174:0.15000001 175:0.46000001 176:0.93000001 177:0.31 178:0.62 179:0 180:0 181:0.15000001 182:0 183:0.62 184:0.15000001 185:0.31 186:0.62 187:0.15000001 188:0.15000001 189:0.62 190:0.76999998 191:0.31 192:0 193:0.62 194:0.15000001 195:0.15000001 196:0.76999998 197:0.46000001 198:0.31 199:0 200:0.31 201:0.15000001 202:0 203:0 204:0 205:0 206:0 207:0 208:0 209:0.15000001 210:0.31 211:0.31 212:0.31 213:0.46000001 214:0 215:0.15000001 216:0.31 217:0.15000001 218:0.15000001 219:0 220:0 221:0.31 222:0 223:0.15000001 224:0.15000001 225:0 226:0.62 227:0.31 228:0 229:0.15000001 230:0.15000001 231:0 232:2.6300001 233:0.46000001 234:0.31 235:0.15000001 236:1.08 237:0.15000001 238:0 239:0.15000001 240:0 241:1.24 242:0 243:0.15000001 244:0.76999998 245:0.46000001 246:1.08 247:0.31 248:0.15000001 249:0 250:0.31 251:0 252:0.31 253:1.55 254:0.15000001 255:0.15000001 256:0.62 257:0.31 258:0.46000001 259:0 260:0.15000001 261:0.46000001 262:0 263:0.46000001 264:0.31 265:0 266:0.31 267:0.31 268:0 269:0 270:0 271:0.15000001 272:0.15000001 273:0.15000001 274:1.55 275:0.15000001 276:0.15000001 277:0.15000001 278:0 279:0 280:0 281:0.15000001 282:0 283:0 284:0.31 285:0.31 286:0.15000001 287:0 288:0 289:0.31 290:0.46000001 291:0 292:0 293:0.31 294:0.15000001 295:0.15000001 296:0.62 297:0.31 298:0.15000001 299:0 300:0.15000001 301:0.15000001 302:0 303:0.62 304:0.62 305:0.15000001 306:1.39 307:0.76999998 308:0.76999998 309:0.62 310:0.15000001 311:0.46000001 312:0.62 313:1.39 314:0.31 315:0.46000001 316:2.48 317:0.31 318:0.76999998 319:0 320:0.15000001 321:0.46000001 322:0.31 323:0.15000001 324:0.31 325:0 326:0.15000001 327:0.31 328:0.15000001 329:0.46000001 330:0 331:0 332:0.15000001 333:0.93000001 334:0 335:0 336:0.46000001 337:0.62 338:0 339:0 340:0 341:0.76999998 342:0.15000001 343:0 344:0.46000001 345:0 346:0.15000001 347:0 348:0 349:0.46000001 350:0.15000001 351:0.15000001 352:0 353:0.15000001 354:0.15000001 355:0.31 356:0.46000001 357:0.46000001 358:0.31 359:0 360:0 361:0 362:0 363:0 364:0 365:0.15000001 366:0 367:0 368:0 369:0 370:0 371:0 372:0 373:0 374:0 375:0 376:0 377:0 378:0 379:0 380:0 381:0.31 382:0 383:0 384:0 385:0 386:0.31 387:0.15000001 388:0 389:0 390:0.15000001 391:0 392:0.15000001 393:0.15000001 394:0 395:0 396:0.31 397:0 398:0 399:0 400:0 #
-1.9373282121577408698698263833649 1:2.1400001 2:0.20999999 3:0.18000001 4:0.64999998 5:0.1 6:0.68000001 7:0.13 8:0.20999999 9:0.38999999 10:0.51999998 11:0.13 12:0.38999999 13:0.68000001 14:0.55000001 15:0.44 16:1.1 17:1.41 18:0.5 19:0 20:0.079999998 21:0.37 22:0.1 23:0.1 24:0.18000001 25:0.050000001 26:0.25999999 27:0 28:0.050000001 29:0.1 30:0.18000001 31:0 32:0.13 33:0.13 34:0.16 35:0.13 36:0.23999999 37:0.23999999 38:0.079999998 39:0.050000001 40:0.13 41:0.38999999 42:0.1 43:0.83999997 44:0.41999999 45:0.1 46:0.37 47:0.079999998 48:0.20999999 49:0.28999999 50:0.25999999 51:0.1 52:0.34 53:0.1 54:0.029999999 55:0.050000001 56:0.20999999 57:0.20999999 58:0.20999999 59:0.029999999 60:0.1 61:0.68000001 62:0.1 63:0.47 64:0.51999998 65:0.18000001 66:0.18000001 67:0.050000001 68:0.1 69:0.38999999 70:0.51999998 71:0.16 72:0.16 73:0.41999999 74:0.37 75:0.1 76:0.37 77:0.38999999 78:0.34 79:0.029999999 80:0.13 81:0.16 82:0.079999998 83:0.029999999 84:0.25999999 85:0.029999999 86:0.20999999 87:0.029999999 88:0.1 89:0.23999999 90:0.20999999 91:0.029999999 92:0.079999998 93:0.13 94:0.23999999 95:0.079999998 96:0.13 97:0.20999999 98:0.23999999 99:0.029999999 100:0.029999999 101:0.51999998 102:0.079999998 103:0.16 104:0.23999999 105:0.18000001 106:0.73000002 107:0.13 108:0.13 109:0.16 110:0.51999998 111:0.029999999 112:0.51999998 113:0.16 114:0.23999999 115:0.1 116:0.81 117:0.34 118:0.28999999 119:0 120:0.1 121:0.079999998 122:0 123:0.029999999 124:0.079999998 125:0.029999999 126:0.13 127:0.079999998 128:0.1 129:0.13 130:0.1 131:0.050000001 132:0.050000001 133:0 134:0.25999999 135:0.050000001 136:0.23999999 137:0.079999998 138:0.029999999 139:0 140:0.079999998 141:0.28999999 142:0.13 143:0.25999999 144:0.25999999 145:0.13 146:0.18000001 147:0.050000001 148:0.23999999 149:0.18000001 150:0.28999999 151:0.079999998 152:0.20999999 153:0.079999998 154:0.25999999 155:0.079999998 156:0.31 157:0.18000001 158:0.34 159:0.029999999 160:0.050000001 161:0.31 162:0.38999999 163:0.20999999 164:0.41999999 165:0.16 166:0.13 167:0.18000001 168:0.34 169:0.51999998 170:0.44 171:0.050000001 172:0.31 173:0.44 174:0.37 175:0.34 176:0.60000002 177:0.31 178:0.34 179:0.029999999 180:0.16 181:0.60000002 182:0.13 183:0.38999999 184:0.5 185:0.18000001 186:0.44 187:0.029999999 188:0.34 189:0.77999997 190:0.77999997 191:0.079999998 192:0.38999999 193:0.56999999 194:1.02 195:0.18000001 196:0.81 197:0.44 198:0.23999999 199:0 200:0.18000001 201:0.13 202:0.029999999 203:0.079999998 204:0.079999998 205:0.079999998 206:0.029999999 207:0.029999999 208:0.079999998 209:0.13 210:0.18000001 211:0.029999999 212:0 213:0.050000001 214:0.18000001 215:0.1 216:0.23999999 217:0.050000001 218:0.079999998 219:0.029999999 220:0.079999998 221:0.55000001 222:0.28999999 223:0.31 224:0.23999999 225:0.13 226:0.34 227:0.050000001 228:0.16 229:0.25999999 230:0.5 231:0.029999999 232:0.23999999 233:0.31 234:0.18000001 235:0.20999999 236:0.63 237:0.23999999 238:0.28999999 239:0.050000001 240:0.18000001 241:0.70999998 242:0.079999998 243:0.13 244:0.23999999 245:0.050000001 246:0.23999999 247:0.050000001 248:0.37 249:0.38999999 250:0.60000002 251:0.23999999 252:0.28999999 253:0.20999999 254:0.63 255:0.20999999 256:0.37 257:0.55000001 258:0.18000001 259:0.050000001 260:0.050000001 261:0.56999999 262:0.029999999 263:0.029999999 264:0.25999999 265:0.28999999 266:0.18000001 267:0.31 268:0.079999998 269:0.31 270:0.94 271:0.18000001 272:0.37 273:0.81 274:2.74 275:0.34 276:0.47 277:0.51999998 278:0.31 279:0.029999999 280:0.079999998 281:0.16 282:0.23999999 283:0.029999999 284:0.13 285:0.1 286:0.20999999 287:0.079999998 288:0.13 289:0.38999999 290:0.28999999 291:0.050000001 292:0.23999999 293:0.23999999 294:0.23999999 295:0.25999999 296:0.44 297:0.16 298:0.1 299:0.029999999 300:0.050000001 301:0.99000001 302:0.25999999 303:0.41999999 304:0.37 305:0.31 306:0.5 307:0.079999998 308:0.5 309:0.64999998 310:0.56999999 311:0.16 312:0.63 313:0.38999999 314:0.5 315:0.44 316:1.23 317:0.88999999 318:0.41999999 319:0.079999998 320:0.1 321:1.2 322:0.1 323:0.28999999 324:0.31 325:0.20999999 326:0.37 327:0 328:0.18000001 329:0.20999999 330:0.47 331:0.13 332:0.5 333:0.41999999 334:0.55000001 335:0.20999999 336:0.81 337:1.12 338:0.38999999 339:0.029999999 340:0.20999999 341:0.44 342:0.20999999 343:0.31 344:0.28999999 345:0.13 346:0.13 347:0.1 348:0.25999999 349:0.34 350:0.51999998 351:0.1 352:0.25999999 353:0.41999999 354:0.31 355:0.079999998 356:0.34 357:0.28999999 358:0.34 359:0 360:0.029999999 361:0.029999999 362:0 363:0 364:0.050000001 365:0.029999999 366:0 367:0.029999999 368:0 369:0.050000001 370:0.1 371:0 372:0 373:0.029999999 374:0 375:0.050000001 376:0.079999998 377:0 378:0.050000001 379:0 380:0 381:0.18000001 382:0.13 383:0.18000001 384:0.18000001 385:0.029999999 386:0.13 387:0.1 388:0.050000001 389:0.13 390:0.079999998 391:0.029999999 392:0.1 393:0.029999999 394:0.050000001 395:0.079999998 396:0.079999998 397:0.079999998 398:0.16 399:0.029999999 400:0.050000001 #
-1.9373282121577408698698263833649 1:1.21 2:0.27000001 3:0.30000001 4:0.47999999 5:0.079999998 6:0.62 7:0.13 8:0.31999999 9:0.31999999 10:0.46000001 11:0.19 12:0.43000001 13:0.43000001 14:0.46000001 15:0.46000001 16:1.13 17:0.77999997 18:0.34999999 19:0.029999999 20:0.050000001 21:0.27000001 22:0.079999998 23:0.13 24:0.11 25:0.050000001 26:0.30000001 27:0 28:0.029999999 29:0.11 30:0.11 31:0.029999999 32:0.079999998 33:0.13 34:0.16 35:0.11 36:0.31999999 37:0.23999999 38:0.079999998 39:0.050000001 40:0.13 41:0.38 42:0.13 43:0.62 44:0.46000001 45:0.11 46:0.40000001 47:0.050000001 48:0.20999999 49:0.27000001 50:0.27000001 51:0.13 52:0.30000001 53:0.11 54:0.20999999 55:0.11 56:0.30000001 57:0.19 58:0.19 59:0.029999999 60:0.11 61:0.43000001 62:0.079999998 63:0.58999997 64:0.69999999 65:0.23999999 66:0.34999999 67:0.079999998 68:0.11 69:0.38 70:0.43000001 71:0.16 72:0.16 73:0.40000001 74:0.38 75:0.050000001 76:0.38 77:0.31999999 78:0.34999999 79:0.029999999 80:0.13 81:0.11 82:0.079999998 83:0.029999999 84:0.23999999 85:0.079999998 86:0.27000001 87:0.029999999 88:0.079999998 89:0.16 90:0.27000001 91:0 92:0.050000001 93:0.16 94:0.23999999 95:0.13 96:0.30000001 97:0.11 98:0.20999999 99:0.029999999 100:0.050000001 101:0.67000002 102:0.079999998 103:0.34999999 104:0.43000001 105:0.11 106:0.69999999 107:0.079999998 108:0.20999999 109:0.34999999 110:0.50999999 111:0.11 112:0.58999997 113:0.16 114:0.19 115:0.19 116:1.15 117:0.46000001 118:0.40000001 119:0.029999999 120:0.079999998 121:0.029999999 122:0.029999999 123:0.029999999 124:0.050000001 125:0.050000001 126:0.16 127:0.029999999 128:0.16 129:0.11 130:0.050000001 131:0 132:0 133:0.029999999 134:0.11 135:0.079999998 136:0.19 137:0.11 138:0.050000001 139:0 140:0.050000001 141:0.20999999 142:0.13 143:0.16 144:0.16 145:0.13 146:0.13 147:0.13 148:0.20999999 149:0.20999999 150:0.31999999 151:0.11 152:0.11 153:0.27000001 154:0.27000001 155:0.079999998 156:0.56 157:0.11 158:0.38 159:0.029999999 160:0.050000001 161:0.38 162:0.27000001 163:0.23999999 164:0.38 165:0.19 166:0.16 167:0.11 168:0.31999999 169:0.50999999 170:0.46000001 171:0.16 172:0.30000001 173:0.46000001 174:0.31999999 175:0.38 176:0.67000002 177:0.30000001 178:0.31999999 179:0.029999999 180:0.16 181:0.56 182:0.11 183:0.38 184:0.56 185:0.13 186:0.47999999 187:0 188:0.30000001 189:0.72000003 190:0.62 191:0.029999999 192:0.38 193:0.56 194:0.82999998 195:0.16 196:0.62 197:0.40000001 198:0.23999999 199:0 200:0.19 201:0.16 202:0.050000001 203:0.19 204:0.13 205:0.079999998 206:0.11 207:0 208:0.13 209:0.079999998 210:0.19 211:0.029999999 212:0.029999999 213:0.079999998 214:0.13 215:0.13 216:0.13 217:0.13 218:0.079999998 219:0.029999999 220:0.050000001 221:0.46000001 222:0.19 223:0.19 224:0.30000001 225:0.16 226:0.47999999 227:0.050000001 228:0.050000001 229:0.16 230:0.46000001 231:0.079999998 232:0.16 233:0.30000001 234:0.34999999 235:0.16 236:0.63999999 237:0.20999999 238:0.27000001 239:0.029999999 240:0.20999999 241:0.47999999 242:0.11 243:0.16 244:0.20999999 245:0.029999999 246:0.30000001 247:0.079999998 248:0.34999999 249:0.31999999 250:0.54000002 251:0.19 252:0.23999999 253:0.27000001 254:0.67000002 255:0.19 256:0.75 257:0.50999999 258:0.31999999 259:0.050000001 260:0.050000001 261:0.69999999 262:0.050000001 263:0.11 264:0.20999999 265:0.27000001 266:0.20999999 267:0.079999998 268:0.20999999 269:0.23999999 270:0.62 271:0.19 272:0.47999999 273:0.91000003 274:1.66 275:0.40000001 276:0.47999999 277:0.30000001 278:0.54000002 279:0.029999999 280:0.11 281:0.11 282:0.19 283:0.050000001 284:0.16 285:0.11 286:0.27000001 287:0.050000001 288:0.20999999 289:0.38 290:0.23999999 291:0.050000001 292:0.31999999 293:0.19 294:0.23999999 295:0.23999999 296:0.43000001 297:0.19 298:0.16 299:0.029999999 300:0.050000001 301:1.21 302:0.30000001 303:0.30000001 304:0.30000001 305:0.20999999 306:1.21 307:0.13 308:0.58999997 309:0.88999999 310:0.67000002 311:0.11 312:0.62 313:0.67000002 314:0.50999999 315:0.34999999 316:2.0899999 317:1.1 318:0.50999999 319:0.029999999 320:0.050000001 321:0.72000003 322:0.13 323:0.27000001 324:0.30000001 325:0.31999999 326:0.43000001 327:0.050000001 328:0.11 329:0.27000001 330:0.40000001 331:0.13 332:0.40000001 333:0.31999999 334:0.56 335:0.16 336:0.91000003 337:0.67000002 338:0.40000001 339:0.029999999 340:0.20999999 341:0.31999999 342:0.13 343:0.23999999 344:0.31999999 345:0.20999999 346:0.19 347:0.079999998 348:0.11 349:0.40000001 350:0.43000001 351:0.20999999 352:0.19 353:0.30000001 354:0.46000001 355:0.19 356:0.56 357:0.54000002 358:0.43000001 359:0 360:0.13 361:0 362:0 363:0 364:0.050000001 365:0.029999999 366:0 367:0.029999999 368:0 369:0.050000001 370:0.079999998 371:0 372:0 373:0.050000001 374:0 375:0.029999999 376:0.11 377:0 378:0.050000001 379:0 380:0 381:0.079999998 382:0.11 383:0.23999999 384:0.19 385:0.029999999 386:0.079999998 387:0.11 388:0.050000001 389:0.16 390:0.16 391:0.029999999 392:0.11 393:0.029999999 394:0.050000001 395:0.079999998 396:0.11 397:0.16 398:0.11 399:0.029999999 400:0.050000001 #
7.5750767704341406272305903257802 1:1.96 2:0.11 3:0.11 4:0.54000002 5:0.11 6:0.98000002 7:0.11 8:0.11 9:0.22 10:0.87 11:0.11 12:0 13:0.98000002 14:0.11 15:0.54000002 16:1.09 17:0 18:0.64999998 19:0.11 20:0.11 21:0.33000001 22:0 23:0 24:0 25:0 26:0.33000001 27:0.22 28:0 29:0.44 30:0.11 31:0.22 32:0 33:0.11 34:0.11 35:0.22 36:0.33000001 37:0.11 38:0.33000001 39:0 40:0.11 41:0 42:0.22 43:0.33000001 44:0.54000002 45:0.22 46:0.22 47:0.11 48:0.11 49:0.11 50:0.44 51:0.11 52:0.33000001 53:0 54:0.11 55:0.11 56:0.54000002 57:0.11 58:0.11 59:0 60:0.33000001 61:1.2 62:0.33000001 63:0.33000001 64:0.44 65:0.22 66:0.64999998 67:0.11 68:0.11 69:0 70:0.64999998 71:0.22 72:0.11 73:0.22 74:0.22 75:0.22 76:0.22 77:0.33000001 78:0.22 79:0 80:0.22 81:0.33000001 82:0 83:0.22 84:0 85:0.22 86:0.11 87:0.11 88:0 89:0.22 90:0.22 91:0 92:0.11 93:0.44 94:0.22 95:0.22 96:0.11 97:0.44 98:0 99:0 100:0.11 101:1.09 102:0.33000001 103:0.44 104:0.64999998 105:0.11 106:2.8299999 107:0.11 108:0 109:0.33000001 110:0.87 111:0.22 112:0.11 113:0.87 114:0.22 115:0.22 116:0.98000002 117:0.22 118:0.33000001 119:0.22 120:0.44 121:0.11 122:0 123:0.11 124:0 125:0 126:0.11 127:0 128:0.11 129:0.11 130:0.22 131:0.11 132:0 133:0.33000001 134:0.11 135:0.11 136:0 137:0.22 138:0.33000001 139:0 140:0.11 141:0.22 142:0.11 143:0.22 144:0.22 145:0.11 146:0 147:0 148:0.33000001 149:0.33000001 150:0.22 151:0 152:0 153:0.11 154:0.22 155:0 156:0.22 157:0.11 158:0 159:0 160:0.11 161:0.33000001 162:0.11 163:0.22 164:0.22 165:0.22 166:0.44 167:0 168:0.11 169:0.11 170:0.64999998 171:0 172:0.33000001 173:0.11 174:0.11 175:0.22 176:0.54000002 177:0.22 178:0.22 179:0.11 180:0.11 181:0.54000002 182:0.33000001 183:0.64999998 184:0.75999999 185:0.33000001 186:1.09 187:0.33000001 188:0.22 189:0.44 190:1.3099999 191:0.11 192:0.22 193:0.54000002 194:0.44 195:0.33000001 196:0.87 197:0.33000001 198:0.33000001 199:0 200:0.33000001 201:0.22 202:0 203:0.11 204:0.11 205:0 206:0.44 207:0.11 208:0 209:0.11 210:0.11 211:0.11 212:0.11 213:0 214:0.11 215:0.22 216:0 217:0.11 218:0.33000001 219:0 220:0.22 221:0.11 222:0.11 223:0.11 224:0.22 225:0.11 226:0 227:0 228:0 229:0 230:0.33000001 231:0 232:0.11 233:0.33000001 234:0.22 235:0 236:0.11 237:0 238:0.22 239:0 240:0.22 241:0.22 242:0.22 243:0.44 244:0.44 245:0.11 246:0.98000002 247:0.22 248:0.44 249:0.11 250:0.44 251:0 252:0 253:1.42 254:0.64999998 255:0.33000001 256:0.75999999 257:0.75999999 258:0.11 259:0.11 260:0.33000001 261:0.11 262:0.22 263:0 264:0.64999998 265:0.11 266:0.22 267:0 268:0.11 269:0.44 270:0.75999999 271:0.11 272:0.22 273:0.54000002 274:3.3800001 275:0 276:0.33000001 277:0 278:0.11 279:0 280:0.11 281:0.22 282:0 283:0.22 284:0.33000001 285:0.11 286:0.44 287:0.22 288:0.22 289:0.44 290:0.22 291:0.54000002 292:0.22 293:0.33000001 294:0.22 295:0.33000001 296:0.11 297:0 298:0.22 299:0 300:0.11 301:0.87 302:0.44 303:0.22 304:0.33000001 305:0.22 306:0.98000002 307:0.22 308:0.11 309:0.33000001 310:0.75999999 311:0.11 312:0 313:0.75999999 314:0.33000001 315:0.64999998 316:0.98000002 317:0.64999998 318:0.54000002 319:0.22 320:0.11 321:0.44 322:0.33000001 323:0 324:0.22 325:0.22 326:0.11 327:0 328:0.22 329:0.22 330:0.54000002 331:0.11 332:0.11 333:0.22 334:0.22 335:0.11 336:0.54000002 337:0.22 338:0.11 339:0 340:0.11 341:0.22 342:0.11 343:0.33000001 344:0.11 345:0.33000001 346:0 347:0.11 348:0.22 349:0.33000001 350:0.33000001 351:0 352:0.11 353:0.44 354:0.33000001 355:0.33000001 356:0.64999998 357:0 358:0.22 359:0.11 360:0.11 361:0.22 362:0 363:0 364:0 365:0 366:0 367:0.11 368:0 369:0 370:0.11 371:0.22 372:0 373:0 374:0 375:0.11 376:0 377:0 378:0 379:0 380:0.11 381:0.11 382:0 383:0 384:0.22 385:0.33000001 386:0.64999998 387:0 388:0.11 389:0.11 390:0.33000001 391:0 392:0.11 393:0.33000001 394:0.22 395:0.22 396:0.44 397:0.22 398:0 399:0 400:0.22 #
0.62461092707575360805094533134252 1:0.63 2:0.13 3:0.13 4:0.13 5:0.13 6:0.75999999 7:0 8:0.38 9:0.13 10:0.5 11:0 12:0.13 13:0.25 14:0 15:0.13 16:0.75999999 17:0.63 18:0.38 19:0.13 20:0 21:0.25 22:0 23:0 24:0 25:0.25 26:0.13 27:0.13 28:0.13 29:0.38 30:0.25 31:0.25 32:0 33:0.13 34:0.25 35:0.13 36:0.13 37:0.13 38:0 39:0 40:0 41:0.13 42:0.25 43:0.38 44:0.5 45:0.5 46:0 47:0 48:0 49:0.25 50:0.75999999 51:0.13 52:0 53:0.13 54:0.5 55:0 56:0.75999999 57:0.63 58:0.13 59:0 60:0 61:0.25 62:0 63:0.38 64:0.25 65:0.38 66:0.5 67:0 68:0.25 69:0.38 70:0.5 71:0.13 72:0.63 73:0.13 74:0.25 75:0 76:0.38 77:0.38 78:0.5 79:0 80:0.13 81:0.25 82:0 83:0.25 84:0 85:0.13 86:0 87:0.13 88:0.13 89:0.13 90:0.38 91:0 92:0.13 93:0.38 94:0.13 95:0.13 96:0.5 97:0 98:0.13 99:0 100:0.25 101:0.25 102:0.25 103:0.13 104:0.5 105:0 106:0.5 107:0 108:0.13 109:0.13 110:0.5 111:0.25 112:0.75999999 113:0.25 114:0.5 115:0.63 116:1.01 117:0.25 118:0.5 119:0.13 120:0.38 121:0 122:0 123:0 124:0.13 125:0 126:0.13 127:0 128:0 129:0 130:0.13 131:0.13 132:0.13 133:0 134:0.13 135:0 136:0.13 137:0 138:0 139:0 140:0.25 141:0.25 142:0 143:0.25 144:0.38 145:0 146:0.13 147:0 148:0.5 149:0.63 150:0.5 151:0.13 152:0.13 153:0.38 154:0.13 155:0.25 156:0.13 157:0.13 158:0.25 159:0 160:0 161:0.38 162:0.13 163:0.5 164:0.5 165:0 166:0.25 167:0.13 168:0.38 169:0.38 170:0.63 171:0.13 172:0.13 173:0.38 174:0.25 175:0.25 176:0.5 177:0.75999999 178:0.38 179:0.13 180:0.13 181:0.38 182:0.63 183:0.5 184:0.63 185:0.38 186:1.13 187:0.13 188:0.38 189:0.25 190:2.02 191:0.13 192:0.38 193:0.5 194:0.5 195:0.25 196:0.88 197:0.63 198:0.25 199:0 200:0.38 201:0.13 202:0 203:0.25 204:0 205:0.13 206:0.38 207:0.13 208:0 209:0.13 210:0.38 211:0 212:0.25 213:0 214:0 215:0.13 216:0.38 217:0.38 218:0 219:0 220:0.25 221:0 222:0.13 223:0.25 224:0.38 225:0.13 226:0.38 227:0 228:0.25 229:0.25 230:0.75999999 231:0.13 232:0 233:0.25 234:0.13 235:0.38 236:0.13 237:0.25 238:0.25 239:0.25 240:0.13 241:0.25 242:0.13 243:0.63 244:0.38 245:0.13 246:0.63 247:0 248:0.13 249:0.75999999 250:0.25 251:0 252:0.13 253:0.63 254:0.38 255:0 256:0.5 257:0.38 258:0.38 259:0.13 260:0 261:0.5 262:0.13 263:0.25 264:0.25 265:0 266:0.38 267:0.13 268:0.13 269:0.25 270:0.38 271:0.25 272:0.25 273:0.13 274:3.1500001 275:0.63 276:0.25 277:0.25 278:0.38 279:0 280:0.13 281:0.13 282:0.13 283:0.13 284:0.13 285:0.13 286:0.25 287:0 288:0.25 289:0.5 290:0.25 291:0.25 292:0.25 293:0.13 294:0.38 295:0.13 296:0.5 297:0 298:0 299:0 300:0.13 301:0.75999999 302:0.13 303:0.38 304:0.5 305:0.13 306:0.75999999 307:0 308:0.25 309:0.63 310:1.13 311:0.25 312:0.38 313:0.88 314:0.75999999 315:0 316:2.02 317:0.63 318:1.13 319:0.13 320:0.25 321:0.25 322:0.13 323:0.25 324:0.38 325:0.25 326:0.5 327:0.13 328:0.25 329:0.5 330:0.5 331:0.13 332:0.63 333:0.38 334:0 335:0 336:0.75999999 337:0.13 338:0.13 339:0 340:0.25 341:0.25 342:0.13 343:0 344:0.25 345:0.38 346:0.13 347:0.13 348:0.5 349:0.63 350:0.25 351:0.25 352:0 353:0.63 354:0.13 355:0 356:1.01 357:0 358:0.13 359:0 360:0.13 361:0.13 362:0 363:0 364:0 365:0 366:0 367:0 368:0 369:0 370:0 371:0.13 372:0.13 373:0 374:0.13 375:0.38 376:0 377:0 378:0 379:0 380:0 381:0.13 382:0.25 383:0.38 384:0.13 385:0 386:0.13 387:0.13 388:0.13 389:0.13 390:0.25 391:0.13 392:0 393:0.25 394:0.13 395:0.25 396:0.38 397:0 398:0 399:0 400:0 #
7.0777478716403532388312669354491 1:0.2 2:0.1 3:0.1 4:0.2 5:0.30000001 6:0.61000001 7:0.1 8:0.41 9:0.41 10:0.41 11:0.30000001 12:0.1 13:0.2 14:0.2 15:0.2 16:0.61000001 17:0.1 18:0.2 19:0 20:0 21:0.1 22:0 23:0 24:0.1 25:0.1 26:0.2 27:0.2 28:0.1 29:0.1 30:0.50999999 31:0 32:0 33:0.2 34:0.1 35:0.1 36:0.81 37:0 38:0.2 39:0 40:0 41:0.1 42:0.1 43:0.2 44:0.2 45:0 46:0.61000001 47:0 48:0.1 49:0.2 50:0.41 51:0.1 52:0.2 53:0 54:0.30000001 55:0 56:0.41 57:0.2 58:0.1 59:0 60:0.2 61:0.2 62:0 63:0.1 64:0.61000001 65:0.2 66:0.41 67:0.1 68:0.2 69:0.41 70:0.50999999 71:0.1 72:0.61000001 73:0.41 74:0.30000001 75:0.2 76:0.81 77:0.1 78:0.30000001 79:0 80:0.2 81:0.2 82:0.1 83:0.1 84:0.2 85:0.1 86:0.1 87:0.2 88:0.1 89:0.30000001 90:0.1 91:0.30000001 92:0.1 93:0.61000001 94:0.1 95:0.1 96:0.41 97:0 98:0 99:0 100:0.30000001 101:0.50999999 102:0.1 103:0.2 104:0 105:0.30000001 106:0.30000001 107:0.1 108:0.41 109:0.30000001 110:0.30000001 111:0.2 112:0.41 113:0.1 114:0.41 115:0.1 116:1.3200001 117:0.50999999 118:0.50999999 119:0 120:0.30000001 121:0.1 122:0.1 123:0.1 124:0.30000001 125:0 126:0.1 127:0 128:0 129:0 130:0.1 131:0 132:0.1 133:0 134:0.2 135:0.2 136:0.50999999 137:0.1 138:0 139:0 140:0.2 141:0.1 142:0.2 143:0.1 144:0.1 145:0 146:0.1 147:0.1 148:0.2 149:0.50999999 150:0.1 151:0.2 152:0.30000001 153:0.30000001 154:0.2 155:0.2 156:0.61000001 157:0.2 158:0.41 159:0 160:0.1 161:0 162:0.30000001 163:0.2 164:0.50999999 165:0.1 166:0.41 167:0.30000001 168:0.41 169:0.1 170:0.30000001 171:0.2 172:0.2 173:0.30000001 174:0.30000001 175:0.1 176:0.61000001 177:0.2 178:0.50999999 179:0.1 180:0 181:0.1 182:0.2 183:0.2 184:0.50999999 185:0 186:0.50999999 187:0 188:0.1 189:0.30000001 190:0.70999998 191:0 192:0.30000001 193:0.50999999 194:0.50999999 195:0.41 196:1.42 197:0.50999999 198:0.70999998 199:0 200:0.30000001 201:0 202:0.2 203:0.30000001 204:0.30000001 205:0 206:0.1 207:0.30000001 208:0.1 209:0.2 210:0.1 211:0 212:0.1 213:0 214:0 215:0.2 216:0.2 217:0.1 218:0.2 219:0 220:0.1 221:0.2 222:0.2 223:0.2 224:0.1 225:0 226:0.30000001 227:0 228:0.30000001 229:0 230:0.30000001 231:0.1 232:0.81 233:0.2 234:0.1 235:0.50999999 236:0.91000003 237:0.30000001 238:0.61000001 239:0 240:0.30000001 241:0.91000003 242:0.1 243:0.50999999 244:0.61000001 245:0.41 246:0.30000001 247:0 248:0.30000001 249:0.30000001 250:0.70999998 251:0 252:0.41 253:1.01 254:0.30000001 255:0 256:0.91000003 257:0.1 258:0.70999998 259:0 260:0 261:0.41 262:0 263:0.1 264:0.41 265:0.2 266:0.41 267:0.2 268:0.2 269:0.1 270:0.61000001 271:0.1 272:0.2 273:0.2 274:0.61000001 275:0.2 276:0.50999999 277:0 278:0.2 279:0 280:0.2 281:0.30000001 282:0.1 283:0.30000001 284:0.1 285:0.1 286:0.1 287:0 288:0.1 289:0.41 290:0.30000001 291:0 292:0.1 293:0.41 294:0 295:0.30000001 296:1.01 297:0.2 298:0 299:0.1 300:0 301:0.61000001 302:0.50999999 303:0.50999999 304:0.1 305:0.91000003 306:1.01 307:0.30000001 308:0.30000001 309:0.61000001 310:0.50999999 311:0.41 312:0.30000001 313:2.1300001 314:0.41 315:0.70999998 316:2.4300001 317:1.3200001 318:1.01 319:0.50999999 320:0.41 321:0.41 322:0.2 323:0.1 324:0.30000001 325:0.2 326:0.2 327:0 328:0.30000001 329:0.41 330:0.70999998 331:0 332:0.30000001 333:0.2 334:0.30000001 335:0 336:0.50999999 337:0.2 338:0.41 339:0 340:0.1 341:0.1 342:0.30000001 343:0 344:0.91000003 345:0.2 346:0.41 347:0.1 348:0 349:0.30000001 350:0.50999999 351:0.1 352:0.91000003 353:0.61000001 354:0.1 355:0.2 356:0.81 357:0.41 358:0.41 359:0 360:0.1 361:0.1 362:0 363:0 364:0 365:0 366:0.1 367:0 368:0 369:0.1 370:0 371:0.1 372:0 373:0 374:0.2 375:0.1 376:0 377:0 378:0 379:0 380:0 381:0.1 382:0 383:0.1 384:0.2 385:0.30000001 386:0.1 387:0.1 388:0.41 389:0.2 390:0.1 391:0.2 392:0 393:0.2 394:0.2 395:0.1 396:0.2 397:0.30000001 398:0 399:0 400:0.30000001 #
3.4097918770081818706785270478576 1:4.48 2:0.31999999 3:0.43000001 4:0.75 5:0.31999999 6:2.03 7:0.20999999 8:0.11 9:0 10:1.17 11:0.11 12:0 13:2.45 14:0.31999999 15:0.52999997 16:0.95999998 17:0.20999999 18:0.20999999 19:0.20999999 20:0.11 21:0.31999999 22:0.11 23:0 24:0 25:0 26:0.31999999 27:0.11 28:0.11 29:0.11 30:0.43000001 31:0.11 32:0 33:0.43000001 34:0.11 35:0.20999999 36:0.20999999 37:0 38:0.20999999 39:0 40:0 41:1.0700001 42:0.20999999 43:0.20999999 44:0.20999999 45:0.31999999 46:0.31999999 47:0 48:0.11 49:0.11 50:0.20999999 51:0 52:0.20999999 53:0.31999999 54:0.11 55:0.20999999 56:0.31999999 57:0.11 58:0.20999999 59:0 60:0 61:0.43000001 62:0.11 63:0.31999999 64:0.52999997 65:0.31999999 66:0.95999998 67:0 68:0 69:0 70:0.11 71:0.20999999 72:0 73:0.52999997 74:0.20999999 75:0.20999999 76:0.43000001 77:0.11 78:0.11 79:0 80:0 81:0.52999997 82:0 83:0 84:0.20999999 85:0.11 86:0.11 87:0.11 88:0.20999999 89:0.20999999 90:0.20999999 91:0 92:0.11 93:0.31999999 94:0.11 95:0.11 96:0.20999999 97:0 98:0.11 99:0 100:0.20999999 101:2.24 102:0.43000001 103:0.43000001 104:0.20999999 105:0.20999999 106:0.63999999 107:0.11 108:0.11 109:0.52999997 110:0.63999999 111:0.20999999 112:0 113:1.0700001 114:0.43000001 115:0.43000001 116:0.52999997 117:0.31999999 118:0.31999999 119:0.11 120:0.11 121:0.11 122:0 123:0.20999999 124:0 125:0 126:0.11 127:0 128:0.11 129:0.20999999 130:0.11 131:0 132:0.11 133:0 134:0 135:0 136:0.11 137:0 138:0.31999999 139:0 140:0.11 141:0.11 142:0.20999999 143:0.11 144:0.11 145:0 146:0.11 147:0.11 148:0 149:0.20999999 150:0.31999999 151:0 152:0.11 153:0.43000001 154:0.31999999 155:0.20999999 156:0.11 157:0.11 158:0.11 159:0 160:0.11 161:0.52999997 162:0.11 163:0.20999999 164:0.43000001 165:0.20999999 166:0.43000001 167:0.11 168:0.43000001 169:0.20999999 170:0.20999999 171:0 172:0.11 173:0.31999999 174:0.11 175:0.11 176:0.11 177:0 178:0.31999999 179:0.11 180:0 181:0.63999999 182:0.43000001 183:0.20999999 184:0.43000001 185:0.20999999 186:0.85000002 187:0.43000001 188:0.63999999 189:0.31999999 190:1.28 191:0.31999999 192:0.52999997 193:1.39 194:0.11 195:0.63999999 196:0.43000001 197:0.43000001 198:0.11 199:0 200:0.52999997 201:0 202:0 203:0.11 204:0.11 205:0 206:0 207:0 208:0 209:0.20999999 210:0.11 211:0.20999999 212:0 213:0 214:0 215:0.20999999 216:0.43000001 217:0.11 218:0.31999999 219:0.11 220:0 221:0 222:0.11 223:0.11 224:0.20999999 225:0 226:0 227:0 228:0 229:0.11 230:0.31999999 231:0 232:0 233:0 234:0.20999999 235:0 236:0 237:0.31999999 238:0 239:0 240:0.20999999 241:1.8099999 242:0.20999999 243:0.63999999 244:0.52999997 245:0.11 246:1.39 247:0.20999999 248:0.11 249:0.43000001 250:1.49 251:0 252:0.11 253:1.28 254:0.75 255:1.39 256:1.0700001 257:0 258:0.20999999 259:0 260:0.20999999 261:0.31999999 262:0 263:0.43000001 264:0.20999999 265:0.11 266:0.43000001 267:0.11 268:0.20999999 269:0.20999999 270:0.85000002 271:0.11 272:0.11 273:0.75 274:0 275:0.31999999 276:0.20999999 277:0.11 278:0.20999999 279:0 280:0.20999999 281:0.63999999 282:0.11 283:0.20999999 284:0.11 285:0.11 286:0.52999997 287:0 288:0.11 289:0.31999999 290:0.52999997 291:0.11 292:0.20999999 293:0.75 294:0.52999997 295:0.43000001 296:0.75 297:0.31999999 298:0.31999999 299:0 300:0 301:0.75 302:0.20999999 303:0.43000001 304:0.11 305:0.31999999 306:0.43000001 307:0 308:0.11 309:0.11 310:0.75 311:0 312:0 313:1.39 314:0.95999998 315:0.75 316:1.17 317:0.11 318:0.20999999 319:0.11 320:0.20999999 321:0.43000001 322:0.11 323:0 324:0.11 325:0.11 326:0.11 327:0 328:0.11 329:0.20999999 330:0.20999999 331:0.20999999 332:0 333:0 334:0.11 335:0.11 336:0.31999999 337:0.11 338:0 339:0 340:0.11 341:0.43000001 342:0 343:0.11 344:0.20999999 345:0.31999999 346:0.11 347:0 348:0.20999999 349:0.43000001 350:0.52999997 351:0.11 352:0 353:0.31999999 354:0 355:0.11 356:0.31999999 357:0 358:0.20999999 359:0 360:0.11 361:0 362:0 363:0 364:0.11 365:0 366:0 367:0 368:0 369:0 370:0 371:0.11 372:0 373:0.11 374:0.11 375:0.11 376:0.11 377:0 378:0 379:0 380:0 381:0.11 382:0.11 383:0.11 384:0 385:0.11 386:0.20999999 387:0 388:0.11 389:0.20999999 390:0.43000001 391:0 392:0 393:0.11 394:0.43000001 395:0 396:0.31999999 397:0 398:0 399:0 400:0 #
-0.60962909420541189220443811791483 1:0.22 2:0 3:0.64999998 4:0 5:0.22 6:0.43000001 7:0 8:0 9:0.64999998 10:1.08 11:0 12:0.43000001 13:0.64999998 14:0.64999998 15:0.43000001 16:0.22 17:0 18:0.43000001 19:0 20:0 21:0 22:0 23:0 24:0.22 25:0 26:0.43000001 27:0.22 28:0 29:0.43000001 30:0.87 31:0.22 32:0 33:0.43000001 34:0 35:0.43000001 36:0 37:0.22 38:0 39:0.22 40:0 41:0.22 42:0 43:0 44:0.43000001 45:0 46:0 47:0.22 48:0.22 49:0.64999998 50:0.22 51:0 52:0 53:0 54:0.87 55:0.64999998 56:0.22 57:0 58:0.22 59:0.22 60:0.64999998 61:0.43000001 62:0 63:0.64999998 64:0.22 65:0.22 66:0 67:0 68:0 69:0.22 70:1.3 71:0.43000001 72:0 73:1.08 74:0.22 75:0 76:0.43000001 77:0.22 78:0.64999998 79:0 80:0.22 81:0 82:0.22 83:0 84:0 85:0.22 86:0.22 87:0 88:0.22 89:0.64999998 90:0.43000001 91:0 92:0 93:0 94:0.43000001 95:0 96:0.87 97:0 98:0.22 99:0 100:0 101:0.22 102:0.22 103:0.64999998 104:0 105:0.43000001 106:0.43000001 107:0 108:0 109:0.22 110:0.22 111:0.22 112:0.22 113:1.73 114:0.22 115:0.22 116:0.43000001 117:0 118:0.22 119:0 120:0.43000001 121:0.43000001 122:0.22 123:0 124:0 125:0 126:0.22 127:0 128:0.22 129:0.22 130:0.22 131:0 132:0 133:0 134:0 135:0 136:0.43000001 137:0 138:0 139:0 140:0.64999998 141:0 142:0 143:0.22 144:0.22 145:0 146:0.22 147:0 148:0 149:0.22 150:0.64999998 151:0 152:0 153:0 154:0 155:0.22 156:0.22 157:0 158:0.43000001 159:0 160:0.22 161:0.64999998 162:0.22 163:0.22 164:0.64999998 165:0.87 166:0.22 167:0.43000001 168:0.22 169:0.22 170:0.22 171:0 172:0 173:0 174:0.43000001 175:0.64999998 176:0.43000001 177:0.22 178:0.22 179:0 180:0 181:0.22 182:0.87 183:1.08 184:0.87 185:0.22 186:0.43000001 187:0.64999998 188:0.64999998 189:0.43000001 190:2.3800001 191:0 192:0.22 193:0.43000001 194:1.52 195:0.22 196:0.43000001 197:0.43000001 198:1.52 199:0 200:0.43000001 201:0.22 202:0 203:0.22 204:0 205:0 206:0.22 207:0 208:0 209:0 210:0.43000001 211:0 212:0 213:0.22 214:0.22 215:0.43000001 216:0.22 217:0.22 218:0.22 219:0 220:0.22 221:0.22 222:0.22 223:0 224:0.22 225:0 226:0.22 227:0.22 228:0 229:0.43000001 230:0.22 231:0 232:0.64999998 233:0 234:0 235:0.22 236:0 237:0 238:0.22 239:0 240:0 241:0.64999998 242:0 243:0.22 244:1.08 245:0.64999998 246:0.43000001 247:0.43000001 248:0 249:0.22 250:0.43000001 251:0.64999998 252:0.22 253:2.5999999 254:0.22 255:0.22 256:0.64999998 257:0 258:0.22 259:0 260:0.43000001 261:0.43000001 262:0 263:0 264:1.08 265:0 266:0 267:0 268:0.22 269:0.43000001 270:1.08 271:0.22 272:0.43000001 273:0.43000001 274:0.64999998 275:0.22 276:0.22 277:0.43000001 278:0.43000001 279:0 280:0.43000001 281:1.3 282:0.43000001 283:0.22 284:0 285:0.22 286:0.22 287:0 288:0.22 289:0.22 290:0.22 291:0.43000001 292:0.43000001 293:0 294:0.43000001 295:0.22 296:0 297:0.43000001 298:0 299:0 300:0 301:0 302:0.43000001 303:0.22 304:0.43000001 305:0 306:1.3 307:0 308:0.43000001 309:0 310:1.52 311:0.22 312:0.22 313:0.22 314:0.22 315:0 316:0 317:0.22 318:0.22 319:0 320:0.43000001 321:0 322:0.43000001 323:0 324:0.22 325:0.22 326:0.22 327:0 328:0.22 329:0 330:0.43000001 331:0 332:0 333:0 334:0.22 335:0 336:0 337:0 338:0.64999998 339:0 340:0 341:0.43000001 342:0.43000001 343:0.22 344:0.64999998 345:0.22 346:0.43000001 347:0 348:0 349:0.43000001 350:0.64999998 351:0 352:0 353:0.64999998 354:0.43000001 355:0.64999998 356:0.64999998 357:0 358:0 359:0 360:0 361:0.22 362:0 363:0 364:0 365:0 366:0 367:0 368:0 369:0 370:0 371:0 372:0 373:0 374:0 375:0 376:0.22 377:0 378:0 379:0 380:0 381:0.22 382:0 383:0.22 384:0 385:0 386:0.43000001 387:0.43000001 388:0 389:0.22 390:0.43000001 391:0.22 392:0 393:0.87 394:0 395:0.22 396:0.43000001 397:0.43000001 398:0 399:0 400:0 #
-1.9373282121577408698698263833649 1:0.20999999 2:0.41999999 3:0.41999999 4:0.83999997 5:0 6:0.20999999 7:0 8:0 9:0.41999999 10:1.05 11:0 12:0 13:0.20999999 14:0.63 15:0.41999999 16:0.41999999 17:0.20999999 18:0.41999999 19:0 20:0.20999999 21:0.20999999 22:0 23:0 24:0.41999999 25:0 26:0.41999999 27:0 28:0.41999999 29:0.20999999 30:0.41999999 31:0 32:0.41999999 33:0.83999997 34:0 35:0.20999999 36:0 37:0 38:0.20999999 39:0.20999999 40:0 41:0 42:0.41999999 43:0 44:0.20999999 45:0 46:0 47:0.20999999 48:0 49:0.63 50:0.20999999 51:0 52:0.20999999 53:0.20999999 54:0.41999999 55:0.83999997 56:0.41999999 57:0 58:0.20999999 59:0 60:0.20999999 61:0.41999999 62:0 63:0.20999999 64:0.83999997 65:0.20999999 66:0.20999999 67:0.41999999 68:0 69:0 70:1.26 71:0.41999999 72:0.20999999 73:0.20999999 74:0.63 75:0 76:0.41999999 77:0 78:0.41999999 79:0.20999999 80:0.63 81:0 82:0.20999999 83:0 84:0 85:0.41999999 86:0.20999999 87:0 88:0 89:0.63 90:0.20999999 91:0 92:0.20999999 93:0.41999999 94:0.20999999 95:0.20999999 96:0.41999999 97:0.20999999 98:0 99:0 100:0 101:0 102:0.20999999 103:0.63 104:0 105:0.20999999 106:0.20999999 107:0 108:0.20999999 109:0.20999999 110:0.63 111:0.20999999 112:0 113:0.41999999 114:0.41999999 115:0.83999997 116:0.83999997 117:0 118:0.41999999 119:0 120:0.41999999 121:0.20999999 122:0 123:0 124:0 125:0 126:0.20999999 127:0.20999999 128:0 129:0 130:0.20999999 131:0 132:0.41999999 133:0.20999999 134:0 135:0 136:0.20999999 137:0 138:0.41999999 139:0 140:0.20999999 141:0.20999999 142:0.20999999 143:0.20999999 144:0.20999999 145:0.20999999 146:0 147:0 148:0 149:0.20999999 150:0 151:0 152:0 153:0 154:0 155:0.20999999 156:0 157:0.20999999 158:0.20999999 159:0 160:0 161:0.20999999 162:0.20999999 163:0 164:0.20999999 165:0.41999999 166:0.41999999 167:0.20999999 168:0.20999999 169:0 170:0.63 171:0 172:0 173:0.20999999 174:0.20999999 175:1.26 176:0 177:0.20999999 178:0.41999999 179:0 180:0 181:0.63 182:0.41999999 183:0.41999999 184:1.46 185:0.41999999 186:0.63 187:0.63 188:0.63 189:0.63 190:2.9300001 191:0 192:0.20999999 193:0.20999999 194:0.63 195:0.20999999 196:1.26 197:0.63 198:1.26 199:0 200:0 201:0.41999999 202:0 203:0 204:0.20999999 205:0 206:0 207:0 208:0 209:0 210:0.41999999 211:0 212:0 213:0 214:0.20999999 215:0.41999999 216:0 217:0 218:0 219:0 220:0.20999999 221:0 222:0.20999999 223:0 224:0 225:0 226:0 227:0 228:0 229:0.41999999 230:0.41999999 231:0 232:0.41999999 233:0.63 234:0.83999997 235:0 236:0.20999999 237:0.20999999 238:0.20999999 239:0 240:0 241:0.63 242:0.20999999 243:0.83999997 244:0.20999999 245:0.41999999 246:0.63 247:0 248:0 249:0 250:0.63 251:0.20999999 252:0.20999999 253:0.83999997 254:0.41999999 255:0.20999999 256:0.83999997 257:0.20999999 258:0.20999999 259:0 260:0.20999999 261:0.63 262:0 263:0.20999999 264:0.83999997 265:0 266:0 267:0.20999999 268:0 269:0.41999999 270:0.63 271:0.20999999 272:0.41999999 273:0 274:0.41999999 275:0.41999999 276:0.41999999 277:0.41999999 278:0.83999997 279:0 280:0.41999999 281:1.46 282:0.20999999 283:0.41999999 284:0.20999999 285:0.41999999 286:0.63 287:0 288:0 289:0.20999999 290:0.63 291:0.20999999 292:0.20999999 293:0.20999999 294:0.20999999 295:0.41999999 296:0.41999999 297:0.20999999 298:0 299:0 300:0.20999999 301:0.20999999 302:0.63 303:0.20999999 304:0.20999999 305:0.20999999 306:1.05 307:0 308:0.41999999 309:0.41999999 310:1.05 311:0 312:0.41999999 313:0.63 314:0.20999999 315:0 316:0.83999997 317:0.20999999 318:0.83999997 319:0 320:0.63 321:0 322:0.41999999 323:0 324:0.20999999 325:0.20999999 326:0.20999999 327:0 328:0.20999999 329:0 330:0.83999997 331:0 332:0 333:0.20999999 334:0.20999999 335:0 336:0.41999999 337:0.63 338:0.41999999 339:0 340:0 341:0.20999999 342:0.20999999 343:0.41999999 344:0.63 345:0.20999999 346:0.41999999 347:0.20999999 348:0 349:0.20999999 350:0.63 351:0.41999999 352:0.20999999 353:1.05 354:0.63 355:0.63 356:0.41999999 357:0 358:0.20999999 359:0 360:0 361:0.20999999 362:0 363:0 364:0 365:0 366:0 367:0 368:0 369:0 370:0 371:0 372:0 373:0 374:0 375:0 376:0.20999999 377:0 378:0 379:0 380:0 381:0.20999999 382:0 383:0.20999999 384:0 385:0 386:0.41999999 387:0.20999999 388:0 389:0.20999999 390:0.41999999 391:0 392:0 393:0.41999999 394:0.20999999 395:0 396:0.41999999 397:0.63 398:0 399:0 400:0 #
-0.44593180195352744021874968893826 1:0.38999999 2:0 3:0 4:0.38999999 5:0.38999999 6:0 7:0.76999998 8:0 9:0 10:0.76999998 11:0 12:0 13:1.16 14:1.16 15:0.38999999 16:1.9299999 17:0 18:0.38999999 19:0 20:0.38999999 21:0.38999999 22:0 23:0 24:0.38999999 25:0 26:0 27:0.38999999 28:0 29:0 30:1.16 31:0 32:0 33:0.38999999 34:0.76999998 35:0.38999999 36:0 37:0.38999999 38:0 39:0.38999999 40:0 41:0 42:0 43:0 44:0 45:0 46:0 47:0 48:0.38999999 49:0 50:0.38999999 51:0.38999999 52:0 53:0.38999999 54:0.38999999 55:0 56:0 57:0.38999999 58:1.16 59:0 60:0 61:1.16 62:0 63:0.76999998 64:0.38999999 65:0 66:0.38999999 67:0 68:0 69:0 70:0.76999998 71:0 72:0 73:0.76999998 74:0 75:0 76:0.38999999 77:0 78:0.76999998 79:0 80:0.38999999 81:0 82:0.38999999 83:0 84:0.38999999 85:0.38999999 86:0 87:0 88:0 89:0 90:0.76999998 91:0 92:0.38999999 93:0 94:0 95:0.38999999 96:0 97:0 98:0 99:0.38999999 100:0 101:0.76999998 102:0.38999999 103:0.38999999 104:0 105:0 106:0 107:0 108:0 109:0.38999999 110:0.76999998 111:0 112:0 113:1.16 114:0 115:0.38999999 116:0.38999999 117:0.38999999 118:0.38999999 119:0 120:0 121:0.38999999 122:0.76999998 123:0 124:0.38999999 125:0 126:0 127:0 128:0.38999999 129:0 130:0.38999999 131:0 132:0 133:0.38999999 134:0 135:0.76999998 136:0 137:0 138:0 139:0.38999999 140:0 141:0.38999999 142:0 143:0 144:0 145:0 146:0.38999999 147:0 148:0 149:0 150:1.9299999 151:0 152:0 153:0 154:0 155:0 156:0.38999999 157:0.38999999 158:0 159:0 160:0 161:0 162:0 163:0 164:0.38999999 165:0 166:0.38999999 167:0 168:0.38999999 169:0.38999999 170:0 171:0 172:0.38999999 173:0 174:0 175:0 176:0 177:0.38999999 178:0 179:0 180:0 181:1.16 182:1.16 183:0.38999999 184:2.3199999 185:1.16 186:1.16 187:0.38999999 188:0 189:1.16 190:3.8599999 191:0.38999999 192:0 193:0.76999998 194:0.76999998 195:0.76999998 196:0.38999999 197:0 198:0.38999999 199:0 200:0.38999999 201:0.76999998 202:0 203:0 204:0 205:0 206:0 207:0 208:0 209:0 210:0.38999999 211:0 212:0 213:0 214:0 215:0 216:0.38999999 217:0 218:0 219:0 220:0 221:0 222:0 223:0 224:0 225:0 226:0 227:0 228:0.38999999 229:0 230:0.38999999 231:0 232:0 233:0.38999999 234:0 235:0 236:0.38999999 237:0 238:0 239:0 240:0 241:0.76999998 242:0.38999999 243:0.76999998 244:0 245:0 246:0.76999998 247:0.76999998 248:0 249:0.38999999 250:0.38999999 251:0.38999999 252:0.38999999 253:0.76999998 254:0.38999999 255:0.38999999 256:1.16 257:0.38999999 258:1.16 259:0.38999999 260:0 261:0 262:0 263:0.38999999 264:0.38999999 265:0 266:1.16 267:0.76999998 268:0 269:0 270:0 271:0 272:0 273:0.76999998 274:0.76999998 275:0.38999999 276:0.38999999 277:0 278:0 279:0.38999999 280:0 281:0 282:0 283:0 284:0.38999999 285:0 286:0 287:0 288:0.38999999 289:0 290:1.16 291:0 292:0.38999999 293:1.16 294:0 295:0.38999999 296:0.38999999 297:0.76999998 298:0 299:0 300:0 301:0.38999999 302:0.76999998 303:0 304:0 305:0.76999998 306:0.76999998 307:0.76999998 308:0.38999999 309:0 310:0.76999998 311:0 312:0 313:0.38999999 314:0.76999998 315:0.38999999 316:0.76999998 317:0.38999999 318:0 319:0 320:0 321:0 322:0.38999999 323:0 324:0.38999999 325:0.38999999 326:0 327:0 328:0.76999998 329:0 330:1.16 331:0 332:0 333:0 334:0 335:0.38999999 336:0 337:0 338:0.76999998 339:0 340:0 341:0.76999998 342:0.38999999 343:0.76999998 344:0 345:0 346:0 347:0 348:0.38999999 349:0 350:0.76999998 351:0 352:0 353:0.76999998 354:0.38999999 355:0.38999999 356:0 357:0.38999999 358:0 359:0 360:0 361:0.38999999 362:0 363:0 364:0 365:0 366:0.38999999 367:0 368:0 369:0 370:0.38999999 371:0 372:0 373:0 374:0 375:0 376:0.38999999 377:0 378:0 379:0 380:0.38999999 381:0.38999999 382:0 383:0 384:0 385:0 386:0 387:0 388:0 389:0 390:0.38999999 391:0 392:0 393:0.38999999 394:0 395:0 396:0 397:0.38999999 398:0 399:0 400:0 #
0.5489004097658840564122328942176 1:0.40000001 2:0.40000001 3:0.40000001 4:0.61000001 5:0.40000001 6:0.40000001 7:0.81 8:0 9:0.40000001 10:0.81 11:0.40000001 12:0 13:0.2 14:0 15:0.2 16:0.40000001 17:0.61000001 18:0.61000001 19:0 20:0 21:0 22:0 23:0.2 24:0.61000001 25:0 26:0.2 27:0 28:0.2 29:0.40000001 30:0.40000001 31:0 32:0 33:0.40000001 34:0.2 35:0.2 36:0 37:0.2 38:0 39:0 40:0 41:0.61000001 42:0 43:0 44:0.40000001 45:0 46:0 47:0.40000001 48:0.2 49:0 50:0.61000001 51:0 52:0 53:0.40000001 54:0.2 55:0.61000001 56:1.21 57:0 58:0.40000001 59:0 60:0.40000001 61:0.61000001 62:0.2 63:0.61000001 64:0.81 65:0.2 66:0.40000001 67:0 68:0.61000001 69:0.40000001 70:0.61000001 71:0.2 72:0.40000001 73:0.40000001 74:0.2 75:0 76:0 77:0 78:0.40000001 79:0 80:0.40000001 81:0.2 82:0 83:0 84:0 85:0.2 86:0 87:0.2 88:0 89:0.2 90:0.2 91:0 92:0 93:0 94:0 95:0.2 96:0.2 97:0.2 98:0.40000001 99:0 100:0.2 101:0.2 102:0 103:0.2 104:0 105:0.40000001 106:0.61000001 107:0.40000001 108:0 109:0.2 110:0.40000001 111:0.40000001 112:0.2 113:0.2 114:0.2 115:0.81 116:0 117:0.61000001 118:0.61000001 119:0.40000001 120:0 121:0 122:0 123:0.40000001 124:0.2 125:0.2 126:0.2 127:0.61000001 128:0.40000001 129:0.40000001 130:0.2 131:0.2 132:0.81 133:0.2 134:0.2 135:0 136:0.2 137:0 138:0.2 139:0 140:0.40000001 141:0 142:0 143:0.61000001 144:0.2 145:0 146:0.61000001 147:0 148:0.40000001 149:0.2 150:1.01 151:0 152:0 153:0.40000001 154:0.2 155:0 156:0.2 157:0.2 158:0.40000001 159:0 160:0 161:0.81 162:0.40000001 163:0 164:0.61000001 165:0.2 166:0 167:0.2 168:0.81 169:0.61000001 170:0.61000001 171:0.2 172:0 173:0.2 174:0.2 175:1.21 176:0.2 177:0.40000001 178:0.40000001 179:0 180:0.2 181:0.61000001 182:0.40000001 183:0.40000001 184:0.40000001 185:0.2 186:0.40000001 187:0.61000001 188:0.2 189:1.21 190:0.61000001 191:0.40000001 192:0.40000001 193:0.40000001 194:0.61000001 195:0.40000001 196:0.81 197:0.61000001 198:0.81 199:0 200:0.40000001 201:0.2 202:0 203:0 204:0.40000001 205:0 206:0 207:0.2 208:0 209:0.2 210:1.01 211:0.40000001 212:0 213:0.2 214:0.2 215:0 216:0.2 217:0.2 218:0.2 219:0 220:0 221:0.2 222:0 223:0 224:0.2 225:0 226:1.21 227:0 228:0.2 229:0.2 230:0.2 231:0 232:0 233:0 234:0 235:0.2 236:1.01 237:0 238:0 239:0 240:0.2 241:0.61000001 242:0 243:0.40000001 244:0.2 245:0 246:0.40000001 247:0 248:0 249:0.40000001 250:0.40000001 251:0.2 252:0.2 253:0 254:0 255:0 256:0.61000001 257:0.40000001 258:0 259:0 260:0 261:0.40000001 262:0 263:0.61000001 264:0.2 265:0 266:0.2 267:0.40000001 268:0 269:0.40000001 270:0 271:0.2 272:0.2 273:0 274:0.40000001 275:0 276:0.40000001 277:0 278:0.40000001 279:0 280:0 281:0.2 282:0.2 283:0 284:0.40000001 285:0.2 286:0.2 287:0.40000001 288:0.2 289:0.61000001 290:1.01 291:0.2 292:0 293:0 294:0.40000001 295:0.61000001 296:0.2 297:0.61000001 298:0.2 299:0 300:0.2 301:0.2 302:0.61000001 303:1.01 304:0.61000001 305:0 306:0.40000001 307:0.2 308:0 309:0 310:0.81 311:0 312:0.61000001 313:0.2 314:0.2 315:0.81 316:0.81 317:0.2 318:0.40000001 319:0 320:0.40000001 321:0.2 322:0.2 323:0.2 324:0.2 325:0 326:0 327:0 328:0.40000001 329:1.01 330:0.40000001 331:0 332:0.61000001 333:0.2 334:0 335:0.2 336:0.61000001 337:0.61000001 338:0.2 339:0 340:0 341:1.01 342:0.40000001 343:0 344:0.40000001 345:0.2 346:0.40000001 347:0.2 348:0.40000001 349:0.2 350:0.61000001 351:0 352:0.2 353:0.40000001 354:0.61000001 355:0.40000001 356:0.2 357:0.2 358:0.81 359:0 360:0.2 361:0.2 362:0 363:0 364:0 365:0 366:0 367:0 368:0 369:0 370:0 371:0.2 372:0 373:0 374:0 375:0 376:0 377:0 378:0 379:0 380:0 381:0.40000001 382:0.2 383:0.40000001 384:0 385:0 386:0.2 387:0.2 388:0.40000001 389:0.2 390:0 391:0.2 392:0 393:0 394:0 395:0 396:0.2 397:0.2 398:0.40000001 399:0 400:0 #
8.0223104179722763973359178635292 1:0.44 2:0.44 3:0.44 4:0.66000003 5:0.44 6:0.22 7:0.88 8:0 9:0.44 10:0.88 11:0.44 12:0 13:0.22 14:0 15:0.22 16:0.44 17:0.66000003 18:0.66000003 19:0 20:0 21:0 22:0 23:0.22 24:0.66000003 25:0 26:0.22 27:0 28:0.22 29:0.44 30:0.44 31:0 32:0 33:0.22 34:0.22 35:0.22 36:0 37:0.22 38:0 39:0 40:0 41:0.66000003 42:0 43:0 44:0.44 45:0 46:0 47:0.44 48:0.22 49:0 50:0.66000003 51:0 52:0 53:0.44 54:0.22 55:0.66000003 56:1.3200001 57:0 58:0.44 59:0 60:0.44 61:0.66000003 62:0.22 63:0.66000003 64:0.88 65:0.22 66:0.44 67:0 68:0.66000003 69:0.44 70:0.66000003 71:0.22 72:0.44 73:0.44 74:0.22 75:0 76:0 77:0 78:0.44 79:0 80:0.44 81:0.22 82:0 83:0 84:0 85:0.22 86:0 87:0.22 88:0 89:0.22 90:0.22 91:0 92:0 93:0 94:0 95:0.22 96:0.22 97:0.22 98:0.22 99:0 100:0.22 101:0.22 102:0 103:0.22 104:0 105:0.44 106:0.22 107:0.44 108:0 109:0.22 110:0.44 111:0.44 112:0.22 113:0.22 114:0.22 115:0.44 116:0 117:0.44 118:0.66000003 119:0.44 120:0 121:0 122:0 123:0.44 124:0.22 125:0.22 126:0 127:0.66000003 128:0.44 129:0.22 130:0.22 131:0.22 132:0.66000003 133:0.22 134:0.22 135:0 136:0.22 137:0 138:0 139:0 140:0.44 141:0 142:0 143:0.66000003 144:0.22 145:0 146:0.66000003 147:0 148:0.44 149:0.22 150:1.1 151:0 152:0 153:0.44 154:0.22 155:0 156:0.22 157:0.22 158:0.44 159:0 160:0 161:0.88 162:0.44 163:0 164:0.66000003 165:0 166:0 167:0.22 168:0.88 169:0.44 170:0.66000003 171:0.22 172:0 173:0.22 174:0 175:1.1 176:0.22 177:0.22 178:0.22 179:0 180:0.22 181:0.44 182:0.44 183:0.44 184:0.44 185:0.22 186:0.44 187:0.66000003 188:0.22 189:1.3200001 190:0.66000003 191:0.44 192:0.44 193:0.44 194:0.66000003 195:0.44 196:0.88 197:0.66000003 198:0.88 199:0 200:0.44 201:0.22 202:0 203:0 204:0.44 205:0 206:0 207:0.22 208:0 209:0.22 210:1.1 211:0.44 212:0 213:0.22 214:0.22 215:0 216:0.22 217:0.22 218:0.22 219:0 220:0 221:0.22 222:0 223:0 224:0.22 225:0 226:1.3200001 227:0 228:0.22 229:0.22 230:0.22 231:0 232:0 233:0 234:0 235:0.22 236:0.66000003 237:0 238:0 239:0 240:0.22 241:0.66000003 242:0 243:0.44 244:0.22 245:0 246:0.22 247:0 248:0 249:0.22 250:0.44 251:0.22 252:0.22 253:0 254:0 255:0 256:0.66000003 257:0.22 258:0.22 259:0 260:0 261:0.44 262:0 263:0.66000003 264:0.22 265:0 266:0.22 267:0.22 268:0 269:0.44 270:0 271:0.22 272:0.22 273:0 274:0.44 275:0 276:0.44 277:0 278:0.22 279:0 280:0 281:0.22 282:0.22 283:0 284:0.44 285:0.22 286:0.22 287:0.22 288:0.22 289:0.44 290:1.1 291:0.22 292:0 293:0 294:0.22 295:0.66000003 296:0.22 297:0.44 298:0.22 299:0 300:0.22 301:0.22 302:0.66000003 303:1.1 304:0.66000003 305:0 306:0.44 307:0 308:0 309:0 310:0.88 311:0 312:0.66000003 313:0.22 314:0.22 315:0.88 316:0.88 317:0.22 318:0.22 319:0 320:0.44 321:0.22 322:0 323:0.22 324:0.22 325:0 326:0 327:0 328:0.44 329:0.66000003 330:0.44 331:0 332:0.44 333:0.22 334:0 335:0 336:0.66000003 337:0.66000003 338:0.22 339:0 340:0 341:1.1 342:0.44 343:0 344:0.44 345:0.22 346:0.44 347:0 348:0.44 349:0.22 350:0.44 351:0 352:0.22 353:0.22 354:0.66000003 355:0.44 356:0.22 357:0 358:0.66000003 359:0 360:0.22 361:0.22 362:0 363:0 364:0 365:0 366:0 367:0 368:0 369:0 370:0 371:0.22 372:0 373:0 374:0 375:0 376:0 377:0 378:0 379:0 380:0 381:0.44 382:0.22 383:0.44 384:0 385:0 386:0.22 387:0.22 388:0.44 389:0.22 390:0 391:0.22 392:0 393:0 394:0 395:0 396:0.22 397:0.22 398:0.44 399:0 400:0 #
3.8934955469262142457864683819935 1:0.5 2:0.2 3:0.2 4:0.1 5:0.2 6:0.91000003 7:0 8:0.2 9:0.2 10:0.30000001 11:0.30000001 12:0.30000001 13:0.2 14:0.1 15:0.30000001 16:0.70999998 17:0.70999998 18:0.1 19:0 20:0 21:0.2 22:0.1 23:0 24:0 25:0.2 26:0.40000001 27:0.1 28:0.2 29:0.2 30:0.60000002 31:0.1 32:0.30000001 33:0.2 34:0 35:0.1 36:0.70999998 37:0.1 38:0 39:0 40:0 41:0.1 42:0.2 43:0 44:0.30000001 45:0.40000001 46:0.60000002 47:0.1 48:0.2 49:0.1 50:0.40000001 51:0 52:0.2 53:0 54:0.40000001 55:0 56:0.2 57:0.30000001 58:0.2 59:0 60:0 61:0.40000001 62:0.1 63:0.30000001 64:0.40000001 65:0.40000001 66:0.40000001 67:0 68:0.1 69:0.1 70:0.40000001 71:0.40000001 72:0.30000001 73:0.30000001 74:0.2 75:0.1 76:0.60000002 77:0.30000001 78:0.2 79:0 80:0.2 81:0.30000001 82:0.2 83:0.1 84:0.2 85:0.30000001 86:0.1 87:0.2 88:0.1 89:0.2 90:0.2 91:0 92:0.40000001 93:0.30000001 94:0.2 95:0.30000001 96:0.2 97:0.1 98:0.2 99:0 100:0.1 101:0.40000001 102:0.2 103:0.1 104:0.30000001 105:0.30000001 106:0.5 107:0.2 108:0.2 109:0.40000001 110:0.81 111:0.40000001 112:0.30000001 113:0.2 114:0.5 115:0.2 116:1.01 117:0.40000001 118:0.5 119:0 120:0.30000001 121:0 122:0 123:0.2 124:0 125:0.1 126:0 127:0 128:0 129:0.2 130:0.1 131:0 132:0.1 133:0.1 134:0 135:0.1 136:0.1 137:0.2 138:0 139:0 140:0.2 141:0 142:0.1 143:0.2 144:0.2 145:0.1 146:0.2 147:0 148:0.2 149:0.40000001 150:0.2 151:0 152:0 153:0.1 154:0.1 155:0.2 156:0.60000002 157:0.2 158:0.2 159:0 160:0.1 161:0.1 162:0.2 163:0.30000001 164:0.40000001 165:0 166:0.2 167:0.1 168:0.1 169:0.30000001 170:0.5 171:0 172:0.40000001 173:0.1 174:0.40000001 175:0.30000001 176:0.5 177:0.2 178:0.70999998 179:0.1 180:0.1 181:0.40000001 182:0.30000001 183:0.30000001 184:0.2 185:0.1 186:0.60000002 187:0 188:0.40000001 189:0.5 190:0.81 191:0.2 192:0.40000001 193:0.40000001 194:0.40000001 195:0.30000001 196:1.21 197:0.60000002 198:0.5 199:0 200:0.30000001 201:0 202:0.2 203:0.2 204:0.30000001 205:0 206:0.2 207:0.1 208:0 209:0.1 210:0.40000001 211:0 212:0.30000001 213:0.1 214:0.1 215:0.30000001 216:0.5 217:0.1 218:0.5 219:0 220:0.1 221:0.40000001 222:0.40000001 223:0.2 224:0.2 225:0.1 226:0.2 227:0 228:0.30000001 229:0.1 230:0.30000001 231:0.2 232:0.81 233:0.2 234:0.5 235:0.2 236:0.60000002 237:0.40000001 238:0.40000001 239:0 240:0.30000001 241:0.60000002 242:0 243:0.2 244:0.30000001 245:0.40000001 246:0.81 247:0.2 248:0.1 249:0.40000001 250:0.60000002 251:0.2 252:0.1 253:0.5 254:0.40000001 255:0.1 256:0.70999998 257:0.30000001 258:0.60000002 259:0 260:0.1 261:0.30000001 262:0.1 263:0 264:0.5 265:0 266:0.40000001 267:0.1 268:0.40000001 269:0 270:0.30000001 271:0.30000001 272:0.40000001 273:0.60000002 274:0.40000001 275:0.1 276:0.40000001 277:0.5 278:0.2 279:0 280:0.1 281:0.1 282:0 283:0.1 284:0.40000001 285:0.1 286:0.1 287:0.1 288:0 289:0.30000001 290:0.2 291:0.2 292:0.30000001 293:0.2 294:0.30000001 295:0.30000001 296:0.70999998 297:0 298:0.2 299:0.1 300:0.1 301:0.70999998 302:0.5 303:0.40000001 304:0.5 305:0.40000001 306:0.70999998 307:0.1 308:0.30000001 309:0.70999998 310:0.81 311:0.60000002 312:0.30000001 313:2.1199999 314:0.60000002 315:0 316:2.72 317:0.70999998 318:0.70999998 319:0.30000001 320:0.2 321:0.81 322:0.40000001 323:0.5 324:0.2 325:0.1 326:0.2 327:0.1 328:0.1 329:0.40000001 330:0.2 331:0.2 332:0.40000001 333:0.40000001 334:0.1 335:0.30000001 336:0.70999998 337:0.5 338:0.30000001 339:0 340:0.2 341:0.1 342:0.2 343:0.1 344:0.60000002 345:0.30000001 346:0.5 347:0 348:0 349:0.30000001 350:0.5 351:0.1 352:0.5 353:0.30000001 354:0.1 355:0.5 356:0.91000003 357:0.40000001 358:0.2 359:0 360:0.1 361:0.1 362:0 363:0 364:0 365:0 366:0 367:0 368:0 369:0.1 370:0 371:0.1 372:0 373:0.1 374:0 375:0.1 376:0 377:0 378:0 379:0 380:0 381:0 382:0.1 383:0.30000001 384:0.1 385:0.2 386:0.2 387:0 388:0.2 389:0.1 390:0.30000001 391:0.1 392:0 393:0.2 394:0.30000001 395:0 396:0.30000001 397:0.1 398:0 399:0 400:0.1 #
1.4971267707958570980508739012294 1:2.77 2:0.23999999 3:0 4:0.47999999 5:0.23999999 6:1.45 7:0.12 8:0.23999999 9:0.12 10:0.95999998 11:0.12 12:0.12 13:1.6900001 14:0.12 15:0.36000001 16:1.33 17:0.47999999 18:0.60000002 19:0 20:0.36000001 21:0.36000001 22:0.12 23:0 24:0.12 25:0 26:0.23999999 27:0.12 28:0.23999999 29:0.36000001 30:0.60000002 31:0.12 32:0 33:0.12 34:0.23999999 35:0.23999999 36:0 37:0 38:0 39:0 40:0 41:0.36000001 42:0.23999999 43:0.23999999 44:0.36000001 45:0.47999999 46:0.47999999 47:0 48:0 49:0.12 50:0.23999999 51:0 52:0.12 53:0.23999999 54:0.23999999 55:0 56:0.60000002 57:0.23999999 58:0.12 59:0 60:0 61:0.60000002 62:0.12 63:0.47999999 64:0.95999998 65:0.36000001 66:0.72000003 67:0 68:0 69:0.23999999 70:0.36000001 71:0.23999999 72:0 73:0.12 74:0.23999999 75:0 76:0.72000003 77:0 78:0.60000002 79:0 80:0 81:0.36000001 82:0 83:0 84:0.23999999 85:0.12 86:0.23999999 87:0.12 88:0.23999999 89:0.12 90:0.12 91:0 92:0 93:0.72000003 94:0.12 95:0.12 96:0.12 97:0 98:0.12 99:0 100:0.23999999 101:1.5700001 102:0.36000001 103:0.36000001 104:0.12 105:0.12 106:0.95999998 107:0 108:0 109:0.12 110:1.2 111:0.23999999 112:0 113:0.95999998 114:0.47999999 115:0.23999999 116:0.72000003 117:0.12 118:0.36000001 119:0.12 120:0.12 121:0.12 122:0 123:0.12 124:0 125:0 126:0 127:0 128:0.12 129:0.23999999 130:0.12 131:0 132:0.12 133:0 134:0 135:0 136:0 137:0 138:0.36000001 139:0.12 140:0.12 141:0.12 142:0.23999999 143:0.12 144:0 145:0 146:0.12 147:0.12 148:0 149:0.23999999 150:0.47999999 151:0 152:0 153:0.36000001 154:0.23999999 155:0.23999999 156:0.12 157:0.12 158:0.12 159:0 160:0 161:0.47999999 162:0.12 163:0.23999999 164:0.47999999 165:0 166:0.36000001 167:0.12 168:0.47999999 169:0.12 170:0.23999999 171:0 172:0.12 173:0.36000001 174:0.12 175:0.12 176:0 177:0.12 178:0.47999999 179:0 180:0 181:0.47999999 182:0.47999999 183:0.47999999 184:0.36000001 185:0.36000001 186:0.72000003 187:0.36000001 188:0.47999999 189:0.47999999 190:1.8099999 191:0.23999999 192:0.72000003 193:1.45 194:0.12 195:0.47999999 196:0.47999999 197:0.36000001 198:0.47999999 199:0 200:0.60000002 201:0.12 202:0 203:0.12 204:0.12 205:0 206:0 207:0 208:0 209:0.23999999 210:0.12 211:0.12 212:0 213:0 214:0 215:0.12 216:0.36000001 217:0.12 218:0.36000001 219:0.12 220:0 221:0 222:0.12 223:0.12 224:0.12 225:0 226:0.12 227:0.12 228:0 229:0 230:0.23999999 231:0 232:0 233:0.12 234:0 235:0 236:0 237:0.23999999 238:0 239:0 240:0.23999999 241:1.45 242:0.36000001 243:0.60000002 244:0.72000003 245:0.23999999 246:0.72000003 247:0.23999999 248:0.23999999 249:0.36000001 250:1.2 251:0.12 252:0 253:1.9299999 254:0.83999997 255:1.08 256:0.83999997 257:0 258:0.23999999 259:0 260:0.12 261:0.36000001 262:0 263:0.36000001 264:0.23999999 265:0.12 266:0.23999999 267:0.12 268:0.23999999 269:0.23999999 270:0.72000003 271:0.12 272:0 273:0.23999999 274:0.23999999 275:0.36000001 276:0.47999999 277:0.23999999 278:0.23999999 279:0 280:0.23999999 281:0.72000003 282:0 283:0.12 284:0.12 285:0.23999999 286:0.23999999 287:0 288:0 289:0.23999999 290:0.12 291:0.12 292:0.23999999 293:0.47999999 294:0.36000001 295:0.12 296:0.95999998 297:0.12 298:0.23999999 299:0 300:0 301:1.08 302:0.12 303:0.47999999 304:0.60000002 305:0.23999999 306:1.08 307:0 308:0 309:0 310:0.60000002 311:0 312:0 313:1.45 314:0.72000003 315:0.60000002 316:1.6900001 317:0.36000001 318:0.36000001 319:0.23999999 320:0.47999999 321:0.23999999 322:0.12 323:0 324:0.12 325:0.12 326:0 327:0 328:0.12 329:0.12 330:0.47999999 331:0.12 332:0 333:0.23999999 334:0.36000001 335:0.23999999 336:0.36000001 337:0.12 338:0.12 339:0 340:0 341:0.60000002 342:0 343:0.12 344:0.60000002 345:0.23999999 346:0.36000001 347:0 348:0.12 349:0.47999999 350:0.83999997 351:0.12 352:0 353:0.36000001 354:0 355:0 356:0.60000002 357:0.23999999 358:0.12 359:0 360:0.12 361:0 362:0.12 363:0 364:0 365:0 366:0 367:0 368:0 369:0 370:0 371:0.12 372:0 373:0 374:0.12 375:0.12 376:0.12 377:0 378:0 379:0 380:0 381:0 382:0.12 383:0.12 384:0 385:0.12 386:0.12 387:0 388:0.12 389:0.23999999 390:0.47999999 391:0 392:0 393:0.47999999 394:0.23999999 395:0 396:0.60000002 397:0 398:0 399:0 400:0 #
-1.9373282121577408698698263833649 1:0.60000002 2:0.2 3:0.40000001 4:0.40000001 5:0.60000002 6:0.40000001 7:0.2 8:0.40000001 9:0.2 10:0.40000001 11:0 12:0 13:0 14:0 15:0.2 16:0.79000002 17:0.40000001 18:0.40000001 19:0 20:0.2 21:0 22:0 23:0 24:0.2 25:0.40000001 26:0.2 27:0.2 28:0.2 29:0.2 30:0.40000001 31:0 32:0.2 33:0 34:0.60000002 35:0.40000001 36:0.2 37:0.2 38:0 39:0 40:0 41:0.2 42:0 43:0.40000001 44:0 45:0 46:0.40000001 47:0.2 48:0.2 49:0.60000002 50:1.1900001 51:0 52:0 53:0.2 54:0.2 55:0.60000002 56:0.2 57:0.60000002 58:0 59:0 60:0 61:0.99000001 62:0 63:0.2 64:1.59 65:0.40000001 66:0.40000001 67:0 68:0.40000001 69:0.60000002 70:0.2 71:1.1900001 72:0.2 73:0.40000001 74:0.60000002 75:0.40000001 76:0 77:0.60000002 78:0.40000001 79:0 80:0 81:0.99000001 82:0 83:0.2 84:0.40000001 85:0.2 86:0.2 87:0 88:0 89:0 90:0 91:0 92:0 93:0.79000002 94:0 95:0.40000001 96:0.79000002 97:0.2 98:0.2 99:0 100:0 101:0.60000002 102:0.2 103:0.2 104:0.40000001 105:0.79000002 106:0.60000002 107:0 108:0.2 109:0.79000002 110:0.60000002 111:0.2 112:0 113:0.40000001 114:0 115:0.2 116:0.40000001 117:0 118:0.2 119:0 120:0.2 121:0 122:0 123:0 124:0 125:0 126:0.2 127:0 128:0 129:0.2 130:0 131:0 132:0.2 133:0 134:0.2 135:0.40000001 136:0 137:0 138:0 139:0 140:0.2 141:0.2 142:0.79000002 143:0 144:0 145:0 146:0 147:0 148:0.2 149:0.60000002 150:0.2 151:0 152:0.2 153:0.2 154:0.40000001 155:0.2 156:0.2 157:0.60000002 158:0.2 159:0 160:0.2 161:0.40000001 162:0.40000001 163:0.40000001 164:1.1900001 165:0.40000001 166:0.60000002 167:0 168:0.60000002 169:0.60000002 170:0.40000001 171:0.2 172:0.40000001 173:0.79000002 174:0 175:0.2 176:0.40000001 177:0.2 178:0.79000002 179:0 180:0.2 181:0.2 182:0.2 183:0.40000001 184:0.79000002 185:0 186:0.40000001 187:0.2 188:0.60000002 189:0.60000002 190:0.79000002 191:0.40000001 192:0.2 193:0.60000002 194:0.40000001 195:0.60000002 196:0.60000002 197:0.79000002 198:0.2 199:0.2 200:0 201:0.2 202:0 203:0.40000001 204:0.40000001 205:0.2 206:0.2 207:0.2 208:0 209:0.40000001 210:0.60000002 211:0.2 212:0 213:0.40000001 214:0 215:0.2 216:0.40000001 217:0.2 218:0.40000001 219:0 220:0.2 221:0.2 222:0.2 223:0.40000001 224:0 225:0 226:0.2 227:0 228:0 229:0.60000002 230:0 231:0.40000001 232:0 233:0.2 234:0 235:0.40000001 236:0.2 237:0 238:0 239:0 240:0 241:0 242:0.2 243:0 244:0.99000001 245:0.40000001 246:0.60000002 247:0 248:0.2 249:0.40000001 250:0.79000002 251:0.2 252:0.2 253:1.98 254:0 255:0.40000001 256:0.79000002 257:0.2 258:0 259:0 260:0.2 261:0 262:0 263:0.2 264:0.40000001 265:0 266:0 267:0 268:0.40000001 269:0.79000002 270:0.99000001 271:0.2 272:0 273:0 274:0 275:0 276:0.2 277:0 278:0 279:0 280:0.2 281:0.2 282:0.2 283:0.40000001 284:0.2 285:0 286:0.40000001 287:0 288:0.40000001 289:0 290:0.40000001 291:0.60000002 292:0.60000002 293:0.40000001 294:0 295:0.79000002 296:0.60000002 297:0.2 298:0.40000001 299:0 300:0.2 301:0.40000001 302:0.40000001 303:0.40000001 304:0.60000002 305:0.2 306:0.2 307:0 308:0.2 309:0.79000002 310:0.40000001 311:0.40000001 312:0.2 313:0.79000002 314:0.2 315:0 316:1.59 317:0.99000001 318:0.40000001 319:0 320:0.2 321:0.2 322:0.2 323:0.79000002 324:0.2 325:0.40000001 326:0.40000001 327:0 328:0.2 329:0.60000002 330:0.79000002 331:0.2 332:0.40000001 333:0.2 334:0.60000002 335:0.40000001 336:0.60000002 337:0.2 338:0 339:0 340:0 341:0.2 342:0.2 343:0.2 344:0.60000002 345:0.2 346:0.40000001 347:0 348:0 349:0 350:0 351:0 352:0 353:0.2 354:0.2 355:0.2 356:0.40000001 357:0.40000001 358:0.2 359:0 360:0.40000001 361:0 362:0 363:0 364:0 365:0 366:0 367:0.2 368:0 369:0 370:0 371:0 372:0 373:0 374:0 375:0 376:0 377:0 378:0 379:0 380:0 381:0.2 382:0.2 383:0 384:0.2 385:0.2 386:0.2 387:0.2 388:0 389:0.2 390:0 391:0.2 392:0 393:0.2 394:0 395:0 396:0 397:0.60000002 398:0 399:0 400:0 #
-1.9373282121577408698698263833649 1:0.43000001 2:0.43000001 3:0.43000001 4:0.22 5:0.22 6:0.64999998 7:0.22 8:0.43000001 9:0.22 10:1.09 11:0.22 12:0 13:0.43000001 14:0.43000001 15:0.64999998 16:1.09 17:0 18:0 19:0 20:0 21:0 22:0 23:0 24:0.22 25:0 26:0.22 27:0 28:0.22 29:0.43000001 30:0 31:0 32:0.22 33:0 34:0.43000001 35:0.64999998 36:0.22 37:0 38:0.22 39:0 40:0 41:0.64999998 42:0 43:0.43000001 44:0.22 45:0.64999998 46:0 47:0 48:0 49:0.43000001 50:0 51:0 52:0 53:0.64999998 54:0.64999998 55:0.22 56:0 57:0.22 58:0.43000001 59:0.22 60:0 61:1.09 62:0.22 63:0.22 64:0.87 65:0.43000001 66:0.87 67:0 68:0.64999998 69:0 70:0.64999998 71:0 72:0 73:0.64999998 74:0.64999998 75:0.22 76:0.22 77:0.43000001 78:0 79:0 80:0.22 81:0.64999998 82:0 83:0 84:0.22 85:0.22 86:0 87:0.43000001 88:0.22 89:0 90:0.43000001 91:0.22 92:0 93:0.22 94:0 95:0.22 96:0.64999998 97:0.43000001 98:0 99:0 100:0 101:0.87 102:0.22 103:0.22 104:0.43000001 105:0.64999998 106:1.09 107:0.22 108:0 109:0 110:0.43000001 111:0.22 112:0.22 113:1.3 114:0 115:0.43000001 116:0.87 117:0.43000001 118:0.22 119:0 120:0 121:0 122:0 123:0.22 124:0.43000001 125:0.22 126:0 127:0 128:0 129:0 130:0 131:0 132:0 133:0 134:0 135:0.22 136:0.22 137:0 138:0 139:0 140:0.22 141:0.43000001 142:0 143:0 144:0.22 145:0.43000001 146:0 147:0 148:0.22 149:0.22 150:0 151:0.22 152:0.43000001 153:0.22 154:0.22 155:0.43000001 156:0.22 157:0.22 158:0.22 159:0.22 160:0 161:0.43000001 162:0.43000001 163:0.43000001 164:0.43000001 165:0 166:0.43000001 167:0 168:0.22 169:0.87 170:0.43000001 171:0.22 172:0 173:0 174:0.43000001 175:0.64999998 176:0 177:0 178:0.22 179:0 180:0 181:0.22 182:0.22 183:0.43000001 184:0.22 185:0 186:0.87 187:0 188:0.22 189:0.43000001 190:1.09 191:0.43000001 192:0 193:0.43000001 194:1.09 195:0.87 196:1.09 197:0.22 198:0.43000001 199:0 200:0 201:0 202:0 203:0.22 204:0 205:0 206:0 207:0 208:0.22 209:0.22 210:0.64999998 211:0 212:0 213:0 214:0 215:0.64999998 216:0.22 217:0 218:0 219:0 220:0 221:0 222:0 223:0 224:0 225:0 226:0.22 227:0.22 228:0.22 229:0.22 230:0 231:0 232:0 233:0.22 234:0 235:0 236:0 237:0 238:0.43000001 239:0 240:0 241:0.22 242:0 243:0.64999998 244:0.64999998 245:0 246:1.74 247:0 248:0.22 249:0.43000001 250:0.64999998 251:0 252:0.22 253:0.43000001 254:0.87 255:0.22 256:0.22 257:0.43000001 258:0.22 259:0.43000001 260:0.22 261:0 262:0.64999998 263:0.43000001 264:0.87 265:0 266:0.43000001 267:0 268:0.43000001 269:0 270:1.09 271:0.22 272:0 273:0.64999998 274:1.52 275:0.22 276:0.87 277:0 278:0.64999998 279:0 280:0 281:0.43000001 282:0 283:0.22 284:0.43000001 285:0.43000001 286:0.43000001 287:0 288:0.22 289:1.3 290:0.64999998 291:0.22 292:0 293:0.43000001 294:0.22 295:1.09 296:0.43000001 297:0.22 298:0.43000001 299:0 300:0.43000001 301:0.64999998 302:0.22 303:0.22 304:0.87 305:0.22 306:0.64999998 307:0 308:0 309:0.22 310:0.43000001 311:0 312:0 313:0.87 314:0.87 315:0.43000001 316:1.96 317:0.43000001 318:0.64999998 319:0 320:0.22 321:0.43000001 322:0.22 323:0.43000001 324:0.43000001 325:0.22 326:0 327:0 328:0.22 329:0 330:0.22 331:0 332:0 333:0.43000001 334:0 335:0.22 336:0.22 337:0.22 338:0.22 339:0 340:0.22 341:0.22 342:0.22 343:0.22 344:0.64999998 345:0.22 346:0.22 347:0.43000001 348:0.22 349:0.22 350:0.43000001 351:0 352:0 353:0.43000001 354:0.64999998 355:0.22 356:0.22 357:0.22 358:0.22 359:0 360:0 361:0 362:0 363:0.22 364:0 365:0 366:0 367:0 368:0 369:0 370:0 371:0 372:0 373:0.43000001 374:0 375:0 376:0 377:0 378:0.22 379:0 380:0 381:0.43000001 382:0 383:0 384:0 385:0 386:0 387:0 388:0 389:0 390:0 391:0 392:0.43000001 393:0 394:0 395:0 396:0.22 397:0.22 398:0.22 399:0 400:0 #
-1.9373282121577408698698263833649 1:0 2:0.38999999 3:0.19 4:0.19 5:0 6:0.19 7:0.38999999 8:0 9:0 10:0.76999998 11:0.57999998 12:0.57999998 13:0.19 14:0 15:0.38999999 16:0.57999998 17:0.19 18:0.38999999 19:0 20:0.19 21:0.19 22:0 23:0 24:0.19 25:0 26:0.19 27:0 28:0 29:0.38999999 30:0.38999999 31:0 32:0 33:0.19 34:0.19 35:0.19 36:0.38999999 37:0 38:0 39:0.19 40:0 41:0.57999998 42:0.38999999 43:0.19 44:0.19 45:0.19 46:0.19 47:0.38999999 48:0.19 49:0.19 50:0.38999999 51:0 52:0 53:0 54:0.19 55:0.19 56:0.19 57:0.19 58:0.19 59:0 60:0 61:0 62:0 63:0 64:0.38999999 65:0.19 66:0.19 67:0.19 68:0 69:0.57999998 70:0.57999998 71:0.19 72:0.19 73:0 74:0.19 75:0.19 76:0.38999999 77:0.38999999 78:0.76999998 79:0 80:0 81:0.38999999 82:0 83:0.38999999 84:0.19 85:0.19 86:0.38999999 87:0.19 88:0 89:0 90:0.19 91:0 92:0.19 93:0 94:0 95:0.57999998 96:0.38999999 97:0.57999998 98:0.19 99:0 100:0 101:0.19 102:0.19 103:0.19 104:0.38999999 105:0.57999998 106:0.76999998 107:0 108:0.19 109:0.19 110:0.38999999 111:0.76999998 112:0.19 113:0.19 114:0.19 115:0.38999999 116:1.16 117:0.38999999 118:0.57999998 119:0 120:0 121:0.38999999 122:0 123:0.38999999 124:0 125:0.38999999 126:0.19 127:0 128:0.38999999 129:0 130:0 131:0 132:0.19 133:0.19 134:0.76999998 135:0 136:0.38999999 137:0 138:0.19 139:0 140:0.38999999 141:0 142:0 143:0 144:0 145:0.38999999 146:0 147:0 148:0 149:0 150:0.19 151:0 152:0.19 153:0.38999999 154:0.38999999 155:0.38999999 156:0.38999999 157:0.38999999 158:0.19 159:0 160:0 161:0.19 162:0.38999999 163:0 164:0 165:0 166:0.19 167:0 168:0 169:0.38999999 170:0.76999998 171:0 172:0.38999999 173:0 174:0.19 175:0.19 176:0 177:0.38999999 178:0.38999999 179:0 180:0 181:0.57999998 182:0.19 183:0.38999999 184:0 185:0.19 186:0.38999999 187:0.97000003 188:0.38999999 189:0.57999998 190:1.16 191:0.38999999 192:0.38999999 193:0.76999998 194:0.38999999 195:0.76999998 196:1.35 197:0.38999999 198:0.57999998 199:0 200:0.19 201:0.19 202:0 203:0 204:0.19 205:0.19 206:0.57999998 207:0.19 208:0 209:0 210:0.19 211:0 212:0.38999999 213:0 214:0 215:0 216:0.19 217:0.19 218:0.38999999 219:0 220:0 221:0.19 222:0 223:0.97000003 224:0.19 225:0 226:0.38999999 227:0.19 228:0.19 229:0 230:0.19 231:0 232:0.38999999 233:0 234:0.19 235:0.57999998 236:0.76999998 237:0.19 238:0 239:0 240:0.19 241:0.19 242:0.19 243:0.38999999 244:0.19 245:0 246:0.38999999 247:0.19 248:0 249:0.19 250:0.38999999 251:0.19 252:0.38999999 253:0.76999998 254:0.38999999 255:0.19 256:0.97000003 257:0.57999998 258:0.57999998 259:0 260:0 261:0.19 262:0.19 263:0 264:0.57999998 265:0 266:0.19 267:0.19 268:0.19 269:0 270:0.57999998 271:0 272:0.38999999 273:0.38999999 274:0.97000003 275:0.19 276:0.38999999 277:0 278:0.38999999 279:0 280:0.38999999 281:0.19 282:0.19 283:0.19 284:0.57999998 285:0.97000003 286:0 287:0.19 288:0.38999999 289:0.19 290:0.38999999 291:0.19 292:0.19 293:0 294:0 295:0.38999999 296:1.35 297:0.38999999 298:0.38999999 299:0 300:0 301:0.57999998 302:0 303:0.19 304:0.57999998 305:0.38999999 306:1.35 307:0.57999998 308:0.57999998 309:0.19 310:2.1199999 311:0.19 312:0.57999998 313:2.3199999 314:0.57999998 315:0.57999998 316:2.1199999 317:0.19 318:0.38999999 319:0.19 320:0.57999998 321:0.38999999 322:0.19 323:0 324:0 325:0.19 326:0.38999999 327:0.19 328:0 329:0.38999999 330:0.57999998 331:0 332:0 333:0.38999999 334:0.38999999 335:0 336:1.54 337:0 338:0 339:0 340:0.19 341:0.57999998 342:0.19 343:0.19 344:0.38999999 345:0 346:0.57999998 347:0.19 348:0.38999999 349:0 350:0.57999998 351:0 352:0 353:0.19 354:0.19 355:0.97000003 356:0.57999998 357:0.38999999 358:0.19 359:0.19 360:0.19 361:0 362:0 363:0.19 364:0.19 365:0 366:0 367:0 368:0 369:0 370:0 371:0 372:0 373:0 374:0 375:0 376:0.19 377:0 378:0 379:0 380:0 381:0.19 382:0 383:0 384:0 385:0 386:0.38999999 387:0 388:0 389:0.19 390:0.19 391:0 392:0 393:0.19 394:0 395:0 396:0.97000003 397:0 398:0.19 399:0 400:0 #
3.6755827103599112426479678106261 1:1.84 2:0.17 3:0.33000001 4:0.33000001 5:0.67000002 6:0.33000001 7:0.33000001 8:0 9:0.5 10:0.67000002 11:0 12:0.33000001 13:0.5 14:0.17 15:0 16:0.82999998 17:0.33000001 18:0.5 19:0.17 20:0.33000001 21:0.33000001 22:0 23:0 24:0.17 25:0 26:0 27:0 28:0 29:0.33000001 30:0.17 31:0 32:0.17 33:0.17 34:0.17 35:0.17 36:0 37:0.17 38:0.17 39:0 40:0.17 41:0.33000001 42:0 43:0.17 44:0 45:0 46:0 47:0.17 48:0 49:0.33000001 50:0.5 51:0.33000001 52:0.33000001 53:0.17 54:0.33000001 55:0.5 56:0 57:0.33000001 58:0 59:0 60:0.33000001 61:0.5 62:0.17 63:0 64:0.5 65:0.33000001 66:0.82999998 67:0.33000001 68:0.33000001 69:0.33000001 70:0.33000001 71:0.33000001 72:0.17 73:0.67000002 74:0 75:0.33000001 76:0.17 77:0.17 78:0.33000001 79:0 80:0.17 81:0.17 82:0 83:0.17 84:0 85:0.17 86:0.33000001 87:0 88:0 89:0.17 90:0.33000001 91:0 92:0.33000001 93:0.33000001 94:0 95:0.17 96:0.17 97:0 98:0.17 99:0 100:0.17 101:0.67000002 102:0.17 103:0.33000001 104:0.33000001 105:0.33000001 106:0.33000001 107:0.33000001 108:0.17 109:0.33000001 110:0.5 111:0.67000002 112:0.33000001 113:0.33000001 114:0.17 115:0.5 116:0.17 117:0.17 118:0.5 119:0 120:0.17 121:0.17 122:0 123:0.17 124:0 125:0 126:0.17 127:0 128:0.33000001 129:0.17 130:0.5 131:0.33000001 132:0.17 133:0.5 134:0.33000001 135:0.5 136:0.17 137:0.33000001 138:0.17 139:0 140:0.17 141:0 142:0 143:0.17 144:0 145:0.17 146:0.17 147:0.33000001 148:0.17 149:0.17 150:0.5 151:0.17 152:0.33000001 153:0.17 154:0.33000001 155:0.33000001 156:0 157:0.17 158:0 159:0 160:0.17 161:0.5 162:0.5 163:0.33000001 164:0.17 165:0 166:0.5 167:0.33000001 168:0.17 169:0.17 170:0.17 171:0.17 172:0.5 173:0.17 174:0 175:0.5 176:0.5 177:0 178:0 179:0 180:0 181:0.5 182:0 183:0.67000002 184:1.17 185:0.17 186:0.33000001 187:1 188:0.5 189:0.67000002 190:2.3399999 191:0.5 192:0.67000002 193:0 194:0.5 195:0.17 196:0.67000002 197:0.67000002 198:0.5 199:0.17 200:0.33000001 201:0.33000001 202:0.17 203:0 204:0.67000002 205:0 206:0.5 207:0 208:0.5 209:0.33000001 210:0.67000002 211:0.5 212:0.17 213:0.17 214:0 215:0.17 216:0.17 217:0.33000001 218:0.33000001 219:0 220:0 221:0.17 222:0 223:0.5 224:0.5 225:0 226:0.17 227:0 228:0 229:0.17 230:0.82999998 231:0.33000001 232:0 233:0 234:0.33000001 235:0.5 236:1 237:0.17 238:0.17 239:0.17 240:0.17 241:0.82999998 242:0 243:0 244:0.5 245:0.33000001 246:0.5 247:0.33000001 248:0 249:0 250:0.82999998 251:0.17 252:0.33000001 253:1 254:0.33000001 255:0 256:0.82999998 257:0 258:0.17 259:0 260:0.17 261:0.17 262:0.17 263:0 264:0 265:0 266:0.67000002 267:0.17 268:0.17 269:0 270:0.67000002 271:0.17 272:0.17 273:0 274:0.33000001 275:0.17 276:0.33000001 277:0.17 278:0.33000001 279:0 280:0 281:0.33000001 282:0 283:0.33000001 284:0.33000001 285:0.17 286:0.17 287:0.17 288:0 289:0.5 290:0.67000002 291:0.5 292:0.33000001 293:0.33000001 294:0.33000001 295:0.67000002 296:0.5 297:0 298:0.33000001 299:0 300:0.17 301:0.82999998 302:0.33000001 303:0.17 304:0.67000002 305:0 306:0.67000002 307:0.17 308:0.5 309:0.17 310:0.67000002 311:0.33000001 312:0.33000001 313:0.82999998 314:0.33000001 315:0.5 316:1.17 317:0.33000001 318:0.17 319:0 320:0 321:0.17 322:0 323:0 324:0 325:0.17 326:0.17 327:0 328:0.33000001 329:0.33000001 330:0.67000002 331:0.17 332:0.33000001 333:0 334:0 335:0.17 336:0.67000002 337:0.33000001 338:0 339:0 340:0.33000001 341:0 342:0.33000001 343:0.17 344:0.33000001 345:0.17 346:0.17 347:0.33000001 348:0.17 349:0 350:0.17 351:0 352:0 353:0.67000002 354:0 355:0.17 356:0.5 357:0 358:0.17 359:0.33000001 360:0.5 361:0.17 362:0 363:0 364:0 365:0 366:0 367:0 368:0 369:0 370:0.17 371:0 372:0 373:0.17 374:0 375:0.17 376:0.17 377:0 378:0 379:0 380:0 381:0.33000001 382:0.17 383:0.33000001 384:0.33000001 385:0 386:0.5 387:0.17 388:0.17 389:0 390:0.17 391:0.17 392:0.17 393:0.17 394:0 395:0.17 396:0.17 397:0.17 398:0.17 399:0 400:0.33000001 #
3.3082711684162386944763056817465 1:0.16 2:0.16 3:0.47999999 4:0.31999999 5:0.31999999 6:0.64999998 7:0.31999999 8:0.31999999 9:0.31999999 10:0.47999999 11:0.16 12:0.16 13:0.81 14:0.64999998 15:0.31999999 16:1.29 17:0.81 18:0.47999999 19:0.16 20:0 21:0.16 22:0 23:0 24:0.16 25:0 26:0 27:0 28:0 29:0.31999999 30:0.16 31:0.31999999 32:0 33:0.31999999 34:0.16 35:0.16 36:0.31999999 37:0.31999999 38:0.16 39:0 40:0.16 41:0.47999999 42:0 43:0 44:0 45:0 46:0.47999999 47:0 48:0 49:0 50:0.81 51:0.16 52:0.16 53:0 54:0.16 55:0.64999998 56:0 57:0 58:0.16 59:0 60:0.64999998 61:0.47999999 62:0.16 63:0 64:0.64999998 65:0.16 66:0.64999998 67:0.16 68:0.47999999 69:0 70:0.64999998 71:0.16 72:0.16 73:0.64999998 74:0.47999999 75:0.47999999 76:0.16 77:0 78:0.16 79:0 80:0 81:0.16 82:0 83:0.31999999 84:0 85:0.16 86:0 87:0 88:0 89:0.16 90:0.16 91:0.16 92:0 93:0 94:0.16 95:0.16 96:0.16 97:0 98:0.31999999 99:0 100:0.16 101:0.81 102:0.16 103:0 104:0.31999999 105:0.31999999 106:0.64999998 107:0.16 108:0.31999999 109:0.31999999 110:0.47999999 111:0.64999998 112:0 113:0 114:0.16 115:0.31999999 116:0.64999998 117:0.47999999 118:0.31999999 119:0 120:0.64999998 121:0 122:0 123:0.16 124:0 125:0 126:0.16 127:0 128:0.16 129:0 130:0.16 131:0.31999999 132:0.16 133:0.16 134:0 135:0.16 136:0.31999999 137:0 138:0.16 139:0 140:0.47999999 141:0.16 142:0 143:0.16 144:0 145:0.31999999 146:0.47999999 147:0.16 148:0.16 149:0 150:0.47999999 151:0.16 152:0 153:0.16 154:0.16 155:0.31999999 156:0.16 157:0.16 158:0 159:0.16 160:0 161:0.31999999 162:0.31999999 163:0 164:0.47999999 165:0 166:0.31999999 167:0.16 168:0 169:0.16 170:0.64999998 171:0 172:0.16 173:0 174:0.16 175:0.16 176:0.47999999 177:0 178:0.47999999 179:0 180:0 181:0.64999998 182:0.16 183:0.47999999 184:0.81 185:0 186:0.31999999 187:0.16 188:0.47999999 189:0.81 190:2.26 191:0.16 192:0.16 193:0.16 194:0.47999999 195:0.64999998 196:1.13 197:0.47999999 198:0.47999999 199:0 200:0.31999999 201:0.47999999 202:0 203:0.16 204:0.16 205:0 206:0 207:0 208:0.31999999 209:0.47999999 210:0.31999999 211:0.31999999 212:0 213:0.16 214:0 215:0 216:0.64999998 217:0 218:0.31999999 219:0 220:0.16 221:0 222:0 223:0.16 224:0.16 225:0 226:0.16 227:0 228:0.16 229:0.16 230:0.16 231:0.47999999 232:0 233:0.47999999 234:0.47999999 235:0.16 236:0.16 237:0 238:0 239:0 240:0 241:0.47999999 242:0.31999999 243:0.16 244:0.47999999 245:0.16 246:0.31999999 247:0 248:0 249:0 250:0.64999998 251:0.31999999 252:0.16 253:0.97000003 254:0.47999999 255:0 256:0.81 257:0.16 258:0.64999998 259:0 260:0.31999999 261:0.47999999 262:0.31999999 263:0.64999998 264:0.16 265:0 266:0.16 267:0.16 268:0 269:0.16 270:0.64999998 271:0 272:0 273:0.16 274:0.47999999 275:0.16 276:0.81 277:0.31999999 278:0.64999998 279:0 280:0 281:0.47999999 282:0 283:0.16 284:0.47999999 285:0.16 286:0.31999999 287:0.31999999 288:0 289:0.47999999 290:0.31999999 291:0 292:0.16 293:0.47999999 294:0.47999999 295:0.81 296:0.81 297:0.31999999 298:0.31999999 299:0 300:0.16 301:1.29 302:0.31999999 303:0.31999999 304:0.47999999 305:0.16 306:1.45 307:0.31999999 308:0.31999999 309:0.16 310:0.64999998 311:0 312:0.47999999 313:1.29 314:0.16 315:1.13 316:1.45 317:0.47999999 318:0.31999999 319:0.31999999 320:0.16 321:0.47999999 322:0 323:0.16 324:0.31999999 325:0.16 326:0.16 327:0 328:0.31999999 329:0 330:0.31999999 331:0 332:0.64999998 333:0.16 334:0.16 335:0.16 336:0.64999998 337:1.13 338:0.16 339:0 340:0 341:0.64999998 342:0.64999998 343:0.16 344:0.47999999 345:0.16 346:0.31999999 347:0.31999999 348:0 349:0.16 350:0.31999999 351:0 352:0 353:0.47999999 354:0.47999999 355:0 356:0.47999999 357:0.16 358:0.16 359:0.16 360:0.31999999 361:0.31999999 362:0 363:0 364:0 365:0 366:0 367:0 368:0 369:0 370:0.16 371:0 372:0 373:0 374:0 375:0.16 376:0.16 377:0 378:0 379:0 380:0 381:0.31999999 382:0.16 383:0.16 384:0.16 385:0 386:0.16 387:0.16 388:0.16 389:0.16 390:0.31999999 391:0 392:0.31999999 393:0.16 394:0 395:0.31999999 396:0.64999998 397:0.16 398:0.16 399:0 400:0.31999999 #
3.4603948015569017115922179073095 1:0.47 2:0.16 3:0.31 4:0.31 5:0.31 6:0.77999997 7:0.31 8:0.16 9:0.31 10:0.16 11:0 12:0 13:0.63 14:0.77999997 15:0.16 16:0.47 17:0.47 18:0.47 19:0.16 20:0 21:0.16 22:0 23:0 24:0.16 25:0 26:0.31 27:0 28:0 29:0.47 30:0.16 31:0 32:0 33:0.47 34:0.16 35:0.16 36:0.47 37:0.47 38:0.16 39:0 40:0.16 41:0.47 42:0.31 43:0.16 44:0 45:0.16 46:0.31 47:0 48:0 49:0.47 50:0.47 51:0.47 52:0 53:0.16 54:0.16 55:0.77999997 56:0.16 57:0.31 58:0 59:0 60:0.47 61:0 62:0 63:0.16 64:0.31 65:0.16 66:0.63 67:0.31 68:0.16 69:0.16 70:0.31 71:0.31 72:0 73:0.47 74:0.16 75:0 76:0.63 77:0.31 78:0.47 79:0 80:0 81:0.16 82:0.31 83:0.16 84:0.16 85:0.16 86:0 87:0 88:0 89:0.16 90:0.31 91:0.16 92:0 93:0 94:0 95:0.16 96:0.16 97:0.31 98:0.31 99:0 100:0 101:0.77999997 102:0.31 103:0.31 104:0.31 105:0.47 106:1.41 107:0.16 108:0 109:0.31 110:0.16 111:0.63 112:0 113:0.77999997 114:0 115:0.16 116:0.94 117:0.47 118:0.47 119:0 120:0.31 121:0 122:0.31 123:0.31 124:0.16 125:0 126:0.16 127:0.31 128:0.47 129:0 130:0.16 131:0.31 132:0.16 133:0.16 134:0 135:0.31 136:0.31 137:0 138:0 139:0 140:0.31 141:0.16 142:0 143:0.16 144:0 145:0.31 146:0.31 147:0.31 148:0.16 149:0 150:0.47 151:0 152:0 153:0 154:0.31 155:0.16 156:0.47 157:0.31 158:0 159:0.16 160:0 161:0.47 162:0.31 163:0.47 164:0.31 165:0 166:0.31 167:0.16 168:0 169:0.16 170:0.63 171:0 172:0.16 173:0.16 174:0 175:0.47 176:0.31 177:0 178:0.16 179:0 180:0 181:0.16 182:0.16 183:0.63 184:1.1 185:0 186:0.16 187:0.31 188:0.63 189:0.47 190:2.04 191:0.16 192:0.16 193:0.16 194:0.63 195:0.47 196:0.94 197:0.16 198:0.31 199:0 200:0.47 201:0.47 202:0.31 203:0 204:0.31 205:0 206:0 207:0.16 208:0.47 209:0.31 210:0.77999997 211:0.31 212:0 213:0.16 214:0 215:0.16 216:0.16 217:0.16 218:0 219:0 220:0.16 221:0 222:0 223:0.16 224:0 225:0 226:0 227:0 228:0.16 229:0.31 230:0 231:0.16 232:0.77999997 233:0 234:0.16 235:0.16 236:0.16 237:0 238:0 239:0 240:0 241:0.77999997 242:0.16 243:0.16 244:0.47 245:0.31 246:0.63 247:0 248:0 249:0 250:1.1 251:0.16 252:0 253:1.1 254:0.31 255:0.47 256:0.77999997 257:0.77999997 258:0.47 259:0 260:0.16 261:0.47 262:0.16 263:0.31 264:0 265:0 266:0.31 267:0.16 268:0 269:0.16 270:0.47 271:0 272:0.16 273:0.16 274:0.47 275:0.31 276:0.94 277:0 278:0.31 279:0 280:0.16 281:0.47 282:0 283:0.16 284:0.16 285:0.31 286:0.47 287:0.16 288:0.31 289:0.63 290:0.31 291:0.16 292:0.16 293:0.77999997 294:0.63 295:0.77999997 296:0.77999997 297:0.31 298:0.31 299:0 300:0 301:0.63 302:0.31 303:0.77999997 304:0.16 305:0.16 306:1.25 307:0.47 308:0.31 309:0.16 310:0.47 311:0.47 312:0.16 313:1.25 314:0.47 315:1.41 316:2.51 317:0.47 318:0.31 319:0.31 320:0.16 321:0.31 322:0.16 323:0.16 324:0.31 325:0 326:0.16 327:0.31 328:0.47 329:0 330:0.31 331:0.31 332:0.31 333:0.63 334:0 335:0.16 336:0.77999997 337:0.31 338:0.31 339:0 340:0.16 341:0 342:0.31 343:0.16 344:0.16 345:0.16 346:0.47 347:0.16 348:0 349:0 350:0.63 351:0 352:0 353:0.63 354:0.31 355:0.31 356:0.31 357:0.16 358:0.16 359:0.16 360:0.16 361:0.16 362:0 363:0 364:0 365:0 366:0 367:0 368:0 369:0 370:0.16 371:0 372:0 373:0 374:0 375:0.16 376:0.31 377:0 378:0 379:0 380:0 381:0.31 382:0 383:0.31 384:0.16 385:0 386:0.31 387:0.16 388:0 389:0 390:0.16 391:0.16 392:0 393:0.16 394:0 395:0.16 396:0.63 397:0.16 398:0 399:0 400:0.16 #
-0.8798547722433482931592152453959 1:0.38 2:0.19 3:0.38 4:0.19 5:0.38 6:0.19 7:0 8:0.38 9:0.56999999 10:0.56999999 11:0 12:0.38 13:0 14:0.38 15:0.38 16:1.7 17:0.38 18:0.56999999 19:0 20:0.19 21:0.38 22:0 23:0 24:0.38 25:0 26:0.38 27:0 28:0.19 29:0.19 30:0.19 31:0 32:0.38 33:0 34:0.19 35:0.38 36:0 37:0 38:0.19 39:0.19 40:0 41:0.38 42:0.38 43:0 44:0 45:0 46:0.94999999 47:0 48:0.19 49:0.56999999 50:0.19 51:0 52:0.19 53:0.19 54:0.56999999 55:0.19 56:0.75999999 57:0.75999999 58:0.38 59:0 60:0 61:0 62:0 63:0.56999999 64:0 65:0.19 66:0.38 67:0.19 68:0.38 69:0.56999999 70:0.19 71:0.19 72:0 73:0.19 74:0 75:0.19 76:0.56999999 77:0.38 78:0.19 79:0 80:0.56999999 81:0 82:0.38 83:0.38 84:0 85:0.19 86:0 87:0 88:0 89:0.38 90:0.19 91:0 92:0 93:0 94:0.19 95:0 96:0.19 97:0.75999999 98:0.19 99:0 100:0 101:0.75999999 102:0.19 103:0.75999999 104:0 105:0.19 106:0.56999999 107:0 108:0.19 109:0.56999999 110:0.38 111:0.38 112:0 113:0.38 114:0.38 115:0.38 116:0.56999999 117:0.56999999 118:0 119:0 120:0.19 121:0 122:0 123:0 124:0 125:0 126:0 127:0.19 128:0.19 129:0 130:0.19 131:0 132:0 133:0 134:0 135:0.19 136:0 137:0 138:0.38 139:0.19 140:0.38 141:0.19 142:0.38 143:0.38 144:0.19 145:0.19 146:0 147:0.19 148:0.56999999 149:0.19 150:0.38 151:0 152:0.19 153:0.19 154:1.3200001 155:0.38 156:0.38 157:0.19 158:0.94999999 159:0.19 160:0.19 161:0.75999999 162:0.19 163:0.38 164:0.19 165:0 166:0.19 167:0.19 168:0.75999999 169:0.19 170:0.75999999 171:0.19 172:0.19 173:0.38 174:0.56999999 175:0.38 176:0 177:0.19 178:0.19 179:0 180:0 181:1.51 182:0 183:0.38 184:0.19 185:0.56999999 186:0.75999999 187:0 188:0.56999999 189:0.38 190:0.94999999 191:0 192:0.75999999 193:0 194:0.38 195:0.19 196:1.13 197:0.56999999 198:0.56999999 199:0 200:0 201:0.19 202:0 203:0 204:0.38 205:0 206:0.19 207:0.19 208:0 209:0.19 210:0.19 211:0 212:0 213:0.38 214:0 215:0 216:0.19 217:0.19 218:0 219:0 220:0 221:0 222:0.19 223:0 224:0.19 225:0 226:0.19 227:0.19 228:0.19 229:0.38 230:0.56999999 231:0 232:0.19 233:0 234:0.19 235:0.19 236:0.38 237:0.38 238:0.38 239:0 240:0 241:0.38 242:0 243:0.19 244:0.56999999 245:0.19 246:0.56999999 247:0 248:0.19 249:0.19 250:0.75999999 251:0.19 252:0 253:0 254:0.38 255:0.19 256:0.75999999 257:0.19 258:0 259:0 260:0 261:0.19 262:0.19 263:0.38 264:0.38 265:0.38 266:0.38 267:0 268:0.56999999 269:0.19 270:0.19 271:0 272:0.19 273:0.38 274:0.56999999 275:0.56999999 276:0.56999999 277:0.38 278:0.56999999 279:0 280:0 281:0.38 282:0.19 283:0.19 284:0.38 285:0 286:0 287:0.19 288:0.75999999 289:0.56999999 290:0.56999999 291:0 292:0.19 293:0.19 294:0.19 295:0 296:0.75999999 297:0 298:0 299:0 300:0 301:0.94999999 302:0.38 303:0.38 304:0.75999999 305:0 306:0.94999999 307:0 308:0.56999999 309:0.38 310:1.13 311:0.38 312:0.38 313:1.89 314:0.19 315:0.38 316:0.75999999 317:0.75999999 318:0.75999999 319:0 320:0 321:0.19 322:0 323:1.13 324:0.19 325:0.38 326:0.56999999 327:0.19 328:0.19 329:0 330:0.75999999 331:0.19 332:0 333:0.38 334:0 335:0.19 336:1.89 337:0.38 338:0.19 339:0 340:0.19 341:0.38 342:0.19 343:0.19 344:0.56999999 345:0.19 346:0 347:0.19 348:0.38 349:0 350:0.38 351:0.38 352:0.38 353:0.19 354:0.56999999 355:0.38 356:0.19 357:0.94999999 358:0.56999999 359:0 360:0 361:0.19 362:0 363:0 364:0 365:0 366:0 367:0 368:0 369:0.19 370:0 371:0 372:0.19 373:0 374:0 375:0 376:0 377:0 378:0 379:0 380:0 381:0.19 382:0.19 383:0 384:0.19 385:0 386:0.19 387:0 388:0.38 389:0 390:0.38 391:0 392:0 393:0 394:0 395:0 396:0.19 397:0 398:0 399:0 400:0 #
-1.9373282121577408698698263833649 1:0.31 2:0.1 3:0.51999998 4:0.31 5:0.41999999 6:0.20999999 7:0.31 8:0.41999999 9:0.41999999 10:0.20999999 11:0.31 12:0.20999999 13:0.31 14:0.1 15:0.20999999 16:0.41999999 17:0.31 18:0.51999998 19:0.1 20:0.20999999 21:0.1 22:0.20999999 23:0 24:0.20999999 25:0 26:0.1 27:0.1 28:0.31 29:0.20999999 30:0.51999998 31:0.20999999 32:0 33:0.31 34:0.31 35:0.20999999 36:0 37:0.31 38:0.51999998 39:0.1 40:0 41:0.31 42:0 43:0.20999999 44:0.51999998 45:0.20999999 46:0.62 47:0.1 48:0.20999999 49:0.51999998 50:0.51999998 51:0.1 52:0.31 53:0.20999999 54:0.1 55:0.20999999 56:0.41999999 57:0.31 58:0.20999999 59:0 60:0.1 61:0.51999998 62:0.1 63:0.62 64:0.62 65:0.31 66:0.51999998 67:0.20999999 68:0.31 69:0.41999999 70:0.73000002 71:0.20999999 72:0.20999999 73:0.20999999 74:0.20999999 75:0.51999998 76:0.31 77:0.31 78:0.20999999 79:0.1 80:0.41999999 81:0.1 82:0 83:0.1 84:0.1 85:0.20999999 86:0.41999999 87:0 88:0.1 89:0.20999999 90:0.31 91:0 92:0.20999999 93:0 94:0 95:0.20999999 96:0.20999999 97:0.20999999 98:0 99:0.1 100:0.1 101:0.41999999 102:0.62 103:0.31 104:0.51999998 105:0.31 106:0.41999999 107:0.1 108:0.31 109:0.31 110:0.82999998 111:0.20999999 112:0 113:0.41999999 114:0.1 115:0 116:0.41999999 117:0.1 118:0.41999999 119:0 120:0.20999999 121:0.20999999 122:0.20999999 123:0 124:0 125:0.20999999 126:0 127:0 128:0.1 129:0.20999999 130:0.20999999 131:0.20999999 132:0.1 133:0.31 134:0.20999999 135:0.41999999 136:0.1 137:0 138:0.31 139:0.1 140:0.20999999 141:0.31 142:0.31 143:0.41999999 144:0.20999999 145:0.1 146:0.41999999 147:0.1 148:0.20999999 149:0.51999998 150:0.41999999 151:0.20999999 152:0.1 153:0.51999998 154:0.20999999 155:0.1 156:0.51999998 157:0.62 158:0.20999999 159:0 160:0.20999999 161:0.20999999 162:0.51999998 163:0.20999999 164:0.51999998 165:0.31 166:0.51999998 167:0.20999999 168:0.41999999 169:0.31 170:0.31 171:0.1 172:0.31 173:0.31 174:0.20999999 175:0.51999998 176:0.51999998 177:0.31 178:0.82999998 179:0.1 180:0.1 181:0.31 182:0.31 183:0.73000002 184:0.82999998 185:0 186:0.73000002 187:0.31 188:0.51999998 189:0.31 190:1.25 191:0.62 192:0.1 193:0.62 194:0.31 195:0.62 196:0.51999998 197:0.41999999 198:0.82999998 199:0.1 200:0.1 201:0.62 202:0 203:0.20999999 204:0.41999999 205:0.1 206:0 207:0.1 208:0.31 209:0.31 210:0.1 211:0 212:0.1 213:0.31 214:0 215:0 216:0.41999999 217:0.1 218:0.31 219:0 220:0 221:0.20999999 222:0.1 223:0.1 224:0 225:0 226:0.31 227:0 228:0.20999999 229:0.1 230:0.31 231:0 232:0.1 233:0.20999999 234:0.41999999 235:0.1 236:0.31 237:0 238:0.1 239:0.1 240:0.31 241:0.51999998 242:0.1 243:0.1 244:0.51999998 245:0 246:0.1 247:0.41999999 248:0.20999999 249:0.31 250:0.31 251:0.31 252:0.31 253:0.20999999 254:0.31 255:0.1 256:0.82999998 257:0.41999999 258:0.41999999 259:0 260:0.20999999 261:0.20999999 262:0.31 263:0 264:0.31 265:0 266:0.31 267:0.20999999 268:0.31 269:0.1 270:0.73000002 271:0 272:0.20999999 273:0.1 274:0 275:0.1 276:0.20999999 277:0 278:0 279:0 280:0.1 281:0.1 282:0.1 283:0.20999999 284:0.73000002 285:0.20999999 286:0.1 287:0.20999999 288:0.20999999 289:0.62 290:0.31 291:0.20999999 292:0.31 293:0.20999999 294:0 295:0.73000002 296:0.1 297:0.51999998 298:0.20999999 299:0.1 300:0.31 301:0.51999998 302:0.20999999 303:0.31 304:0.31 305:0.1 306:0.41999999 307:0.20999999 308:0.20999999 309:0.73000002 310:0.51999998 311:0.20999999 312:0.1 313:0.62 314:0.20999999 315:0.41999999 316:0.62 317:0.51999998 318:0.31 319:0 320:0.20999999 321:0.31 322:0.1 323:0.20999999 324:0.62 325:0.1 326:0.20999999 327:0.1 328:0.31 329:0.20999999 330:0.51999998 331:0 332:0.1 333:0.62 334:0.1 335:0.41999999 336:0.41999999 337:0 338:0.41999999 339:0 340:0.20999999 341:0.51999998 342:0.31 343:0.62 344:0.20999999 345:0 346:0.41999999 347:0.1 348:0.51999998 349:0.73000002 350:0.62 351:0.1 352:0.1 353:0.20999999 354:0.31 355:0.31 356:0.1 357:0.31 358:0.94 359:0.31 360:0.20999999 361:0 362:0.1 363:0 364:0.20999999 365:0 366:0 367:0 368:0.1 369:0.20999999 370:0.1 371:0.20999999 372:0 373:0 374:0 375:0 376:0.20999999 377:0.1 378:0 379:0 380:0 381:0.1 382:0 383:0.31 384:0 385:0 386:0.20999999 387:0.31 388:0.41999999 389:0.1 390:0.73000002 391:0.1 392:0.1 393:0 394:0.1 395:0.31 396:0.1 397:0.1 398:0.20999999 399:0 400:0 #
-1.9373282121577408698698263833649 1:0.81999999 2:0.41 3:0.81999999 4:0.41 5:0 6:0.55000001 7:0.14 8:0.27000001 9:0.14 10:0.41 11:0 12:0.27000001 13:0.14 14:0 15:0.41 16:0.68000001 17:0 18:0.41 19:0 20:0 21:0 22:0.27000001 23:0 24:0.27000001 25:0 26:0.41 27:0.14 28:0.14 29:0.14 30:0.27000001 31:0.14 32:0 33:0.27000001 34:0 35:0.14 36:0.27000001 37:0 38:0.14 39:0.27000001 40:0 41:0.41 42:0.14 43:0.41 44:0.41 45:0.14 46:0.27000001 47:0 48:0.55000001 49:0.41 50:0.81999999 51:0 52:0.14 53:0.27000001 54:0.41 55:0.27000001 56:0.27000001 57:0.27000001 58:0.14 59:0 60:0.14 61:0.55000001 62:0.14 63:0.27000001 64:0.68000001 65:0.14 66:0.14 67:0 68:0.68000001 69:0 70:0.41 71:0.14 72:0.27000001 73:0.27000001 74:0.14 75:0.14 76:0.81999999 77:0.41 78:0 79:0 80:0.14 81:0 82:0.14 83:0 84:0 85:0.14 86:0 87:0 88:0 89:0.14 90:0.14 91:0 92:0.14 93:0 94:0 95:0 96:0.41 97:0.14 98:0 99:0 100:0 101:0.41 102:0 103:0.14 104:0 105:0.14 106:1.1 107:0 108:0.68000001 109:0 110:0.95999998 111:0.14 112:0.41 113:0.27000001 114:0.14 115:0.27000001 116:1.64 117:0.95999998 118:0.95999998 119:0 120:0.14 121:0 122:0 123:0.14 124:0 125:0 126:0 127:0 128:0 129:0 130:0 131:0 132:0 133:0 134:0 135:0.14 136:0 137:0.27000001 138:0.14 139:0 140:0.14 141:0.14 142:0.14 143:0.27000001 144:0.41 145:0.14 146:0.55000001 147:0.14 148:0.41 149:0 150:0.68000001 151:0.14 152:0.68000001 153:0.27000001 154:0.27000001 155:0.41 156:0.55000001 157:0.27000001 158:0.81999999 159:0 160:0 161:0.14 162:0.41 163:0 164:0 165:0.14 166:0.27000001 167:0 168:0.27000001 169:0.14 170:0.27000001 171:0 172:0 173:0 174:0.14 175:0.27000001 176:0.14 177:0.27000001 178:0.14 179:0 180:0 181:0.41 182:0.14 183:0.95999998 184:0.41 185:0.14 186:0.81999999 187:0 188:0.41 189:0.55000001 190:1.23 191:0.55000001 192:0.27000001 193:0.68000001 194:0.27000001 195:0.81999999 196:0.81999999 197:0.68000001 198:0.81999999 199:0 200:0.14 201:0 202:0 203:0.14 204:0.27000001 205:0 206:0.27000001 207:0 208:0 209:0 210:0.41 211:0 212:0 213:0 214:0.27000001 215:0.14 216:0.14 217:0 218:0 219:0 220:0.14 221:0.41 222:0.14 223:0.27000001 224:0.14 225:0 226:0.27000001 227:0.14 228:0.27000001 229:0.14 230:0.68000001 231:0.14 232:0.81999999 233:0 234:0.27000001 235:0.27000001 236:0.68000001 237:0.41 238:0.27000001 239:0 240:0 241:0.27000001 242:0.14 243:0.41 244:0.41 245:0 246:0.41 247:0 248:0.14 249:0.14 250:0.14 251:0 252:0.55000001 253:0 254:0.14 255:0.27000001 256:0.27000001 257:0.14 258:0.14 259:0 260:0.14 261:0.27000001 262:0 263:0 264:0.27000001 265:0.14 266:0.41 267:0 268:0.27000001 269:0 270:0.68000001 271:0 272:0.27000001 273:0.14 274:0.27000001 275:0.27000001 276:0.27000001 277:0.14 278:0.27000001 279:0 280:0.14 281:0.27000001 282:0.14 283:0.14 284:0.41 285:0.14 286:0.14 287:0 288:0.41 289:0.27000001 290:0.95999998 291:0 292:0 293:0.14 294:0.41 295:0.14 296:1.1 297:0.68000001 298:0.27000001 299:0.14 300:0.41 301:0.68000001 302:0.41 303:0.68000001 304:0.41 305:0 306:1.92 307:0 308:0.55000001 309:0.27000001 310:0.95999998 311:0.41 312:0.68000001 313:0.27000001 314:0.41 315:0.81999999 316:2.3299999 317:1.37 318:0.55000001 319:0 320:0.27000001 321:0.27000001 322:0.14 323:0.41 324:0.27000001 325:0 326:0.27000001 327:0.14 328:0.81999999 329:0.27000001 330:0.41 331:0 332:0.55000001 333:0.41 334:0.14 335:0.55000001 336:1.23 337:0.95999998 338:0.95999998 339:0.14 340:0 341:0.41 342:0.14 343:0.41 344:0.55000001 345:0 346:0.41 347:0 348:0.41 349:0.14 350:0.27000001 351:0 352:0.27000001 353:0.41 354:0.27000001 355:0.41 356:1.1 357:0.81999999 358:0.27000001 359:0 360:0.27000001 361:0.14 362:0 363:0 364:0 365:0 366:0 367:0 368:0 369:0 370:0 371:0 372:0 373:0 374:0.14 375:0.14 376:0.14 377:0 378:0 379:0 380:0 381:0.27000001 382:0 383:0 384:0 385:0 386:0.14 387:0.14 388:0 389:0 390:0.41 391:0 392:0 393:0.14 394:0.14 395:0.27000001 396:0.14 397:0.14 398:0.27000001 399:0 400:0 #
8.0721516885091055826251249527559 1:0 2:0.61000001 3:0.2 4:0.2 5:0.40000001 6:0.61000001 7:0 8:0 9:0.40000001 10:0.40000001 11:0 12:0.40000001 13:0 14:0.2 15:0.40000001 16:1.01 17:0.61000001 18:0.2 19:0 20:0 21:0 22:0 23:0.61000001 24:0.40000001 25:0.40000001 26:0.40000001 27:0 28:0.2 29:0.2 30:0.40000001 31:0 32:0 33:0.2 34:0.2 35:0.2 36:0.2 37:0 38:0.2 39:0 40:0 41:0.2 42:0 43:0.40000001 44:0.81 45:0 46:0.40000001 47:0 48:0.61000001 49:0.2 50:0.40000001 51:0 52:0 53:0.2 54:0.40000001 55:0.2 56:0.2 57:0.40000001 58:0.81 59:0 60:0 61:0.40000001 62:0.40000001 63:0 64:0.2 65:0.2 66:0.40000001 67:0.2 68:0.61000001 69:0 70:0.40000001 71:0.2 72:0 73:0.40000001 74:0 75:0.40000001 76:0.2 77:0 78:0.61000001 79:0 80:0.40000001 81:0.2 82:0 83:0 84:0 85:0.2 86:0 87:0.2 88:0.2 89:0.2 90:0.2 91:0 92:0.2 93:0 94:0.40000001 95:0.40000001 96:0.2 97:0 98:0 99:0.2 100:0.40000001 101:0.2 102:0 103:0.40000001 104:0.2 105:0.40000001 106:1.8200001 107:0 108:0.2 109:0.2 110:0.2 111:0.2 112:0.61000001 113:0 114:0.2 115:0.2 116:0.81 117:1.01 118:0.61000001 119:0.2 120:0.2 121:0 122:0.2 123:0 124:0 125:0 126:0 127:0 128:0.2 129:0 130:0.2 131:0 132:0.2 133:0 134:0.2 135:0 136:0.2 137:0.2 138:0 139:0 140:0.2 141:0.40000001 142:0 143:0.2 144:0.2 145:0.2 146:0.2 147:0 148:0 149:0.40000001 150:1.41 151:0 152:0.2 153:0.2 154:0.2 155:0 156:0.2 157:0.40000001 158:0 159:0 160:0.2 161:0.61000001 162:0.2 163:0 164:0.61000001 165:0.2 166:0.2 167:0 168:0.2 169:0.2 170:0.81 171:0 172:0 173:0 174:0.40000001 175:0.40000001 176:0.40000001 177:0 178:0 179:0 180:0.2 181:0.61000001 182:0.81 183:0.40000001 184:0.81 185:0.2 186:0 187:0.40000001 188:0 189:0.81 190:2.4200001 191:0.2 192:0.81 193:0.61000001 194:0.40000001 195:1.01 196:1.01 197:0.40000001 198:0.40000001 199:0 200:0.2 201:0 202:0 203:0.2 204:0.2 205:0 206:0.2 207:0 208:0 209:0.61000001 210:0.40000001 211:0 212:0 213:0 214:0.2 215:0 216:0.2 217:0 218:0 219:0 220:0 221:0.40000001 222:0.2 223:1.01 224:0.40000001 225:0 226:0.81 227:0 228:0.2 229:0.2 230:0 231:0.2 232:1.01 233:0.2 234:0 235:0 236:0.61000001 237:0.2 238:0.2 239:0 240:0 241:0.2 242:0 243:0.2 244:0.2 245:0.2 246:0.2 247:0 248:0 249:0 250:0.40000001 251:0 252:0.40000001 253:0.40000001 254:0.2 255:0.2 256:0.81 257:0 258:0.2 259:0 260:0 261:0.40000001 262:0 263:0 264:0.2 265:0 266:0.40000001 267:0 268:0.40000001 269:0.40000001 270:0.81 271:0.2 272:0.2 273:0 274:0.40000001 275:0.2 276:0.61000001 277:0.40000001 278:0.40000001 279:0 280:0 281:0.2 282:0 283:0.61000001 284:0.2 285:0.40000001 286:0.40000001 287:0.2 288:0.2 289:0.2 290:0.40000001 291:0.2 292:0.2 293:0 294:0.61000001 295:1.21 296:0.2 297:0.2 298:0.2 299:0 300:0 301:0.61000001 302:0.61000001 303:0.40000001 304:0 305:0 306:1.41 307:0.2 308:0.61000001 309:0.2 310:1.62 311:0 312:0.61000001 313:0.81 314:0 315:0 316:1.8200001 317:0.40000001 318:1.21 319:0.2 320:0.40000001 321:0.2 322:0.40000001 323:0.2 324:0.2 325:0.2 326:0 327:0 328:0.40000001 329:0 330:0.2 331:0.40000001 332:0.81 333:0.61000001 334:0.2 335:0 336:1.01 337:0.61000001 338:0 339:0 340:0 341:0.40000001 342:0.2 343:0.2 344:0 345:0 346:0 347:0.2 348:0.40000001 349:0.2 350:0.40000001 351:0 352:0 353:0 354:0.40000001 355:0.61000001 356:1.41 357:0.2 358:0.40000001 359:0.2 360:0.2 361:0.40000001 362:0 363:0 364:0 365:0 366:0 367:0 368:0 369:0 370:0 371:0.2 372:0 373:0 374:0 375:0.2 376:0 377:0 378:0 379:0 380:0 381:0.2 382:0 383:0.2 384:0.2 385:0 386:0.2 387:0.2 388:0 389:0 390:0.40000001 391:0 392:0 393:0 394:0.40000001 395:0.2 396:0 397:0.40000001 398:0 399:0 400:0.40000001 #
