SVM-light Version V6.02
0 # kernel type
3 # kernel parameter -d 
1 # kernel parameter -g 
1 # kernel parameter -s 
1 # kernel parameter -r 
empty# kernel parameter -u 
400 # highest feature index 
159 # number of training documents 
35 # number of support vectors plus 1 
1.018763 # threshold b, each following line is a SV (starting with alpha*y)
-0.00084706867713135042263772334081295 1:0.47999999 2:0.47999999 3:0 4:0.23999999 5:0.47999999 6:0.23999999 7:0.47999999 8:0.72000003 9:0.47999999 10:0.23999999 11:0.23999999 12:0.23999999 13:0 14:0.23999999 15:0 16:0.47999999 17:0.47999999 18:0.72000003 19:0 20:0 21:0 22:0.23999999 23:0 24:0.72000003 25:0 26:0.23999999 27:0.23999999 28:0.47999999 29:0.47999999 30:0 31:0.23999999 32:0.23999999 33:0.23999999 34:0.47999999 35:0.23999999 36:0.23999999 37:0 38:0.47999999 39:0 40:0 41:0.47999999 42:0 43:0.23999999 44:0.47999999 45:0.23999999 46:0 47:0 48:0.23999999 49:0.97000003 50:0.72000003 51:0 52:0 53:0.23999999 54:0.47999999 55:0.47999999 56:0.47999999 57:0 58:0.23999999 59:0 60:0 61:0.72000003 62:0.47999999 63:0.72000003 64:1.45 65:0.23999999 66:0.72000003 67:0.23999999 68:0.72000003 69:0 70:0.97000003 71:0.23999999 72:0.47999999 73:0.47999999 74:0 75:0.72000003 76:0.23999999 77:0.23999999 78:0.47999999 79:0.23999999 80:0 81:0.23999999 82:0.23999999 83:0.23999999 84:0.47999999 85:0.23999999 86:0 87:0 88:0 89:0.23999999 90:0.97000003 91:0 92:0.23999999 93:0.23999999 94:0 95:0.23999999 96:0.23999999 97:0.23999999 98:0 99:0.23999999 100:0.23999999 101:0.23999999 102:0.47999999 103:0.23999999 104:0.23999999 105:0.23999999 106:0.23999999 107:0 108:0 109:0.23999999 110:0.47999999 111:0.23999999 112:0.47999999 113:0 114:0.47999999 115:0 116:0 117:0 118:0.72000003 119:0 120:0.47999999 121:0.23999999 122:0 123:0 124:0 125:0.23999999 126:0 127:0 128:0 129:0.23999999 130:0 131:0.47999999 132:0 133:0 134:0 135:0 136:0 137:0 138:0 139:0.23999999 140:0.47999999 141:0 142:0 143:0.23999999 144:0.72000003 145:0.23999999 146:0.47999999 147:0 148:0.47999999 149:0 150:0.47999999 151:0.23999999 152:0.23999999 153:0.23999999 154:0.47999999 155:0.23999999 156:0 157:0.97000003 158:0.23999999 159:0 160:0 161:0.23999999 162:0.47999999 163:0.47999999 164:0.47999999 165:0.23999999 166:0.47999999 167:0.23999999 168:0.23999999 169:0.47999999 170:0.97000003 171:0 172:0.47999999 173:0.23999999 174:0.23999999 175:0.72000003 176:0 177:0.23999999 178:0.97000003 179:0 180:0.23999999 181:0.72000003 182:0.23999999 183:0.47999999 184:0.47999999 185:0.72000003 186:0.47999999 187:0.23999999 188:0.23999999 189:0.47999999 190:1.45 191:0.23999999 192:0.97000003 193:0.47999999 194:0.47999999 195:0.47999999 196:0.72000003 197:0.23999999 198:0.47999999 199:0 200:0 201:0.72000003 202:0 203:0 204:0.23999999 205:0.23999999 206:0 207:0 208:0.23999999 209:0.47999999 210:0.23999999 211:0 212:0 213:0 214:0 215:0 216:0.72000003 217:0 218:0.23999999 219:0 220:0 221:0.23999999 222:0.23999999 223:0.23999999 224:0.23999999 225:0 226:0.72000003 227:0.23999999 228:0 229:0.23999999 230:0.72000003 231:0 232:0 233:0.23999999 234:0.23999999 235:0.23999999 236:0 237:0.23999999 238:0 239:0 240:0.23999999 241:0.47999999 242:0.23999999 243:0 244:0.72000003 245:0 246:0.23999999 247:0 248:0 249:0.23999999 250:0.23999999 251:0.23999999 252:0 253:0.23999999 254:0 255:0 256:0.47999999 257:0.72000003 258:0 259:0 260:0 261:0.47999999 262:0.23999999 263:0 264:0.72000003 265:0.23999999 266:0.23999999 267:0 268:0.23999999 269:0.72000003 270:0.23999999 271:0 272:0.23999999 273:0 274:0 275:0 276:0.23999999 277:0 278:0 279:0 280:0 281:0.23999999 282:0.47999999 283:0 284:0.23999999 285:0.47999999 286:0.23999999 287:0 288:0.23999999 289:0.97000003 290:0.47999999 291:0.47999999 292:0.23999999 293:0.23999999 294:0 295:0.72000003 296:0 297:0.23999999 298:0.23999999 299:0 300:0.23999999 301:0.23999999 302:0 303:0.72000003 304:0.72000003 305:0.23999999 306:0 307:0 308:0 309:0.23999999 310:0.47999999 311:0.23999999 312:0 313:0.23999999 314:0.23999999 315:0.23999999 316:0.72000003 317:0.23999999 318:0.23999999 319:0.23999999 320:0.23999999 321:0 322:0.47999999 323:0.72000003 324:0.23999999 325:0 326:0.23999999 327:0 328:0.23999999 329:0.23999999 330:0.47999999 331:0 332:0.23999999 333:0.47999999 334:0.23999999 335:0.72000003 336:0.23999999 337:0 338:0.23999999 339:0 340:0.23999999 341:0.23999999 342:0.23999999 343:0.47999999 344:0.72000003 345:0.23999999 346:0.23999999 347:0 348:0.72000003 349:0.23999999 350:0.23999999 351:0 352:0 353:0 354:0 355:0.23999999 356:0.47999999 357:0.97000003 358:0.97000003 359:0.23999999 360:0 361:0 362:0 363:0.47999999 364:0 365:0 366:0 367:0 368:0 369:0.47999999 370:0 371:0 372:0 373:0.23999999 374:0 375:0 376:0 377:0 378:0 379:0 380:0 381:0.23999999 382:0 383:0.23999999 384:0.23999999 385:0 386:0 387:0.23999999 388:0.47999999 389:0 390:0.23999999 391:0 392:0 393:0 394:0 395:0.47999999 396:0 397:0.23999999 398:0 399:0 400:0 #
-0.00096332720106768326973067928520322 1:0.49000001 2:0.99000001 3:0.25 4:0 5:0.49000001 6:0.25 7:0.25 8:0.74000001 9:0.49000001 10:0.25 11:0.25 12:0 13:0 14:0.74000001 15:0 16:0 17:0 18:0.25 19:0 20:0 21:0.25 22:0 23:0.25 24:0.25 25:0 26:0.49000001 27:0 28:0.25 29:0.49000001 30:0.49000001 31:0 32:0.25 33:0 34:0.25 35:0.49000001 36:0 37:0 38:0 39:0 40:0 41:0.99000001 42:0 43:0.25 44:0.25 45:0.74000001 46:0.25 47:0 48:0.25 49:0.25 50:0.49000001 51:0 52:0 53:0.25 54:0.25 55:0 56:0 57:0.25 58:0 59:0 60:0 61:0.25 62:0 63:0.25 64:0.25 65:0.25 66:0.49000001 67:0 68:0 69:0.49000001 70:0 71:0.25 72:0 73:0.74000001 74:0 75:0.25 76:0.99000001 77:0.25 78:0.25 79:0 80:0 81:0.49000001 82:0 83:0 84:0.25 85:0.49000001 86:0.25 87:0 88:0 89:0.74000001 90:0.74000001 91:0.25 92:0 93:0.25 94:0.49000001 95:0.25 96:0.49000001 97:0.25 98:0.25 99:0 100:0 101:0.49000001 102:0.25 103:0.25 104:0 105:0.49000001 106:0 107:0 108:0 109:0.49000001 110:0 111:0.25 112:0.49000001 113:0.49000001 114:0 115:0.25 116:0.25 117:0 118:0.25 119:0 120:0 121:0 122:0 123:0 124:0.49000001 125:0 126:0 127:0.25 128:0 129:0 130:0.25 131:0 132:0 133:0 134:0 135:0.74000001 136:0 137:0 138:0.25 139:0 140:0.25 141:0 142:0.25 143:0.49000001 144:0.25 145:0.74000001 146:0 147:0 148:0.74000001 149:0.25 150:0.74000001 151:0 152:0.25 153:0.49000001 154:0.25 155:0.49000001 156:0.99000001 157:0 158:0.49000001 159:0 160:0 161:0.25 162:0.25 163:0.49000001 164:0.25 165:0 166:0 167:0.49000001 168:0.74000001 169:0.74000001 170:0 171:0 172:0.25 173:0.49000001 174:0.25 175:0.25 176:0 177:0.74000001 178:0.49000001 179:0 180:0.25 181:0 182:0.25 183:0.74000001 184:0.49000001 185:0.74000001 186:0.49000001 187:0 188:0.25 189:0.74000001 190:1.23 191:0.25 192:0.49000001 193:1.48 194:0.25 195:0.74000001 196:0.25 197:0.25 198:0.49000001 199:0 200:0 201:0 202:0 203:0.25 204:0 205:0 206:0 207:0 208:0.25 209:0 210:0 211:0.25 212:0.49000001 213:0.25 214:0.49000001 215:0.25 216:0.74000001 217:0 218:0.25 219:0 220:0.25 221:0 222:0 223:0 224:0.25 225:0 226:0 227:0 228:0.25 229:0.49000001 230:0.25 231:0.25 232:0.74000001 233:0.49000001 234:0.74000001 235:0.25 236:0.25 237:0 238:0.99000001 239:0 240:0.25 241:0.49000001 242:0.25 243:0 244:0 245:0 246:0.49000001 247:0.49000001 248:0.49000001 249:0.49000001 250:1.48 251:0 252:0.25 253:1.48 254:0.49000001 255:0.25 256:0.99000001 257:0.49000001 258:0 259:0 260:0 261:0 262:0.25 263:0.25 264:0.74000001 265:0.49000001 266:0 267:0.25 268:0.49000001 269:0 270:0.74000001 271:0.49000001 272:0.25 273:0.25 274:0.49000001 275:0 276:0.49000001 277:0 278:0.25 279:0.25 280:0.25 281:0.49000001 282:0 283:0.49000001 284:0 285:0.25 286:0.25 287:0 288:0.25 289:0 290:0.49000001 291:0.25 292:0.74000001 293:0 294:0.49000001 295:0.74000001 296:0.49000001 297:0.49000001 298:0.25 299:0 300:0 301:0.74000001 302:0.25 303:0.25 304:0.25 305:0.25 306:0.49000001 307:0 308:0.74000001 309:0 310:0 311:0 312:0.49000001 313:0.49000001 314:0.25 315:0.49000001 316:2.22 317:0.49000001 318:0.74000001 319:0.25 320:0.25 321:0 322:0.25 323:0 324:0.25 325:0.25 326:0.25 327:0.25 328:0.49000001 329:0 330:0.49000001 331:0.49000001 332:0 333:0.25 334:0 335:0 336:0.25 337:0.99000001 338:0 339:0 340:0.25 341:0.49000001 342:0.49000001 343:0 344:0.49000001 345:0 346:0.25 347:0.25 348:0.49000001 349:0 350:1.23 351:0.25 352:0 353:0.25 354:0.49000001 355:0.25 356:0.25 357:0.25 358:0 359:0 360:0 361:0 362:0 363:0 364:0 365:0 366:0 367:0 368:0 369:0 370:0.25 371:0 372:0 373:0 374:0 375:0 376:0 377:0 378:0.25 379:0 380:0 381:0 382:0 383:0 384:0.25 385:0 386:0 387:0 388:0 389:0.25 390:0 391:0 392:0.49000001 393:0.49000001 394:0 395:0 396:0 397:0 398:0.25 399:0 400:0.25 #
-0.0079694796023344581514802342780968 1:0.79000002 2:0.31 3:0 4:0 5:0.47 6:0.31 7:0.16 8:0.31 9:0.16 10:0.79000002 11:0 12:0.47 13:0 14:0.47 15:0.31 16:0.63 17:0.16 18:0.31 19:0 20:0.31 21:0.16 22:0 23:0 24:0.47 25:0 26:0.16 27:0 28:0 29:0.16 30:0.16 31:0.16 32:0.16 33:0 34:0.31 35:0.31 36:0.16 37:0 38:0.47 39:0.16 40:0 41:0.16 42:0.16 43:0.16 44:0 45:0 46:0.47 47:0.31 48:0 49:0.47 50:0.63 51:0 52:0 53:0.16 54:0.47 55:0 56:0.79000002 57:0.47 58:0.47 59:0 60:0.31 61:0.16 62:0.16 63:0.16 64:0.31 65:0.31 66:0.31 67:0 68:0.47 69:0.63 70:0.63 71:0 72:0.63 73:0 74:0.16 75:0.16 76:0.63 77:0.31 78:0.47 79:0 80:0.31 81:0.16 82:0.16 83:0.16 84:0 85:0.47 86:0 87:0 88:0.16 89:0.31 90:0.31 91:0 92:0 93:0 94:0.31 95:0.16 96:0.47 97:0 98:0.31 99:0 100:0 101:0.16 102:0.16 103:0.47 104:0.16 105:0.16 106:0 107:0 108:0 109:0.16 110:0.63 111:0.31 112:0.16 113:0.16 114:0.31 115:0.16 116:0.63 117:0.16 118:0.31 119:0 120:0.16 121:0 122:0 123:0.31 124:0 125:0 126:0 127:0 128:0.63 129:0 130:0.16 131:0 132:0 133:0.16 134:0.16 135:0 136:0 137:0 138:0 139:0.16 140:0.47 141:0.47 142:0.16 143:0.16 144:0.94 145:0.16 146:0.31 147:0 148:0.63 149:0 150:0.94 151:0 152:0.16 153:0.31 154:0.79000002 155:0.31 156:0.31 157:0.31 158:0.31 159:0 160:0.16 161:0.79000002 162:0 163:0.31 164:0 165:0 166:0.16 167:0.16 168:0.31 169:0 170:0.79000002 171:0 172:0.31 173:0.16 174:0.47 175:0.16 176:0.16 177:0.47 178:0.63 179:0 180:0 181:1.42 182:0.31 183:0.47 184:0.16 185:0.79000002 186:0.63 187:0.16 188:0.31 189:0.16 190:0.94 191:0.31 192:0.79000002 193:0.47 194:0.63 195:0.63 196:1.26 197:0.47 198:0.94 199:0 200:0 201:0.16 202:0 203:0.16 204:0.31 205:0 206:0.16 207:0.16 208:0 209:0.16 210:0.16 211:0 212:0.47 213:0.31 214:0.16 215:0 216:0.16 217:0 218:0.16 219:0 220:0 221:0.31 222:0.16 223:0.47 224:0.31 225:0 226:0.16 227:0.16 228:0.16 229:0.79000002 230:0.63 231:0 232:0.16 233:0 234:0.47 235:0.16 236:0.79000002 237:0.16 238:1.1 239:0 240:0 241:0.31 242:0 243:0.47 244:0.31 245:0 246:0.16 247:0 248:0.16 249:0 250:0.31 251:0.16 252:0.16 253:0 254:0.47 255:0.16 256:0.63 257:0 258:0 259:0 260:0.16 261:0 262:0.31 263:0.63 264:0.47 265:0.16 266:0.47 267:0.31 268:0.94 269:0.16 270:0.47 271:0.16 272:0.31 273:0 274:0.31 275:0.47 276:0.94 277:0.63 278:0.16 279:0 280:0.16 281:0.16 282:0.31 283:0 284:0.16 285:0 286:0.16 287:0.16 288:0.31 289:0.47 290:1.1 291:0.16 292:0.16 293:0 294:0.16 295:0 296:0.63 297:0.16 298:0 299:0 300:0 301:0.16 302:0 303:0.63 304:0.63 305:0.16 306:0.47 307:0.16 308:1.1 309:0.47 310:1.5700001 311:0.63 312:0.79000002 313:0.63 314:0.63 315:0.63 316:1.26 317:0.47 318:0.31 319:0 320:0 321:0.31 322:0.31 323:0.31 324:0.79000002 325:0.16 326:0.16 327:0 328:0.16 329:0.16 330:0.31 331:0.16 332:0.47 333:0.47 334:0.47 335:0.16 336:0.47 337:0.79000002 338:0 339:0 340:0.31 341:0 342:0.16 343:0.16 344:0.63 345:0.16 346:0 347:0.31 348:0.31 349:0.63 350:0 351:0.16 352:0.47 353:0.47 354:0.31 355:0 356:0.79000002 357:1.26 358:0.31 359:0 360:0.16 361:0.16 362:0 363:0 364:0 365:0 366:0 367:0 368:0 369:0 370:0 371:0 372:0.16 373:0 374:0 375:0 376:0 377:0 378:0 379:0 380:0 381:0.16 382:0.16 383:0 384:0.16 385:0 386:0.16 387:0 388:0.47 389:0 390:0.31 391:0.16 392:0.16 393:0.16 394:0 395:0.31 396:0 397:0.16 398:0.16 399:0 400:0 #
-0.0028471692441818610176673676193104 1:0.41999999 2:0.41999999 3:0.20999999 4:0.63999999 5:0 6:0.20999999 7:0.20999999 8:0.63999999 9:0.20999999 10:1.0599999 11:0.63999999 12:0 13:0.85000002 14:0.20999999 15:0.63999999 16:0.85000002 17:0.20999999 18:0.20999999 19:0.20999999 20:0 21:0 22:0 23:0 24:0.20999999 25:0 26:0.41999999 27:0 28:0.20999999 29:0.20999999 30:0.63999999 31:0 32:0 33:0 34:0.41999999 35:0.63999999 36:0.41999999 37:0 38:0 39:0 40:0 41:0.41999999 42:0.20999999 43:0.63999999 44:0.41999999 45:0 46:0.41999999 47:0 48:0.20999999 49:0.41999999 50:0.20999999 51:0.20999999 52:0 53:0.20999999 54:0.41999999 55:0.41999999 56:0.20999999 57:0.20999999 58:0.63999999 59:0 60:0.20999999 61:0.41999999 62:0 63:0.41999999 64:0.85000002 65:0.20999999 66:0.63999999 67:0.20999999 68:0 69:0.20999999 70:0.85000002 71:0.41999999 72:0.20999999 73:0.20999999 74:0 75:0.85000002 76:0.20999999 77:0 78:0.20999999 79:0 80:0.41999999 81:0.41999999 82:0 83:0.20999999 84:0.20999999 85:0.41999999 86:0.20999999 87:0.20999999 88:0 89:0.41999999 90:0.20999999 91:0.20999999 92:0 93:0 94:0.20999999 95:0 96:0.20999999 97:0 98:0 99:0 100:0 101:0.41999999 102:0.20999999 103:0.41999999 104:0 105:0.41999999 106:0 107:0 108:0 109:0.20999999 110:0.41999999 111:0.41999999 112:0.20999999 113:0.41999999 114:0.20999999 115:0.20999999 116:0.41999999 117:0.20999999 118:0.41999999 119:0 120:0.20999999 121:0.20999999 122:0 123:0 124:0 125:0.20999999 126:0 127:0 128:0.20999999 129:0 130:0.63999999 131:0 132:0 133:0.41999999 134:0 135:0.20999999 136:0 137:0 138:0 139:0 140:0.20999999 141:0.41999999 142:0.20999999 143:0.41999999 144:0.20999999 145:0.20999999 146:0.20999999 147:0 148:0.20999999 149:0.20999999 150:0 151:0 152:0.20999999 153:0.41999999 154:0 155:0.20999999 156:0.41999999 157:0 158:0.20999999 159:0 160:0 161:0.41999999 162:0.20999999 163:0.41999999 164:0 165:0 166:0.41999999 167:0.41999999 168:0 169:0.20999999 170:0 171:0.41999999 172:0.41999999 173:0.41999999 174:0.20999999 175:0.63999999 176:0.20999999 177:0 178:0 179:0 180:0 181:0.20999999 182:0.41999999 183:0.85000002 184:0.63999999 185:0.20999999 186:0 187:0.20999999 188:0.41999999 189:0.85000002 190:1.0599999 191:0.41999999 192:0.63999999 193:0.41999999 194:0.20999999 195:1.49 196:1.0599999 197:0.20999999 198:0.63999999 199:0 200:0.20999999 201:0 202:0.20999999 203:0.20999999 204:0.41999999 205:0.20999999 206:0 207:0 208:0 209:0.41999999 210:0.41999999 211:0.20999999 212:0 213:0.20999999 214:0.41999999 215:0.20999999 216:0.85000002 217:0.20999999 218:0 219:0 220:0 221:0.41999999 222:0.20999999 223:0 224:0.41999999 225:0.20999999 226:0.20999999 227:0.63999999 228:0 229:0.20999999 230:0.20999999 231:0 232:0 233:0.20999999 234:0 235:0.41999999 236:0.20999999 237:0 238:0.20999999 239:0.20999999 240:0.20999999 241:0.85000002 242:0 243:0.63999999 244:0.20999999 245:0 246:0.63999999 247:0.20999999 248:0.20999999 249:0 250:0.20999999 251:0.20999999 252:0.41999999 253:1.49 254:0.63999999 255:0.20999999 256:0.41999999 257:0.63999999 258:0.20999999 259:0 260:0 261:0.41999999 262:0 263:0 264:0.41999999 265:0.20999999 266:0 267:0 268:0.41999999 269:0.20999999 270:0.63999999 271:0 272:0 273:0.41999999 274:0.41999999 275:0.41999999 276:0.63999999 277:0 278:0.41999999 279:0.20999999 280:0.20999999 281:0.41999999 282:0.20999999 283:0.41999999 284:1.0599999 285:0.20999999 286:0.20999999 287:0 288:0 289:0.20999999 290:0.41999999 291:0.20999999 292:1.0599999 293:0.20999999 294:0.63999999 295:0.20999999 296:1.0599999 297:0.41999999 298:0.41999999 299:0 300:0.41999999 301:0.41999999 302:0.41999999 303:0.20999999 304:0.41999999 305:0.20999999 306:0.63999999 307:0 308:0.85000002 309:0.20999999 310:1.49 311:0.41999999 312:0.41999999 313:0.85000002 314:0 315:0.20999999 316:0.85000002 317:0.20999999 318:0.63999999 319:0.20999999 320:0.20999999 321:0.41999999 322:0 323:0 324:0.20999999 325:0 326:0 327:0 328:0 329:0 330:0.41999999 331:0.20999999 332:0 333:0 334:0.41999999 335:0.20999999 336:0.20999999 337:0.20999999 338:0.41999999 339:0 340:0 341:0.85000002 342:0 343:0.41999999 344:0 345:0 346:0.41999999 347:0 348:0 349:0.20999999 350:0.85000002 351:0 352:0.20999999 353:0.20999999 354:0.41999999 355:0.20999999 356:0.41999999 357:0.20999999 358:0.41999999 359:0.20999999 360:0.20999999 361:0.41999999 362:0 363:0 364:0 365:0 366:0 367:0 368:0 369:0 370:0.20999999 371:0 372:0.20999999 373:0 374:0 375:0.20999999 376:0 377:0 378:0 379:0 380:0 381:0.20999999 382:0.41999999 383:0 384:0 385:0.20999999 386:0.20999999 387:0 388:0.20999999 389:0 390:0.20999999 391:0 392:0 393:0.20999999 394:0.20999999 395:0.20999999 396:0.20999999 397:0 398:0.20999999 399:0 400:0 #
0.073364150535798630659023444877676 1:0.2 2:0.2 3:0.40000001 4:0.81 5:0.2 6:0.40000001 7:0 8:0.40000001 9:0.2 10:0.40000001 11:0 12:0.2 13:0 14:0 15:0.2 16:0.40000001 17:0.2 18:0.2 19:0.2 20:0 21:0 22:0 23:0 24:0.40000001 25:0 26:0.2 27:0 28:0 29:0.40000001 30:0.81 31:0.2 32:0.2 33:0 34:0.61000001 35:0.40000001 36:0.2 37:0 38:0.2 39:0 40:0 41:0 42:0 43:0.2 44:1.01 45:0.2 46:0.40000001 47:0.2 48:0.2 49:0.2 50:0.40000001 51:0 52:0 53:0.40000001 54:0.2 55:0.40000001 56:0.40000001 57:0 58:0.2 59:0 60:0.2 61:0.2 62:0 63:0.61000001 64:1.21 65:0.2 66:0.40000001 67:0 68:0.40000001 69:0 70:1.8200001 71:0 72:0 73:0.40000001 74:0.61000001 75:0.81 76:0.2 77:0.2 78:0.2 79:0 80:0.40000001 81:0.2 82:0.40000001 83:0 84:0.2 85:0.40000001 86:0.2 87:0.2 88:0 89:0.40000001 90:0.40000001 91:0.2 92:0 93:0.2 94:0 95:0.40000001 96:0.40000001 97:0.2 98:0 99:0 100:0 101:0 102:0.2 103:0.40000001 104:0.40000001 105:0.81 106:1.42 107:0.40000001 108:0.2 109:0.2 110:0.40000001 111:0.81 112:0.2 113:0.2 114:0.40000001 115:0.2 116:0.40000001 117:0.40000001 118:0 119:0 120:0.2 121:0 122:0 123:0 124:0 125:0 126:0.2 127:0 128:0.2 129:0.2 130:0.2 131:0 132:0 133:0 134:0.61000001 135:0.2 136:0.61000001 137:0 138:0 139:0.2 140:0.40000001 141:0.40000001 142:0.61000001 143:0 144:0.61000001 145:0.2 146:0.2 147:0.2 148:0.2 149:0.40000001 150:0.2 151:0.2 152:0.2 153:0.40000001 154:0 155:0.61000001 156:0.40000001 157:0 158:0 159:0 160:0.2 161:0.40000001 162:0.2 163:0.2 164:0.2 165:0.2 166:0.2 167:0 168:0 169:0.2 170:0.2 171:0.2 172:0.2 173:0 174:0.40000001 175:0.61000001 176:0.2 177:0.2 178:0.40000001 179:0 180:0.40000001 181:0.61000001 182:0.2 183:0.40000001 184:0.81 185:0.81 186:0.40000001 187:0.61000001 188:1.01 189:0.40000001 190:1.42 191:0.40000001 192:0.61000001 193:1.01 194:0.2 195:0 196:0.81 197:0.61000001 198:0 199:0 200:0.2 201:0.2 202:0.2 203:0 204:0.40000001 205:0 206:0.40000001 207:0 208:0 209:0.2 210:0.2 211:0.2 212:0.2 213:0.2 214:0 215:0 216:0.81 217:0 218:0.2 219:0 220:0 221:0 222:0.2 223:0 224:0.2 225:0.2 226:0.61000001 227:0.40000001 228:0 229:0.61000001 230:0 231:0 232:0 233:0 234:0.40000001 235:0.81 236:0 237:0 238:0.2 239:0 240:0 241:0.2 242:0 243:0.40000001 244:0.2 245:0.2 246:0.81 247:0.40000001 248:0 249:0 250:0.81 251:0.2 252:0.2 253:1.42 254:0.40000001 255:0.2 256:0.61000001 257:0 258:0.40000001 259:0 260:0 261:0.40000001 262:0 263:0.61000001 264:0.40000001 265:0 266:0.2 267:0 268:0.61000001 269:0 270:1.01 271:0.2 272:0 273:0.40000001 274:0 275:0.40000001 276:0.2 277:0 278:0 279:0 280:0.61000001 281:0.61000001 282:0.40000001 283:0.61000001 284:0.2 285:0.40000001 286:0.2 287:0 288:0.2 289:0.40000001 290:0.61000001 291:0 292:0.61000001 293:0.2 294:0.2 295:0 296:0.61000001 297:0.2 298:0.2 299:0 300:0.40000001 301:0.61000001 302:0.40000001 303:0.61000001 304:0.40000001 305:0 306:0.61000001 307:0 308:0.61000001 309:0.2 310:0.81 311:0 312:0.61000001 313:0.81 314:0.2 315:0.61000001 316:1.01 317:0.61000001 318:0.61000001 319:0 320:0.40000001 321:0.2 322:0.40000001 323:0.2 324:0.2 325:0 326:0.2 327:0.2 328:0 329:0 330:0.40000001 331:0 332:0.2 333:0.2 334:0.2 335:0 336:0.40000001 337:0 338:0.40000001 339:0.2 340:0 341:0 342:0 343:0 344:0.2 345:0 346:0 347:0 348:0.2 349:0.2 350:0.2 351:0.2 352:0.2 353:0.61000001 354:0.2 355:0 356:0.40000001 357:0.40000001 358:0.2 359:0 360:0.40000001 361:0 362:0 363:0 364:0 365:0 366:0 367:0 368:0.2 369:0 370:0 371:0 372:0 373:0 374:0.2 375:0 376:0.2 377:0 378:0 379:0 380:0.2 381:0.40000001 382:0.2 383:0 384:0 385:0 386:0.2 387:0.2 388:0.61000001 389:0.2 390:0.2 391:0.2 392:0 393:0 394:0.2 395:0.2 396:0.81 397:0.40000001 398:0 399:0.2 400:0 #
-0.0021308425665638557056080770735207 1:0 2:0 3:0.27000001 4:0.27000001 5:0 6:0 7:0 8:1.09 9:0.81999999 10:0.55000001 11:0 12:0.81999999 13:0 14:0 15:0 16:0.27000001 17:0.27000001 18:0 19:0 20:0 21:0 22:0.27000001 23:0.27000001 24:0.55000001 25:0 26:0.27000001 27:0 28:0 29:0.81999999 30:0.81999999 31:0.27000001 32:0 33:0 34:0.27000001 35:0.27000001 36:0 37:0 38:0.27000001 39:0 40:0 41:0.27000001 42:0 43:0.81999999 44:0.55000001 45:0.27000001 46:0 47:0 48:0 49:0.81999999 50:0.27000001 51:0 52:0.81999999 53:0 54:0.55000001 55:0 56:0.27000001 57:0.27000001 58:0 59:0 60:0 61:0 62:0.27000001 63:0 64:0.27000001 65:0.55000001 66:0.27000001 67:0.27000001 68:0.81999999 69:0.55000001 70:0.81999999 71:0.27000001 72:0.81999999 73:0 74:0 75:1.09 76:0.27000001 77:0.81999999 78:0 79:0 80:0.27000001 81:0.27000001 82:0.27000001 83:0 84:0.27000001 85:0.55000001 86:0 87:0 88:0 89:0.55000001 90:0.27000001 91:0 92:0.55000001 93:0 94:0.81999999 95:0.27000001 96:0 97:0.27000001 98:0 99:0 100:0 101:0 102:0.27000001 103:0.27000001 104:0 105:0.27000001 106:0 107:0 108:0 109:0 110:0.27000001 111:0.27000001 112:0.27000001 113:0 114:0.27000001 115:0 116:0 117:0 118:0 119:0 120:0 121:0 122:0 123:0.27000001 124:0.27000001 125:0 126:0 127:0 128:0 129:0 130:0.27000001 131:0 132:0 133:0 134:0 135:0 136:0 137:0.27000001 138:0.27000001 139:0.27000001 140:0.27000001 141:0.81999999 142:0.55000001 143:0.81999999 144:0.81999999 145:0.27000001 146:0 147:0.55000001 148:0.81999999 149:0 150:0.81999999 151:0.27000001 152:0.55000001 153:0.81999999 154:0 155:0 156:1.09 157:0.27000001 158:0.27000001 159:0 160:0.27000001 161:0.55000001 162:0.81999999 163:0 164:0.81999999 165:0.55000001 166:0.55000001 167:0 168:1.91 169:0.27000001 170:0.55000001 171:0.55000001 172:0 173:0.27000001 174:0.27000001 175:0.55000001 176:1.37 177:0.27000001 178:0 179:0 180:0 181:1.09 182:0 183:0.55000001 184:0.55000001 185:0.27000001 186:0 187:0.55000001 188:1.09 189:0.27000001 190:1.37 191:0.27000001 192:0.55000001 193:0.27000001 194:0.55000001 195:0.55000001 196:0.27000001 197:0.55000001 198:1.09 199:0.27000001 200:0 201:0 202:0 203:0.27000001 204:0.27000001 205:0 206:0 207:0.27000001 208:0.27000001 209:0.27000001 210:0.27000001 211:0 212:0.27000001 213:0 214:0.55000001 215:0 216:0 217:0.27000001 218:0 219:0 220:0 221:0.27000001 222:0.27000001 223:0.27000001 224:0.27000001 225:0.27000001 226:0.27000001 227:0 228:0.81999999 229:0.55000001 230:0.55000001 231:0 232:0.55000001 233:0.81999999 234:0 235:0.55000001 236:0.27000001 237:0.55000001 238:0.27000001 239:0 240:0.55000001 241:0.27000001 242:0.27000001 243:0 244:0.27000001 245:0 246:0.27000001 247:0 248:0 249:0 250:0 251:0 252:0.27000001 253:0 254:0 255:0.27000001 256:0.27000001 257:0.27000001 258:0 259:0 260:0.55000001 261:0 262:0 263:0.81999999 264:0 265:0.55000001 266:0 267:0 268:0.27000001 269:0.55000001 270:0.55000001 271:0 272:0.27000001 273:0.27000001 274:0.55000001 275:0 276:0.55000001 277:0 278:0.55000001 279:0 280:0 281:0.27000001 282:0.27000001 283:0 284:0.27000001 285:0.27000001 286:0 287:0 288:0.81999999 289:0.55000001 290:0.27000001 291:0 292:0.81999999 293:0 294:0.55000001 295:0.55000001 296:0.55000001 297:0.55000001 298:0 299:0 300:0.27000001 301:0.27000001 302:0 303:0.27000001 304:1.09 305:0.27000001 306:0 307:0 308:0.55000001 309:0.81999999 310:0.81999999 311:0 312:0.27000001 313:0 314:0.27000001 315:0.81999999 316:0.55000001 317:0.27000001 318:0 319:0.27000001 320:0 321:0.27000001 322:0.27000001 323:0 324:0.55000001 325:0 326:0.27000001 327:0.27000001 328:0.27000001 329:1.09 330:0.55000001 331:0.27000001 332:0 333:0 334:0 335:0.27000001 336:0 337:0.55000001 338:0.55000001 339:0 340:0.27000001 341:0 342:0.27000001 343:0 344:0.27000001 345:0 346:0 347:0 348:0 349:0.55000001 350:0.27000001 351:0 352:0 353:0 354:0.27000001 355:0.55000001 356:0.55000001 357:0.27000001 358:0.55000001 359:0 360:0.27000001 361:0 362:0 363:0 364:0 365:0 366:0 367:0 368:0 369:0.27000001 370:0.27000001 371:0 372:0 373:0.27000001 374:0 375:0 376:0 377:0 378:0 379:0 380:0 381:0 382:0.27000001 383:0 384:0 385:0 386:0 387:0 388:0.27000001 389:0.55000001 390:0.55000001 391:0.27000001 392:0.27000001 393:0 394:0 395:0.27000001 396:0.27000001 397:0 398:0 399:0 400:0 #
0.053249665408343083150555230531609 1:0 2:0.23 3:0.23 4:0.23 5:0.23 6:0.23 7:0.23 8:0.46000001 9:0 10:0.23 11:0 12:0.23 13:0 14:0.23 15:0 16:0.23 17:0.23 18:0.23 19:0 20:0 21:0 22:0 23:0.23 24:0.23 25:0 26:0.23 27:0 28:0 29:0.46000001 30:0.92000002 31:0.23 32:0.23 33:0 34:0.46000001 35:0.46000001 36:0.23 37:0 38:0.23 39:0 40:0 41:0 42:0 43:0.23 44:0.69 45:0.23 46:0.69 47:0.23 48:0.46000001 49:0.23 50:0.69 51:0 52:0 53:0.23 54:0.46000001 55:0.46000001 56:0.23 57:0.23 58:0.23 59:0 60:0.23 61:0.23 62:0 63:1.38 64:0.92000002 65:0.23 66:0.23 67:0 68:0 69:0 70:1.15 71:0 72:0 73:0.23 74:0.46000001 75:0.46000001 76:0.23 77:0 78:0.69 79:0 80:0.46000001 81:0.23 82:0.23 83:0 84:0.23 85:0.46000001 86:0.23 87:0 88:0 89:0.46000001 90:0.46000001 91:0 92:0 93:0.23 94:0 95:0.46000001 96:1.15 97:0.23 98:0 99:0 100:0 101:0 102:0.23 103:0.69 104:0 105:0.46000001 106:0.23 107:0 108:0.46000001 109:0.23 110:0.23 111:0.69 112:0.23 113:0.46000001 114:0.23 115:0.23 116:0 117:0.23 118:0 119:0 120:0.23 121:0 122:0 123:0 124:0 125:0 126:0 127:0 128:0 129:0 130:0.23 131:0 132:0 133:0.23 134:0.23 135:0.23 136:0.46000001 137:0.23 138:0 139:0 140:0.46000001 141:0.23 142:0.46000001 143:0 144:0.46000001 145:0.23 146:0.23 147:0 148:0.46000001 149:0.23 150:0.23 151:0.23 152:0.46000001 153:0.23 154:0.23 155:0.23 156:0.69 157:0.46000001 158:0.23 159:0 160:0.23 161:0.69 162:0.23 163:0.23 164:0.23 165:0.23 166:0.23 167:0 168:0 169:0.23 170:0.46000001 171:0 172:0.23 173:0 174:0.46000001 175:0.69 176:0.23 177:0.23 178:0.46000001 179:0 180:0.23 181:0.23 182:0.23 183:0.23 184:0.23 185:1.15 186:0.23 187:0.69 188:1.15 189:0.46000001 190:1.61 191:0.23 192:0.92000002 193:0.92000002 194:0.23 195:0.23 196:0.69 197:0.46000001 198:0.23 199:0 200:0 201:0 202:0.23 203:0.23 204:0.69 205:0 206:0.23 207:0 208:0 209:0.23 210:0.23 211:0.23 212:0.23 213:0.23 214:0 215:0 216:0.46000001 217:0 218:0 219:0 220:0 221:0.23 222:0.23 223:0 224:0.23 225:0.23 226:0.46000001 227:0 228:0 229:0.69 230:0 231:0 232:0.23 233:0 234:0.69 235:0.69 236:0 237:0.46000001 238:0.23 239:0 240:0 241:0.23 242:0 243:0.23 244:0.23 245:0.23 246:0.69 247:0.46000001 248:0 249:0 250:0.69 251:0.23 252:0.23 253:0 254:0.23 255:0 256:0.69 257:0.46000001 258:0.46000001 259:0 260:0 261:0 262:0 263:0.46000001 264:0.46000001 265:0 266:0.23 267:0 268:0.69 269:0 270:0.92000002 271:0.23 272:0 273:0.46000001 274:0 275:0.46000001 276:0.69 277:0 278:0.23 279:0 280:0.69 281:0.46000001 282:0.46000001 283:0.46000001 284:0.23 285:0.46000001 286:0 287:0 288:0.23 289:0.69 290:0.69 291:0 292:0.46000001 293:0 294:0.23 295:0 296:0.46000001 297:0.23 298:0.46000001 299:0 300:0.69 301:0.46000001 302:0.46000001 303:0.46000001 304:0.92000002 305:0.23 306:0.23 307:0.23 308:0.69 309:0.46000001 310:0.46000001 311:0.23 312:0.69 313:0.69 314:0.46000001 315:0.92000002 316:1.38 317:0.46000001 318:0 319:0.23 320:0 321:0.23 322:0.23 323:0.23 324:0.23 325:0 326:0.23 327:0.23 328:0.69 329:0.23 330:0.23 331:0 332:0 333:0.69 334:0.23 335:0 336:0.46000001 337:0.46000001 338:0 339:0.69 340:0.23 341:0 342:0.46000001 343:0.23 344:0.46000001 345:0 346:0 347:0 348:0 349:0.23 350:0 351:0.46000001 352:0.23 353:0.23 354:0.23 355:0.23 356:0.69 357:0.69 358:0 359:0 360:0.23 361:0 362:0 363:0 364:0.23 365:0 366:0 367:0 368:0 369:0 370:0 371:0 372:0 373:0 374:0.23 375:0 376:0.23 377:0 378:0.23 379:0 380:0.23 381:0 382:0.23 383:0 384:0 385:0 386:0.23 387:0 388:0.23 389:0.23 390:0.69 391:0 392:0 393:0.23 394:0.23 395:0.46000001 396:0.46000001 397:0.23 398:0.46000001 399:0.23 400:0 #
0.046933764847882503135068077426695 1:0.44999999 2:0.44999999 3:0.22 4:0.44999999 5:0 6:0.22 7:0 8:0.44999999 9:0 10:0.44999999 11:0.22 12:0.67000002 13:0.44999999 14:0.67000002 15:0 16:0 17:0.44999999 18:0.22 19:0 20:0 21:0 22:0 23:0.22 24:0.44999999 25:0 26:0.22 27:0 28:0.22 29:0.44999999 30:0.88999999 31:0.22 32:0.22 33:0 34:0.44999999 35:0.44999999 36:0.22 37:0 38:0.22 39:0 40:0 41:0 42:0 43:0.44999999 44:0.88999999 45:0 46:0.88999999 47:0.22 48:0.22 49:0.22 50:0.67000002 51:0 52:0 53:0 54:0.22 55:0.22 56:0.44999999 57:0 58:0 59:0 60:0.44999999 61:0.22 62:0 63:1.34 64:0.44999999 65:0.22 66:0.22 67:0.22 68:0.67000002 69:0.22 70:1.12 71:0.22 72:0 73:0 74:0.88999999 75:0.22 76:0 77:0 78:0.22 79:0 80:0.44999999 81:0.22 82:0.22 83:0 84:0 85:0.44999999 86:0.22 87:0.22 88:0 89:0.67000002 90:0.44999999 91:0 92:0 93:0.22 94:0 95:0.44999999 96:0.22 97:0 98:0 99:0 100:0 101:0 102:0.22 103:0.67000002 104:0 105:0.22 106:0.22 107:0 108:0.22 109:0.22 110:0.44999999 111:0.67000002 112:0.88999999 113:0.22 114:0.22 115:0.22 116:0 117:0.44999999 118:0.22 119:0 120:0.67000002 121:0 122:0 123:0 124:0 125:0 126:0 127:0 128:0 129:0.22 130:0.22 131:0 132:0 133:0 134:0.44999999 135:0 136:0.67000002 137:0.44999999 138:0 139:0 140:0.44999999 141:0.22 142:0.44999999 143:0 144:0.67000002 145:0 146:0.44999999 147:0 148:0.22 149:0.22 150:0.22 151:0.44999999 152:0.22 153:0.22 154:0 155:0.67000002 156:0.67000002 157:0 158:0 159:0 160:0.22 161:0.67000002 162:0.22 163:0.22 164:0 165:0.22 166:0.44999999 167:0 168:0 169:0.22 170:0.67000002 171:0 172:0.22 173:0 174:0.22 175:0.88999999 176:0.44999999 177:0 178:0.22 179:0 180:0.44999999 181:0.88999999 182:0.22 183:0 184:0.44999999 185:1.12 186:0.44999999 187:0.67000002 188:0.88999999 189:0.44999999 190:1.34 191:0.22 192:0.67000002 193:0.88999999 194:0.22 195:0.22 196:0.88999999 197:0.44999999 198:0.44999999 199:0 200:0.22 201:0.22 202:0.22 203:0.22 204:0.44999999 205:0 206:0.22 207:0 208:0 209:0.22 210:0.22 211:0.22 212:0.22 213:0.44999999 214:0 215:0.22 216:0.44999999 217:0 218:0 219:0 220:0 221:0.22 222:0.22 223:0 224:0.22 225:0.22 226:0.67000002 227:0 228:0.22 229:0.67000002 230:0 231:0.22 232:0.22 233:0 234:0.44999999 235:0.67000002 236:0 237:0 238:0.44999999 239:0 240:0 241:0.22 242:0.22 243:0 244:0.67000002 245:0.22 246:0.44999999 247:0.44999999 248:0 249:0.22 250:0.67000002 251:0.22 252:0 253:0 254:0.22 255:0.22 256:0.44999999 257:0 258:0.44999999 259:0 260:0 261:0.22 262:0 263:0.44999999 264:0.44999999 265:0.22 266:0 267:0.22 268:0.44999999 269:0 270:1.12 271:0.22 272:0 273:0.67000002 274:0 275:0.44999999 276:0.22 277:0 278:0.44999999 279:0 280:0.44999999 281:0.22 282:0.67000002 283:0.22 284:0.44999999 285:0.22 286:0.22 287:0 288:0.22 289:0.67000002 290:0.67000002 291:0 292:0.44999999 293:0 294:0.44999999 295:0 296:0.88999999 297:0.22 298:0.44999999 299:0 300:0.22 301:0.44999999 302:0.67000002 303:0.88999999 304:0.22 305:0.22 306:0.22 307:0.22 308:0.67000002 309:0 310:0.44999999 311:0 312:0.44999999 313:0.67000002 314:0 315:0.44999999 316:1.34 317:0.22 318:0.22 319:0.44999999 320:0.22 321:0.44999999 322:0 323:0 324:0.22 325:0 326:0.22 327:0.22 328:0 329:0.22 330:0.44999999 331:0 332:0.22 333:0.44999999 334:0.44999999 335:0.22 336:0.22 337:0.22 338:0.22 339:0.44999999 340:0 341:0.22 342:0.22 343:0 344:0.44999999 345:0 346:0 347:0 348:0 349:0 350:0.44999999 351:0.22 352:0.22 353:0 354:0.22 355:0 356:0.67000002 357:0.88999999 358:0 359:0 360:0.44999999 361:0 362:0 363:0 364:0.22 365:0 366:0.22 367:0 368:0.22 369:0 370:0 371:0 372:0 373:0 374:0.22 375:0 376:0 377:0 378:0 379:0 380:0.22 381:0.44999999 382:0.22 383:0 384:0 385:0 386:0.22 387:0 388:0.22 389:0.22 390:0.22 391:0 392:0 393:0.44999999 394:0.22 395:0.67000002 396:0.22 397:0.88999999 398:0.22 399:0.22 400:0 #
-0.01609165197395629604004696489028 1:0 2:0.20999999 3:0.43000001 4:0.43000001 5:0 6:0.43000001 7:0.20999999 8:0 9:0.20999999 10:0.86000001 11:0 12:0 13:0.43000001 14:0 15:0.43000001 16:0.86000001 17:0.20999999 18:0.20999999 19:0 20:0 21:0.43000001 22:0 23:0.43000001 24:0.20999999 25:0 26:0.43000001 27:0 28:0.20999999 29:0.43000001 30:0.86000001 31:0 32:0.20999999 33:0.43000001 34:0 35:0.43000001 36:0.20999999 37:0.43000001 38:0 39:0.20999999 40:0 41:0 42:0.20999999 43:0 44:0.20999999 45:0 46:0 47:0.20999999 48:0.43000001 49:0.20999999 50:0.63999999 51:0.20999999 52:0 53:0.20999999 54:0.43000001 55:0.63999999 56:0.20999999 57:0 58:0.43000001 59:0 60:0.20999999 61:0.43000001 62:0 63:0.43000001 64:0.20999999 65:0.20999999 66:0.43000001 67:0.63999999 68:0 69:0.63999999 70:1.28 71:0.43000001 72:0 73:0 74:0.20999999 75:0 76:0.43000001 77:0 78:0 79:0.20999999 80:0.20999999 81:0.63999999 82:0.20999999 83:0 84:0 85:0.43000001 86:0.20999999 87:0 88:0 89:0.43000001 90:0.20999999 91:0 92:0.20999999 93:0 94:0.20999999 95:0.20999999 96:0.63999999 97:0.63999999 98:0 99:0 100:0 101:0.43000001 102:0 103:0.43000001 104:0.20999999 105:0.63999999 106:0.20999999 107:0.20999999 108:0.20999999 109:0.43000001 110:0.63999999 111:0.43000001 112:0.20999999 113:0.43000001 114:0.43000001 115:0.20999999 116:0.20999999 117:0 118:0 119:0 120:0.20999999 121:0.43000001 122:0.20999999 123:0.20999999 124:0 125:0.20999999 126:0.20999999 127:0 128:0.43000001 129:0 130:0.63999999 131:0.43000001 132:0 133:0.20999999 134:0.43000001 135:0.20999999 136:0.63999999 137:0 138:0.20999999 139:0 140:0.20999999 141:0 142:0.20999999 143:0.20999999 144:0.43000001 145:0 146:0 147:0 148:0.20999999 149:0.20999999 150:0.63999999 151:0 152:0.20999999 153:0 154:0.20999999 155:0.20999999 156:0.20999999 157:0.43000001 158:0.20999999 159:0 160:0.63999999 161:0.20999999 162:0.43000001 163:0 164:0.20999999 165:0.43000001 166:0.20999999 167:0.63999999 168:0.20999999 169:0.20999999 170:0.86000001 171:0 172:0 173:0 174:0.43000001 175:0.43000001 176:0 177:0 178:0.43000001 179:0 180:0.20999999 181:0.43000001 182:1.0700001 183:0.43000001 184:0.86000001 185:0.43000001 186:0 187:1.5 188:0.63999999 189:0.63999999 190:2.78 191:0.63999999 192:0.20999999 193:0.63999999 194:0.86000001 195:0.43000001 196:1.0700001 197:0.86000001 198:0.63999999 199:0 200:0.20999999 201:0.43000001 202:0.20999999 203:0.20999999 204:0.20999999 205:0 206:0 207:0 208:0.20999999 209:0 210:0.43000001 211:0 212:0 213:0.20999999 214:0 215:0.43000001 216:0.43000001 217:0 218:0 219:0 220:0 221:0 222:0.20999999 223:0.20999999 224:0 225:0 226:0 227:0 228:0 229:0.43000001 230:0.20999999 231:0 232:0.43000001 233:0.63999999 234:0 235:0 236:0.43000001 237:0 238:0 239:0.20999999 240:0 241:0.20999999 242:0.20999999 243:0.43000001 244:0 245:0.63999999 246:0.86000001 247:0 248:0.43000001 249:0 250:0.43000001 251:0 252:0 253:0.43000001 254:0.43000001 255:0 256:0.86000001 257:0 258:0.20999999 259:0 260:0 261:0.20999999 262:0.20999999 263:0.20999999 264:1.0700001 265:0 266:0.20999999 267:0 268:0.20999999 269:0.20999999 270:0.86000001 271:0.20999999 272:0.43000001 273:0.20999999 274:0 275:0.86000001 276:0 277:0.20999999 278:0.63999999 279:0 280:0.20999999 281:0.43000001 282:0.43000001 283:0.20999999 284:0 285:0.20999999 286:0.43000001 287:0.20999999 288:0.20999999 289:0.43000001 290:0.63999999 291:0.20999999 292:0.20999999 293:0.20999999 294:0.43000001 295:0 296:0.20999999 297:0.43000001 298:0 299:0 300:0 301:0 302:0.43000001 303:0.20999999 304:0.63999999 305:0.20999999 306:0.86000001 307:0.63999999 308:0.20999999 309:0 310:1.28 311:0 312:0.43000001 313:0.63999999 314:0 315:0.20999999 316:1.28 317:0.86000001 318:0.43000001 319:0.43000001 320:0.20999999 321:0.43000001 322:0.20999999 323:0 324:0.20999999 325:0.43000001 326:0.43000001 327:0.20999999 328:0.20999999 329:0 330:0.43000001 331:0 332:0 333:0.43000001 334:0.86000001 335:0 336:0.63999999 337:0 338:0.20999999 339:0 340:0 341:0 342:0.20999999 343:0.20999999 344:0.63999999 345:0.20999999 346:0.43000001 347:0 348:0 349:0.20999999 350:0.20999999 351:0 352:0 353:0 354:0.63999999 355:0.20999999 356:0.43000001 357:0.20999999 358:0 359:0 360:0 361:0.43000001 362:0 363:0 364:0.20999999 365:0 366:0 367:0 368:0 369:0 370:0 371:0 372:0 373:0 374:0 375:0 376:0.20999999 377:0.20999999 378:0 379:0 380:0 381:0 382:0.20999999 383:0 384:0 385:0 386:0.20999999 387:0.20999999 388:0.20999999 389:0.20999999 390:0.43000001 391:0 392:0.20999999 393:0 394:0.43000001 395:0 396:0 397:0.20999999 398:0 399:0 400:0 #
-0.01669362824966643191193504947023 1:0.49000001 2:0.49000001 3:0.25 4:0.49000001 5:0 6:0.49000001 7:0.25 8:0.49000001 9:0.25 10:0.25 11:0.25 12:0 13:0 14:0 15:0.25 16:1.23 17:0.99000001 18:0.25 19:0 20:0.25 21:0 22:0 23:0 24:0.25 25:0 26:0.74000001 27:0 28:0 29:0.49000001 30:0.25 31:0 32:0.25 33:0.25 34:0.25 35:1.23 36:0 37:0.25 38:0 39:0 40:0 41:0.49000001 42:0 43:0.25 44:0.74000001 45:0.25 46:0.25 47:0 48:0.25 49:0.25 50:0.74000001 51:0.25 52:0.49000001 53:0 54:0.25 55:0.49000001 56:0.25 57:0 58:0.25 59:0 60:0 61:0.74000001 62:0.25 63:1.23 64:1.48 65:0.25 66:0.74000001 67:0.74000001 68:0.49000001 69:0.25 70:1.48 71:0 72:0 73:0.25 74:0.25 75:0.25 76:0.25 77:0.25 78:0.99000001 79:0 80:0 81:0.25 82:0 83:0 84:0.25 85:0.25 86:0.25 87:0 88:0 89:0.49000001 90:0.25 91:0 92:0.25 93:0 94:0.25 95:0.49000001 96:0.49000001 97:0.49000001 98:0 99:0 100:0 101:0.25 102:0.25 103:0.99000001 104:0 105:0.74000001 106:0.25 107:0.25 108:0 109:0.25 110:0 111:0.25 112:0.25 113:0 114:0 115:0 116:0.49000001 117:0 118:0.74000001 119:0 120:0.25 121:0 122:0.25 123:0 124:0.25 125:0.25 126:0 127:0 128:0 129:0.25 130:0.49000001 131:0.25 132:0 133:0.25 134:0 135:0.25 136:0.25 137:0.25 138:0.25 139:0 140:0 141:0.49000001 142:0.25 143:0 144:0.49000001 145:0 146:0.74000001 147:0 148:0.74000001 149:0 150:0.25 151:0.49000001 152:0 153:0.25 154:0.25 155:0 156:0.49000001 157:0.25 158:0 159:0 160:0 161:0.74000001 162:0.25 163:0.25 164:0.99000001 165:0.25 166:0.25 167:0.25 168:0 169:0.49000001 170:0.99000001 171:0.49000001 172:0 173:0 174:0.25 175:0.99000001 176:0 177:0.25 178:0.49000001 179:0 180:0.25 181:0.25 182:0.25 183:0.25 184:1.48 185:0.25 186:0 187:0.25 188:0.74000001 189:0.49000001 190:1.73 191:0.49000001 192:0.49000001 193:0.74000001 194:0.25 195:0.74000001 196:0.49000001 197:0.49000001 198:0.49000001 199:0 200:0.25 201:0.49000001 202:0 203:0.25 204:0.25 205:0 206:0 207:0 208:0.25 209:0.99000001 210:0.49000001 211:0.49000001 212:0 213:0 214:0.25 215:0 216:0.25 217:0.74000001 218:0.25 219:0 220:0 221:0.74000001 222:0 223:0 224:0.74000001 225:0 226:0 227:0 228:0.25 229:0.25 230:0 231:0.49000001 232:0 233:0.49000001 234:0 235:0.25 236:0.49000001 237:0 238:0 239:0 240:0 241:0 242:0 243:0.25 244:0.25 245:0.49000001 246:0.49000001 247:0.25 248:0 249:0.74000001 250:0.74000001 251:0 252:0 253:0.49000001 254:0.25 255:0 256:0 257:0.25 258:0 259:0 260:0 261:0.49000001 262:0 263:0.49000001 264:0.49000001 265:0.25 266:0 267:0 268:0.74000001 269:0.25 270:0.25 271:0 272:0.25 273:0 274:0 275:0.25 276:0 277:0 278:0.25 279:0 280:0.25 281:0.25 282:0.49000001 283:0.25 284:0.25 285:0 286:0.25 287:0.49000001 288:0 289:0.74000001 290:0.49000001 291:0 292:0.25 293:0.49000001 294:0 295:0.49000001 296:0.99000001 297:0 298:0.25 299:0 300:0 301:0.99000001 302:0.25 303:0.49000001 304:0 305:0.49000001 306:0.25 307:0 308:0.25 309:0.25 310:0.74000001 311:0.49000001 312:0.74000001 313:0.49000001 314:0.49000001 315:0 316:0 317:0.25 318:0 319:0.25 320:0.49000001 321:0.25 322:0.74000001 323:0 324:0.99000001 325:0 326:0.25 327:0 328:0 329:0.49000001 330:0.49000001 331:0.25 332:0.25 333:0.25 334:0.25 335:0 336:0.25 337:0 338:0.25 339:0 340:0.25 341:0 342:0.49000001 343:0 344:0.49000001 345:0.25 346:0 347:0.25 348:0.25 349:0.25 350:0.25 351:0.25 352:0.49000001 353:0.25 354:0.74000001 355:0 356:0.49000001 357:0 358:0 359:0 360:0 361:0 362:0 363:0 364:0 365:0 366:0 367:0 368:0 369:0 370:0 371:0 372:0 373:0 374:0 375:0 376:0 377:0.25 378:0 379:0 380:0 381:0 382:0 383:0.25 384:0 385:0 386:0 387:0.25 388:0.25 389:0 390:0.25 391:0 392:0 393:0 394:0.25 395:0 396:0.49000001 397:0.25 398:0 399:0 400:0 #
-0.00014286514228740478105184052992627 1:0 2:0.17 3:0.34 4:0.50999999 5:0 6:0 7:0 8:1.03 9:0.69 10:0.69 11:0 12:0 13:0.17 14:0.17 15:0.17 16:0.50999999 17:0 18:0.69 19:0 20:0 21:0 22:0 23:0.17 24:0.34 25:0 26:0.17 27:0 28:0 29:0.17 30:0.17 31:0 32:0 33:0 34:0.34 35:0.50999999 36:0 37:0 38:0 39:0 40:0 41:0 42:0 43:0.17 44:0.34 45:0.34 46:0.34 47:0.17 48:0.69 49:0.50999999 50:1.37 51:0.34 52:0.17 53:0.34 54:0.34 55:0.50999999 56:0.50999999 57:0.17 58:0 59:0 60:0.17 61:0.34 62:0.17 63:0.69 64:0.34 65:0.50999999 66:0.34 67:0.34 68:0.69 69:0.69 70:0.69 71:0.34 72:0 73:1.03 74:0.34 75:0 76:0.50999999 77:0.17 78:0.50999999 79:0 80:0.34 81:0.34 82:0 83:0.17 84:0.17 85:0.17 86:0.50999999 87:0.17 88:0.17 89:0.17 90:0.34 91:0.34 92:0.34 93:0.17 94:0.34 95:0.34 96:0.50999999 97:0.50999999 98:0.34 99:0.17 100:0 101:0 102:0.34 103:0.69 104:0.50999999 105:0.69 106:0 107:0 108:0.17 109:0.17 110:0.17 111:0.17 112:0 113:0 114:0.34 115:0.17 116:0 117:0 118:0.69 119:0 120:0 121:0.17 122:0 123:0 124:0.34 125:0.17 126:0 127:0 128:0.34 129:0.17 130:0.17 131:0 132:0.17 133:0.34 134:0 135:0 136:0.50999999 137:0.17 138:0.17 139:0 140:0.34 141:0.17 142:0 143:0.17 144:0.34 145:0.34 146:0 147:0.17 148:0.34 149:0.86000001 150:0.34 151:0 152:0 153:0.34 154:0.34 155:0.50999999 156:0.69 157:0.50999999 158:0.17 159:0 160:0.69 161:0.50999999 162:0.34 163:0.34 164:0.34 165:0.50999999 166:0.17 167:0.34 168:0.17 169:0.34 170:1.03 171:0.17 172:0 173:0.69 174:0 175:0 176:1.03 177:0.50999999 178:0.17 179:0 180:0.34 181:0.86000001 182:0.17 183:0.50999999 184:0.50999999 185:0.17 186:0.17 187:0.17 188:0.50999999 189:0.86000001 190:1.54 191:0.69 192:1.03 193:0 194:1.37 195:0.50999999 196:0.86000001 197:0.34 198:0 199:0 200:0.50999999 201:0.17 202:0 203:0 204:0.69 205:0 206:0.17 207:0 208:0 209:0 210:0.17 211:0.17 212:0.34 213:0.34 214:0 215:0 216:0.34 217:0.50999999 218:0.17 219:0 220:0.17 221:0.34 222:0.17 223:0.50999999 224:0 225:0.17 226:0 227:0.17 228:0 229:0.50999999 230:0.34 231:0 232:0 233:0.17 234:0 235:0 236:0.34 237:0 238:0.34 239:0 240:0 241:0.34 242:0 243:0 244:0.34 245:1.2 246:0.50999999 247:0.34 248:0.17 249:0.17 250:0.69 251:0 252:0 253:0.17 254:0.17 255:0.17 256:0.34 257:0.34 258:0.17 259:0 260:0.17 261:0.50999999 262:0 263:0.17 264:0.69 265:0.17 266:0.50999999 267:0 268:0.17 269:0.34 270:1.03 271:0 272:0.17 273:0 274:0 275:0 276:0.50999999 277:0 278:0.34 279:0.17 280:0.17 281:0.50999999 282:0.17 283:0 284:0.17 285:0.34 286:0 287:0 288:0.34 289:0.34 290:0.17 291:0.17 292:0.17 293:0.17 294:0.17 295:0.17 296:0.17 297:0.34 298:0.17 299:0 300:0 301:0.34 302:0 303:0.50999999 304:1.03 305:0.50999999 306:0.50999999 307:0.34 308:0.34 309:0.17 310:1.03 311:0.17 312:0.17 313:0.86000001 314:0.34 315:0.17 316:0.69 317:0.17 318:0.69 319:0 320:0.34 321:0 322:0 323:0.69 324:0.69 325:0 326:0.17 327:0.34 328:0.17 329:0.17 330:0.17 331:0.34 332:0.17 333:0.34 334:0.17 335:0.34 336:0.34 337:0.50999999 338:0.17 339:0 340:0 341:0.34 342:0.17 343:0.50999999 344:0.50999999 345:0 346:0.17 347:0.34 348:0.50999999 349:0.34 350:0.69 351:0.17 352:0.17 353:0 354:0.34 355:0 356:0.17 357:0.34 358:0.17 359:0 360:0 361:0 362:0 363:0.17 364:0 365:0 366:0 367:0 368:0 369:0 370:0 371:0 372:0 373:0.17 374:0 375:0 376:0 377:0 378:0 379:0 380:0 381:0.17 382:0.17 383:0.69 384:0.17 385:0 386:0.34 387:0.17 388:0.17 389:0.34 390:0 391:0 392:0.17 393:0 394:0.17 395:0 396:0.34 397:0.17 398:0 399:0 400:0.17 #
-0.010798706850701007831094813127493 1:1.11 2:0.82999998 3:0 4:0 5:0.28 6:0.28 7:0 8:0.82999998 9:0.56 10:0.28 11:0 12:0.28 13:0 14:0.56 15:0.28 16:0 17:1.11 18:0.28 19:0 20:0 21:0 22:0 23:0.56 24:0.28 25:0 26:0.28 27:0 28:0 29:0.56 30:0.28 31:0.28 32:0 33:0.28 34:0 35:0.56 36:0.56 37:0 38:0.28 39:0 40:0 41:0.56 42:0 43:0.28 44:0 45:0.56 46:0.28 47:0 48:0.28 49:0.28 50:0 51:0.56 52:0 53:0 54:0.56 55:0.28 56:0.28 57:0 58:0.28 59:0 60:0 61:0.28 62:0 63:0 64:0.56 65:0 66:0.28 67:0.28 68:0.82999998 69:0.28 70:0.82999998 71:0.28 72:0 73:0 74:0 75:0.56 76:0.28 77:0.56 78:0 79:0 80:0.28 81:0 82:0 83:0 84:0 85:0.56 86:0.28 87:0.28 88:0 89:0.82999998 90:0.28 91:0.56 92:0 93:0.28 94:0.28 95:0.82999998 96:0 97:0 98:0.28 99:0 100:0 101:0.28 102:0.28 103:0.28 104:0.28 105:0.28 106:0.28 107:0 108:0.56 109:0.56 110:0.28 111:0 112:0.56 113:1.11 114:0 115:0.28 116:0 117:0 118:0.82999998 119:0.28 120:0 121:0 122:0 123:0 124:0.28 125:0 126:0.56 127:0 128:0 129:0 130:0 131:0 132:0 133:0 134:0 135:0.28 136:0 137:0.56 138:0 139:0 140:0.28 141:0.28 142:0.28 143:0.28 144:0.56 145:0.28 146:0.56 147:0.28 148:0.82999998 149:0 150:0.28 151:0.28 152:0 153:0.82999998 154:0 155:1.11 156:0 157:0.28 158:0.28 159:0 160:0 161:0.28 162:0.28 163:0.28 164:0.28 165:0.28 166:0.56 167:0.28 168:0.28 169:0.28 170:0.28 171:0 172:0.56 173:0 174:0.56 175:0.28 176:0.28 177:0.82999998 178:0.28 179:0.28 180:0.56 181:0.28 182:0.28 183:0.28 184:0.28 185:0.82999998 186:0.56 187:0 188:0 189:0.82999998 190:2.5 191:0.28 192:0 193:0.56 194:0.28 195:0.56 196:0.82999998 197:0.56 198:0 199:0 200:0.28 201:0.28 202:0.28 203:0 204:0.28 205:0 206:0.28 207:0 208:0 209:0 210:0.28 211:0 212:0.82999998 213:0 214:0.28 215:0.28 216:0.56 217:0 218:0 219:0 220:0.28 221:0 222:0 223:0.28 224:0 225:0 226:0.28 227:0 228:0.28 229:0.82999998 230:0.28 231:0 232:0 233:0.56 234:0.28 235:0.28 236:0.28 237:0.28 238:0.28 239:0 240:0 241:0.28 242:0.56 243:0.28 244:0.56 245:0.56 246:0 247:0 248:0.56 249:0 250:0.28 251:0 252:0 253:0 254:0.56 255:0.28 256:0.82999998 257:0.56 258:0 259:0 260:0.56 261:0.28 262:0.28 263:0.28 264:0.56 265:0 266:0 267:0.28 268:0 269:0 270:0.82999998 271:0.82999998 272:0 273:0.28 274:0 275:0 276:0 277:0 278:0.56 279:0.28 280:0.28 281:0.56 282:0 283:0.82999998 284:0.28 285:0.28 286:0.56 287:0.28 288:0.28 289:0.56 290:0.82999998 291:0 292:0.82999998 293:0.28 294:0.28 295:0.28 296:0.56 297:0.28 298:0 299:0 300:0 301:0 302:0 303:0 304:0.28 305:0 306:0.56 307:0 308:0.28 309:0.28 310:0.28 311:0 312:0.56 313:0.56 314:0 315:0.28 316:0.56 317:0.82999998 318:0.56 319:0 320:0.28 321:0.82999998 322:0 323:0 324:0.56 325:0.56 326:0.28 327:0.28 328:1.11 329:0.28 330:0.82999998 331:0 332:0.28 333:0.28 334:0.28 335:0 336:0.28 337:0.56 338:0 339:0 340:0.28 341:0.56 342:0.56 343:0.56 344:0 345:0.28 346:0 347:0 348:0 349:0.28 350:0.28 351:0 352:0 353:0.28 354:0.56 355:0.28 356:0 357:0.28 358:0 359:0 360:0.28 361:0.28 362:0 363:0 364:0 365:0 366:0 367:0 368:0 369:0 370:0 371:0 372:0 373:0 374:0.28 375:0.28 376:0 377:0 378:0 379:0 380:0 381:0.56 382:0.28 383:0 384:0.28 385:0 386:0.28 387:0 388:0.28 389:0.28 390:0.28 391:0.28 392:0 393:0.56 394:0 395:0 396:0 397:0 398:0.28 399:0 400:0 #
-0.01669362824966643191193504947023 1:0.99000001 2:0.38999999 3:0 4:0.79000002 5:0 6:0.99000001 7:0 8:0.58999997 9:0 10:0.58999997 11:0.38999999 12:0.2 13:0.38999999 14:0.79000002 15:0.38999999 16:0.79000002 17:0 18:0.58999997 19:0.38999999 20:0 21:0 22:0 23:0.2 24:0.2 25:0 26:0.58999997 27:0 28:0.2 29:0.2 30:0.58999997 31:0 32:0 33:0 34:0.58999997 35:0.79000002 36:0.38999999 37:0 38:0 39:0 40:0 41:0.38999999 42:0 43:0.79000002 44:0.2 45:0.38999999 46:0.58999997 47:0.2 48:0.38999999 49:0.2 50:0.2 51:0 52:0.2 53:0 54:0.38999999 55:0.99000001 56:0.2 57:0 58:0 59:0 60:0.2 61:0.58999997 62:0 63:0 64:0.58999997 65:0 66:0.2 67:0.38999999 68:0.2 69:0.2 70:0.79000002 71:0.2 72:0.2 73:0 74:0.38999999 75:0.58999997 76:0.2 77:0.2 78:0.2 79:0 80:0.2 81:0.38999999 82:0 83:0.2 84:0.2 85:0.2 86:0 87:0 88:0 89:0.2 90:0.79000002 91:0.38999999 92:0 93:0 94:0.2 95:0.38999999 96:0.58999997 97:0 98:0 99:0 100:0 101:0.58999997 102:0.2 103:0.79000002 104:0 105:0.2 106:3.3499999 107:0.2 108:0.2 109:0.2 110:0.58999997 111:0.38999999 112:0.2 113:0.38999999 114:0 115:0.38999999 116:1.78 117:0 118:0.58999997 119:0 120:0 121:0 122:0.2 123:0.2 124:0 125:0.2 126:0 127:0 128:0.2 129:0 130:0.38999999 131:0 132:0 133:0.38999999 134:0 135:0.2 136:0 137:0 138:0.2 139:0 140:0.2 141:0.2 142:0.2 143:0.2 144:0.79000002 145:0.2 146:0 147:0 148:0.58999997 149:0.58999997 150:0.58999997 151:0 152:0 153:0 154:0 155:0.2 156:0.38999999 157:0.2 158:0.2 159:0 160:0 161:0.79000002 162:0.38999999 163:0.2 164:0.2 165:0 166:0.38999999 167:0.38999999 168:0 169:0 170:0.2 171:0.2 172:0 173:0.2 174:0.2 175:0.79000002 176:0.2 177:0 178:0.2 179:0 180:0 181:0.2 182:0.38999999 183:0.79000002 184:0.99000001 185:0.99000001 186:0.2 187:0 188:0.2 189:0.58999997 190:0.79000002 191:0 192:0.58999997 193:0.38999999 194:0.2 195:0.58999997 196:1.1799999 197:0.58999997 198:0 199:0 200:0.2 201:0.2 202:0.2 203:0.2 204:0 205:0 206:0.2 207:0 208:0 209:0.58999997 210:0 211:0.2 212:0 213:0.2 214:0.2 215:0 216:0.2 217:0.2 218:0.38999999 219:0 220:0 221:0.2 222:0.38999999 223:0.2 224:0 225:0 226:0.2 227:0.2 228:0 229:0.2 230:0.2 231:0 232:0.58999997 233:0.2 234:0.2 235:0.38999999 236:1.1799999 237:0 238:0.2 239:0 240:0 241:0.2 242:0 243:0.58999997 244:0 245:0.2 246:0.99000001 247:0.2 248:0 249:0.2 250:0.58999997 251:0 252:0.38999999 253:0.79000002 254:0.2 255:0 256:0 257:0 258:0.2 259:0 260:0.2 261:0.38999999 262:0.2 263:0.38999999 264:0.2 265:0 266:0.2 267:0 268:0 269:0.2 270:0.99000001 271:0.38999999 272:0 273:0.38999999 274:0.58999997 275:0.58999997 276:0.2 277:0 278:0.58999997 279:0 280:0.38999999 281:0.79000002 282:0.2 283:0.2 284:0.79000002 285:0.2 286:0.38999999 287:0 288:0.58999997 289:0.2 290:0.99000001 291:0.2 292:0.79000002 293:0.2 294:0.38999999 295:0.38999999 296:0.38999999 297:0.2 298:0.2 299:0 300:0.2 301:1.58 302:0.38999999 303:0.38999999 304:0.2 305:0.79000002 306:1.1799999 307:0.2 308:0.79000002 309:0.2 310:0.38999999 311:0.2 312:0.58999997 313:0.58999997 314:0.38999999 315:0.38999999 316:0.99000001 317:0.2 318:0.58999997 319:0 320:0.2 321:0 322:0.2 323:0 324:0 325:0.2 326:0 327:0 328:0 329:0 330:0 331:0 332:0.2 333:0 334:0.2 335:0 336:0.2 337:0 338:0.38999999 339:0 340:0.2 341:0.2 342:0 343:0 344:0.2 345:0 346:0.38999999 347:0.2 348:0.2 349:0.38999999 350:0.2 351:0 352:0.2 353:0.38999999 354:0.58999997 355:0.2 356:0.99000001 357:0 358:0.2 359:0 360:0.38999999 361:0 362:0.2 363:0 364:0 365:0 366:0 367:0 368:0.2 369:0 370:0 371:0 372:0 373:0 374:0 375:0 376:0 377:0 378:0 379:0 380:0 381:0.58999997 382:0.2 383:0 384:0 385:0 386:0.2 387:0.2 388:0 389:0.2 390:0 391:0 392:0.2 393:0.2 394:0.2 395:0 396:0.38999999 397:0 398:0 399:0 400:0 #
-0.010054782141714600079973607194006 1:0.18000001 2:0 3:0.36000001 4:0 5:0.36000001 6:0 7:0.36000001 8:0.18000001 9:0 10:0.36000001 11:0.18000001 12:0.36000001 13:0 14:0.18000001 15:0.18000001 16:1.08 17:0.36000001 18:0.54000002 19:0.18000001 20:0 21:0 22:0 23:0.18000001 24:0.36000001 25:0 26:0.18000001 27:0 28:0.18000001 29:0.36000001 30:0.36000001 31:0 32:0 33:0 34:0.54000002 35:0.36000001 36:0 37:0.36000001 38:0 39:0 40:0 41:0.18000001 42:0 43:0.18000001 44:0.36000001 45:0.36000001 46:0.54000002 47:0 48:0.54000002 49:0.54000002 50:0 51:0 52:0 53:0.18000001 54:0 55:0 56:0.89999998 57:0.54000002 58:0.18000001 59:0 60:0.18000001 61:0.36000001 62:0 63:0.18000001 64:0.18000001 65:0.36000001 66:0.36000001 67:0 68:0.72000003 69:0 70:0.36000001 71:0.54000002 72:0.36000001 73:0 74:0.18000001 75:0.18000001 76:0.18000001 77:0.18000001 78:0.36000001 79:0 80:0 81:0.18000001 82:0.18000001 83:0.18000001 84:0.18000001 85:0.18000001 86:0 87:0.18000001 88:0.36000001 89:0.54000002 90:0.18000001 91:0 92:0.54000002 93:0.18000001 94:0.54000002 95:0.36000001 96:0.54000002 97:0.18000001 98:0.36000001 99:0 100:0.54000002 101:0.18000001 102:0.54000002 103:0.36000001 104:0 105:0.18000001 106:0 107:0.18000001 108:0 109:0.36000001 110:0.18000001 111:0.36000001 112:0.36000001 113:0 114:0.18000001 115:0.18000001 116:0.36000001 117:0.18000001 118:0.18000001 119:0 120:0.36000001 121:0 122:0 123:0 124:0.36000001 125:0 126:0 127:0.36000001 128:0.54000002 129:0.18000001 130:0.54000002 131:0 132:0.18000001 133:0 134:0.18000001 135:0.18000001 136:0.36000001 137:0.36000001 138:0 139:0 140:0.18000001 141:0.18000001 142:0 143:0.72000003 144:0 145:0 146:0.36000001 147:0.36000001 148:0.36000001 149:0.54000002 150:0.72000003 151:0 152:0.54000002 153:0.36000001 154:0.36000001 155:0.54000002 156:0.54000002 157:0.18000001 158:0.54000002 159:0 160:0.18000001 161:0.54000002 162:0.36000001 163:0.18000001 164:0.36000001 165:0.36000001 166:0.18000001 167:0 168:0.36000001 169:0.36000001 170:0 171:0.36000001 172:0.18000001 173:0.36000001 174:0.54000002 175:0.18000001 176:0.54000002 177:0.18000001 178:0.36000001 179:0 180:0 181:0.36000001 182:0.36000001 183:0.18000001 184:0.36000001 185:0.36000001 186:0 187:0.18000001 188:0.54000002 189:0.18000001 190:1.4400001 191:0.36000001 192:1.08 193:0.89999998 194:0.72000003 195:0.89999998 196:1.08 197:0.36000001 198:0.18000001 199:0 200:0.36000001 201:0 202:0 203:0 204:0 205:0.36000001 206:0 207:0 208:0 209:0.36000001 210:0.36000001 211:0 212:0.18000001 213:0 214:0 215:0.18000001 216:0.54000002 217:0.18000001 218:0 219:0 220:0 221:0.72000003 222:0 223:0.18000001 224:0.36000001 225:0.54000002 226:0.89999998 227:0.89999998 228:0.18000001 229:0 230:0.36000001 231:0 232:0.72000003 233:0.18000001 234:0.18000001 235:0.89999998 236:0 237:0.18000001 238:0.36000001 239:0 240:0.36000001 241:0.18000001 242:0 243:0.54000002 244:0.36000001 245:0.36000001 246:0 247:0 248:0 249:0.18000001 250:1.08 251:0 252:0.18000001 253:0.36000001 254:0 255:0 256:0.36000001 257:0.18000001 258:0.18000001 259:0 260:0.18000001 261:0.18000001 262:0 263:0 264:0.36000001 265:0.36000001 266:0 267:0 268:0.89999998 269:0.18000001 270:1.08 271:0.18000001 272:0.18000001 273:0.18000001 274:0.54000002 275:0.54000002 276:0.36000001 277:0 278:0.18000001 279:0.18000001 280:0.18000001 281:0.36000001 282:0.36000001 283:0.36000001 284:0.36000001 285:0.36000001 286:0.36000001 287:0.18000001 288:0.54000002 289:0.36000001 290:0.72000003 291:0 292:0.36000001 293:0.18000001 294:0.54000002 295:0.36000001 296:0.36000001 297:0 298:0 299:0 300:0.18000001 301:0 302:0.18000001 303:0 304:0.36000001 305:0.72000003 306:0.72000003 307:0.54000002 308:0.72000003 309:0.54000002 310:0.89999998 311:0 312:0.54000002 313:0.89999998 314:0.54000002 315:0.18000001 316:0.89999998 317:0.72000003 318:0.89999998 319:0 320:0 321:0.72000003 322:0.18000001 323:0.54000002 324:0.18000001 325:0.18000001 326:0.18000001 327:0 328:0.36000001 329:0.18000001 330:0.36000001 331:0 332:0.54000002 333:0.18000001 334:0.18000001 335:0 336:0.72000003 337:0.54000002 338:0 339:0 340:0.36000001 341:0.18000001 342:0.54000002 343:0.36000001 344:0.18000001 345:0.18000001 346:0 347:0 348:0 349:0.18000001 350:0.72000003 351:0 352:0.54000002 353:0.18000001 354:0 355:0.54000002 356:0.18000001 357:0.54000002 358:0.36000001 359:0 360:0.18000001 361:0 362:0 363:0 364:0 365:0 366:0 367:0 368:0 369:0 370:0 371:0 372:0 373:0 374:0.18000001 375:0 376:0.18000001 377:0 378:0 379:0 380:0 381:0.36000001 382:0.18000001 383:0.18000001 384:0.18000001 385:0.18000001 386:0.36000001 387:0.18000001 388:0 389:0.36000001 390:0.36000001 391:0 392:0.18000001 393:0 394:0 395:0.18000001 396:0.18000001 397:0.18000001 398:0.18000001 399:0 400:0.18000001 #
-0.0093338126364584418637182494649096 1:0.67000002 2:0.17 3:0.5 4:0.5 5:0.34 6:0.17 7:0.17 8:0 9:0.34 10:0.67000002 11:0.5 12:0.17 13:0.34 14:0.34 15:0.34 16:0.5 17:0.83999997 18:0.67000002 19:0 20:0 21:0 22:0 23:0 24:0.34 25:0 26:0.34 27:0 28:0.34 29:0.34 30:0.17 31:0.17 32:0 33:0.17 34:0.17 35:0.17 36:0 37:0 38:0.5 39:0 40:0 41:0.17 42:0 43:0 44:0.34 45:0 46:0.5 47:0.17 48:0.17 49:0.17 50:0.17 51:0 52:0 53:0.83999997 54:0.34 55:0.5 56:0 57:0.34 58:0.5 59:0 60:0.5 61:0.5 62:0 63:0.5 64:0.17 65:0.17 66:0.17 67:0 68:0.17 69:0.34 70:1.17 71:0.17 72:0.5 73:0.17 74:0.34 75:0.17 76:0.34 77:0.34 78:0.5 79:0 80:0 81:0.83999997 82:0 83:0.34 84:0.17 85:0.17 86:0.34 87:0 88:0 89:0 90:0 91:0.17 92:0 93:0.17 94:0.17 95:0.34 96:0.34 97:0.17 98:0 99:0 100:0 101:0.5 102:0.34 103:0.67000002 104:0.17 105:0.34 106:0.34 107:0.17 108:0 109:0.17 110:0.34 111:0.34 112:0 113:0.17 114:0.17 115:0.17 116:0.5 117:0.5 118:0.34 119:0.17 120:0.34 121:0.5 122:0 123:0.17 124:0 125:0.17 126:0.17 127:0.17 128:0.17 129:0.17 130:0.17 131:0.17 132:0.34 133:0.34 134:0.83999997 135:0 136:0 137:0 138:0 139:0 140:0.5 141:0.17 142:0 143:0.17 144:0.5 145:0.5 146:0 147:0.17 148:0.17 149:0.17 150:0 151:0 152:0.17 153:0.5 154:0.34 155:0.17 156:0.17 157:0.34 158:0.5 159:0 160:0.17 161:0 162:0.34 163:0 164:0.34 165:0.34 166:0.34 167:0 168:0.17 169:0.34 170:0.34 171:0.17 172:0.17 173:0.34 174:0.34 175:0 176:0.5 177:0.34 178:0.34 179:0 180:0 181:0.5 182:0.17 183:0.5 184:0.17 185:0.34 186:0.34 187:0.67000002 188:0.34 189:0.67000002 190:0.67000002 191:0.17 192:0 193:0.5 194:0.67000002 195:0.17 196:0.34 197:0.34 198:0.34 199:0 200:0.17 201:0.17 202:0 203:0.34 204:0 205:0 206:0 207:0.34 208:0.17 209:0 210:0.34 211:0.17 212:0.34 213:0.5 214:0.17 215:0 216:0.5 217:0 218:0.17 219:0 220:0.5 221:0.17 222:0.17 223:0 224:0.34 225:0 226:0.5 227:0.17 228:0 229:0 230:0.34 231:0.5 232:0.17 233:0.17 234:0.34 235:0.34 236:0 237:0.34 238:0 239:0 240:0.34 241:0.17 242:0.17 243:0.34 244:0.5 245:0.17 246:0 247:0.34 248:0.17 249:0.17 250:0.34 251:0.34 252:0.5 253:1.01 254:0.67000002 255:0.5 256:1.85 257:0.34 258:0.67000002 259:0 260:0 261:0.67000002 262:0.17 263:0.17 264:0.34 265:0 266:0.34 267:0.34 268:0.34 269:0.34 270:0.67000002 271:0 272:0.17 273:0.34 274:0.5 275:0.17 276:0.83999997 277:0.34 278:0.5 279:0 280:0.34 281:0.34 282:0.17 283:0.17 284:0.17 285:0 286:0.17 287:0 288:0.17 289:0 290:0.83999997 291:0.34 292:0.17 293:0.17 294:0.34 295:0.17 296:0.34 297:0.34 298:0.34 299:0 300:0.17 301:0.5 302:0 303:0.17 304:0.5 305:0.34 306:0.67000002 307:0.5 308:0.34 309:0.5 310:0.34 311:0.34 312:0.17 313:1.34 314:0.5 315:0.5 316:2.1800001 317:0.34 318:0.34 319:0 320:0 321:0.67000002 322:0.34 323:0 324:0.17 325:0.17 326:0.5 327:0.17 328:0.83999997 329:0.17 330:0.5 331:0 332:0.17 333:0.67000002 334:0.17 335:0.17 336:0.5 337:0.34 338:0 339:0 340:0 341:0.67000002 342:0.5 343:0.67000002 344:0.67000002 345:0.17 346:0.17 347:0.34 348:0.67000002 349:0.34 350:0 351:0 352:0.67000002 353:0.17 354:0 355:0.17 356:0.34 357:0.34 358:0.34 359:0 360:0 361:0 362:0 363:0 364:0.17 365:0 366:0 367:0 368:0 369:0 370:0 371:0 372:0 373:0 374:0 375:0 376:0 377:0 378:0 379:0 380:0 381:0 382:0.17 383:0 384:0.17 385:0 386:0.67000002 387:0.17 388:0.17 389:0.17 390:0 391:0 392:0.17 393:0.34 394:0.17 395:0.34 396:0.34 397:0 398:0.17 399:0 400:0.17 #
-0.005733000492977535778038600255968 1:0.27000001 2:0 3:0.13 4:0.40000001 5:0 6:0 7:0.13 8:0.40000001 9:0.27000001 10:0.27000001 11:0 12:0.54000002 13:0 14:0 15:0.27000001 16:0.67000002 17:0.27000001 18:0.40000001 19:0.13 20:0.13 21:0 22:0 23:0.13 24:0.13 25:0.13 26:0.13 27:0 28:0.13 29:0.27000001 30:0.54000002 31:0 32:0 33:0.27000001 34:0.27000001 35:0.40000001 36:0 37:0.13 38:0.40000001 39:0 40:0 41:0.40000001 42:0.13 43:0.54000002 44:0.13 45:0 46:0.13 47:0 48:0.54000002 49:0.13 50:0.67000002 51:0.27000001 52:0.54000002 53:0.40000001 54:0.40000001 55:0.27000001 56:0.40000001 57:0.54000002 58:0 59:0 60:0 61:0.40000001 62:0.13 63:0.27000001 64:0.13 65:0 66:0.13 67:0.27000001 68:0 69:0.27000001 70:0.94 71:0 72:0.13 73:0.13 74:0.40000001 75:0.27000001 76:0.54000002 77:0.27000001 78:0.13 79:0 80:0 81:0.13 82:0.13 83:0.13 84:0.27000001 85:0.13 86:0.13 87:0.13 88:0 89:0.13 90:0.13 91:0.13 92:0.13 93:0.27000001 94:0 95:0.13 96:0.13 97:0.27000001 98:0.27000001 99:0 100:0 101:0 102:0.13 103:0.27000001 104:0.13 105:0.13 106:0 107:0 108:0 109:0.13 110:0.54000002 111:0.13 112:0.27000001 113:0.27000001 114:0.13 115:0.40000001 116:0 117:0 118:0.54000002 119:0 120:0 121:0 122:0.13 123:0.13 124:0.13 125:0 126:0.40000001 127:0 128:0 129:0 130:0.40000001 131:0.27000001 132:0.13 133:0.13 134:0.27000001 135:0.27000001 136:0.54000002 137:0.81 138:0 139:0 140:0.13 141:0.40000001 142:0.40000001 143:0 144:0.13 145:0.13 146:0.13 147:0.27000001 148:0.27000001 149:0.27000001 150:0.54000002 151:0.13 152:0.54000002 153:0.27000001 154:0.54000002 155:0.13 156:0.67000002 157:0.27000001 158:0.27000001 159:0 160:0.27000001 161:0.27000001 162:0.13 163:0 164:0.13 165:0.13 166:0.40000001 167:0.13 168:0 169:0.27000001 170:0.40000001 171:0 172:0 173:0.54000002 174:0.13 175:0.27000001 176:0.94 177:0.13 178:0.13 179:0 180:0 181:0.94 182:0.13 183:0.13 184:0.27000001 185:0.27000001 186:0.40000001 187:0.54000002 188:0.67000002 189:0.27000001 190:1.21 191:0 192:0.13 193:1.21 194:0.27000001 195:0.54000002 196:1.21 197:0.67000002 198:0.94 199:0 200:0.27000001 201:0 202:0 203:0.13 204:0 205:0 206:0 207:0 208:0.13 209:0.13 210:0.40000001 211:0 212:0.13 213:0 214:0 215:0 216:0.13 217:0 218:0.13 219:0 220:0.13 221:0.13 222:0 223:0.27000001 224:0.13 225:0.13 226:0.13 227:0.40000001 228:0.27000001 229:0.27000001 230:0.54000002 231:0 232:0.13 233:0.94 234:0.54000002 235:0.13 236:0.81 237:0.27000001 238:0.27000001 239:0.13 240:0.13 241:0 242:0 243:0.40000001 244:0.27000001 245:0.27000001 246:0.27000001 247:0.13 248:0.81 249:0.27000001 250:0.54000002 251:0 252:0.94 253:0.67000002 254:0.67000002 255:0.13 256:0.81 257:0.67000002 258:0.40000001 259:0 260:0 261:0 262:0.27000001 263:0.40000001 264:0.40000001 265:0.13 266:0 267:0.40000001 268:0.27000001 269:0.13 270:0.67000002 271:0 272:0.27000001 273:0.54000002 274:0.27000001 275:0.13 276:0.81 277:0.27000001 278:0.40000001 279:0 280:0.13 281:0.13 282:0.27000001 283:0.27000001 284:0.54000002 285:0.40000001 286:0.13 287:0.40000001 288:0.27000001 289:0.27000001 290:0.40000001 291:0 292:0 293:0 294:0.27000001 295:0.27000001 296:0.40000001 297:0.40000001 298:0.13 299:0 300:0 301:0.81 302:0.54000002 303:0.81 304:0.54000002 305:0.54000002 306:0.40000001 307:0.40000001 308:0.94 309:0.27000001 310:0.54000002 311:0.13 312:0.67000002 313:0.27000001 314:0.81 315:0.40000001 316:1.62 317:1.08 318:0.54000002 319:0 320:0.54000002 321:0 322:0.27000001 323:0.94 324:0.13 325:0.13 326:0.13 327:0.40000001 328:0.27000001 329:0.40000001 330:0.40000001 331:0.13 332:0.54000002 333:0.54000002 334:0.13 335:0.27000001 336:1.08 337:0.67000002 338:0.94 339:0 340:0 341:0.27000001 342:0.13 343:0.54000002 344:0.40000001 345:0.27000001 346:0 347:0 348:0.54000002 349:0.27000001 350:0.54000002 351:0 352:0.27000001 353:0.40000001 354:0.54000002 355:0.27000001 356:0.67000002 357:0.27000001 358:0.13 359:0.13 360:0.54000002 361:0.13 362:0 363:0 364:0 365:0 366:0 367:0 368:0 369:0 370:0 371:0 372:0 373:0.27000001 374:0 375:0 376:0 377:0 378:0 379:0 380:0 381:0 382:0.13 383:0.13 384:0.13 385:0 386:0.13 387:0.13 388:0.13 389:0 390:0.40000001 391:0 392:0.27000001 393:0.13 394:0 395:0 396:0.27000001 397:0.27000001 398:0.13 399:0 400:0 #
-0.0018959552712494674980153730459165 1:0.37 2:0.12 3:0.12 4:0.12 5:0.23999999 6:0.86000001 7:0.12 8:0.23999999 9:0.12 10:0 11:0.12 12:0.12 13:0.12 14:0.12 15:0.37 16:0.23999999 17:0 18:0.49000001 19:0 20:0 21:0.12 22:0 23:0.12 24:0.12 25:0.23999999 26:0.12 27:0.12 28:0.12 29:0.12 30:0.37 31:0.23999999 32:0.23999999 33:0.12 34:0.12 35:0.12 36:0.23999999 37:0.23999999 38:0 39:0 40:0 41:0 42:0.12 43:0.37 44:0.37 45:0.12 46:0.73000002 47:0 48:0.23999999 49:0.23999999 50:0.61000001 51:0.49000001 52:0 53:0.12 54:0.61000001 55:0 56:0.73000002 57:0.49000001 58:0 59:0 60:0 61:0.23999999 62:0 63:0.23999999 64:0.23999999 65:0.23999999 66:0.49000001 67:0 68:0.73000002 69:0.23999999 70:0.37 71:0.37 72:0.12 73:0.23999999 74:0.23999999 75:0.12 76:0.49000001 77:0.37 78:0 79:0 80:0.12 81:0.12 82:0.12 83:0.12 84:0.37 85:0.23999999 86:0.12 87:0.12 88:0.12 89:0.23999999 90:0.12 91:0.12 92:0.12 93:0.23999999 94:0 95:0.23999999 96:0.49000001 97:0 98:0.23999999 99:0 100:0.23999999 101:0.37 102:0.12 103:0.12 104:0.61000001 105:0.23999999 106:1.1 107:0.23999999 108:0.23999999 109:0.23999999 110:0.73000002 111:0.23999999 112:0.49000001 113:0.61000001 114:0.49000001 115:0.37 116:0.98000002 117:0.23999999 118:0.49000001 119:0.23999999 120:0.23999999 121:0 122:0 123:0.12 124:0 125:0 126:0.23999999 127:0.49000001 128:0.37 129:0.12 130:0.49000001 131:0 132:0.12 133:0.12 134:0.86000001 135:0 136:0.12 137:0 138:0.12 139:0 140:0.23999999 141:0 142:0.37 143:0.12 144:0.23999999 145:0.12 146:0.12 147:0.23999999 148:0.49000001 149:0.49000001 150:0.12 151:0 152:0.12 153:0.23999999 154:0.37 155:0.37 156:0.86000001 157:0.12 158:0.12 159:0.23999999 160:0.12 161:0.23999999 162:0.12 163:0.73000002 164:0.61000001 165:0.12 166:0 167:0 168:0.37 169:0.12 170:0.37 171:0.12 172:0.23999999 173:0.49000001 174:0.61000001 175:0.37 176:0.37 177:0.12 178:0.61000001 179:0.12 180:0 181:0.12 182:0.37 183:0.61000001 184:0.12 185:0.49000001 186:0.61000001 187:0.37 188:0.23999999 189:0.73000002 190:1.47 191:0.23999999 192:0.37 193:1.35 194:1.1 195:0 196:0.49000001 197:0.12 198:0.49000001 199:0 200:0 201:0 202:0 203:0.37 204:0.23999999 205:0 206:0.23999999 207:0.12 208:0.12 209:0.49000001 210:0.49000001 211:0 212:0.12 213:0.23999999 214:0.23999999 215:0.12 216:0.37 217:0.49000001 218:0.12 219:0 220:0.12 221:0.12 222:0.23999999 223:0.12 224:0.12 225:0.12 226:0.37 227:0 228:0.12 229:0.37 230:0.49000001 231:0.23999999 232:0.12 233:0.12 234:0.23999999 235:0.23999999 236:0.12 237:0.12 238:0 239:0.12 240:0.12 241:0.12 242:0.12 243:0.49000001 244:0.37 245:0.23999999 246:0.73000002 247:0.12 248:0.37 249:0.23999999 250:0.49000001 251:0.23999999 252:0 253:0 254:0.49000001 255:0.23999999 256:0.61000001 257:0.49000001 258:0.49000001 259:0 260:0 261:0.49000001 262:0.49000001 263:0.37 264:0.49000001 265:0 266:0.37 267:1.1 268:0.23999999 269:0.61000001 270:0.37 271:0.23999999 272:0.23999999 273:0.23999999 274:1.35 275:0.37 276:0.61000001 277:0.12 278:0.23999999 279:0 280:0 281:0.49000001 282:0.12 283:0 284:0.12 285:0.23999999 286:0.23999999 287:0 288:0 289:0.37 290:0.37 291:0.37 292:0.23999999 293:0.12 294:0.23999999 295:0.12 296:0.49000001 297:0 298:0 299:0 300:0.12 301:0.49000001 302:0.12 303:0.73000002 304:0.12 305:0.37 306:1.22 307:0.12 308:0.23999999 309:0.23999999 310:1.1 311:0.37 312:0.23999999 313:0.49000001 314:0.23999999 315:0.12 316:1.47 317:0.61000001 318:1.1 319:0.49000001 320:0.23999999 321:0.12 322:0.12 323:0.23999999 324:0.12 325:0.12 326:0.12 327:0.12 328:0 329:0.37 330:0.49000001 331:0.12 332:0.37 333:0.23999999 334:0 335:0 336:0.61000001 337:0.23999999 338:0.37 339:0.12 340:0.23999999 341:0.23999999 342:0.23999999 343:0 344:0.37 345:0.23999999 346:0.37 347:0 348:0.49000001 349:0.49000001 350:0.37 351:0.23999999 352:0.23999999 353:0.73000002 354:0.23999999 355:0.12 356:0.37 357:0.23999999 358:0.37 359:0 360:0 361:0.23999999 362:0 363:0 364:0 365:0 366:0.12 367:0 368:0 369:0 370:0.23999999 371:0 372:0 373:0 374:0.23999999 375:0.23999999 376:0.12 377:0 378:0.12 379:0 380:0 381:0 382:0 383:0.23999999 384:0.12 385:0 386:0.23999999 387:0.12 388:0.12 389:0 390:0.23999999 391:0 392:0 393:0 394:0.12 395:0.12 396:0.37 397:0.12 398:0 399:0 400:0 #
-0.0023852131958123981569919180856232 1:0.60000002 2:0.2 3:0.40000001 4:0.40000001 5:0.60000002 6:0.40000001 7:0.2 8:0.40000001 9:0.2 10:0.40000001 11:0 12:0 13:0 14:0 15:0.2 16:0.79000002 17:0.40000001 18:0.40000001 19:0 20:0.2 21:0 22:0 23:0 24:0.2 25:0.40000001 26:0.2 27:0.2 28:0.2 29:0.2 30:0.40000001 31:0 32:0.2 33:0 34:0.60000002 35:0.40000001 36:0.2 37:0.2 38:0 39:0 40:0 41:0.2 42:0 43:0.40000001 44:0 45:0 46:0.40000001 47:0.2 48:0.2 49:0.60000002 50:1.1900001 51:0 52:0 53:0.2 54:0.2 55:0.60000002 56:0.2 57:0.60000002 58:0 59:0 60:0 61:0.99000001 62:0 63:0.2 64:1.59 65:0.40000001 66:0.40000001 67:0 68:0.40000001 69:0.60000002 70:0.2 71:1.1900001 72:0.2 73:0.40000001 74:0.60000002 75:0.40000001 76:0 77:0.60000002 78:0.40000001 79:0 80:0 81:0.99000001 82:0 83:0.2 84:0.40000001 85:0.2 86:0.2 87:0 88:0 89:0 90:0 91:0 92:0 93:0.79000002 94:0 95:0.40000001 96:0.79000002 97:0.2 98:0.2 99:0 100:0 101:0.60000002 102:0.2 103:0.2 104:0.40000001 105:0.79000002 106:0.60000002 107:0 108:0.2 109:0.79000002 110:0.60000002 111:0.2 112:0 113:0.40000001 114:0 115:0.2 116:0.40000001 117:0 118:0.2 119:0 120:0.2 121:0 122:0 123:0 124:0 125:0 126:0.2 127:0 128:0 129:0.2 130:0 131:0 132:0.2 133:0 134:0.2 135:0.40000001 136:0 137:0 138:0 139:0 140:0.2 141:0.2 142:0.79000002 143:0 144:0 145:0 146:0 147:0 148:0.2 149:0.60000002 150:0.2 151:0 152:0.2 153:0.2 154:0.40000001 155:0.2 156:0.2 157:0.60000002 158:0.2 159:0 160:0.2 161:0.40000001 162:0.40000001 163:0.40000001 164:1.1900001 165:0.40000001 166:0.60000002 167:0 168:0.60000002 169:0.60000002 170:0.40000001 171:0.2 172:0.40000001 173:0.79000002 174:0 175:0.2 176:0.40000001 177:0.2 178:0.79000002 179:0 180:0.2 181:0.2 182:0.2 183:0.40000001 184:0.79000002 185:0 186:0.40000001 187:0.2 188:0.60000002 189:0.60000002 190:0.79000002 191:0.40000001 192:0.2 193:0.60000002 194:0.40000001 195:0.60000002 196:0.60000002 197:0.79000002 198:0.2 199:0.2 200:0 201:0.2 202:0 203:0.40000001 204:0.40000001 205:0.2 206:0.2 207:0.2 208:0 209:0.40000001 210:0.60000002 211:0.2 212:0 213:0.40000001 214:0 215:0.2 216:0.40000001 217:0.2 218:0.40000001 219:0 220:0.2 221:0.2 222:0.2 223:0.40000001 224:0 225:0 226:0.2 227:0 228:0 229:0.60000002 230:0 231:0.40000001 232:0 233:0.2 234:0 235:0.40000001 236:0.2 237:0 238:0 239:0 240:0 241:0 242:0.2 243:0 244:0.99000001 245:0.40000001 246:0.60000002 247:0 248:0.2 249:0.40000001 250:0.79000002 251:0.2 252:0.2 253:1.98 254:0 255:0.40000001 256:0.79000002 257:0.2 258:0 259:0 260:0.2 261:0 262:0 263:0.2 264:0.40000001 265:0 266:0 267:0 268:0.40000001 269:0.79000002 270:0.99000001 271:0.2 272:0 273:0 274:0 275:0 276:0.2 277:0 278:0 279:0 280:0.2 281:0.2 282:0.2 283:0.40000001 284:0.2 285:0 286:0.40000001 287:0 288:0.40000001 289:0 290:0.40000001 291:0.60000002 292:0.60000002 293:0.40000001 294:0 295:0.79000002 296:0.60000002 297:0.2 298:0.40000001 299:0 300:0.2 301:0.40000001 302:0.40000001 303:0.40000001 304:0.60000002 305:0.2 306:0.2 307:0 308:0.2 309:0.79000002 310:0.40000001 311:0.40000001 312:0.2 313:0.79000002 314:0.2 315:0 316:1.59 317:0.99000001 318:0.40000001 319:0 320:0.2 321:0.2 322:0.2 323:0.79000002 324:0.2 325:0.40000001 326:0.40000001 327:0 328:0.2 329:0.60000002 330:0.79000002 331:0.2 332:0.40000001 333:0.2 334:0.60000002 335:0.40000001 336:0.60000002 337:0.2 338:0 339:0 340:0 341:0.2 342:0.2 343:0.2 344:0.60000002 345:0.2 346:0.40000001 347:0 348:0 349:0 350:0 351:0 352:0 353:0.2 354:0.2 355:0.2 356:0.40000001 357:0.40000001 358:0.2 359:0 360:0.40000001 361:0 362:0 363:0 364:0 365:0 366:0 367:0.2 368:0 369:0 370:0 371:0 372:0 373:0 374:0 375:0 376:0 377:0 378:0 379:0 380:0 381:0.2 382:0.2 383:0 384:0.2 385:0.2 386:0.2 387:0.2 388:0 389:0.2 390:0 391:0.2 392:0 393:0.2 394:0 395:0 396:0 397:0.60000002 398:0 399:0 400:0 #
-0.0032779916389223959574672484507118 1:0.5 2:0.17 3:0 4:0.17 5:0.5 6:0.33000001 7:0.5 8:0.5 9:0.17 10:0.5 11:0.17 12:0.33000001 13:0.17 14:0.17 15:0 16:0.33000001 17:0.33000001 18:0.33000001 19:0 20:0.17 21:0.17 22:0 23:0.17 24:0.17 25:0 26:0.17 27:0 28:0.17 29:0.17 30:0.67000002 31:0 32:0.17 33:0.17 34:0.5 35:0.17 36:0 37:0.17 38:0.33000001 39:0 40:0 41:0.17 42:0 43:0 44:0 45:0.17 46:0.33000001 47:0 48:0.33000001 49:0.33000001 50:1 51:0 52:0.82999998 53:0.17 54:0.33000001 55:0 56:0.33000001 57:0.17 58:0.33000001 59:0 60:0.33000001 61:0 62:0 63:0.67000002 64:0.17 65:0.33000001 66:0.5 67:0 68:0.33000001 69:0.17 70:0.33000001 71:0.17 72:0 73:0.33000001 74:0.33000001 75:0.17 76:0.17 77:0 78:0.17 79:0.17 80:0.17 81:0.17 82:0.33000001 83:0.17 84:0.17 85:0.17 86:0.17 87:0.17 88:0 89:0.5 90:0.5 91:0.17 92:0.17 93:0.17 94:0.5 95:0 96:1 97:0 98:0.33000001 99:0 100:0.33000001 101:0.33000001 102:0.17 103:0.33000001 104:0.5 105:0.5 106:0.17 107:0.17 108:0 109:0.33000001 110:1 111:0.17 112:0 113:0.33000001 114:0.17 115:0.33000001 116:0.67000002 117:0.17 118:0.33000001 119:0.17 120:0.17 121:0.17 122:0 123:0.17 124:0 125:0 126:0.33000001 127:0 128:0.17 129:0 130:0.17 131:0.33000001 132:0 133:0 134:0.5 135:0.33000001 136:0.67000002 137:0.33000001 138:0.33000001 139:0 140:0.17 141:0.33000001 142:0 143:0.33000001 144:0 145:0.33000001 146:0 147:0 148:0.33000001 149:0.17 150:0 151:0 152:0 153:0.17 154:0.17 155:0.33000001 156:0.33000001 157:0.17 158:0.33000001 159:0 160:0 161:0 162:0.17 163:0.17 164:0.17 165:0.17 166:0.33000001 167:0 168:0.33000001 169:0 170:0.82999998 171:0 172:0.33000001 173:0.5 174:0.5 175:0.5 176:0.17 177:0.17 178:0.17 179:0 180:0.17 181:0.67000002 182:0.33000001 183:0.67000002 184:0.33000001 185:0.67000002 186:0.17 187:0.5 188:0.33000001 189:0.67000002 190:0.5 191:0 192:0.17 193:1 194:0.82999998 195:0.33000001 196:0.5 197:0.5 198:0.67000002 199:0 200:0.17 201:0 202:0 203:0.33000001 204:0.33000001 205:0 206:0 207:0.17 208:0.17 209:0 210:0 211:0.17 212:0 213:0.33000001 214:0 215:0.17 216:0.17 217:0.33000001 218:0.33000001 219:0.17 220:0.17 221:0.33000001 222:0.33000001 223:0 224:0.17 225:0.17 226:0.17 227:0.17 228:0 229:0.33000001 230:0.33000001 231:0 232:0 233:0.67000002 234:0 235:0.33000001 236:0.17 237:0.5 238:0 239:0 240:0.5 241:0.33000001 242:0.33000001 243:0.17 244:0.33000001 245:0.17 246:0.67000002 247:0.5 248:0 249:0.5 250:0.17 251:0.17 252:0.5 253:1.34 254:0.5 255:0 256:1.84 257:0 258:0.82999998 259:0 260:0 261:0.5 262:0.17 263:0.33000001 264:0.17 265:0.33000001 266:0.33000001 267:0.33000001 268:0 269:0.33000001 270:0.33000001 271:0.67000002 272:0.33000001 273:0.17 274:0.33000001 275:0.33000001 276:1.17 277:0 278:0.5 279:0 280:0.17 281:0.17 282:0.17 283:0 284:0.17 285:0.5 286:0.82999998 287:0.17 288:0.17 289:0.33000001 290:0.67000002 291:0 292:0.17 293:0.17 294:0 295:0.5 296:0.17 297:0.67000002 298:0.17 299:0 300:0 301:0.82999998 302:0.5 303:0.17 304:0.17 305:0.67000002 306:0.33000001 307:0.5 308:0.17 309:0.33000001 310:1 311:0.67000002 312:0.67000002 313:1.5 314:0.33000001 315:0.5 316:0.82999998 317:0.33000001 318:0 319:0 320:0.5 321:0.33000001 322:0.17 323:0.17 324:0.33000001 325:0.33000001 326:0.67000002 327:0.17 328:0 329:0 330:0.33000001 331:0 332:0.17 333:0.67000002 334:0.33000001 335:0 336:0.33000001 337:0.17 338:0.17 339:0 340:0 341:0.17 342:0.33000001 343:0.67000002 344:0.67000002 345:0 346:0.17 347:0 348:0 349:0.33000001 350:0.33000001 351:0 352:0.17 353:0.5 354:0.67000002 355:0.82999998 356:0.67000002 357:0.33000001 358:0.5 359:0 360:0 361:0.17 362:0 363:0 364:0.17 365:0 366:0 367:0 368:0 369:0 370:0 371:0 372:0 373:0 374:0 375:0 376:0 377:0 378:0.17 379:0 380:0 381:0 382:0 383:0.33000001 384:0 385:0.17 386:0.33000001 387:0.33000001 388:0 389:0 390:0.33000001 391:0 392:0.17 393:0 394:0.33000001 395:0.17 396:0.5 397:0 398:0.33000001 399:0 400:0 #
-0.01669362824966643191193504947023 1:0.38999999 2:0.57999998 3:0 4:0 5:0.38999999 6:0.38999999 7:0.38999999 8:0.38999999 9:0.38999999 10:0.38999999 11:0 12:0 13:0.57999998 14:0.19 15:0 16:0.38999999 17:0.57999998 18:0.77999997 19:0.19 20:0.38999999 21:0 22:0.19 23:0.19 24:0.57999998 25:0 26:0.19 27:0.19 28:0.77999997 29:0.57999998 30:0 31:0.57999998 32:0 33:0.57999998 34:0.19 35:0.19 36:0.19 37:0.19 38:0.57999998 39:0 40:0 41:0.19 42:0 43:0.38999999 44:0.38999999 45:0.19 46:0 47:0 48:0.19 49:0.57999998 50:0.97000003 51:0.19 52:0 53:0.19 54:0.19 55:0.19 56:0.97000003 57:0.38999999 58:0.38999999 59:0 60:0.19 61:0.38999999 62:0.38999999 63:0.77999997 64:0.77999997 65:0 66:0.57999998 67:0.19 68:0.19 69:0.57999998 70:0.97000003 71:0.19 72:0.19 73:0.19 74:0.19 75:0.38999999 76:0 77:0.19 78:0.77999997 79:0.19 80:0 81:0.19 82:0.19 83:0.19 84:0.38999999 85:0.19 86:0 87:0 88:0 89:0.38999999 90:0.77999997 91:0 92:0.19 93:0.38999999 94:0 95:0.19 96:0.19 97:0.19 98:0 99:0.19 100:0 101:0.19 102:0.57999998 103:0.19 104:0.19 105:0.19 106:0.38999999 107:0.19 108:0 109:0.19 110:0.77999997 111:0.38999999 112:0.19 113:0 114:0.57999998 115:0 116:0.77999997 117:0 118:0.19 119:0 120:0.38999999 121:0.19 122:0 123:0 124:0.19 125:0.38999999 126:0 127:0.19 128:0 129:0.38999999 130:0.38999999 131:0.19 132:0 133:0.19 134:0 135:0 136:0.19 137:0 138:0.38999999 139:0.19 140:0.38999999 141:0 142:0.38999999 143:0.19 144:0.38999999 145:0.19 146:0.57999998 147:0 148:0.57999998 149:0.19 150:0.19 151:0.19 152:0.19 153:0.19 154:0.19 155:0 156:0 157:0.57999998 158:0.19 159:0 160:0.38999999 161:0.38999999 162:0.38999999 163:0.38999999 164:0 165:0.19 166:0.57999998 167:0.19 168:0.19 169:0.57999998 170:0.57999998 171:0.19 172:0.19 173:0.38999999 174:0.19 175:0.77999997 176:0.57999998 177:0.19 178:0.57999998 179:0 180:0.38999999 181:0.97000003 182:0.19 183:0.97000003 184:0.77999997 185:0.57999998 186:0.38999999 187:0.57999998 188:0.38999999 189:0.38999999 190:0.97000003 191:0.38999999 192:0.38999999 193:0.77999997 194:0.38999999 195:0.38999999 196:0.38999999 197:0.19 198:0.19 199:0 200:0 201:0.57999998 202:0.19 203:0.19 204:0.38999999 205:0.19 206:0 207:0 208:0.19 209:0.38999999 210:0 211:0 212:0.19 213:0 214:0.19 215:0 216:0.57999998 217:0 218:0 219:0 220:0 221:0.38999999 222:0 223:0 224:0 225:0 226:0.38999999 227:0 228:0 229:0 230:0.38999999 231:0 232:0 233:0 234:0.38999999 235:0.38999999 236:0 237:0 238:0 239:0 240:0.38999999 241:0.77999997 242:0.19 243:0.19 244:0.97000003 245:0.19 246:0.77999997 247:0.19 248:0.19 249:0.19 250:0.19 251:0.19 252:0 253:0.38999999 254:0.19 255:0 256:0.57999998 257:0.38999999 258:0 259:0 260:0.19 261:0.77999997 262:0.19 263:0.19 264:0.19 265:0 266:0.19 267:0 268:0.19 269:0.57999998 270:0.19 271:0 272:0 273:0.38999999 274:0 275:0 276:0 277:0 278:0.57999998 279:0 280:0.19 281:0.19 282:0.38999999 283:0 284:0.38999999 285:0.38999999 286:0.38999999 287:0 288:0.19 289:0.57999998 290:0.19 291:0.19 292:0.19 293:0.19 294:0 295:0.57999998 296:0.19 297:0.19 298:0.38999999 299:0 300:0.38999999 301:0.19 302:0.19 303:0.57999998 304:0.19 305:0.38999999 306:0.19 307:0.57999998 308:0.57999998 309:0.38999999 310:0.57999998 311:0 312:0.19 313:0.38999999 314:0.38999999 315:0.38999999 316:0.57999998 317:0 318:0 319:0 320:0.57999998 321:0.19 322:0.38999999 323:0.77999997 324:0.57999998 325:0 326:0.19 327:0.19 328:0.19 329:0.38999999 330:0.57999998 331:0 332:0.19 333:0.19 334:0 335:0.57999998 336:0 337:0 338:0.19 339:0 340:0 341:0.38999999 342:0.57999998 343:0.38999999 344:0.38999999 345:0.19 346:0.19 347:0.19 348:0 349:0 350:0.38999999 351:0 352:0.19 353:0.38999999 354:0.19 355:0.57999998 356:0.19 357:1.17 358:0.57999998 359:0 360:0 361:0 362:0 363:0 364:0.19 365:0 366:0 367:0 368:0 369:0.19 370:0 371:0 372:0 373:0.19 374:0 375:0 376:0 377:0.19 378:0 379:0 380:0 381:0 382:0.19 383:0.19 384:0.19 385:0 386:0 387:0.19 388:0.38999999 389:0 390:0.77999997 391:0.19 392:0 393:0.19 394:0.19 395:0.38999999 396:0.57999998 397:0.19 398:0.19 399:0 400:0 #
-0.013336547506194876624996403791101 1:0.80000001 2:0.2 3:0.40000001 4:0.40000001 5:0 6:0.2 7:0.40000001 8:0.2 9:0.40000001 10:1 11:0 12:0.2 13:0.60000002 14:0.40000001 15:0.40000001 16:0.80000001 17:0.2 18:0.2 19:0 20:0.40000001 21:0.40000001 22:0 23:0 24:0.40000001 25:0 26:0.2 27:0.2 28:0.40000001 29:0.40000001 30:0.40000001 31:0 32:0.2 33:0.40000001 34:0 35:0.2 36:0 37:0 38:0 39:0.2 40:0.2 41:0 42:0.2 43:0 44:0.2 45:0 46:0 47:0.2 48:0 49:0.40000001 50:0.2 51:0 52:0 53:0 54:0.60000002 55:0.80000001 56:0.2 57:0.2 58:0.2 59:0 60:1 61:0.40000001 62:0 63:0.40000001 64:0.2 65:0.2 66:0 67:0.2 68:0 69:0 70:1.59 71:0.2 72:0.2 73:0 74:0.80000001 75:0.40000001 76:0.80000001 77:0.2 78:0.40000001 79:0.2 80:0.40000001 81:0 82:0.2 83:0 84:0 85:0.40000001 86:0.40000001 87:0 88:0 89:0.40000001 90:0 91:0 92:0.2 93:0.2 94:0.2 95:0 96:0.60000002 97:0 98:0.2 99:0 100:0 101:0 102:0 103:0.40000001 104:0.2 105:0.2 106:0.2 107:0 108:0 109:0.2 110:0.80000001 111:0.40000001 112:0 113:0.2 114:0.40000001 115:0.2 116:0 117:0.2 118:0.2 119:0 120:0.40000001 121:0.2 122:0 123:0 124:0 125:0 126:0.2 127:0.40000001 128:0 129:0 130:1 131:0.2 132:0.2 133:0 134:0 135:0 136:0 137:0.2 138:0 139:0 140:0.60000002 141:0.2 142:0 143:0.2 144:0.2 145:0.2 146:0.2 147:0 148:0 149:0.2 150:0.40000001 151:0 152:0 153:0.60000002 154:0.2 155:0.2 156:0.2 157:0.2 158:0.2 159:0 160:0 161:0.2 162:0.2 163:0 164:0.40000001 165:0.2 166:0.2 167:0.2 168:0.40000001 169:0.2 170:0.40000001 171:0.2 172:0.2 173:0 174:0.40000001 175:1 176:0.2 177:0.2 178:0.40000001 179:0 180:0.2 181:0.80000001 182:0.60000002 183:0.40000001 184:1 185:0.40000001 186:0.2 187:0.60000002 188:0.80000001 189:0.80000001 190:1.79 191:0.40000001 192:0.60000002 193:0.60000002 194:0.60000002 195:0.60000002 196:1 197:0.60000002 198:0.80000001 199:0 200:0.2 201:0.2 202:0.2 203:0.2 204:0.2 205:0 206:0 207:0 208:0.2 209:0.2 210:0.2 211:0 212:0 213:0 214:0 215:0.40000001 216:0.2 217:0 218:0 219:0 220:0.2 221:0.2 222:0.2 223:0 224:0 225:0 226:0.2 227:0 228:0.2 229:0.40000001 230:0.40000001 231:0 232:0.40000001 233:0.2 234:0.40000001 235:0 236:0.2 237:0.40000001 238:0.2 239:0 240:0 241:0.80000001 242:0.2 243:0.60000002 244:0.40000001 245:0.2 246:0.2 247:0 248:0.2 249:0.2 250:1 251:0.2 252:0 253:0.60000002 254:0.40000001 255:0 256:0.2 257:0.40000001 258:0.2 259:0 260:0.2 261:0.40000001 262:0 263:0.40000001 264:1 265:0.2 266:0 267:0 268:0.2 269:0.40000001 270:0.40000001 271:0.2 272:0.60000002 273:0.2 274:0.40000001 275:0.40000001 276:0.40000001 277:0.40000001 278:0.60000002 279:0 280:0.2 281:1 282:0.40000001 283:0.2 284:0.40000001 285:0.40000001 286:0.40000001 287:0 288:0 289:0.2 290:0.80000001 291:0.2 292:0.40000001 293:0 294:0.2 295:0.2 296:0.40000001 297:0.40000001 298:0 299:0 300:0.2 301:0.60000002 302:0.40000001 303:0.2 304:0.60000002 305:0.2 306:0.60000002 307:0 308:0.40000001 309:0.2 310:0.60000002 311:0 312:0 313:0.60000002 314:0.40000001 315:0.40000001 316:1 317:1 318:0.60000002 319:0 320:0.2 321:0.40000001 322:0.60000002 323:0.40000001 324:0 325:0.2 326:0.2 327:0.2 328:0.2 329:0 330:0.80000001 331:0 332:0 333:0.60000002 334:0.60000002 335:0.2 336:0.80000001 337:0 338:0.40000001 339:0 340:0.2 341:0.2 342:0.2 343:0.2 344:0.60000002 345:0 346:0.40000001 347:0.40000001 348:0 349:0.2 350:0.60000002 351:0 352:0.2 353:0.40000001 354:0.40000001 355:0.40000001 356:0.40000001 357:0.2 358:0 359:0 360:0.2 361:0.2 362:0 363:0 364:0 365:0 366:0 367:0 368:0 369:0 370:0 371:0 372:0 373:0 374:0 375:0 376:0.2 377:0 378:0 379:0 380:0 381:0.2 382:0 383:0.2 384:0.40000001 385:0 386:0.2 387:0.2 388:0.2 389:0.40000001 390:0.40000001 391:0 392:0 393:0.80000001 394:0 395:0 396:0.40000001 397:1 398:0.40000001 399:0 400:0 #
-0.0080313273683510003064789373183885 1:0.28 2:0 3:0 4:0.14 5:0.14 6:0.69999999 7:0 8:0.41999999 9:0.28 10:0.85000002 11:0.28 12:0 13:0.14 14:0.28 15:0 16:0.69999999 17:0.28 18:0.28 19:0 20:0.28 21:0.14 22:0.14 23:0 24:0.14 25:0 26:0.14 27:0.28 28:0.28 29:0.28 30:0.56 31:0.14 32:0 33:0.14 34:0.28 35:0.14 36:0.41999999 37:0 38:0.14 39:0 40:0 41:0.28 42:0.14 43:0.41999999 44:0.41999999 45:0.14 46:0.28 47:0.14 48:0 49:0.56 50:0.28 51:0 52:0.56 53:0.56 54:0.41999999 55:0.14 56:0.69999999 57:0.28 58:0 59:0 60:0.28 61:0.28 62:0.14 63:0.56 64:0.41999999 65:0.56 66:0.56 67:0 68:0.28 69:0.14 70:0.69999999 71:0.41999999 72:0.14 73:0.14 74:0.28 75:0.28 76:0.14 77:0.28 78:0.56 79:0 80:0.41999999 81:0.28 82:0 83:0.28 84:0 85:0.14 86:0 87:0.14 88:0 89:0.28 90:0.41999999 91:0 92:0 93:0.28 94:0.28 95:0.28 96:0 97:0 98:0.28 99:0 100:0.28 101:0.14 102:0.14 103:0.28 104:0.14 105:0.28 106:0.41999999 107:0 108:0.14 109:0.56 110:0.14 111:0.41999999 112:0 113:0.28 114:0.56 115:0.69999999 116:0.41999999 117:0.28 118:0.41999999 119:0.14 120:0.14 121:0 122:0 123:0.14 124:0.14 125:0 126:0.28 127:0.14 128:0.28 129:0.28 130:0.69999999 131:0 132:0.14 133:0.28 134:0.28 135:0 136:0.14 137:0 138:0.14 139:0 140:0.28 141:0.28 142:0.41999999 143:0.14 144:0.69999999 145:0.28 146:0.28 147:0 148:0.14 149:0.14 150:0.56 151:0 152:0 153:0.56 154:0 155:0.28 156:0.69999999 157:0 158:0 159:0 160:0 161:0.41999999 162:0.14 163:0.14 164:0.28 165:0.14 166:0.41999999 167:0.41999999 168:0.56 169:0.69999999 170:0.14 171:0.14 172:0.14 173:0.41999999 174:0.41999999 175:0.14 176:0.85000002 177:0.14 178:0.41999999 179:0.14 180:0.14 181:0.41999999 182:0.85000002 183:0.69999999 184:0.85000002 185:0 186:0.56 187:0.28 188:0.41999999 189:0.41999999 190:0.99000001 191:0.14 192:0.69999999 193:1.13 194:0.85000002 195:0.14 196:0.56 197:0.56 198:0.41999999 199:0 200:0.69999999 201:0.14 202:0.14 203:0 204:0.28 205:0 206:0.14 207:0.41999999 208:0 209:0.28 210:0.28 211:0.14 212:0 213:0.28 214:0 215:0.28 216:0.14 217:0.14 218:0.41999999 219:0 220:0 221:0.14 222:0.14 223:0.56 224:0.28 225:0.14 226:0 227:0 228:0 229:0.14 230:0.14 231:0.14 232:0.14 233:0.14 234:0.14 235:0.14 236:0.14 237:0.28 238:0 239:0 240:0.41999999 241:0.28 242:0.14 243:0.69999999 244:0.85000002 245:0 246:0.85000002 247:0 248:0 249:0.28 250:0.41999999 251:0.41999999 252:0 253:0.14 254:0.28 255:0.28 256:0.69999999 257:0.28 258:0.14 259:0.14 260:0.14 261:0.28 262:0.14 263:0.28 264:0.69999999 265:0 266:0 267:0.14 268:0.41999999 269:0.28 270:0.85000002 271:0.28 272:0.28 273:0.28 274:0.28 275:0.28 276:0.69999999 277:0 278:0.14 279:0 280:0.56 281:0.28 282:0 283:0 284:0.28 285:0.14 286:0 287:0.69999999 288:0.14 289:0.41999999 290:0.28 291:0.14 292:0.28 293:0.28 294:0.28 295:0.56 296:0.41999999 297:0 298:0.14 299:0 300:0 301:0.69999999 302:0.41999999 303:0.41999999 304:0.14 305:0.14 306:0.41999999 307:0.41999999 308:0.56 309:0.41999999 310:1.55 311:0.14 312:0.41999999 313:0.28 314:0.69999999 315:0.41999999 316:1.97 317:0.41999999 318:0.28 319:0.14 320:0.56 321:0.28 322:0.14 323:0.14 324:0.14 325:0.14 326:0.14 327:0 328:0.14 329:0.41999999 330:0.56 331:0 332:0 333:0.28 334:0 335:0.14 336:0.69999999 337:0.41999999 338:0.14 339:0 340:0 341:0.14 342:0 343:0.28 344:0.28 345:0.28 346:0 347:0 348:0.28 349:0.41999999 350:0.99000001 351:0 352:0.14 353:0.28 354:0.14 355:0 356:0.41999999 357:0.14 358:0.28 359:0.14 360:0.14 361:0 362:0 363:0.14 364:0 365:0 366:0 367:0 368:0 369:0 370:0 371:0.14 372:0 373:0 374:0 375:0.14 376:0.14 377:0.14 378:0 379:0 380:0 381:0.28 382:0.14 383:0.41999999 384:0.14 385:0.41999999 386:0.41999999 387:0.14 388:0.41999999 389:0.14 390:0.28 391:0 392:0.14 393:0.14 394:0.41999999 395:0 396:0.56 397:0.14 398:0.14 399:0 400:0 #
-0.002242000146479235060670287538187 1:0.81 2:0 3:0.34999999 4:0.57999998 5:0 6:0.69 7:0.46000001 8:0.12 9:0.34999999 10:0.81 11:0.12 12:0.57999998 13:0.12 14:0.12 15:0.34999999 16:1.27 17:0.23 18:0.12 19:0 20:0.34999999 21:0 22:0 23:0.23 24:0.12 25:0 26:0.23 27:0.12 28:0 29:0.23 30:0.46000001 31:0 32:0.12 33:0 34:0.12 35:0.12 36:0.34999999 37:0.12 38:0.23 39:0 40:0 41:0.12 42:0.12 43:0.57999998 44:0.69 45:0.57999998 46:0.34999999 47:0 48:0.12 49:0.12 50:0.23 51:0 52:0.12 53:0.12 54:0.12 55:0.12 56:0.69 57:0.23 58:0.23 59:0.12 60:0 61:0.81 62:0 63:0.92000002 64:2.4300001 65:0.23 66:0.23 67:0 68:0.34999999 69:0.12 70:1.04 71:0 72:0 73:0.12 74:0.57999998 75:0 76:0.34999999 77:0.12 78:0.12 79:0 80:0.12 81:0.34999999 82:0.12 83:0.23 84:0.12 85:0.34999999 86:0.23 87:0 88:0 89:0.12 90:0 91:0 92:0.23 93:0 94:0.12 95:0.12 96:0.34999999 97:0.23 98:0.23 99:0 100:0.12 101:0.69 102:0.34999999 103:0.12 104:0.12 105:0.34999999 106:0.69 107:0.12 108:0.12 109:0.12 110:0.57999998 111:0.46000001 112:0.12 113:0.12 114:0.12 115:0.34999999 116:0.69 117:0.23 118:0.69 119:0 120:0.12 121:0 122:0.12 123:0.12 124:0 125:0.23 126:0 127:0.23 128:0 129:0 130:0.46000001 131:0 132:0.12 133:0.34999999 134:1.04 135:0.23 136:0.23 137:0.12 138:0.23 139:0 140:0.12 141:0.23 142:0 143:0 144:0.34999999 145:0.12 146:0.23 147:0 148:0 149:0.23 150:0.34999999 151:0.12 152:0.12 153:0.23 154:0.12 155:0.23 156:0.23 157:0 158:0.12 159:0.12 160:0 161:0.23 162:0.23 163:0.12 164:0.12 165:0 166:0.12 167:0.23 168:0.23 169:0.12 170:0.34999999 171:0 172:0 173:0 174:0.46000001 175:0.23 176:0.12 177:0.12 178:0.23 179:0 180:0 181:0.46000001 182:0 183:0.23 184:0.69 185:0.23 186:0.34999999 187:0.34999999 188:0.46000001 189:0 190:0.69 191:0.23 192:0.92000002 193:0.34999999 194:1.04 195:0.69 196:0.69 197:0.57999998 198:0.46000001 199:0.12 200:0.23 201:0.12 202:0.34999999 203:0.12 204:0 205:0 206:0.12 207:0 208:0 209:0 210:0 211:0 212:0.12 213:0.12 214:0 215:0.12 216:0.12 217:0 218:0.23 219:0 220:0 221:0.46000001 222:0.23 223:0 224:0.34999999 225:0.23 226:0.57999998 227:0.12 228:0 229:0.12 230:0.12 231:0 232:1.39 233:0.12 234:0 235:0.23 236:0.57999998 237:0.23 238:0.12 239:0.12 240:0 241:0.46000001 242:0.12 243:0.12 244:0.23 245:0 246:0.34999999 247:0.12 248:0 249:0.34999999 250:0.34999999 251:0 252:0 253:0.12 254:0.81 255:0 256:0.57999998 257:0.12 258:0.23 259:0 260:0 261:0.34999999 262:0 263:0.12 264:0.23 265:0.23 266:0.12 267:1.16 268:0.46000001 269:0.34999999 270:1.27 271:0.12 272:0.12 273:0.46000001 274:5.7800002 275:0.23 276:0.12 277:0.23 278:0.23 279:0 280:0.12 281:0.34999999 282:0.23 283:0.46000001 284:0.34999999 285:0.12 286:0 287:0 288:0.12 289:0 290:0.46000001 291:0.12 292:0.12 293:0.12 294:0.23 295:0.23 296:0.81 297:0.12 298:0.57999998 299:0 300:0.12 301:1.27 302:0.23 303:0.46000001 304:0.69 305:0.23 306:0.92000002 307:0.23 308:0.23 309:0.23 310:0.57999998 311:0.12 312:0.57999998 313:0.57999998 314:0.12 315:0.46000001 316:4.0500002 317:0.69 318:0.69 319:0 320:0.12 321:0.12 322:0.12 323:0.12 324:0.23 325:0 326:0 327:0.23 328:0.23 329:0.12 330:0.57999998 331:0 332:0 333:0.57999998 334:0.46000001 335:0.34999999 336:0.57999998 337:0.12 338:0.34999999 339:0 340:0 341:0.57999998 342:0.12 343:0.12 344:0.23 345:0 346:0.57999998 347:0.12 348:0.34999999 349:0.34999999 350:0.12 351:0 352:0.34999999 353:0.46000001 354:0.23 355:0.23 356:0.57999998 357:0.34999999 358:0.57999998 359:0.12 360:0.23 361:0 362:0 363:0 364:0 365:0 366:0 367:0 368:0 369:0 370:0.34999999 371:0 372:0 373:0 374:0.12 375:0 376:0 377:0.12 378:0 379:0 380:0 381:0 382:0.12 383:0.23 384:0 385:0 386:0.34999999 387:0.12 388:0 389:0 390:0.12 391:0 392:0 393:0 394:0.12 395:0.23 396:0.12 397:0.23 398:0 399:0 400:0 #
-0.0064308181723152172543089832856822 1:0.33000001 2:0.33000001 3:0.5 4:0.17 5:0 6:0.17 7:0 8:0.17 9:0.17 10:0.99000001 11:0.33000001 12:0.33000001 13:0.33000001 14:0.17 15:0.66000003 16:0.99000001 17:0.17 18:0.5 19:0 20:0.66000003 21:0.17 22:0 23:0.17 24:0.33000001 25:0 26:0.17 27:0 28:0.17 29:0.33000001 30:0.33000001 31:0.33000001 32:0.17 33:0.17 34:0.17 35:0.33000001 36:0.17 37:0 38:0.17 39:0 40:0 41:0.82999998 42:0 43:0.17 44:0.66000003 45:0 46:0.17 47:0.17 48:0 49:0.17 50:0.5 51:0.33000001 52:0.5 53:0.17 54:0.17 55:0.5 56:0.33000001 57:0 58:0.17 59:0 60:0 61:0.17 62:0.33000001 63:0.66000003 64:1.16 65:0.17 66:0.33000001 67:0 68:0.33000001 69:0.33000001 70:0.66000003 71:0.33000001 72:0.33000001 73:0.17 74:0.5 75:0 76:0.66000003 77:0.17 78:0.82999998 79:0.17 80:0.17 81:0.82999998 82:0.17 83:0.17 84:0 85:0.17 86:0.17 87:0 88:0 89:0 90:0.17 91:0 92:0 93:0.17 94:0 95:0.33000001 96:0.33000001 97:0 98:0 99:0 100:0 101:0.33000001 102:0.5 103:0.17 104:0 105:0.5 106:0.5 107:0.17 108:0.33000001 109:0 110:0.5 111:0.5 112:0 113:0.17 114:0 115:0.5 116:0 117:0.17 118:0 119:0 120:0.33000001 121:0.17 122:0 123:0 124:0.17 125:0.33000001 126:0 127:0 128:0 129:0 130:0 131:0.17 132:0 133:0.33000001 134:0 135:0 136:0 137:0 138:0 139:0 140:0.17 141:0.17 142:0.17 143:0 144:0.17 145:0.17 146:0 147:0.17 148:0.17 149:0 150:0.5 151:0.17 152:0.33000001 153:0.17 154:0.33000001 155:0 156:0.33000001 157:0.66000003 158:0.33000001 159:0.17 160:0.33000001 161:0.5 162:0.33000001 163:0.33000001 164:0 165:0.17 166:0.66000003 167:0 168:0.17 169:0.5 170:0.5 171:0 172:0.66000003 173:0 174:0 175:0.17 176:0.5 177:0 178:0 179:0 180:0 181:0.33000001 182:0.17 183:0.17 184:0.66000003 185:0.33000001 186:0.5 187:0.17 188:0.33000001 189:0.82999998 190:0.82999998 191:0.17 192:0.33000001 193:1.3200001 194:0.17 195:0.66000003 196:0.66000003 197:0.66000003 198:0.66000003 199:0.17 200:0 201:0.17 202:0.17 203:0.33000001 204:0.17 205:0.17 206:0.17 207:0 208:0 209:0 210:0.33000001 211:0.17 212:0 213:0.5 214:0.33000001 215:0.66000003 216:0.5 217:0.17 218:0.17 219:0 220:0.17 221:0.33000001 222:0 223:0 224:0.17 225:0 226:0.5 227:0 228:0.17 229:0.33000001 230:0 231:0.33000001 232:0.33000001 233:0.17 234:0.33000001 235:0.33000001 236:0.33000001 237:0.33000001 238:0.5 239:0 240:0.17 241:0.66000003 242:0 243:0 244:0.66000003 245:0.33000001 246:0.33000001 247:0.17 248:0.17 249:0.17 250:0.5 251:0.17 252:0 253:1.65 254:0.17 255:0.33000001 256:0.66000003 257:0.82999998 258:0.33000001 259:0 260:0 261:0 262:0.17 263:0 264:0.66000003 265:0 266:0.17 267:0 268:0.33000001 269:0.66000003 270:0.33000001 271:0 272:0.5 273:0.66000003 274:0.82999998 275:0.33000001 276:0.5 277:0.17 278:0 279:0 280:0 281:0.5 282:0.33000001 283:0.17 284:0.33000001 285:0 286:0 287:0 288:0.5 289:0.33000001 290:0.5 291:0.17 292:0 293:0.33000001 294:1.16 295:0.99000001 296:0.17 297:0.17 298:0.5 299:0.17 300:0.5 301:0.66000003 302:0 303:0.99000001 304:0.82999998 305:0.17 306:0.33000001 307:0 308:0.17 309:0.33000001 310:0.99000001 311:0.17 312:0.33000001 313:0.5 314:0.17 315:0.17 316:1.49 317:0.17 318:0.82999998 319:0 320:0.17 321:0.33000001 322:0.17 323:0.17 324:0.33000001 325:0 326:0 327:0.17 328:0.17 329:0.17 330:0.66000003 331:0.17 332:0.17 333:0.17 334:0.33000001 335:0.33000001 336:0.17 337:0.66000003 338:0.5 339:0.17 340:0.17 341:0.5 342:0.17 343:0.17 344:0.82999998 345:0 346:0.33000001 347:0.17 348:0.82999998 349:0.17 350:0.66000003 351:0.33000001 352:0 353:0.17 354:0.17 355:0.17 356:0.33000001 357:0.5 358:0.33000001 359:0.17 360:0.17 361:0 362:0.17 363:0.17 364:0 365:0 366:0 367:0 368:0 369:0 370:0 371:0 372:0 373:0 374:0.17 375:0 376:0.33000001 377:0 378:0 379:0 380:0.17 381:0 382:0 383:0.5 384:0.17 385:0 386:0.17 387:0.17 388:0.33000001 389:0 390:0.33000001 391:0.17 392:0.33000001 393:0 394:0.17 395:0.33000001 396:0 397:0.17 398:0.33000001 399:0 400:0.17 #
-0.0039292095791781250779806100581482 1:0.34 2:0 3:0.51999998 4:0.17 5:0.34 6:0.69 7:0 8:0.69 9:0.17 10:0.51999998 11:0.17 12:0.34 13:0 14:1.03 15:0.17 16:1.03 17:0.51999998 18:0.34 19:0 20:0.34 21:0.51999998 22:0 23:0 24:0.51999998 25:0 26:0.17 27:0 28:0 29:0.17 30:0.17 31:0 32:0 33:0 34:0.34 35:0.34 36:0 37:0 38:0 39:0.17 40:0 41:0.34 42:0.17 43:0 44:0 45:0 46:0 47:0.34 48:0.17 49:0.69 50:0.51999998 51:0.34 52:0.17 53:0 54:0.86000001 55:0.17 56:0.86000001 57:0.17 58:0.34 59:0 60:0.34 61:0.51999998 62:0 63:0.17 64:0.51999998 65:0.34 66:0.34 67:0.17 68:0 69:0.17 70:0.86000001 71:0.17 72:0 73:0 74:0.17 75:0.34 76:0.17 77:0.17 78:0.17 79:0 80:0 81:0.34 82:0 83:0.34 84:0 85:0.34 86:0 87:0 88:0 89:0.34 90:0.34 91:0 92:0 93:0 94:0.34 95:0 96:0.51999998 97:0.17 98:0.34 99:0 100:0 101:0.17 102:0.17 103:1.03 104:0 105:0.17 106:0.69 107:0 108:0.17 109:0 110:0.69 111:0.69 112:0.69 113:0.17 114:0 115:0.17 116:0.51999998 117:0.17 118:0 119:0 120:0.17 121:0 122:0 123:0.17 124:0 125:0 126:0 127:0.17 128:0.17 129:0 130:0.34 131:0.17 132:0.17 133:0.17 134:0 135:0 136:0.17 137:0.17 138:0 139:0.17 140:0.34 141:0 142:0.17 143:0.51999998 144:0.34 145:0 146:0.34 147:0 148:0.51999998 149:0.34 150:0.51999998 151:0.17 152:0.17 153:0.17 154:0 155:0.51999998 156:0.51999998 157:0.17 158:0.34 159:0.17 160:0.34 161:0.69 162:0.34 163:0.34 164:0 165:0.34 166:0.17 167:0.34 168:0.17 169:0.17 170:1.37 171:0 172:0 173:0.17 174:0 175:0.17 176:0.34 177:0.69 178:0.17 179:0 180:0 181:0.69 182:0.17 183:0.51999998 184:0 185:0.86000001 186:0.34 187:0.17 188:0.51999998 189:0.34 190:0.86000001 191:0 192:0.69 193:0.34 194:0.86000001 195:0.69 196:1.55 197:0.69 198:0.51999998 199:0 200:0 201:0.51999998 202:0 203:0 204:0.51999998 205:0 206:0.34 207:0.17 208:0 209:0.34 210:0.17 211:0.17 212:0.17 213:0.17 214:0.17 215:0 216:0.34 217:0.17 218:0.34 219:0 220:0 221:0 222:0.17 223:0.17 224:0 225:0 226:0.34 227:0.17 228:0 229:0.34 230:0 231:0.17 232:0 233:0 234:0 235:0.69 236:0.17 237:0.17 238:0.86000001 239:0 240:0 241:0.34 242:0 243:0.17 244:0 245:0 246:0.69 247:0 248:0.17 249:0 250:0.34 251:0.34 252:0 253:0 254:0.34 255:0.17 256:0.86000001 257:0.51999998 258:0.17 259:0 260:0.17 261:0.51999998 262:0.34 263:0.34 264:0.34 265:0.34 266:0.86000001 267:0 268:1.2 269:0.34 270:0.17 271:0.17 272:0 273:0 274:0.51999998 275:0 276:0.17 277:1.2 278:0.34 279:0 280:0.17 281:0 282:0.17 283:0.17 284:0.17 285:0.17 286:0.17 287:0.17 288:0 289:0.34 290:0.86000001 291:0.17 292:0.17 293:0.17 294:0.34 295:0 296:0.69 297:0 298:0.34 299:0 300:0 301:1.55 302:0.17 303:0.51999998 304:0.69 305:0 306:0.34 307:0.17 308:0.51999998 309:0.69 310:0.69 311:0.34 312:0.34 313:1.89 314:0.69 315:0.17 316:0.51999998 317:0.86000001 318:0.51999998 319:0 320:0 321:0.69 322:0.17 323:0.34 324:0.34 325:0.17 326:0.17 327:0.17 328:0.51999998 329:0.17 330:0.69 331:0.17 332:0 333:0.86000001 334:0 335:0.17 336:1.55 337:1.2 338:0.34 339:0 340:0.17 341:0 342:0.17 343:0.17 344:0.51999998 345:0 346:0 347:0.17 348:0 349:0.51999998 350:0.51999998 351:0.17 352:0.17 353:0 354:1.37 355:0.34 356:0.34 357:0.69 358:0.17 359:0 360:0 361:0.17 362:0 363:0 364:0 365:0 366:0 367:0 368:0 369:0.17 370:0 371:0 372:0 373:0 374:0 375:0 376:0.17 377:0 378:0 379:0 380:0 381:0 382:0.17 383:0 384:0.17 385:0 386:0.17 387:0 388:0.51999998 389:0.17 390:0.17 391:0 392:0.17 393:0.17 394:0 395:0 396:0.17 397:0.17 398:0 399:0 400:0 #
