SVM-light Version V6.02
1 # kernel type
2 # kernel parameter -d 
1 # kernel parameter -g 
1 # kernel parameter -s 
1 # kernel parameter -r 
empty# kernel parameter -u 
400 # highest feature index 
159 # number of training documents 
53 # number of support vectors plus 1 
1.1979328 # threshold b, each following line is a SV (starting with alpha*y)
-0.0001896572301771152731838382399232 1:6.6700001 2:0.20999999 3:0.62 4:0.41999999 5:0.41999999 6:0.41999999 7:0.20999999 8:0.20999999 9:0.20999999 10:0.20999999 11:0.20999999 12:0.20999999 13:0.20999999 14:0.20999999 15:0.41999999 16:1.46 17:0.82999998 18:0.62 19:0 20:0.20999999 21:0 22:0 23:0 24:0.20999999 25:0 26:0.20999999 27:0 28:0.20999999 29:0.82999998 30:0.41999999 31:0 32:0 33:0 34:0 35:0.20999999 36:0.62 37:0.20999999 38:0.20999999 39:0 40:0.20999999 41:0.41999999 42:0 43:0.41999999 44:0.20999999 45:0 46:0.41999999 47:0 48:0 49:0.20999999 50:0.41999999 51:0 52:0 53:0 54:0 55:0 56:0.41999999 57:0 58:0.62 59:0 60:0 61:0.41999999 62:0.41999999 63:0 64:0 65:0 66:0.20999999 67:0.62 68:0 69:0 70:0.20999999 71:0.20999999 72:0 73:0.20999999 74:0.20999999 75:0 76:0.41999999 77:0.20999999 78:0 79:0 80:0 81:0.20999999 82:0 83:0 84:0 85:0.41999999 86:1.04 87:0.20999999 88:0 89:0.20999999 90:0 91:0 92:0.20999999 93:0.20999999 94:0.20999999 95:0 96:0.20999999 97:0.41999999 98:0.20999999 99:0 100:0 101:0.62 102:0.20999999 103:0.20999999 104:0.62 105:0.62 106:0.82999998 107:0.20999999 108:0 109:0.41999999 110:0.20999999 111:0.20999999 112:0 113:0.20999999 114:0 115:0.41999999 116:0.41999999 117:0 118:0 119:0 120:0.62 121:0.41999999 122:0.20999999 123:0 124:0.41999999 125:0.41999999 126:0 127:0 128:0 129:0 130:0.82999998 131:0 132:0.20999999 133:0.41999999 134:0.62 135:0.20999999 136:1.46 137:0.41999999 138:0 139:0 140:0 141:0 142:0 143:0.41999999 144:0 145:0.20999999 146:0.41999999 147:0.41999999 148:0.20999999 149:0 150:0 151:0 152:0 153:0 154:0 155:0.20999999 156:0.41999999 157:0.20999999 158:0 159:0 160:0 161:0.41999999 162:0.41999999 163:0 164:0 165:0 166:0.20999999 167:0.20999999 168:0.20999999 169:0.20999999 170:0.20999999 171:0.20999999 172:0.41999999 173:0 174:0 175:0.20999999 176:0.41999999 177:0.20999999 178:0.20999999 179:0 180:0.20999999 181:0.41999999 182:0 183:0 184:0.20999999 185:0.20999999 186:0.41999999 187:0 188:0 189:0 190:0.82999998 191:0 192:0.20999999 193:1.04 194:0.62 195:0.20999999 196:0.62 197:0.20999999 198:0 199:0 200:0 201:0.20999999 202:0 203:0.20999999 204:0 205:0 206:0 207:0 208:0 209:0.20999999 210:0 211:0.20999999 212:0.20999999 213:0 214:0.20999999 215:0.20999999 216:0.41999999 217:0 218:0 219:0 220:0.20999999 221:0.41999999 222:0 223:0.41999999 224:0 225:0 226:0 227:0 228:0.20999999 229:0 230:0 231:0 232:0.20999999 233:0.20999999 234:0.20999999 235:0.20999999 236:0.41999999 237:0.20999999 238:0.20999999 239:0.20999999 240:0 241:0.62 242:0 243:0 244:0.20999999 245:0.41999999 246:0.82999998 247:0.62 248:0.41999999 249:0 250:0.41999999 251:0.41999999 252:0 253:1.04 254:0.82999998 255:0 256:0.20999999 257:0.41999999 258:0.41999999 259:0 260:0 261:0.20999999 262:0 263:0.41999999 264:0.41999999 265:0 266:0 267:0.82999998 268:0 269:0.20999999 270:0.62 271:0 272:0 273:0.41999999 274:3.54 275:0.20999999 276:1.67 277:0.20999999 278:0 279:0 280:0 281:0.20999999 282:0 283:0 284:0 285:0 286:0 287:0.41999999 288:0 289:0.41999999 290:0.20999999 291:0 292:0 293:0 294:0.62 295:0.41999999 296:0.82999998 297:0.20999999 298:0 299:0 300:0.41999999 301:1.46 302:0.20999999 303:0.20999999 304:0.20999999 305:0.62 306:0 307:1.04 308:0.41999999 309:0.41999999 310:0.41999999 311:0.41999999 312:0.41999999 313:1.67 314:1.04 315:0.62 316:2.71 317:1.04 318:0.62 319:0 320:0.20999999 321:0.62 322:0.62 323:0 324:0.20999999 325:0 326:0.41999999 327:0.20999999 328:0.62 329:0 330:0 331:0 332:0.41999999 333:1.04 334:0 335:0 336:0.82999998 337:0.82999998 338:0.41999999 339:0 340:0 341:0.62 342:1.04 343:0.20999999 344:0 345:0 346:0.20999999 347:0.20999999 348:0 349:0.20999999 350:0 351:0 352:0 353:0.20999999 354:0.20999999 355:0 356:0.20999999 357:0.20999999 358:0 359:0 360:0 361:0 362:0 363:0 364:0 365:0.20999999 366:0 367:0 368:0 369:0 370:0 371:0 372:0 373:0 374:0 375:0 376:0 377:0 378:0 379:0 380:0 381:0 382:0 383:0 384:0 385:0 386:0.20999999 387:0.41999999 388:0 389:0.20999999 390:0 391:0 392:0.41999999 393:0 394:0.20999999 395:0.20999999 396:0 397:0.41999999 398:0 399:0 400:0.20999999 #
-1.2930290729747269656141339666533e-05 1:0.56 2:0.28 3:0.28 4:0.56 5:0 6:0.28 7:0.28 8:0 9:0.28 10:1.6799999 11:0.56 12:0 13:0.28 14:0.56 15:0.56 16:0.28 17:0.56 18:0.56 19:0 20:0.56 21:0 22:0 23:0 24:0.56 25:0 26:0.56 27:0 28:0 29:0.28 30:0.56 31:0 32:0 33:0.56 34:0 35:0.28 36:0.28 37:0 38:0.28 39:0 40:0.28 41:0.28 42:0 43:0 44:0 45:0 46:0 47:0 48:0.28 49:0 50:0.28 51:0.28 52:0 53:0 54:0.83999997 55:0.56 56:0 57:0 58:0 59:0 60:0 61:0.28 62:0 63:0.56 64:1.12 65:0.28 66:0.28 67:0 68:1.12 69:0 70:0.83999997 71:0 72:0 73:0.28 74:0.28 75:0 76:0 77:0.28 78:0.56 79:0 80:0.56 81:0.56 82:0.56 83:0.28 84:0 85:0.56 86:0 87:0.56 88:0 89:0 90:0.56 91:0.28 92:0 93:0 94:0.56 95:0.83999997 96:0.56 97:0.28 98:0.28 99:0 100:0 101:0.56 102:0.28 103:0.28 104:0.28 105:0.56 106:0 107:0 108:0 109:0 110:0.56 111:0.28 112:0 113:1.12 114:0 115:0.28 116:0 117:0 118:0.28 119:0 120:0.28 121:0.28 122:0.28 123:0 124:0 125:0.83999997 126:0 127:0.28 128:0.56 129:0.28 130:0 131:0 132:0 133:0 134:0 135:0.56 136:0 137:0.28 138:0.56 139:0 140:0 141:0 142:0.56 143:0.28 144:0 145:0 146:0.28 147:0.56 148:0.56 149:0.28 150:0.83999997 151:0.28 152:0.56 153:0 154:0.56 155:0 156:0.56 157:0 158:0 159:0 160:0 161:0.56 162:0.28 163:0.56 164:0.28 165:0.28 166:0.56 167:0 168:0 169:0 170:0.28 171:0.28 172:0 173:0 174:0 175:0.28 176:0 177:0.56 178:0 179:0 180:0 181:0.83999997 182:0.28 183:0 184:0.56 185:0.83999997 186:0.56 187:0.28 188:0.83999997 189:0.56 190:1.4 191:0.56 192:0.83999997 193:0.56 194:1.96 195:0.56 196:0.83999997 197:1.12 198:0 199:0 200:0.28 201:0.56 202:0 203:0 204:0.83999997 205:0.28 206:0.28 207:0 208:0.28 209:0 210:0 211:0.28 212:0 213:0.28 214:0 215:0.28 216:0 217:0.56 218:0.28 219:0 220:0 221:0 222:0.28 223:0 224:0 225:0.28 226:0 227:0.28 228:0 229:0 230:0 231:0 232:0.28 233:0 234:0 235:0 236:0.28 237:0.56 238:0.28 239:0 240:0 241:0.56 242:0 243:0.28 244:0.28 245:0.56 246:0.28 247:0 248:0.28 249:0 250:1.4 251:0.28 252:0 253:0.28 254:0 255:0.28 256:0 257:0 258:0.28 259:0 260:0 261:0.28 262:0 263:0 264:0.56 265:0.56 266:0.28 267:0 268:0.56 269:0.83999997 270:0.83999997 271:0 272:0.28 273:0.28 274:1.12 275:0.56 276:0.56 277:0.56 278:0 279:0 280:0.28 281:0.83999997 282:0.28 283:0 284:0.28 285:0.28 286:0 287:0.56 288:0.28 289:0.28 290:0.83999997 291:0 292:0.28 293:0.83999997 294:0.28 295:1.4 296:0.56 297:0.28 298:0 299:0 300:0 301:0.83999997 302:0 303:0 304:0.28 305:0 306:0 307:0.28 308:0.28 309:0.56 310:1.12 311:0 312:0 313:0.28 314:0.28 315:0.56 316:0 317:0 318:0 319:0 320:0.28 321:0.28 322:0.28 323:0 324:0 325:0.56 326:0.28 327:0.28 328:0.28 329:0.28 330:1.12 331:0.56 332:0 333:0 334:0.56 335:0.28 336:0.28 337:0.28 338:0.28 339:0 340:0 341:0.28 342:0.28 343:0 344:0.28 345:0 346:0.83999997 347:0.28 348:0 349:0 350:0.28 351:0 352:0 353:0 354:0.56 355:0 356:0.56 357:0.28 358:0.28 359:0 360:0 361:0 362:0 363:0 364:0 365:0 366:0 367:0 368:0 369:0 370:0 371:0 372:0 373:0 374:0 375:0 376:0 377:0 378:0 379:0 380:0 381:0.56 382:0 383:0 384:0.56 385:0 386:0.28 387:0.28 388:0 389:0.28 390:0.28 391:0 392:0 393:0 394:0 395:0 396:0.28 397:0 398:0 399:0 400:0 #
0.00074551858419032114490970775122491 1:2.76 2:0.55000001 3:0.37 4:0.37 5:0.18000001 6:0.18000001 7:0.18000001 8:0.18000001 9:0 10:0.55000001 11:0 12:0 13:0.55000001 14:0.18000001 15:0.18000001 16:1.29 17:0.18000001 18:1.29 19:0 20:0.18000001 21:0.37 22:0 23:0 24:0.18000001 25:0.18000001 26:0.18000001 27:0 28:0 29:0.18000001 30:0.55000001 31:0 32:0.18000001 33:0.18000001 34:0.55000001 35:0.18000001 36:0 37:0 38:0 39:0 40:0.18000001 41:0 42:0.18000001 43:0.37 44:0.18000001 45:0 46:0 47:0.18000001 48:0.18000001 49:0.55000001 50:0.55000001 51:0 52:0 53:0 54:0.18000001 55:0 56:0.37 57:0.55000001 58:0.18000001 59:0.18000001 60:0.18000001 61:0.37 62:0 63:0.37 64:0 65:0.37 66:0.18000001 67:0 68:0.18000001 69:0.18000001 70:0.92000002 71:0 72:0.18000001 73:0.55000001 74:0.18000001 75:0.18000001 76:0.55000001 77:0 78:0.37 79:0 80:0 81:0.37 82:0.37 83:0 84:0 85:0.18000001 86:0.18000001 87:0 88:0 89:0.37 90:0.18000001 91:0 92:0.18000001 93:0.55000001 94:0.37 95:0 96:0.37 97:0 98:0.18000001 99:0 100:0.55000001 101:0.18000001 102:0.18000001 103:0.37 104:0 105:0.37 106:0.18000001 107:0.37 108:0.18000001 109:0.18000001 110:0.37 111:0.18000001 112:0 113:0.18000001 114:0.18000001 115:0.37 116:0.55000001 117:0 118:0.37 119:0 120:0.55000001 121:0.37 122:0 123:0 124:0 125:0 126:0.18000001 127:0.55000001 128:0 129:0.18000001 130:0 131:0 132:0 133:0 134:0.55000001 135:0 136:0.18000001 137:0.18000001 138:0.55000001 139:0 140:0.55000001 141:0.37 142:0 143:0.37 144:0.18000001 145:0.18000001 146:0 147:0 148:0.37 149:0.18000001 150:0.18000001 151:0 152:0.37 153:0 154:0 155:0 156:0.55000001 157:0.18000001 158:0.18000001 159:0 160:0.18000001 161:0.18000001 162:0.18000001 163:0 164:0.18000001 165:0 166:0.55000001 167:0.18000001 168:0.37 169:0.18000001 170:0.55000001 171:0.18000001 172:0 173:0.55000001 174:0.18000001 175:0.37 176:0.37 177:0 178:0.37 179:0 180:0.37 181:0.74000001 182:0.37 183:0.18000001 184:0.55000001 185:0.37 186:0.18000001 187:0.55000001 188:0.18000001 189:0.37 190:0.74000001 191:0 192:0.18000001 193:1.29 194:0.55000001 195:0.74000001 196:0.55000001 197:0.37 198:0.55000001 199:0 200:0 201:0 202:0 203:0.18000001 204:0.18000001 205:0.18000001 206:0 207:0 208:0.18000001 209:0.18000001 210:0 211:0 212:0 213:0 214:0 215:0 216:0 217:0.18000001 218:0.18000001 219:0 220:0 221:0.18000001 222:0 223:0 224:0.37 225:0 226:0.18000001 227:0 228:0 229:0 230:0.18000001 231:0.18000001 232:0.92000002 233:0.37 234:0 235:0.37 236:0.18000001 237:0.55000001 238:0 239:0 240:0.18000001 241:0.55000001 242:0 243:0.18000001 244:0.18000001 245:0.37 246:0.74000001 247:0.55000001 248:0.18000001 249:0.55000001 250:0.37 251:0 252:0.18000001 253:1.1 254:0.92000002 255:0.55000001 256:0.92000002 257:0.74000001 258:0.37 259:0 260:0 261:0 262:0.18000001 263:0.18000001 264:0.37 265:0.55000001 266:0.18000001 267:0.55000001 268:0 269:0.37 270:0.18000001 271:0.18000001 272:0.37 273:0.37 274:0.18000001 275:0.74000001 276:0.55000001 277:0.18000001 278:0 279:0 280:0.37 281:0.55000001 282:0.18000001 283:0.18000001 284:0.37 285:0.18000001 286:0.37 287:0 288:0.37 289:0.18000001 290:0.55000001 291:0 292:0.37 293:0 294:0 295:0.74000001 296:0.55000001 297:0.55000001 298:0.18000001 299:0 300:0.18000001 301:1.1 302:0 303:0.37 304:0.74000001 305:0.55000001 306:0 307:0 308:0 309:0.55000001 310:1.65 311:0.37 312:0.18000001 313:1.47 314:0.55000001 315:0 316:1.47 317:0.55000001 318:0.55000001 319:0 320:0.37 321:0.55000001 322:0.37 323:0.18000001 324:0.18000001 325:0.18000001 326:0 327:0 328:0.55000001 329:0.18000001 330:0.18000001 331:0 332:0.18000001 333:0.92000002 334:0.37 335:0 336:0.55000001 337:0.92000002 338:0.18000001 339:0 340:0.18000001 341:0.55000001 342:0.37 343:0.55000001 344:0.18000001 345:0 346:0.55000001 347:0.18000001 348:0.18000001 349:0.18000001 350:0.37 351:0 352:0 353:0.18000001 354:0.55000001 355:0.55000001 356:0.74000001 357:0.55000001 358:0.37 359:0 360:0 361:0 362:0 363:0 364:0 365:0 366:0 367:0 368:0 369:0 370:0.18000001 371:0 372:0 373:0 374:0 375:0 376:0 377:0 378:0 379:0 380:0 381:0 382:0 383:0 384:0.37 385:0.18000001 386:0.92000002 387:0 388:0.18000001 389:0.18000001 390:0.18000001 391:0 392:0.37 393:0.18000001 394:0 395:0.55000001 396:0.74000001 397:0 398:0.18000001 399:0 400:0 #
-0.00019289857552337992497790142287784 1:2.1400001 2:0.20999999 3:0.18000001 4:0.64999998 5:0.1 6:0.68000001 7:0.13 8:0.20999999 9:0.38999999 10:0.51999998 11:0.13 12:0.38999999 13:0.68000001 14:0.55000001 15:0.44 16:1.1 17:1.41 18:0.5 19:0 20:0.079999998 21:0.37 22:0.1 23:0.1 24:0.18000001 25:0.050000001 26:0.25999999 27:0 28:0.050000001 29:0.1 30:0.18000001 31:0 32:0.13 33:0.13 34:0.16 35:0.13 36:0.23999999 37:0.23999999 38:0.079999998 39:0.050000001 40:0.13 41:0.38999999 42:0.1 43:0.83999997 44:0.41999999 45:0.1 46:0.37 47:0.079999998 48:0.20999999 49:0.28999999 50:0.25999999 51:0.1 52:0.34 53:0.1 54:0.029999999 55:0.050000001 56:0.20999999 57:0.20999999 58:0.20999999 59:0.029999999 60:0.1 61:0.68000001 62:0.1 63:0.47 64:0.51999998 65:0.18000001 66:0.18000001 67:0.050000001 68:0.1 69:0.38999999 70:0.51999998 71:0.16 72:0.16 73:0.41999999 74:0.37 75:0.1 76:0.37 77:0.38999999 78:0.34 79:0.029999999 80:0.13 81:0.16 82:0.079999998 83:0.029999999 84:0.25999999 85:0.029999999 86:0.20999999 87:0.029999999 88:0.1 89:0.23999999 90:0.20999999 91:0.029999999 92:0.079999998 93:0.13 94:0.23999999 95:0.079999998 96:0.13 97:0.20999999 98:0.23999999 99:0.029999999 100:0.029999999 101:0.51999998 102:0.079999998 103:0.16 104:0.23999999 105:0.18000001 106:0.73000002 107:0.13 108:0.13 109:0.16 110:0.51999998 111:0.029999999 112:0.51999998 113:0.16 114:0.23999999 115:0.1 116:0.81 117:0.34 118:0.28999999 119:0 120:0.1 121:0.079999998 122:0 123:0.029999999 124:0.079999998 125:0.029999999 126:0.13 127:0.079999998 128:0.1 129:0.13 130:0.1 131:0.050000001 132:0.050000001 133:0 134:0.25999999 135:0.050000001 136:0.23999999 137:0.079999998 138:0.029999999 139:0 140:0.079999998 141:0.28999999 142:0.13 143:0.25999999 144:0.25999999 145:0.13 146:0.18000001 147:0.050000001 148:0.23999999 149:0.18000001 150:0.28999999 151:0.079999998 152:0.20999999 153:0.079999998 154:0.25999999 155:0.079999998 156:0.31 157:0.18000001 158:0.34 159:0.029999999 160:0.050000001 161:0.31 162:0.38999999 163:0.20999999 164:0.41999999 165:0.16 166:0.13 167:0.18000001 168:0.34 169:0.51999998 170:0.44 171:0.050000001 172:0.31 173:0.44 174:0.37 175:0.34 176:0.60000002 177:0.31 178:0.34 179:0.029999999 180:0.16 181:0.60000002 182:0.13 183:0.38999999 184:0.5 185:0.18000001 186:0.44 187:0.029999999 188:0.34 189:0.77999997 190:0.77999997 191:0.079999998 192:0.38999999 193:0.56999999 194:1.02 195:0.18000001 196:0.81 197:0.44 198:0.23999999 199:0 200:0.18000001 201:0.13 202:0.029999999 203:0.079999998 204:0.079999998 205:0.079999998 206:0.029999999 207:0.029999999 208:0.079999998 209:0.13 210:0.18000001 211:0.029999999 212:0 213:0.050000001 214:0.18000001 215:0.1 216:0.23999999 217:0.050000001 218:0.079999998 219:0.029999999 220:0.079999998 221:0.55000001 222:0.28999999 223:0.31 224:0.23999999 225:0.13 226:0.34 227:0.050000001 228:0.16 229:0.25999999 230:0.5 231:0.029999999 232:0.23999999 233:0.31 234:0.18000001 235:0.20999999 236:0.63 237:0.23999999 238:0.28999999 239:0.050000001 240:0.18000001 241:0.70999998 242:0.079999998 243:0.13 244:0.23999999 245:0.050000001 246:0.23999999 247:0.050000001 248:0.37 249:0.38999999 250:0.60000002 251:0.23999999 252:0.28999999 253:0.20999999 254:0.63 255:0.20999999 256:0.37 257:0.55000001 258:0.18000001 259:0.050000001 260:0.050000001 261:0.56999999 262:0.029999999 263:0.029999999 264:0.25999999 265:0.28999999 266:0.18000001 267:0.31 268:0.079999998 269:0.31 270:0.94 271:0.18000001 272:0.37 273:0.81 274:2.74 275:0.34 276:0.47 277:0.51999998 278:0.31 279:0.029999999 280:0.079999998 281:0.16 282:0.23999999 283:0.029999999 284:0.13 285:0.1 286:0.20999999 287:0.079999998 288:0.13 289:0.38999999 290:0.28999999 291:0.050000001 292:0.23999999 293:0.23999999 294:0.23999999 295:0.25999999 296:0.44 297:0.16 298:0.1 299:0.029999999 300:0.050000001 301:0.99000001 302:0.25999999 303:0.41999999 304:0.37 305:0.31 306:0.5 307:0.079999998 308:0.5 309:0.64999998 310:0.56999999 311:0.16 312:0.63 313:0.38999999 314:0.5 315:0.44 316:1.23 317:0.88999999 318:0.41999999 319:0.079999998 320:0.1 321:1.2 322:0.1 323:0.28999999 324:0.31 325:0.20999999 326:0.37 327:0 328:0.18000001 329:0.20999999 330:0.47 331:0.13 332:0.5 333:0.41999999 334:0.55000001 335:0.20999999 336:0.81 337:1.12 338:0.38999999 339:0.029999999 340:0.20999999 341:0.44 342:0.20999999 343:0.31 344:0.28999999 345:0.13 346:0.13 347:0.1 348:0.25999999 349:0.34 350:0.51999998 351:0.1 352:0.25999999 353:0.41999999 354:0.31 355:0.079999998 356:0.34 357:0.28999999 358:0.34 359:0 360:0.029999999 361:0.029999999 362:0 363:0 364:0.050000001 365:0.029999999 366:0 367:0.029999999 368:0 369:0.050000001 370:0.1 371:0 372:0 373:0.029999999 374:0 375:0.050000001 376:0.079999998 377:0 378:0.050000001 379:0 380:0 381:0.18000001 382:0.13 383:0.18000001 384:0.18000001 385:0.029999999 386:0.13 387:0.1 388:0.050000001 389:0.13 390:0.079999998 391:0.029999999 392:0.1 393:0.029999999 394:0.050000001 395:0.079999998 396:0.079999998 397:0.079999998 398:0.16 399:0.029999999 400:0.050000001 #
-1.3231057466385892030440001032598e-05 1:0 2:0.20999999 3:0.43000001 4:0.43000001 5:0 6:0.43000001 7:0.20999999 8:0 9:0.20999999 10:0.86000001 11:0 12:0 13:0.43000001 14:0 15:0.43000001 16:0.86000001 17:0.20999999 18:0.20999999 19:0 20:0 21:0.43000001 22:0 23:0.43000001 24:0.20999999 25:0 26:0.43000001 27:0 28:0.20999999 29:0.43000001 30:0.86000001 31:0 32:0.20999999 33:0.43000001 34:0 35:0.43000001 36:0.20999999 37:0.43000001 38:0 39:0.20999999 40:0 41:0 42:0.20999999 43:0 44:0.20999999 45:0 46:0 47:0.20999999 48:0.43000001 49:0.20999999 50:0.63999999 51:0.20999999 52:0 53:0.20999999 54:0.43000001 55:0.63999999 56:0.20999999 57:0 58:0.43000001 59:0 60:0.20999999 61:0.43000001 62:0 63:0.43000001 64:0.20999999 65:0.20999999 66:0.43000001 67:0.63999999 68:0 69:0.63999999 70:1.28 71:0.43000001 72:0 73:0 74:0.20999999 75:0 76:0.43000001 77:0 78:0 79:0.20999999 80:0.20999999 81:0.63999999 82:0.20999999 83:0 84:0 85:0.43000001 86:0.20999999 87:0 88:0 89:0.43000001 90:0.20999999 91:0 92:0.20999999 93:0 94:0.20999999 95:0.20999999 96:0.63999999 97:0.63999999 98:0 99:0 100:0 101:0.43000001 102:0 103:0.43000001 104:0.20999999 105:0.63999999 106:0.20999999 107:0.20999999 108:0.20999999 109:0.43000001 110:0.63999999 111:0.43000001 112:0.20999999 113:0.43000001 114:0.43000001 115:0.20999999 116:0.20999999 117:0 118:0 119:0 120:0.20999999 121:0.43000001 122:0.20999999 123:0.20999999 124:0 125:0.20999999 126:0.20999999 127:0 128:0.43000001 129:0 130:0.63999999 131:0.43000001 132:0 133:0.20999999 134:0.43000001 135:0.20999999 136:0.63999999 137:0 138:0.20999999 139:0 140:0.20999999 141:0 142:0.20999999 143:0.20999999 144:0.43000001 145:0 146:0 147:0 148:0.20999999 149:0.20999999 150:0.63999999 151:0 152:0.20999999 153:0 154:0.20999999 155:0.20999999 156:0.20999999 157:0.43000001 158:0.20999999 159:0 160:0.63999999 161:0.20999999 162:0.43000001 163:0 164:0.20999999 165:0.43000001 166:0.20999999 167:0.63999999 168:0.20999999 169:0.20999999 170:0.86000001 171:0 172:0 173:0 174:0.43000001 175:0.43000001 176:0 177:0 178:0.43000001 179:0 180:0.20999999 181:0.43000001 182:1.0700001 183:0.43000001 184:0.86000001 185:0.43000001 186:0 187:1.5 188:0.63999999 189:0.63999999 190:2.78 191:0.63999999 192:0.20999999 193:0.63999999 194:0.86000001 195:0.43000001 196:1.0700001 197:0.86000001 198:0.63999999 199:0 200:0.20999999 201:0.43000001 202:0.20999999 203:0.20999999 204:0.20999999 205:0 206:0 207:0 208:0.20999999 209:0 210:0.43000001 211:0 212:0 213:0.20999999 214:0 215:0.43000001 216:0.43000001 217:0 218:0 219:0 220:0 221:0 222:0.20999999 223:0.20999999 224:0 225:0 226:0 227:0 228:0 229:0.43000001 230:0.20999999 231:0 232:0.43000001 233:0.63999999 234:0 235:0 236:0.43000001 237:0 238:0 239:0.20999999 240:0 241:0.20999999 242:0.20999999 243:0.43000001 244:0 245:0.63999999 246:0.86000001 247:0 248:0.43000001 249:0 250:0.43000001 251:0 252:0 253:0.43000001 254:0.43000001 255:0 256:0.86000001 257:0 258:0.20999999 259:0 260:0 261:0.20999999 262:0.20999999 263:0.20999999 264:1.0700001 265:0 266:0.20999999 267:0 268:0.20999999 269:0.20999999 270:0.86000001 271:0.20999999 272:0.43000001 273:0.20999999 274:0 275:0.86000001 276:0 277:0.20999999 278:0.63999999 279:0 280:0.20999999 281:0.43000001 282:0.43000001 283:0.20999999 284:0 285:0.20999999 286:0.43000001 287:0.20999999 288:0.20999999 289:0.43000001 290:0.63999999 291:0.20999999 292:0.20999999 293:0.20999999 294:0.43000001 295:0 296:0.20999999 297:0.43000001 298:0 299:0 300:0 301:0 302:0.43000001 303:0.20999999 304:0.63999999 305:0.20999999 306:0.86000001 307:0.63999999 308:0.20999999 309:0 310:1.28 311:0 312:0.43000001 313:0.63999999 314:0 315:0.20999999 316:1.28 317:0.86000001 318:0.43000001 319:0.43000001 320:0.20999999 321:0.43000001 322:0.20999999 323:0 324:0.20999999 325:0.43000001 326:0.43000001 327:0.20999999 328:0.20999999 329:0 330:0.43000001 331:0 332:0 333:0.43000001 334:0.86000001 335:0 336:0.63999999 337:0 338:0.20999999 339:0 340:0 341:0 342:0.20999999 343:0.20999999 344:0.63999999 345:0.20999999 346:0.43000001 347:0 348:0 349:0.20999999 350:0.20999999 351:0 352:0 353:0 354:0.63999999 355:0.20999999 356:0.43000001 357:0.20999999 358:0 359:0 360:0 361:0.43000001 362:0 363:0 364:0.20999999 365:0 366:0 367:0 368:0 369:0 370:0 371:0 372:0 373:0 374:0 375:0 376:0.20999999 377:0.20999999 378:0 379:0 380:0 381:0 382:0.20999999 383:0 384:0 385:0 386:0.20999999 387:0.20999999 388:0.20999999 389:0.20999999 390:0.43000001 391:0 392:0.20999999 393:0 394:0.43000001 395:0 396:0 397:0.20999999 398:0 399:0 400:0 #
0.00051579248766308184292322946973286 1:0.46000001 2:0.31 3:0.31 4:0.31 5:0.76999998 6:0.31 7:0.15000001 8:0 9:0.46000001 10:0.61000001 11:0 12:0.31 13:1.08 14:0.46000001 15:0.31 16:1.6900001 17:0.31 18:0.46000001 19:0.15000001 20:0.15000001 21:0.31 22:0 23:0 24:0.15000001 25:0 26:0.15000001 27:0 28:0.15000001 29:0.15000001 30:0.76999998 31:0 32:0 33:0.15000001 34:0.31 35:0.15000001 36:0.46000001 37:0.15000001 38:0 39:0.31 40:0.15000001 41:0.31 42:0.15000001 43:0 44:0.15000001 45:0.15000001 46:0.46000001 47:0.15000001 48:0 49:0.31 50:0.61000001 51:0 52:0.15000001 53:0.15000001 54:0.15000001 55:0.31 56:0.46000001 57:0.46000001 58:0.31 59:0 60:0.31 61:0.31 62:0 63:0.46000001 64:0.15000001 65:0.31 66:1.08 67:0.15000001 68:0 69:0.15000001 70:0.76999998 71:0.15000001 72:0 73:0.31 74:0.15000001 75:0 76:0.31 77:0 78:0.31 79:0 80:0 81:0.31 82:0.46000001 83:0.15000001 84:0.15000001 85:0.31 86:0.46000001 87:0 88:0.31 89:0.31 90:0.31 91:0.31 92:0 93:0.31 94:0.61000001 95:0 96:0.76999998 97:0 98:0 99:0 100:0.31 101:0.15000001 102:0.31 103:0.46000001 104:0.76999998 105:0.46000001 106:0.15000001 107:0.15000001 108:0.31 109:0.46000001 110:0.92000002 111:0.15000001 112:0 113:1.08 114:0.15000001 115:0.46000001 116:1.08 117:0.31 118:0.15000001 119:0 120:0.15000001 121:0 122:0 123:0 124:0 125:0.31 126:0.31 127:0.15000001 128:0 129:0 130:0.46000001 131:0 132:0 133:0 134:0.15000001 135:0.15000001 136:0.15000001 137:0 138:0.15000001 139:0 140:0.15000001 141:0.15000001 142:0.15000001 143:0.31 144:0.15000001 145:0.46000001 146:0 147:0 148:0.15000001 149:0.31 150:0.61000001 151:0.15000001 152:0 153:0.15000001 154:0.31 155:0.15000001 156:0 157:0.15000001 158:0 159:0 160:0 161:0.61000001 162:0.15000001 163:0.15000001 164:0.46000001 165:0.31 166:0.31 167:0 168:0.61000001 169:0 170:0.76999998 171:0 172:0.15000001 173:0.46000001 174:0.15000001 175:0.31 176:0 177:0 178:0 179:0.15000001 180:0.15000001 181:1.38 182:0.15000001 183:0.46000001 184:0.76999998 185:0.31 186:0.31 187:0.46000001 188:0.46000001 189:0.76999998 190:0.92000002 191:0 192:0 193:1.08 194:0.61000001 195:0.46000001 196:1.08 197:0.31 198:0.92000002 199:0 200:0.15000001 201:0 202:0 203:0.46000001 204:0 205:0 206:0 207:0 208:0 209:0 210:0 211:0 212:0 213:0.31 214:0 215:0 216:0 217:0.15000001 218:0.15000001 219:0.15000001 220:0 221:0.31 222:0 223:0 224:0 225:0 226:0 227:0 228:0 229:0.15000001 230:0.15000001 231:0 232:0 233:0 234:0 235:0.31 236:0 237:0 238:0 239:0 240:0 241:1.38 242:0.46000001 243:0.15000001 244:0.46000001 245:0.15000001 246:1.38 247:0.31 248:0.15000001 249:0.31 250:0.46000001 251:0 252:0 253:1.38 254:0.46000001 255:0.46000001 256:1.6900001 257:0.76999998 258:0.46000001 259:0.15000001 260:0 261:0.31 262:0.15000001 263:0.15000001 264:0.31 265:0.31 266:0.15000001 267:0.15000001 268:0 269:0.31 270:0.61000001 271:0 272:0.15000001 273:0.92000002 274:0.15000001 275:0.31 276:0.31 277:0.15000001 278:0.15000001 279:0 280:0.31 281:0.31 282:0.31 283:0.15000001 284:0 285:0.15000001 286:0.31 287:0.15000001 288:0.46000001 289:0.15000001 290:0.61000001 291:0 292:0.15000001 293:0.15000001 294:0.15000001 295:0.61000001 296:0.46000001 297:0.61000001 298:0.15000001 299:0 300:0 301:1.23 302:0.46000001 303:0.31 304:0.31 305:0.92000002 306:1.23 307:0 308:0.31 309:0.46000001 310:0.92000002 311:0.15000001 312:0 313:2 314:0.31 315:0.31 316:1.38 317:0.76999998 318:0 319:0 320:0.15000001 321:0.46000001 322:0.15000001 323:0.31 324:0.15000001 325:0.31 326:0.31 327:0.15000001 328:0 329:0.15000001 330:0.31 331:0.15000001 332:0 333:0.61000001 334:0.15000001 335:0 336:0.92000002 337:0 338:0.31 339:0 340:0.15000001 341:0.31 342:0.15000001 343:0.46000001 344:0.15000001 345:0 346:0.15000001 347:0 348:0.15000001 349:0.15000001 350:0.46000001 351:0 352:0 353:0.31 354:0.46000001 355:0.46000001 356:0 357:0.15000001 358:0.15000001 359:0 360:0.15000001 361:0.31 362:0 363:0.15000001 364:0 365:0 366:0 367:0 368:0 369:0 370:0.15000001 371:0 372:0 373:0 374:0 375:0 376:0.15000001 377:0.15000001 378:0 379:0 380:0 381:0 382:0 383:0.15000001 384:0.15000001 385:0 386:0.61000001 387:0 388:0.15000001 389:0.15000001 390:0.15000001 391:0 392:0 393:0.15000001 394:0.15000001 395:0.15000001 396:0.31 397:0.15000001 398:0 399:0 400:0.15000001 #
0.00071577356793683455729593312355519 1:0.5 2:0.17 3:0 4:0.17 5:0.5 6:0.33000001 7:0.5 8:0.5 9:0.17 10:0.5 11:0.17 12:0.33000001 13:0.17 14:0.17 15:0 16:0.33000001 17:0.33000001 18:0.33000001 19:0 20:0.17 21:0.17 22:0 23:0.17 24:0.17 25:0 26:0.17 27:0 28:0.17 29:0.17 30:0.67000002 31:0 32:0.17 33:0.17 34:0.5 35:0.17 36:0 37:0.17 38:0.33000001 39:0 40:0 41:0.17 42:0 43:0 44:0 45:0.17 46:0.33000001 47:0 48:0.33000001 49:0.33000001 50:1 51:0 52:0.82999998 53:0.17 54:0.33000001 55:0 56:0.33000001 57:0.17 58:0.33000001 59:0 60:0.33000001 61:0 62:0 63:0.67000002 64:0.17 65:0.33000001 66:0.5 67:0 68:0.33000001 69:0.17 70:0.33000001 71:0.17 72:0 73:0.33000001 74:0.33000001 75:0.17 76:0.17 77:0 78:0.17 79:0.17 80:0.17 81:0.17 82:0.33000001 83:0.17 84:0.17 85:0.17 86:0.17 87:0.17 88:0 89:0.5 90:0.5 91:0.17 92:0.17 93:0.17 94:0.5 95:0 96:1 97:0 98:0.33000001 99:0 100:0.33000001 101:0.33000001 102:0.17 103:0.33000001 104:0.5 105:0.5 106:0.17 107:0.17 108:0 109:0.33000001 110:1 111:0.17 112:0 113:0.33000001 114:0.17 115:0.33000001 116:0.67000002 117:0.17 118:0.33000001 119:0.17 120:0.17 121:0.17 122:0 123:0.17 124:0 125:0 126:0.33000001 127:0 128:0.17 129:0 130:0.17 131:0.33000001 132:0 133:0 134:0.5 135:0.33000001 136:0.67000002 137:0.33000001 138:0.33000001 139:0 140:0.17 141:0.33000001 142:0 143:0.33000001 144:0 145:0.33000001 146:0 147:0 148:0.33000001 149:0.17 150:0 151:0 152:0 153:0.17 154:0.17 155:0.33000001 156:0.33000001 157:0.17 158:0.33000001 159:0 160:0 161:0 162:0.17 163:0.17 164:0.17 165:0.17 166:0.33000001 167:0 168:0.33000001 169:0 170:0.82999998 171:0 172:0.33000001 173:0.5 174:0.5 175:0.5 176:0.17 177:0.17 178:0.17 179:0 180:0.17 181:0.67000002 182:0.33000001 183:0.67000002 184:0.33000001 185:0.67000002 186:0.17 187:0.5 188:0.33000001 189:0.67000002 190:0.5 191:0 192:0.17 193:1 194:0.82999998 195:0.33000001 196:0.5 197:0.5 198:0.67000002 199:0 200:0.17 201:0 202:0 203:0.33000001 204:0.33000001 205:0 206:0 207:0.17 208:0.17 209:0 210:0 211:0.17 212:0 213:0.33000001 214:0 215:0.17 216:0.17 217:0.33000001 218:0.33000001 219:0.17 220:0.17 221:0.33000001 222:0.33000001 223:0 224:0.17 225:0.17 226:0.17 227:0.17 228:0 229:0.33000001 230:0.33000001 231:0 232:0 233:0.67000002 234:0 235:0.33000001 236:0.17 237:0.5 238:0 239:0 240:0.5 241:0.33000001 242:0.33000001 243:0.17 244:0.33000001 245:0.17 246:0.67000002 247:0.5 248:0 249:0.5 250:0.17 251:0.17 252:0.5 253:1.34 254:0.5 255:0 256:1.84 257:0 258:0.82999998 259:0 260:0 261:0.5 262:0.17 263:0.33000001 264:0.17 265:0.33000001 266:0.33000001 267:0.33000001 268:0 269:0.33000001 270:0.33000001 271:0.67000002 272:0.33000001 273:0.17 274:0.33000001 275:0.33000001 276:1.17 277:0 278:0.5 279:0 280:0.17 281:0.17 282:0.17 283:0 284:0.17 285:0.5 286:0.82999998 287:0.17 288:0.17 289:0.33000001 290:0.67000002 291:0 292:0.17 293:0.17 294:0 295:0.5 296:0.17 297:0.67000002 298:0.17 299:0 300:0 301:0.82999998 302:0.5 303:0.17 304:0.17 305:0.67000002 306:0.33000001 307:0.5 308:0.17 309:0.33000001 310:1 311:0.67000002 312:0.67000002 313:1.5 314:0.33000001 315:0.5 316:0.82999998 317:0.33000001 318:0 319:0 320:0.5 321:0.33000001 322:0.17 323:0.17 324:0.33000001 325:0.33000001 326:0.67000002 327:0.17 328:0 329:0 330:0.33000001 331:0 332:0.17 333:0.67000002 334:0.33000001 335:0 336:0.33000001 337:0.17 338:0.17 339:0 340:0 341:0.17 342:0.33000001 343:0.67000002 344:0.67000002 345:0 346:0.17 347:0 348:0 349:0.33000001 350:0.33000001 351:0 352:0.17 353:0.5 354:0.67000002 355:0.82999998 356:0.67000002 357:0.33000001 358:0.5 359:0 360:0 361:0.17 362:0 363:0 364:0.17 365:0 366:0 367:0 368:0 369:0 370:0 371:0 372:0 373:0 374:0 375:0 376:0 377:0 378:0.17 379:0 380:0 381:0 382:0 383:0.33000001 384:0 385:0.17 386:0.33000001 387:0.33000001 388:0 389:0 390:0.33000001 391:0 392:0.17 393:0 394:0.33000001 395:0.17 396:0.5 397:0 398:0.33000001 399:0 400:0 #
9.5450236625559860682670165754615e-05 1:3.1199999 2:0.31 3:0.16 4:0.47 5:0.31 6:0.77999997 7:0.16 8:0 9:0.31 10:1.71 11:0 12:0.16 13:0.31 14:0.47 15:0.16 16:0.31 17:0.31 18:0.31 19:0 20:0 21:0.16 22:0 23:0 24:0.16 25:0 26:0.16 27:0 28:0.16 29:0.16 30:0.77999997 31:0.16 32:0.31 33:0.31 34:0.31 35:0.16 36:0 37:0.16 38:0.16 39:0 40:0 41:0.31 42:0 43:0 44:0.16 45:0.16 46:0 47:0.16 48:0.16 49:0.47 50:0.62 51:0 52:0.16 53:0.31 54:0.31 55:0 56:0.47 57:0.16 58:0.16 59:0 60:0.31 61:0 62:0 63:0.77999997 64:0.31 65:0 66:0.77999997 67:0.31 68:0.31 69:0.16 70:0.62 71:0 72:0 73:0.62 74:0 75:0.16 76:0.31 77:0 78:0.31 79:0.16 80:0.16 81:0 82:0.16 83:0 84:0 85:0.16 86:0.16 87:0.16 88:0 89:0.47 90:0.31 91:0.16 92:0 93:0.31 94:0.16 95:0 96:0.47 97:0.16 98:0.31 99:0 100:0.31 101:0.47 102:0.31 103:0.16 104:0.47 105:0.47 106:0.16 107:0.31 108:0 109:0 110:0.93000001 111:0.16 112:0 113:0.47 114:0.16 115:0.47 116:0.62 117:0.31 118:0.16 119:0 120:0.47 121:0 122:0 123:0.16 124:0 125:0.16 126:0.31 127:1.71 128:0 129:0 130:0.16 131:0 132:0 133:0.31 134:0.31 135:0.16 136:0 137:0 138:0.16 139:0 140:0.16 141:0.16 142:0.16 143:0.31 144:0.16 145:0.16 146:0 147:0 148:0.16 149:0.31 150:0 151:0.16 152:0 153:0.31 154:0.16 155:0.16 156:0 157:0.47 158:0 159:0 160:0 161:0.16 162:0.16 163:0.16 164:0.62 165:0.16 166:0.47 167:0 168:0.47 169:0 170:0.47 171:0.16 172:0.31 173:0.47 174:0.16 175:0.62 176:0.16 177:0 178:0.16 179:0 180:0.16 181:0.62 182:0.16 183:0.77999997 184:0.62 185:0.47 186:1.09 187:0.16 188:0.31 189:0.77999997 190:0.62 191:0 192:0.16 193:1.4 194:0.62 195:0.77999997 196:0.62 197:0.62 198:0.62 199:0.16 200:0.16 201:0 202:0 203:0.16 204:0.31 205:0 206:0 207:0 208:0.16 209:0.16 210:0 211:0.16 212:0.31 213:0.16 214:0.16 215:0 216:0 217:0 218:0.16 219:0 220:0.16 221:0.47 222:0.16 223:0 224:0 225:0 226:0.16 227:0 228:0 229:0.31 230:0.31 231:0 232:0 233:0.16 234:0 235:0.31 236:0 237:0.16 238:0 239:0 240:0.16 241:0.47 242:0.16 243:0.16 244:0.16 245:0.16 246:0.47 247:0.16 248:0 249:0.62 250:1.09 251:0.16 252:0.16 253:2.02 254:0.31 255:0.31 256:2.8 257:0.77999997 258:0.47 259:0 260:0.16 261:0.93000001 262:0.16 263:0 264:0.16 265:0.16 266:0.16 267:0.16 268:0 269:0.31 270:0 271:0.16 272:0 273:0.62 274:2.02 275:0.16 276:0.47 277:0.31 278:0 279:0 280:0.31 281:0.62 282:0.16 283:0.16 284:0 285:0.31 286:0.31 287:0.16 288:0.16 289:0.16 290:0.62 291:0 292:0.16 293:0.16 294:0 295:0.47 296:0.47 297:0.47 298:0.16 299:0 300:0.16 301:0.47 302:0.16 303:0 304:0.16 305:0.16 306:0.47 307:0 308:0.77999997 309:0.31 310:1.09 311:0.31 312:0.31 313:2.02 314:0.31 315:0.31 316:0.62 317:0.93000001 318:0.16 319:0.16 320:0.16 321:0.93000001 322:0.31 323:0.62 324:0.62 325:0.16 326:0 327:0 328:0 329:0.16 330:0.47 331:0.16 332:0 333:0.47 334:0 335:0 336:0.77999997 337:0.77999997 338:0.31 339:0 340:0.16 341:0.16 342:0.47 343:0.16 344:0.31 345:0.31 346:0.16 347:0 348:0 349:0.16 350:0.62 351:0 352:0 353:0.16 354:0.47 355:0.47 356:0.31 357:0 358:0.16 359:0 360:0 361:0.16 362:0 363:0 364:0.16 365:0 366:0 367:0 368:0 369:0 370:0.16 371:0 372:0 373:0 374:0 375:0 376:0 377:0 378:0 379:0 380:0 381:0.16 382:0.31 383:0.16 384:0.16 385:0.16 386:0.47 387:0.16 388:0 389:0 390:0.16 391:0 392:0.16 393:0 394:0.16 395:0 396:0.47 397:0.31 398:0.16 399:0 400:0 #
0.00051685491092684379774851999300722 1:0.34999999 2:0 3:0 4:0.34999999 5:0.34999999 6:0.17 7:0.34999999 8:0 9:0.17 10:0.34999999 11:0 12:0.34999999 13:0.34999999 14:0.34999999 15:0 16:0.34999999 17:0.17 18:0.34999999 19:0 20:0.34999999 21:0.34999999 22:0 23:0.17 24:0.17 25:0 26:0.17 27:0 28:0.17 29:0.17 30:0.87 31:0 32:0.17 33:0.17 34:0.34999999 35:0.17 36:0.34999999 37:0.17 38:0.17 39:0 40:0.17 41:0.17 42:0.17 43:0 44:0.17 45:0 46:0.17 47:0 48:0.17 49:0.34999999 50:0.87 51:0 52:0.51999998 53:0 54:0.34999999 55:0.17 56:0.87 57:0.34999999 58:0.51999998 59:0 60:0.34999999 61:0 62:0.17 63:0.34999999 64:0.51999998 65:0.69 66:0.51999998 67:0.17 68:0.17 69:0.34999999 70:0.51999998 71:0 72:0 73:0.17 74:0.34999999 75:0 76:0.51999998 77:0.34999999 78:0.34999999 79:0.17 80:0 81:0.17 82:0.34999999 83:0.17 84:0 85:0.34999999 86:0.69 87:0 88:0.17 89:0.17 90:0.34999999 91:0.34999999 92:0 93:0.17 94:0.69 95:0 96:0.69 97:0.34999999 98:0.17 99:0 100:0.34999999 101:0.17 102:0.34999999 103:0.17 104:0.34999999 105:0.87 106:0.17 107:0 108:0 109:0.51999998 110:0.34999999 111:0.17 112:0 113:0.17 114:0.17 115:0.51999998 116:0.87 117:0.17 118:0.51999998 119:0 120:0.17 121:0 122:0 123:0 124:0 125:0 126:0.34999999 127:0 128:0.34999999 129:0 130:0 131:0 132:0 133:0 134:0 135:0.34999999 136:0.34999999 137:0 138:0 139:0.17 140:0.17 141:0.51999998 142:0.17 143:0.51999998 144:0.17 145:0.51999998 146:0 147:0 148:0.34999999 149:0 150:0.34999999 151:0 152:0.34999999 153:0.69 154:0.34999999 155:0.17 156:0.17 157:0 158:0.34999999 159:0 160:0 161:0 162:0.17 163:0.17 164:0.87 165:0.34999999 166:0.34999999 167:0 168:0.51999998 169:0.17 170:0.87 171:0 172:0.34999999 173:0.17 174:0.17 175:0.34999999 176:0 177:0.17 178:0.34999999 179:0.17 180:0.17 181:0.51999998 182:0.17 183:0.87 184:0.87 185:0.17 186:0.34999999 187:0.17 188:0.34999999 189:1.04 190:0.87 191:0 192:0.17 193:1.04 194:0.69 195:0.34999999 196:0.87 197:0 198:1.04 199:0 200:0.17 201:0.17 202:0 203:0.51999998 204:0 205:0 206:0 207:0 208:0 209:0 210:0 211:0 212:0.34999999 213:0.17 214:0 215:0.17 216:0.17 217:0 218:0.17 219:0 220:0 221:0.34999999 222:0.34999999 223:0 224:0.34999999 225:0 226:0.17 227:0 228:0.17 229:0.17 230:0 231:0.34999999 232:0 233:0.34999999 234:0.34999999 235:0.34999999 236:0.87 237:0 238:0 239:0 240:0.34999999 241:0.51999998 242:0.51999998 243:0.17 244:0.34999999 245:0.17 246:0.51999998 247:0 248:0.17 249:0.51999998 250:0.69 251:0 252:0.34999999 253:0.51999998 254:0.17 255:0 256:1.74 257:0.34999999 258:0.34999999 259:0 260:0 261:0.34999999 262:0.34999999 263:0.17 264:0.17 265:0.34999999 266:0.34999999 267:0.34999999 268:0.51999998 269:0.51999998 270:0.69 271:0 272:0.69 273:0 274:0.87 275:0.34999999 276:0.34999999 277:0.17 278:0.17 279:0 280:0 281:0.17 282:0.34999999 283:0 284:0 285:0.17 286:0.34999999 287:0.34999999 288:0.17 289:0.17 290:0.51999998 291:0.17 292:0.17 293:0.34999999 294:0 295:0.51999998 296:0.34999999 297:0.87 298:0 299:0 300:0 301:0.34999999 302:0.34999999 303:0.17 304:0.34999999 305:0.69 306:0.51999998 307:0.17 308:0.69 309:0.87 310:1.39 311:0.17 312:0.34999999 313:1.39 314:0.51999998 315:0.17 316:2.0799999 317:0.51999998 318:0.34999999 319:0 320:0.17 321:0 322:0.17 323:0.51999998 324:0.17 325:0.34999999 326:0.17 327:0.17 328:0 329:0 330:0.34999999 331:0.34999999 332:0.17 333:0.34999999 334:0.51999998 335:0.17 336:0.17 337:0 338:0.34999999 339:0.17 340:0 341:0 342:0.17 343:0.87 344:0.34999999 345:0.34999999 346:0.17 347:0 348:0.34999999 349:0.17 350:0.51999998 351:0 352:0.17 353:0.87 354:0.34999999 355:0.69 356:0.17 357:0.17 358:0.51999998 359:0 360:0 361:0.17 362:0 363:0 364:0.17 365:0 366:0 367:0 368:0.17 369:0 370:0 371:0 372:0 373:0 374:0 375:0 376:0 377:0.17 378:0 379:0 380:0 381:0 382:0 383:0.34999999 384:0 385:0 386:0.51999998 387:0 388:0.17 389:0 390:0.17 391:0 392:0 393:0.17 394:0.17 395:0.17 396:0.34999999 397:0.17 398:0.17 399:0 400:0.17 #
0.00051136657452215215219348820596679 1:2.71 2:0.28 3:0.37 4:0.37 5:0.090000004 6:0.56 7:0.19 8:0.28 9:0.19 10:0.56 11:0 12:0.19 13:0.64999998 14:0.47 15:0.090000004 16:1.3099999 17:0.93000001 18:0.19 19:0 20:0.090000004 21:0.28 22:0.090000004 23:0.19 24:0.19 25:0.090000004 26:0.19 27:0 28:0 29:0.090000004 30:0.64999998 31:0 32:0.19 33:0.090000004 34:0.19 35:0.19 36:0.090000004 37:0 38:0 39:0 40:0.090000004 41:0 42:0.090000004 43:0.090000004 44:0.090000004 45:0 46:0.090000004 47:0.090000004 48:0.28 49:0.37 50:0.47 51:0 52:0.28 53:0.19 54:0.28 55:0.090000004 56:0.64999998 57:0.28 58:0.090000004 59:0 60:0.090000004 61:0.47 62:0 63:0.47 64:0.19 65:0.090000004 66:0.19 67:0.090000004 68:0.19 69:0.090000004 70:0.47 71:0 72:0.19 73:0.19 74:0.47 75:0.19 76:0.19 77:0.19 78:0.090000004 79:0.090000004 80:0.090000004 81:0.28 82:0.19 83:0.19 84:0 85:0.28 86:0.090000004 87:0 88:0 89:0.090000004 90:0 91:0 92:0.090000004 93:0.37 94:0.37 95:0 96:0.47 97:0 98:0.19 99:0 100:0.28 101:0.19 102:0.19 103:0.090000004 104:0.19 105:0.090000004 106:0.56 107:0.19 108:0 109:0.28 110:0.19 111:0.090000004 112:0.28 113:0.19 114:0.090000004 115:0.28 116:0.56 117:0.090000004 118:0.19 119:0.090000004 120:0.28 121:0.47 122:0 123:0 124:0.090000004 125:0.19 126:0.19 127:0.37 128:0 129:0 130:0.56 131:0 132:0.56 133:0.19 134:0.75 135:0.090000004 136:0.19 137:0.19 138:0.19 139:0 140:0.28 141:0.090000004 142:0 143:0.19 144:0.19 145:0.19 146:0.19 147:0 148:0.090000004 149:0.28 150:0 151:0.090000004 152:0.28 153:0.19 154:0 155:0 156:0.64999998 157:0.28 158:0.090000004 159:0 160:0.090000004 161:0 162:0.19 163:0 164:0.090000004 165:0 166:0.28 167:0 168:0.47 169:0.19 170:0.56 171:0.090000004 172:0.090000004 173:0.19 174:0.28 175:0.28 176:0.19 177:0.090000004 178:0.28 179:0 180:0.19 181:0.64999998 182:0.28 183:0.090000004 184:0.28 185:0.56 186:0.19 187:0.47 188:0.75 189:0.56 190:1.21 191:0 192:0.37 193:0.93000001 194:1.12 195:0.64999998 196:0.93000001 197:0.83999997 198:0.37 199:0 200:0.19 201:0 202:0 203:0.090000004 204:0.090000004 205:0.090000004 206:0 207:0 208:0 209:0.090000004 210:0.090000004 211:0.090000004 212:0 213:0 214:0 215:0.090000004 216:0.19 217:0 218:0.090000004 219:0 220:0 221:0.47 222:0.28 223:0.090000004 224:0 225:0.19 226:0.37 227:0.19 228:0 229:0 230:0.56 231:0.090000004 232:0.56 233:0.090000004 234:0.28 235:0.090000004 236:1.6799999 237:0.19 238:0 239:0 240:0.19 241:0.83999997 242:0.090000004 243:0.28 244:0.28 245:0.19 246:0.19 247:0 248:0.19 249:0.28 250:0.56 251:0 252:0.28 253:0.83999997 254:0.28 255:0.090000004 256:0.75 257:0.64999998 258:0.28 259:0 260:0 261:0.56 262:0.090000004 263:0 264:0.64999998 265:0.28 266:0.090000004 267:1.12 268:0 269:0.28 270:1.12 271:0.19 272:0.090000004 273:0.090000004 274:5.5 275:0.28 276:0.56 277:0.19 278:0.19 279:0 280:0 281:0.28 282:0.090000004 283:0.28 284:0.090000004 285:0.090000004 286:0.090000004 287:0.19 288:0.19 289:0.090000004 290:0.64999998 291:0 292:0.19 293:0 294:0.090000004 295:0.37 296:0.47 297:0.47 298:0 299:0 300:0.090000004 301:1.4 302:0.28 303:0.47 304:0.47 305:0.28 306:0.37 307:1.12 308:0.28 309:0.19 310:1.59 311:0.19 312:1.12 313:1.3099999 314:0.37 315:0.28 316:2.52 317:0.56 318:0.28 319:0 320:0.090000004 321:0.83999997 322:0.28 323:0.37 324:0.28 325:0.090000004 326:0 327:0.19 328:0.090000004 329:0.19 330:0.75 331:0 332:0.090000004 333:0.28 334:0.19 335:0 336:1.03 337:0.83999997 338:0.37 339:0 340:0.19 341:0 342:0.19 343:0.28 344:0.19 345:0 346:0.28 347:0 348:0.090000004 349:0.19 350:0.28 351:0 352:0 353:0.090000004 354:0.37 355:0.47 356:0.37 357:0.19 358:0.37 359:0 360:0 361:0 362:0 363:0 364:0 365:0 366:0 367:0 368:0 369:0 370:0.090000004 371:0 372:0 373:0 374:0 375:0 376:0.090000004 377:0 378:0 379:0 380:0 381:0 382:0 383:0 384:0.19 385:0.19 386:0.19 387:0.090000004 388:0 389:0 390:0.090000004 391:0 392:0.47 393:0.19 394:0.19 395:0.19 396:0.28 397:0.090000004 398:0.090000004 399:0 400:0 #
-1.6160494472202584833459004798328e-05 1:0.38999999 2:0 3:0 4:0.38999999 5:0.38999999 6:0 7:0.76999998 8:0 9:0 10:0.76999998 11:0 12:0 13:1.16 14:1.16 15:0.38999999 16:1.9299999 17:0 18:0.38999999 19:0 20:0.38999999 21:0.38999999 22:0 23:0 24:0.38999999 25:0 26:0 27:0.38999999 28:0 29:0 30:1.16 31:0 32:0 33:0.38999999 34:0.76999998 35:0.38999999 36:0 37:0.38999999 38:0 39:0.38999999 40:0 41:0 42:0 43:0 44:0 45:0 46:0 47:0 48:0.38999999 49:0 50:0.38999999 51:0.38999999 52:0 53:0.38999999 54:0.38999999 55:0 56:0 57:0.38999999 58:1.16 59:0 60:0 61:1.16 62:0 63:0.76999998 64:0.38999999 65:0 66:0.38999999 67:0 68:0 69:0 70:0.76999998 71:0 72:0 73:0.76999998 74:0 75:0 76:0.38999999 77:0 78:0.76999998 79:0 80:0.38999999 81:0 82:0.38999999 83:0 84:0.38999999 85:0.38999999 86:0 87:0 88:0 89:0 90:0.76999998 91:0 92:0.38999999 93:0 94:0 95:0.38999999 96:0 97:0 98:0 99:0.38999999 100:0 101:0.76999998 102:0.38999999 103:0.38999999 104:0 105:0 106:0 107:0 108:0 109:0.38999999 110:0.76999998 111:0 112:0 113:1.16 114:0 115:0.38999999 116:0.38999999 117:0.38999999 118:0.38999999 119:0 120:0 121:0.38999999 122:0.76999998 123:0 124:0.38999999 125:0 126:0 127:0 128:0.38999999 129:0 130:0.38999999 131:0 132:0 133:0.38999999 134:0 135:0.76999998 136:0 137:0 138:0 139:0.38999999 140:0 141:0.38999999 142:0 143:0 144:0 145:0 146:0.38999999 147:0 148:0 149:0 150:1.9299999 151:0 152:0 153:0 154:0 155:0 156:0.38999999 157:0.38999999 158:0 159:0 160:0 161:0 162:0 163:0 164:0.38999999 165:0 166:0.38999999 167:0 168:0.38999999 169:0.38999999 170:0 171:0 172:0.38999999 173:0 174:0 175:0 176:0 177:0.38999999 178:0 179:0 180:0 181:1.16 182:1.16 183:0.38999999 184:2.3199999 185:1.16 186:1.16 187:0.38999999 188:0 189:1.16 190:3.8599999 191:0.38999999 192:0 193:0.76999998 194:0.76999998 195:0.76999998 196:0.38999999 197:0 198:0.38999999 199:0 200:0.38999999 201:0.76999998 202:0 203:0 204:0 205:0 206:0 207:0 208:0 209:0 210:0.38999999 211:0 212:0 213:0 214:0 215:0 216:0.38999999 217:0 218:0 219:0 220:0 221:0 222:0 223:0 224:0 225:0 226:0 227:0 228:0.38999999 229:0 230:0.38999999 231:0 232:0 233:0.38999999 234:0 235:0 236:0.38999999 237:0 238:0 239:0 240:0 241:0.76999998 242:0.38999999 243:0.76999998 244:0 245:0 246:0.76999998 247:0.76999998 248:0 249:0.38999999 250:0.38999999 251:0.38999999 252:0.38999999 253:0.76999998 254:0.38999999 255:0.38999999 256:1.16 257:0.38999999 258:1.16 259:0.38999999 260:0 261:0 262:0 263:0.38999999 264:0.38999999 265:0 266:1.16 267:0.76999998 268:0 269:0 270:0 271:0 272:0 273:0.76999998 274:0.76999998 275:0.38999999 276:0.38999999 277:0 278:0 279:0.38999999 280:0 281:0 282:0 283:0 284:0.38999999 285:0 286:0 287:0 288:0.38999999 289:0 290:1.16 291:0 292:0.38999999 293:1.16 294:0 295:0.38999999 296:0.38999999 297:0.76999998 298:0 299:0 300:0 301:0.38999999 302:0.76999998 303:0 304:0 305:0.76999998 306:0.76999998 307:0.76999998 308:0.38999999 309:0 310:0.76999998 311:0 312:0 313:0.38999999 314:0.76999998 315:0.38999999 316:0.76999998 317:0.38999999 318:0 319:0 320:0 321:0 322:0.38999999 323:0 324:0.38999999 325:0.38999999 326:0 327:0 328:0.76999998 329:0 330:1.16 331:0 332:0 333:0 334:0 335:0.38999999 336:0 337:0 338:0.76999998 339:0 340:0 341:0.76999998 342:0.38999999 343:0.76999998 344:0 345:0 346:0 347:0 348:0.38999999 349:0 350:0.76999998 351:0 352:0 353:0.76999998 354:0.38999999 355:0.38999999 356:0 357:0.38999999 358:0 359:0 360:0 361:0.38999999 362:0 363:0 364:0 365:0 366:0.38999999 367:0 368:0 369:0 370:0.38999999 371:0 372:0 373:0 374:0 375:0 376:0.38999999 377:0 378:0 379:0 380:0.38999999 381:0.38999999 382:0 383:0 384:0 385:0 386:0 387:0 388:0 389:0 390:0.38999999 391:0 392:0 393:0.38999999 394:0 395:0 396:0 397:0.38999999 398:0 399:0 400:0 #
-4.2126428751570457395536628553145e-05 1:0.22 2:0 3:0.64999998 4:0 5:0.22 6:0.43000001 7:0 8:0 9:0.64999998 10:1.08 11:0 12:0.43000001 13:0.64999998 14:0.64999998 15:0.43000001 16:0.22 17:0 18:0.43000001 19:0 20:0 21:0 22:0 23:0 24:0.22 25:0 26:0.43000001 27:0.22 28:0 29:0.43000001 30:0.87 31:0.22 32:0 33:0.43000001 34:0 35:0.43000001 36:0 37:0.22 38:0 39:0.22 40:0 41:0.22 42:0 43:0 44:0.43000001 45:0 46:0 47:0.22 48:0.22 49:0.64999998 50:0.22 51:0 52:0 53:0 54:0.87 55:0.64999998 56:0.22 57:0 58:0.22 59:0.22 60:0.64999998 61:0.43000001 62:0 63:0.64999998 64:0.22 65:0.22 66:0 67:0 68:0 69:0.22 70:1.3 71:0.43000001 72:0 73:1.08 74:0.22 75:0 76:0.43000001 77:0.22 78:0.64999998 79:0 80:0.22 81:0 82:0.22 83:0 84:0 85:0.22 86:0.22 87:0 88:0.22 89:0.64999998 90:0.43000001 91:0 92:0 93:0 94:0.43000001 95:0 96:0.87 97:0 98:0.22 99:0 100:0 101:0.22 102:0.22 103:0.64999998 104:0 105:0.43000001 106:0.43000001 107:0 108:0 109:0.22 110:0.22 111:0.22 112:0.22 113:1.73 114:0.22 115:0.22 116:0.43000001 117:0 118:0.22 119:0 120:0.43000001 121:0.43000001 122:0.22 123:0 124:0 125:0 126:0.22 127:0 128:0.22 129:0.22 130:0.22 131:0 132:0 133:0 134:0 135:0 136:0.43000001 137:0 138:0 139:0 140:0.64999998 141:0 142:0 143:0.22 144:0.22 145:0 146:0.22 147:0 148:0 149:0.22 150:0.64999998 151:0 152:0 153:0 154:0 155:0.22 156:0.22 157:0 158:0.43000001 159:0 160:0.22 161:0.64999998 162:0.22 163:0.22 164:0.64999998 165:0.87 166:0.22 167:0.43000001 168:0.22 169:0.22 170:0.22 171:0 172:0 173:0 174:0.43000001 175:0.64999998 176:0.43000001 177:0.22 178:0.22 179:0 180:0 181:0.22 182:0.87 183:1.08 184:0.87 185:0.22 186:0.43000001 187:0.64999998 188:0.64999998 189:0.43000001 190:2.3800001 191:0 192:0.22 193:0.43000001 194:1.52 195:0.22 196:0.43000001 197:0.43000001 198:1.52 199:0 200:0.43000001 201:0.22 202:0 203:0.22 204:0 205:0 206:0.22 207:0 208:0 209:0 210:0.43000001 211:0 212:0 213:0.22 214:0.22 215:0.43000001 216:0.22 217:0.22 218:0.22 219:0 220:0.22 221:0.22 222:0.22 223:0 224:0.22 225:0 226:0.22 227:0.22 228:0 229:0.43000001 230:0.22 231:0 232:0.64999998 233:0 234:0 235:0.22 236:0 237:0 238:0.22 239:0 240:0 241:0.64999998 242:0 243:0.22 244:1.08 245:0.64999998 246:0.43000001 247:0.43000001 248:0 249:0.22 250:0.43000001 251:0.64999998 252:0.22 253:2.5999999 254:0.22 255:0.22 256:0.64999998 257:0 258:0.22 259:0 260:0.43000001 261:0.43000001 262:0 263:0 264:1.08 265:0 266:0 267:0 268:0.22 269:0.43000001 270:1.08 271:0.22 272:0.43000001 273:0.43000001 274:0.64999998 275:0.22 276:0.22 277:0.43000001 278:0.43000001 279:0 280:0.43000001 281:1.3 282:0.43000001 283:0.22 284:0 285:0.22 286:0.22 287:0 288:0.22 289:0.22 290:0.22 291:0.43000001 292:0.43000001 293:0 294:0.43000001 295:0.22 296:0 297:0.43000001 298:0 299:0 300:0 301:0 302:0.43000001 303:0.22 304:0.43000001 305:0 306:1.3 307:0 308:0.43000001 309:0 310:1.52 311:0.22 312:0.22 313:0.22 314:0.22 315:0 316:0 317:0.22 318:0.22 319:0 320:0.43000001 321:0 322:0.43000001 323:0 324:0.22 325:0.22 326:0.22 327:0 328:0.22 329:0 330:0.43000001 331:0 332:0 333:0 334:0.22 335:0 336:0 337:0 338:0.64999998 339:0 340:0 341:0.43000001 342:0.43000001 343:0.22 344:0.64999998 345:0.22 346:0.43000001 347:0 348:0 349:0.43000001 350:0.64999998 351:0 352:0 353:0.64999998 354:0.43000001 355:0.64999998 356:0.64999998 357:0 358:0 359:0 360:0 361:0.22 362:0 363:0 364:0 365:0 366:0 367:0 368:0 369:0 370:0 371:0 372:0 373:0 374:0 375:0 376:0.22 377:0 378:0 379:0 380:0 381:0.22 382:0 383:0.22 384:0 385:0 386:0.43000001 387:0.43000001 388:0 389:0.22 390:0.43000001 391:0.22 392:0 393:0.87 394:0 395:0.22 396:0.43000001 397:0.43000001 398:0 399:0 400:0 #
-0.00032845778166719677947094080394663 1:0.16 2:0.33000001 3:0.16 4:0.16 5:0 6:0.16 7:0.33000001 8:0 9:0.16 10:0.64999998 11:0.64999998 12:0.49000001 13:0.98000002 14:0.33000001 15:0.33000001 16:0.64999998 17:0.16 18:0.49000001 19:0 20:0 21:0 22:0 23:0 24:0.16 25:0 26:0.16 27:0.16 28:0 29:0.33000001 30:0.33000001 31:0 32:0 33:0.81 34:0.16 35:0.16 36:0.16 37:0 38:0 39:0 40:0 41:0.33000001 42:0 43:0.16 44:0 45:0.33000001 46:0 47:0 48:0 49:0.16 50:0.49000001 51:0 52:0.16 53:0.16 54:0.33000001 55:0.16 56:0.64999998 57:0 58:0.33000001 59:0 60:0 61:0.33000001 62:0 63:0.49000001 64:0.33000001 65:0.16 66:0.33000001 67:0 68:0.33000001 69:0.49000001 70:0.33000001 71:0.16 72:0.33000001 73:0.16 74:0.16 75:0 76:0.33000001 77:0.49000001 78:0.33000001 79:0 80:0 81:0.33000001 82:0 83:0.16 84:0.16 85:0.16 86:0.33000001 87:0.16 88:0 89:0.16 90:0.16 91:0 92:0.33000001 93:0.33000001 94:0.16 95:0.49000001 96:0.49000001 97:0.64999998 98:0 99:0 100:0.16 101:0.16 102:0.49000001 103:0.33000001 104:0.16 105:0.64999998 106:0.16 107:0.16 108:0 109:0 110:0.33000001 111:0.64999998 112:0.33000001 113:0.49000001 114:0 115:0.49000001 116:1.47 117:0.49000001 118:0.33000001 119:0 120:0 121:0.33000001 122:0 123:0.33000001 124:0 125:0 126:0.16 127:0.16 128:0.16 129:0 130:0 131:0 132:0.16 133:0.16 134:0.16 135:0.49000001 136:0.33000001 137:0 138:0.16 139:0 140:0.16 141:0 142:0 143:0 144:0 145:0.16 146:0.16 147:0 148:0 149:0 150:0 151:0 152:0.16 153:0.33000001 154:0.33000001 155:0 156:0.16 157:0.33000001 158:0.16 159:0.16 160:0 161:0.16 162:0.16 163:0.16 164:0 165:0 166:0.33000001 167:0.16 168:0 169:0.16 170:0.98000002 171:0 172:0.49000001 173:0 174:0.16 175:0.33000001 176:0 177:0 178:0.16 179:0 180:0 181:0.81 182:0.49000001 183:0.16 184:0.16 185:0.33000001 186:0.49000001 187:0 188:0 189:0.64999998 190:1.47 191:0.16 192:0.81 193:0.16 194:0.49000001 195:0.81 196:0.98000002 197:0.64999998 198:0.49000001 199:0 200:0.16 201:0 202:0 203:0 204:0.49000001 205:0.33000001 206:0.49000001 207:0.16 208:0 209:0 210:0.16 211:0 212:0.33000001 213:0 214:0.16 215:0 216:0.33000001 217:0.16 218:0.33000001 219:0 220:0.16 221:0.33000001 222:0.16 223:0.16 224:0.33000001 225:0.16 226:0.81 227:0.16 228:0.33000001 229:0 230:0.33000001 231:0.33000001 232:0.81 233:0 234:0.16 235:0.49000001 236:0.64999998 237:0.33000001 238:0.33000001 239:0 240:0 241:0.81 242:0 243:0.16 244:0.49000001 245:0 246:0.49000001 247:0.49000001 248:0 249:0.16 250:0.33000001 251:0.16 252:0.33000001 253:1.14 254:0.16 255:0.16 256:1.95 257:1.47 258:0 259:0 260:0 261:0 262:0.16 263:0.16 264:0.49000001 265:0.16 266:0.64999998 267:0.16 268:0 269:0 270:0.49000001 271:0 272:0.16 273:0.16 274:0.49000001 275:0.33000001 276:0.33000001 277:0.16 278:0.49000001 279:0 280:0.16 281:0.49000001 282:0.33000001 283:0.33000001 284:0.49000001 285:0.64999998 286:0 287:0.16 288:0.33000001 289:0 290:0.16 291:0.16 292:0.16 293:0.16 294:0.33000001 295:0.16 296:0.81 297:0.64999998 298:0.33000001 299:0.16 300:0 301:1.14 302:0.16 303:0.33000001 304:0.49000001 305:0.81 306:1.14 307:0 308:0.33000001 309:0.16 310:1.63 311:0.33000001 312:0.64999998 313:1.95 314:0.64999998 315:0.81 316:2.77 317:0.16 318:0.33000001 319:0 320:0.16 321:0.16 322:0 323:0 324:0.16 325:0.16 326:0.33000001 327:0.33000001 328:0 329:0.49000001 330:0.64999998 331:0.16 332:0 333:0.81 334:0.33000001 335:0 336:1.14 337:0.49000001 338:0.33000001 339:0.16 340:0.64999998 341:0.49000001 342:0.16 343:0.16 344:0.33000001 345:0 346:0.33000001 347:0.16 348:0.33000001 349:0.16 350:0.81 351:0.16 352:0 353:0 354:0.16 355:0.64999998 356:0.33000001 357:0.16 358:0.33000001 359:0 360:0.16 361:0 362:0 363:0 364:0.33000001 365:0 366:0 367:0 368:0 369:0 370:0 371:0 372:0 373:0.16 374:0 375:0 376:0 377:0 378:0 379:0 380:0 381:0.16 382:0 383:0 384:0 385:0.16 386:0.16 387:0 388:0.16 389:0.16 390:0 391:0 392:0.16 393:0.33000001 394:0 395:0 396:0.49000001 397:0 398:0 399:0 400:0 #
0.0010589680592826137325163093905189 1:0.49000001 2:0.31999999 3:0.49000001 4:0 5:0.81 6:0.31999999 7:0 8:0.49000001 9:0.16 10:1.29 11:0.16 12:0.16 13:0.64999998 14:0 15:0.49000001 16:0.31999999 17:0.31999999 18:0.31999999 19:0 20:0 21:0.31999999 22:0 23:0 24:0.16 25:0.16 26:0.31999999 27:0 28:0 29:0.16 30:0.31999999 31:0 32:0.16 33:0.16 34:0.16 35:0.16 36:0.64999998 37:0 38:0 39:0 40:0 41:0.49000001 42:0 43:0 44:0.49000001 45:0.49000001 46:0 47:0.31999999 48:0.16 49:0.49000001 50:0.31999999 51:0 52:0.16 53:0.16 54:0.64999998 55:0.16 56:0.49000001 57:0.16 58:0.16 59:0.16 60:0.16 61:0 62:0 63:0.49000001 64:0.49000001 65:0.64999998 66:0.16 67:0.16 68:0.64999998 69:0 70:0.64999998 71:0.31999999 72:0 73:0.31999999 74:0.31999999 75:0 76:0.31999999 77:0.49000001 78:0.31999999 79:0 80:0 81:0.49000001 82:0 83:0.49000001 84:0.31999999 85:0.49000001 86:0.31999999 87:0.31999999 88:0.16 89:0.16 90:0.81 91:0.64999998 92:0.16 93:0.31999999 94:0.64999998 95:0.16 96:0.49000001 97:0.16 98:0 99:0 100:0.16 101:0.16 102:0.16 103:0 104:0.49000001 105:0.31999999 106:0.16 107:0 108:0 109:0.16 110:0.31999999 111:0.16 112:0.49000001 113:0.31999999 114:0 115:0.31999999 116:0.97000003 117:0.31999999 118:0.16 119:0 120:0 121:0.31999999 122:0.16 123:0 124:0 125:0.16 126:0.31999999 127:0 128:0.16 129:0 130:0 131:0 132:0.31999999 133:0 134:0.16 135:0.16 136:0.31999999 137:0.16 138:0 139:0 140:0.31999999 141:0.31999999 142:0 143:0.16 144:0.31999999 145:0 146:0 147:0 148:0.31999999 149:0.16 150:0.49000001 151:0.31999999 152:0.31999999 153:0.16 154:0.31999999 155:0.31999999 156:0.16 157:0.16 158:0.31999999 159:0 160:0.16 161:0.31999999 162:0.16 163:0.16 164:0.16 165:0 166:0.31999999 167:0 168:0.16 169:0.16 170:0.49000001 171:0.16 172:0.31999999 173:0.49000001 174:0 175:0.31999999 176:0.16 177:0.64999998 178:0 179:0 180:0.16 181:0.81 182:0 183:0.64999998 184:0.16 185:0.64999998 186:0.31999999 187:0.49000001 188:0.16 189:0.16 190:0.49000001 191:0.49000001 192:0.31999999 193:0.64999998 194:0.64999998 195:0.64999998 196:0.97000003 197:0.49000001 198:0.64999998 199:0 200:0.16 201:0.31999999 202:0.16 203:0 204:0.16 205:0.31999999 206:0.31999999 207:0 208:0 209:0 210:0 211:0 212:0.16 213:0.64999998 214:0.31999999 215:0 216:0.16 217:0.16 218:0.31999999 219:0 220:0 221:0.49000001 222:0.16 223:0.49000001 224:0.16 225:0.16 226:0 227:0 228:0 229:0.49000001 230:0.31999999 231:0.16 232:0.16 233:0.49000001 234:0 235:0.16 236:0.49000001 237:0.49000001 238:0.16 239:0 240:0 241:0.81 242:0 243:0.16 244:0.31999999 245:0.49000001 246:0 247:0.49000001 248:0.16 249:0.16 250:0.97000003 251:0 252:0.16 253:0.49000001 254:0.64999998 255:0 256:1.46 257:0.64999998 258:0.31999999 259:0 260:0 261:0.49000001 262:0 263:0.16 264:0.16 265:0.49000001 266:0.31999999 267:0.16 268:0.49000001 269:0.49000001 270:0.49000001 271:0.31999999 272:0.16 273:0.49000001 274:0.16 275:0 276:0.16 277:0.16 278:0.31999999 279:0 280:0.16 281:0.31999999 282:0.31999999 283:0.16 284:0.16 285:0.16 286:0.31999999 287:0.16 288:0.16 289:0.16 290:0.64999998 291:0 292:0.16 293:0 294:0.16 295:0.49000001 296:0.81 297:0.49000001 298:0.16 299:0 300:0.31999999 301:0 302:0.31999999 303:0.31999999 304:0.81 305:0.81 306:0.64999998 307:0.31999999 308:0.49000001 309:0.64999998 310:1.13 311:0 312:0.49000001 313:0.97000003 314:0.31999999 315:0.64999998 316:3.0699999 317:0.64999998 318:0.31999999 319:0 320:0.16 321:0.31999999 322:0.49000001 323:0.64999998 324:0.31999999 325:0.16 326:0.16 327:0.16 328:0.49000001 329:0.49000001 330:0 331:0.16 332:0.31999999 333:0.31999999 334:0.16 335:0.31999999 336:0.81 337:0.31999999 338:0.49000001 339:0 340:0 341:0.31999999 342:0.31999999 343:0.64999998 344:0.49000001 345:0.16 346:0.16 347:0 348:0 349:0.16 350:0.16 351:0 352:0.16 353:0.31999999 354:0.31999999 355:0.64999998 356:0.16 357:0 358:0.16 359:0 360:0 361:0 362:0 363:0 364:0.16 365:0 366:0 367:0 368:0 369:0 370:0 371:0 372:0 373:0 374:0 375:0 376:0 377:0 378:0 379:0 380:0 381:0 382:0.16 383:0 384:0 385:0 386:0.31999999 387:0 388:0 389:0 390:0 391:0 392:0.16 393:0.31999999 394:0.16 395:0.16 396:0.16 397:0.31999999 398:0 399:0 400:0 #
-0.00016376408967312542416111531551337 1:0.63 2:0.47 3:0.31 4:0.31 5:0.16 6:0.31 7:0 8:0.16 9:0.47 10:0.94 11:0 12:0.31 13:1.26 14:0.16 15:0.16 16:0.31 17:0.16 18:0.16 19:0.31 20:0 21:0.16 22:0 23:0.16 24:0.16 25:0.31 26:0.16 27:0.16 28:0.31 29:0.16 30:0.47 31:0 32:0 33:0 34:0.31 35:0.16 36:0.16 37:0.16 38:0 39:0 40:0 41:0.16 42:0 43:0.16 44:0 45:0.16 46:0.47 47:0 48:0.16 49:0.47 50:0.63 51:0.16 52:0 53:0.16 54:0 55:0.63 56:0 57:0.63 58:0.16 59:0 60:0 61:0.79000002 62:0.16 63:0 64:0.31 65:0.16 66:0.47 67:0 68:0.31 69:0.31 70:0.31 71:0.31 72:0.16 73:0.16 74:0.31 75:0.16 76:0.47 77:0.31 78:0.63 79:0 80:0 81:0.47 82:0 83:0 84:0.16 85:0.16 86:0.16 87:0 88:0.16 89:0 90:0.31 91:0 92:0 93:0.16 94:0 95:0.16 96:0.31 97:0.16 98:0.31 99:0 100:0.31 101:0.16 102:0.16 103:0.31 104:0.16 105:0.79000002 106:0.94 107:0 108:0 109:0 110:1.1 111:0.16 112:0 113:0.79000002 114:0.47 115:0.63 116:0.94 117:0.47 118:0.47 119:0 120:0.16 121:0 122:0 123:0 124:0 125:0 126:0 127:0.16 128:0 129:0.16 130:0.16 131:0.31 132:0.16 133:0 134:0.31 135:0.16 136:0.16 137:0.16 138:0 139:0 140:0.16 141:0.16 142:0.47 143:0 144:0.31 145:0.16 146:0 147:0 148:0.31 149:0.16 150:0.79000002 151:0 152:0.16 153:0.16 154:0.31 155:0 156:0.16 157:0.47 158:0.16 159:0 160:0.16 161:0.16 162:0.47 163:0 164:0.31 165:0 166:0.47 167:0 168:0.31 169:0.47 170:0 171:0.31 172:0.31 173:0.63 174:0.16 175:0.31 176:0.16 177:0.16 178:0.31 179:0 180:0 181:0.47 182:0 183:0.31 184:0.63 185:0.16 186:0.16 187:0.16 188:0.94 189:0.47 190:0.94 191:0.16 192:0.16 193:2.3599999 194:0.31 195:0.94 196:0.63 197:0.79000002 198:0.47 199:0.31 200:0 201:0 202:0 203:0.31 204:0.16 205:0.16 206:0 207:0.16 208:0 209:0.16 210:0.47 211:0 212:0 213:0.16 214:0 215:0 216:0.16 217:0.16 218:0.16 219:0 220:0.16 221:0.16 222:0.16 223:0.16 224:0 225:0 226:0.16 227:0.16 228:0 229:0.31 230:0 231:0.16 232:0.16 233:0.16 234:0.31 235:0.47 236:0.31 237:0.16 238:0.16 239:0 240:0 241:1.1 242:0.31 243:0.16 244:0.63 245:0.31 246:1.42 247:0.31 248:0.16 249:0.31 250:1.5700001 251:0 252:0.16 253:1.26 254:0.16 255:0.94 256:1.1 257:0.79000002 258:0.16 259:0.31 260:0.31 261:0.16 262:0 263:0.79000002 264:0.47 265:0 266:0.16 267:0 268:0 269:0.31 270:0.31 271:0.16 272:0.31 273:0.47 274:0.16 275:0 276:0.16 277:0.16 278:0.16 279:0 280:0.16 281:0.16 282:0.16 283:0.47 284:0.16 285:0 286:0.47 287:0.16 288:0.31 289:0.31 290:0.31 291:0 292:0.47 293:0.94 294:0.31 295:0.31 296:0.31 297:0.79000002 298:0.47 299:0 300:0.16 301:0.79000002 302:0 303:0.16 304:0.63 305:0 306:0.63 307:0 308:0.47 309:0.16 310:0.47 311:0.16 312:0.16 313:0.94 314:0.16 315:0.16 316:0.94 317:0.47 318:0.47 319:0.47 320:0.16 321:0.47 322:0.16 323:0.31 324:0.47 325:0.16 326:0.47 327:0.16 328:0.16 329:0.16 330:1.42 331:0.16 332:0 333:1.42 334:0.31 335:0.47 336:0.63 337:0.31 338:0.16 339:0 340:0 341:0.16 342:0.16 343:0.31 344:0.31 345:0.31 346:0.63 347:0.31 348:0.16 349:0 350:0.16 351:0 352:0.16 353:0.47 354:0 355:0.47 356:0.31 357:0.31 358:0.16 359:0 360:0.31 361:0.47 362:0 363:0 364:0 365:0 366:0.47 367:0 368:0 369:0 370:0 371:0 372:0.16 373:0 374:0 375:0 376:0 377:0.31 378:0 379:0 380:0 381:0 382:0.16 383:0 384:0.16 385:0 386:0.16 387:0.16 388:0 389:0.16 390:0 391:0 392:0.16 393:0 394:0.16 395:0.16 396:0.16 397:0.47 398:0.16 399:0 400:0 #
-0.00015249139111815938549265858625859 1:0.15000001 2:0.15000001 3:0.60000002 4:0.30000001 5:0.30000001 6:0.15000001 7:0.15000001 8:0.30000001 9:0.30000001 10:0.30000001 11:0.44999999 12:0.15000001 13:0.60000002 14:0.15000001 15:0.15000001 16:0.60000002 17:0.15000001 18:0.44999999 19:0 20:0 21:0.15000001 22:0.15000001 23:0 24:0.15000001 25:0 26:0.15000001 27:0.15000001 28:0.15000001 29:0.15000001 30:0.15000001 31:0 32:0.15000001 33:0.44999999 34:0.15000001 35:0.15000001 36:0.30000001 37:0.30000001 38:0.15000001 39:0.15000001 40:0.15000001 41:0.74000001 42:0 43:0.15000001 44:0 45:0.15000001 46:0.15000001 47:0.44999999 48:0 49:0.30000001 50:0.30000001 51:0.44999999 52:0 53:0.44999999 54:0.30000001 55:0 56:0.44999999 57:0.15000001 58:0 59:0 60:0.60000002 61:0.30000001 62:0 63:0.30000001 64:0.74000001 65:0.15000001 66:0.60000002 67:0 68:0.44999999 69:0 70:0.60000002 71:0.15000001 72:0 73:0.44999999 74:0.30000001 75:0.44999999 76:0.44999999 77:0.30000001 78:0.30000001 79:0 80:0.30000001 81:0 82:0.15000001 83:0.15000001 84:0 85:0.15000001 86:0 87:0 88:0.15000001 89:0.30000001 90:0 91:0.15000001 92:0 93:0 94:0.15000001 95:0.15000001 96:0.15000001 97:0.15000001 98:0.15000001 99:0.15000001 100:0.15000001 101:0.15000001 102:0.30000001 103:0.15000001 104:0 105:0.15000001 106:0.30000001 107:0.44999999 108:0.15000001 109:0.30000001 110:1.04 111:0.44999999 112:0 113:0.30000001 114:0.15000001 115:0.15000001 116:0.60000002 117:0.30000001 118:0.44999999 119:0 120:0.15000001 121:0.30000001 122:0.15000001 123:0.15000001 124:0.15000001 125:0.15000001 126:0.15000001 127:0 128:0.15000001 129:0 130:1.04 131:0.15000001 132:0.30000001 133:0.74000001 134:0.15000001 135:0.15000001 136:0.30000001 137:0.15000001 138:0.30000001 139:0 140:0.15000001 141:0 142:0.15000001 143:0.30000001 144:0 145:0.30000001 146:0.15000001 147:0.15000001 148:0.15000001 149:0 150:0.60000002 151:0.30000001 152:0.30000001 153:0.30000001 154:0.15000001 155:0.15000001 156:0.44999999 157:0.30000001 158:0.30000001 159:0 160:0.15000001 161:0.60000002 162:0.44999999 163:0 164:0.15000001 165:0 166:0.15000001 167:0.15000001 168:0.15000001 169:0.30000001 170:0.60000002 171:0.15000001 172:0.30000001 173:0.15000001 174:0 175:0.44999999 176:0.30000001 177:0 178:0.15000001 179:0 180:0 181:0.60000002 182:0.44999999 183:0.74000001 184:0.74000001 185:0 186:0.88999999 187:0.44999999 188:0.15000001 189:0.60000002 190:1.34 191:0.44999999 192:0.30000001 193:0.30000001 194:0.88999999 195:0.44999999 196:0.88999999 197:0.88999999 198:1.04 199:0 200:0 201:0.15000001 202:0 203:0.60000002 204:0.44999999 205:0 206:0.15000001 207:0.15000001 208:0.30000001 209:0.30000001 210:0.74000001 211:0.44999999 212:0.15000001 213:0.30000001 214:0 215:0 216:0.30000001 217:0 218:0 219:0.15000001 220:0 221:0.15000001 222:0 223:0.30000001 224:0.15000001 225:0 226:0 227:0.30000001 228:0 229:0.44999999 230:0.44999999 231:0 232:0 233:0 234:0.15000001 235:0.30000001 236:0.44999999 237:0.15000001 238:0.15000001 239:0 240:0 241:0.30000001 242:0 243:0.15000001 244:0.60000002 245:0.30000001 246:0.74000001 247:0.44999999 248:0.44999999 249:0 250:1.04 251:0.15000001 252:0 253:0.88999999 254:0.30000001 255:0.30000001 256:1.79 257:0.60000002 258:0 259:0.15000001 260:0.15000001 261:0.30000001 262:0.30000001 263:0 264:0.15000001 265:0 266:0.15000001 267:0.15000001 268:0.15000001 269:0 270:0.15000001 271:0 272:0 273:0.60000002 274:0.30000001 275:0.30000001 276:0.30000001 277:0.44999999 278:0 279:0.15000001 280:0.15000001 281:0.15000001 282:0.15000001 283:0.15000001 284:0.60000002 285:0.15000001 286:0.44999999 287:0.44999999 288:0.15000001 289:0.44999999 290:0.44999999 291:0 292:0.15000001 293:0.30000001 294:0 295:0.44999999 296:0.60000002 297:0 298:0.30000001 299:0 300:0 301:0.44999999 302:0.30000001 303:0.15000001 304:0.60000002 305:0 306:0.30000001 307:0.88999999 308:0.60000002 309:0.44999999 310:1.34 311:0.15000001 312:0.30000001 313:1.9299999 314:0.15000001 315:0.74000001 316:2.23 317:0.15000001 318:0.60000002 319:0.15000001 320:0.30000001 321:0.44999999 322:0 323:0.44999999 324:0.30000001 325:0.15000001 326:0.30000001 327:0 328:0.15000001 329:0 330:0.30000001 331:0.44999999 332:0.60000002 333:0.15000001 334:0.30000001 335:0 336:0.44999999 337:0.44999999 338:0.15000001 339:0 340:0.15000001 341:0 342:0.44999999 343:0.15000001 344:0.60000002 345:0.15000001 346:0.60000002 347:0.15000001 348:0.15000001 349:0.15000001 350:0.30000001 351:0.15000001 352:0 353:0.30000001 354:0 355:0.30000001 356:0.30000001 357:0.15000001 358:0.44999999 359:0.30000001 360:0.44999999 361:0.30000001 362:0 363:0 364:0 365:0 366:0 367:0 368:0 369:0 370:0.30000001 371:0 372:0 373:0.15000001 374:0 375:0.15000001 376:0.30000001 377:0 378:0 379:0 380:0 381:0.15000001 382:0 383:0.15000001 384:0.15000001 385:0 386:0.15000001 387:0.15000001 388:0.44999999 389:0 390:0.15000001 391:0 392:0.30000001 393:0.15000001 394:0 395:0.15000001 396:0.60000002 397:0.15000001 398:0.15000001 399:0 400:0 #
-6.6680467656376140282714626295046e-05 1:0.5 2:0.17 3:0.17 4:0.66000003 5:0 6:0.5 7:0.17 8:0.33000001 9:0.5 10:0.82999998 11:0.5 12:0 13:0.5 14:0 15:0.99000001 16:0.5 17:0.17 18:0.82999998 19:0 20:0 21:0.33000001 22:0.17 23:0.33000001 24:0.17 25:0 26:0.33000001 27:0 28:0.17 29:0.17 30:0.5 31:0 32:0 33:0.5 34:0.33000001 35:0.5 36:0.82999998 37:0.17 38:0 39:0 40:0 41:0.5 42:0.17 43:0.5 44:0.5 45:0.5 46:0.17 47:0.17 48:0 49:0.66000003 50:0.33000001 51:0.17 52:0 53:0 54:0.33000001 55:0.33000001 56:0.66000003 57:0.33000001 58:0 59:0 60:0 61:0.66000003 62:0 63:0.33000001 64:0 65:0.33000001 66:0.33000001 67:0.17 68:0.17 69:0.5 70:0.82999998 71:0 72:0.17 73:0 74:0.17 75:0.66000003 76:0.99000001 77:0 78:0.33000001 79:0 80:0 81:0.33000001 82:0.33000001 83:0.5 84:0.17 85:0.17 86:0.17 87:0.17 88:0 89:0 90:0.17 91:0 92:0 93:0.17 94:0.17 95:0.17 96:0.33000001 97:0.17 98:0 99:0 100:0 101:0.33000001 102:0.17 103:0.33000001 104:0.33000001 105:0.5 106:0.17 107:0 108:0.17 109:0.17 110:0.17 111:0.33000001 112:0 113:0.17 114:0.33000001 115:0.17 116:0.33000001 117:0.33000001 118:0.5 119:0 120:0.17 121:0 122:0 123:0.17 124:0 125:0 126:0.17 127:0.17 128:0 129:0 130:0 131:0.17 132:0 133:0.33000001 134:0 135:0.17 136:0.82999998 137:0.5 138:0 139:0 140:0.17 141:0.17 142:0.5 143:0.17 144:0.33000001 145:0 146:0 147:0 148:0.17 149:0.17 150:0.33000001 151:0 152:0.17 153:0.33000001 154:0.33000001 155:0.33000001 156:0 157:0 158:0 159:0 160:0 161:0.5 162:0.33000001 163:0 164:0.17 165:0 166:0.17 167:0.17 168:0.5 169:0.17 170:0.33000001 171:0.17 172:0.17 173:0.17 174:0 175:0.66000003 176:0.5 177:0.17 178:0.17 179:0 180:0.17 181:1.49 182:0.5 183:0 184:0.17 185:0.17 186:0 187:0.66000003 188:0 189:0.66000003 190:0.82999998 191:0.17 192:0.66000003 193:0.5 194:0.66000003 195:0.82999998 196:0.5 197:0.17 198:0.99000001 199:0.17 200:0 201:0 202:0 203:0.33000001 204:0.17 205:0.5 206:0 207:0 208:0 209:0 210:0.33000001 211:0 212:0 213:0 214:0.17 215:0.17 216:0.17 217:0.17 218:0 219:0 220:0.17 221:0.66000003 222:0.17 223:0.17 224:0 225:0 226:0.17 227:0 228:0 229:0 230:0.17 231:0 232:0 233:0.33000001 234:0.17 235:0.33000001 236:0.17 237:0.17 238:0.17 239:0 240:0 241:0.5 242:0.17 243:0.5 244:0.17 245:0.33000001 246:0.33000001 247:0.17 248:0.17 249:0.17 250:0.82999998 251:0.17 252:0.17 253:1.16 254:0.17 255:0.5 256:0.66000003 257:0.17 258:0.5 259:0.33000001 260:0.17 261:0.33000001 262:0.33000001 263:0.33000001 264:0.66000003 265:0 266:0 267:0 268:0 269:0.17 270:0.33000001 271:0 272:0 273:0 274:0.82999998 275:0.33000001 276:0.17 277:0 278:0.33000001 279:0 280:0.33000001 281:0.5 282:0.5 283:0.5 284:0.33000001 285:0.33000001 286:0.33000001 287:0.33000001 288:0.33000001 289:0.33000001 290:0.82999998 291:0 292:0.5 293:0.99000001 294:0 295:1.3200001 296:1.16 297:0.66000003 298:0.82999998 299:0 300:0 301:0.17 302:0.33000001 303:0.33000001 304:0.82999998 305:0 306:1.16 307:0 308:0.66000003 309:0.5 310:0.66000003 311:0.33000001 312:0 313:1.3200001 314:0.17 315:0.5 316:1.8200001 317:0.33000001 318:0.82999998 319:0.5 320:0.33000001 321:0.33000001 322:0.17 323:0.33000001 324:0.5 325:0 326:0 327:0.17 328:0.17 329:0.17 330:0.5 331:0 332:0.17 333:0.33000001 334:0.17 335:0.66000003 336:0.33000001 337:0.5 338:0.33000001 339:0 340:0 341:0.17 342:0.33000001 343:0.17 344:0.33000001 345:0.17 346:0.5 347:0.33000001 348:0.17 349:0 350:0.82999998 351:0 352:0.66000003 353:0.33000001 354:0.17 355:0.66000003 356:0.5 357:0.33000001 358:0.66000003 359:0.17 360:0 361:0 362:0 363:0.17 364:0 365:0 366:0 367:0 368:0 369:0 370:0.17 371:0 372:0 373:0.17 374:0 375:0.33000001 376:0.33000001 377:0 378:0 379:0 380:0 381:0 382:0.17 383:0 384:0.17 385:0 386:0.17 387:0 388:0 389:0.17 390:0.17 391:0 392:0 393:0 394:0 395:0.17 396:0 397:0.5 398:0 399:0 400:0 #
-8.2966286464424059089381446874256e-05 1:3.3199999 2:0.14 3:0 4:0.14 5:0.14 6:0.72000003 7:0.57999998 8:0.28999999 9:0.14 10:0.43000001 11:0.28999999 12:0 13:0.87 14:0.72000003 15:0.28999999 16:1.3 17:1.01 18:0.72000003 19:0 20:0 21:0.14 22:0 23:0.28999999 24:0 25:0.14 26:0.14 27:0 28:0.14 29:0.28999999 30:0.14 31:0.14 32:0.14 33:0.14 34:0.14 35:0.43000001 36:0.14 37:0 38:0 39:0 40:0 41:0.14 42:0 43:0 44:0.14 45:0 46:0.28999999 47:0.14 48:0.14 49:0.43000001 50:0.28999999 51:0.14 52:0 53:0 54:0.28999999 55:0.28999999 56:0.14 57:0 58:0.14 59:0 60:0 61:0.57999998 62:0 63:0 64:0.14 65:0 66:0.14 67:0.14 68:0.14 69:0 70:0.43000001 71:0.43000001 72:0 73:0.14 74:0 75:0.28999999 76:0.43000001 77:0.72000003 78:0.14 79:0 80:0 81:0.14 82:0 83:0 84:0 85:0.28999999 86:0.14 87:0.28999999 88:0 89:0.28999999 90:0.28999999 91:0.14 92:0.14 93:0.28999999 94:0.28999999 95:0.14 96:0 97:0 98:0 99:0 100:0 101:0.28999999 102:0.28999999 103:0.43000001 104:0.28999999 105:0.43000001 106:0.72000003 107:0.57999998 108:0.28999999 109:0.14 110:0.43000001 111:0 112:0.28999999 113:0.43000001 114:0 115:0.28999999 116:1.3 117:0.14 118:0.28999999 119:0 120:0 121:1.3 122:0 123:0 124:0.14 125:0 126:0.43000001 127:3.1800001 128:0.14 129:0.14 130:0.57999998 131:0 132:0.43000001 133:0.43000001 134:0.14 135:0.43000001 136:0.14 137:0 138:0.14 139:0 140:0.14 141:0.43000001 142:0.14 143:0 144:0.14 145:0 146:0.28999999 147:0.14 148:0 149:0 150:0.43000001 151:0 152:0 153:0.28999999 154:0.43000001 155:0.28999999 156:0.72000003 157:0.28999999 158:0 159:0 160:0.28999999 161:0.28999999 162:0.43000001 163:0.14 164:0.28999999 165:0 166:0.14 167:0.14 168:0 169:0 170:0.28999999 171:0 172:0.14 173:0.14 174:0.14 175:0.14 176:0 177:0.28999999 178:0.14 179:0 180:0 181:0.28999999 182:0.28999999 183:0.43000001 184:0.28999999 185:0.72000003 186:0.14 187:0.72000003 188:0.43000001 189:0.14 190:2.3099999 191:0.28999999 192:0.14 193:0.57999998 194:0.57999998 195:0.43000001 196:1.01 197:0.43000001 198:0.14 199:0 200:0 201:0.14 202:0 203:0 204:0.14 205:0 206:0.14 207:0 208:0.14 209:0.28999999 210:0.28999999 211:0 212:0.14 213:0.28999999 214:0 215:0 216:0.14 217:0 218:0 219:0 220:0.14 221:0 222:0 223:0.14 224:0 225:0 226:0.14 227:0.14 228:0 229:0.14 230:0.28999999 231:0 232:2.02 233:0.14 234:0.14 235:0.14 236:0.43000001 237:0.28999999 238:0.43000001 239:0 240:0.28999999 241:1.01 242:0.14 243:0.28999999 244:0.14 245:0.28999999 246:0.57999998 247:0.14 248:0.28999999 249:0.14 250:0.43000001 251:0 252:0 253:1.16 254:0.43000001 255:0.57999998 256:1.3 257:0.57999998 258:0.43000001 259:0 260:0.14 261:0.43000001 262:0.28999999 263:0.28999999 264:0.57999998 265:0 266:0.14 267:0.87 268:0.14 269:0 270:0.28999999 271:0.14 272:0 273:0.14 274:0.28999999 275:0 276:0.43000001 277:0.28999999 278:0.28999999 279:0.14 280:0.14 281:0.28999999 282:0.14 283:0.14 284:0.14 285:0.28999999 286:0.14 287:0.14 288:0.14 289:0.14 290:1.01 291:0 292:0.28999999 293:0 294:0.43000001 295:0 296:0.57999998 297:0.14 298:0.28999999 299:0.14 300:0.14 301:0.72000003 302:0.14 303:0.14 304:0.43000001 305:0.14 306:1.73 307:0.28999999 308:0.72000003 309:0.28999999 310:0.72000003 311:0 312:0.72000003 313:1.59 314:0 315:0.43000001 316:1.73 317:0.72000003 318:0 319:0.28999999 320:0.14 321:1.16 322:0.28999999 323:0 324:0.28999999 325:0 326:0.14 327:0.28999999 328:0.72000003 329:0 330:0.57999998 331:0.14 332:0.14 333:1.16 334:0.28999999 335:0.14 336:0.43000001 337:0.57999998 338:0 339:0 340:0 341:0.28999999 342:0.14 343:0.28999999 344:0.28999999 345:0 346:0.28999999 347:0 348:0.14 349:0.14 350:0.14 351:0 352:0.14 353:0.14 354:0.43000001 355:0.28999999 356:0.43000001 357:0.14 358:0.14 359:0 360:0 361:0 362:0 363:0 364:0.14 365:0 366:0 367:0 368:0 369:0.14 370:0 371:0 372:0 373:0 374:0 375:0 376:0 377:0.14 378:0.14 379:0 380:0 381:0.14 382:0 383:0 384:0 385:0 386:0.14 387:0 388:0 389:0 390:0 391:0 392:0 393:0.14 394:0.14 395:0 396:0.28999999 397:0.57999998 398:0 399:0 400:0 #
-0.00013155140930523810086257008311605 1:0.81 2:0 3:0.34999999 4:0.57999998 5:0 6:0.69 7:0.46000001 8:0.12 9:0.34999999 10:0.81 11:0.12 12:0.57999998 13:0.12 14:0.12 15:0.34999999 16:1.27 17:0.23 18:0.12 19:0 20:0.34999999 21:0 22:0 23:0.23 24:0.12 25:0 26:0.23 27:0.12 28:0 29:0.23 30:0.46000001 31:0 32:0.12 33:0 34:0.12 35:0.12 36:0.34999999 37:0.12 38:0.23 39:0 40:0 41:0.12 42:0.12 43:0.57999998 44:0.69 45:0.57999998 46:0.34999999 47:0 48:0.12 49:0.12 50:0.23 51:0 52:0.12 53:0.12 54:0.12 55:0.12 56:0.69 57:0.23 58:0.23 59:0.12 60:0 61:0.81 62:0 63:0.92000002 64:2.4300001 65:0.23 66:0.23 67:0 68:0.34999999 69:0.12 70:1.04 71:0 72:0 73:0.12 74:0.57999998 75:0 76:0.34999999 77:0.12 78:0.12 79:0 80:0.12 81:0.34999999 82:0.12 83:0.23 84:0.12 85:0.34999999 86:0.23 87:0 88:0 89:0.12 90:0 91:0 92:0.23 93:0 94:0.12 95:0.12 96:0.34999999 97:0.23 98:0.23 99:0 100:0.12 101:0.69 102:0.34999999 103:0.12 104:0.12 105:0.34999999 106:0.69 107:0.12 108:0.12 109:0.12 110:0.57999998 111:0.46000001 112:0.12 113:0.12 114:0.12 115:0.34999999 116:0.69 117:0.23 118:0.69 119:0 120:0.12 121:0 122:0.12 123:0.12 124:0 125:0.23 126:0 127:0.23 128:0 129:0 130:0.46000001 131:0 132:0.12 133:0.34999999 134:1.04 135:0.23 136:0.23 137:0.12 138:0.23 139:0 140:0.12 141:0.23 142:0 143:0 144:0.34999999 145:0.12 146:0.23 147:0 148:0 149:0.23 150:0.34999999 151:0.12 152:0.12 153:0.23 154:0.12 155:0.23 156:0.23 157:0 158:0.12 159:0.12 160:0 161:0.23 162:0.23 163:0.12 164:0.12 165:0 166:0.12 167:0.23 168:0.23 169:0.12 170:0.34999999 171:0 172:0 173:0 174:0.46000001 175:0.23 176:0.12 177:0.12 178:0.23 179:0 180:0 181:0.46000001 182:0 183:0.23 184:0.69 185:0.23 186:0.34999999 187:0.34999999 188:0.46000001 189:0 190:0.69 191:0.23 192:0.92000002 193:0.34999999 194:1.04 195:0.69 196:0.69 197:0.57999998 198:0.46000001 199:0.12 200:0.23 201:0.12 202:0.34999999 203:0.12 204:0 205:0 206:0.12 207:0 208:0 209:0 210:0 211:0 212:0.12 213:0.12 214:0 215:0.12 216:0.12 217:0 218:0.23 219:0 220:0 221:0.46000001 222:0.23 223:0 224:0.34999999 225:0.23 226:0.57999998 227:0.12 228:0 229:0.12 230:0.12 231:0 232:1.39 233:0.12 234:0 235:0.23 236:0.57999998 237:0.23 238:0.12 239:0.12 240:0 241:0.46000001 242:0.12 243:0.12 244:0.23 245:0 246:0.34999999 247:0.12 248:0 249:0.34999999 250:0.34999999 251:0 252:0 253:0.12 254:0.81 255:0 256:0.57999998 257:0.12 258:0.23 259:0 260:0 261:0.34999999 262:0 263:0.12 264:0.23 265:0.23 266:0.12 267:1.16 268:0.46000001 269:0.34999999 270:1.27 271:0.12 272:0.12 273:0.46000001 274:5.7800002 275:0.23 276:0.12 277:0.23 278:0.23 279:0 280:0.12 281:0.34999999 282:0.23 283:0.46000001 284:0.34999999 285:0.12 286:0 287:0 288:0.12 289:0 290:0.46000001 291:0.12 292:0.12 293:0.12 294:0.23 295:0.23 296:0.81 297:0.12 298:0.57999998 299:0 300:0.12 301:1.27 302:0.23 303:0.46000001 304:0.69 305:0.23 306:0.92000002 307:0.23 308:0.23 309:0.23 310:0.57999998 311:0.12 312:0.57999998 313:0.57999998 314:0.12 315:0.46000001 316:4.0500002 317:0.69 318:0.69 319:0 320:0.12 321:0.12 322:0.12 323:0.12 324:0.23 325:0 326:0 327:0.23 328:0.23 329:0.12 330:0.57999998 331:0 332:0 333:0.57999998 334:0.46000001 335:0.34999999 336:0.57999998 337:0.12 338:0.34999999 339:0 340:0 341:0.57999998 342:0.12 343:0.12 344:0.23 345:0 346:0.57999998 347:0.12 348:0.34999999 349:0.34999999 350:0.12 351:0 352:0.34999999 353:0.46000001 354:0.23 355:0.23 356:0.57999998 357:0.34999999 358:0.57999998 359:0.12 360:0.23 361:0 362:0 363:0 364:0 365:0 366:0 367:0 368:0 369:0 370:0.34999999 371:0 372:0 373:0 374:0.12 375:0 376:0 377:0.12 378:0 379:0 380:0 381:0 382:0.12 383:0.23 384:0 385:0 386:0.34999999 387:0.12 388:0 389:0 390:0.12 391:0 392:0 393:0 394:0.12 395:0.23 396:0.12 397:0.23 398:0 399:0 400:0 #
-7.0280650567414621214187842035415e-05 1:1.6900001 2:0 3:0.19 4:0.19 5:0 6:1.3200001 7:0.19 8:0.56 9:0.56 10:0.19 11:0 12:0 13:0.94 14:0 15:0.19 16:0.56 17:0.38 18:0.56 19:0 20:0 21:0.19 22:0 23:0 24:0.19 25:0 26:0.56 27:0 28:0 29:0.38 30:0.56 31:0 32:0 33:0.19 34:0.38 35:0.38 36:0 37:0.19 38:0 39:0 40:0 41:0.19 42:0.19 43:0.19 44:0 45:0 46:0.75 47:0 48:0 49:0.75 50:0.19 51:0.19 52:0.19 53:0.38 54:0.38 55:0.56 56:0.56 57:0.38 58:0.38 59:0 60:0 61:0.75 62:0 63:0.19 64:0.38 65:0 66:0.56 67:0.19 68:0 69:0.19 70:0.75 71:0.56 72:0 73:0.38 74:0.56 75:0.19 76:0 77:0.19 78:0.38 79:0.19 80:0 81:0.19 82:0 83:0.19 84:0 85:0.56 86:0 87:0 88:0 89:0.38 90:0.38 91:0 92:0.19 93:0.19 94:0 95:0 96:0.56 97:0.19 98:0 99:0 100:0 101:0.94 102:0.38 103:0.75 104:0.56 105:0.38 106:1.5 107:0 108:0.19 109:0.56 110:0.94 111:0.38 112:0 113:1.13 114:0.19 115:0.56 116:1.13 117:0.19 118:1.3200001 119:0.19 120:0 121:0.19 122:0.38 123:0 124:0 125:0.19 126:0 127:0 128:0 129:0 130:0.19 131:0 132:0 133:0 134:0.19 135:0.38 136:0.19 137:0 138:0.19 139:0 140:0.19 141:0.19 142:0.38 143:0.38 144:0 145:0.19 146:0.38 147:0 148:0.19 149:0 150:0.75 151:0 152:0.19 153:0.19 154:0 155:0.19 156:0.19 157:0 158:0 159:0 160:0 161:0 162:0.38 163:0.75 164:0.19 165:0 166:0.38 167:0.19 168:0 169:0 170:0.38 171:0.19 172:0 173:0.19 174:0.38 175:0.94 176:0.19 177:0.19 178:0.19 179:0 180:0.19 181:0.75 182:0.19 183:0.38 184:0.75 185:0.56 186:0.75 187:0.38 188:0.38 189:0.19 190:0.94 191:0.19 192:0 193:1.3200001 194:0 195:0.94 196:0.19 197:0.38 198:0.38 199:0 200:0 201:0 202:0 203:0.19 204:0.19 205:0 206:0.38 207:0.19 208:0 209:0.19 210:0.19 211:0 212:0 213:0.38 214:0 215:0.38 216:0.19 217:0 218:0 219:0 220:0 221:0 222:0 223:0.19 224:0.19 225:0 226:0 227:0 228:0.19 229:0.19 230:0 231:0 232:0 233:0.56 234:0 235:0.19 236:0.38 237:0 238:0 239:0 240:0 241:0.56 242:0 243:0.38 244:0.94 245:0.38 246:1.5 247:0.38 248:0.19 249:0 250:0.75 251:0.19 252:0.38 253:3.95 254:0.56 255:0 256:0.75 257:0 258:1.13 259:0.19 260:0 261:0.19 262:0.19 263:0 264:0.19 265:0 266:0.56 267:0 268:0.19 269:0.56 270:0.38 271:0 272:0 273:0 274:0.38 275:0.56 276:0 277:0.19 278:0.19 279:0 280:0.19 281:0.38 282:0.19 283:0.94 284:0.38 285:0.19 286:0.38 287:0.19 288:0.38 289:0.38 290:0.38 291:0.19 292:0.38 293:0.38 294:0.38 295:0.56 296:0.75 297:0.19 298:0.19 299:0.19 300:0.19 301:0.38 302:0.38 303:0.19 304:0.19 305:0.19 306:1.13 307:0.19 308:0.38 309:0.19 310:0.75 311:0.19 312:0.19 313:1.3200001 314:0 315:0.38 316:1.5 317:0.38 318:0 319:0.19 320:0 321:0.19 322:0 323:0 324:0.38 325:0.19 326:0.56 327:0 328:0.19 329:0 330:0.19 331:0 332:0.19 333:0.38 334:0 335:0 336:0 337:0 338:0.38 339:0 340:0.38 341:0.38 342:0 343:0.38 344:0.75 345:0 346:0.38 347:0.19 348:0.38 349:0.19 350:0.56 351:0 352:0 353:0.19 354:0.19 355:0.56 356:0.56 357:0.19 358:0 359:0 360:0.38 361:0.38 362:0 363:0 364:0 365:0 366:0 367:0 368:0 369:0 370:0.19 371:0 372:0.19 373:0 374:0 375:0.19 376:0 377:0 378:0 379:0 380:0 381:0.19 382:0.38 383:0 384:0 385:0 386:0.19 387:0 388:0 389:0 390:0 391:0 392:0 393:0.19 394:0.19 395:0 396:0.38 397:0 398:0 399:0 400:0 #
-0.00017628021909800461759082468304882 1:0.55000001 2:0.55000001 3:0.55000001 4:0 5:0.18000001 6:0 7:0 8:0.37 9:0.55000001 10:0.18000001 11:0 12:0.55000001 13:0.37 14:0.18000001 15:0.18000001 16:1.65 17:0.18000001 18:0.18000001 19:0 20:0.18000001 21:0.37 22:0 23:0 24:0.37 25:0 26:0.18000001 27:0 28:0.18000001 29:0.55000001 30:0.18000001 31:0 32:0.18000001 33:0 34:0.18000001 35:0.37 36:0 37:0.18000001 38:0 39:0 40:0 41:0.37 42:0 43:0.18000001 44:0 45:0.18000001 46:0 47:0 48:0.18000001 49:0 50:0.18000001 51:0.55000001 52:0.37 53:0.55000001 54:0.37 55:0.37 56:0.18000001 57:0.37 58:0 59:0 60:0.37 61:0.37 62:0 63:0.55000001 64:0.18000001 65:0.18000001 66:0.55000001 67:0.18000001 68:0.18000001 69:0.18000001 70:0.73000002 71:0 72:0 73:0.37 74:0.37 75:0.18000001 76:0 77:0.18000001 78:0.55000001 79:0.18000001 80:0 81:0 82:0 83:0.18000001 84:0.55000001 85:0.18000001 86:0.55000001 87:0 88:0.18000001 89:0 90:0 91:0 92:0.55000001 93:0.37 94:0.18000001 95:0.18000001 96:0.37 97:0.18000001 98:0.18000001 99:0 100:0.18000001 101:0.18000001 102:0 103:0.18000001 104:0.18000001 105:0.18000001 106:0.18000001 107:0 108:0.18000001 109:0.18000001 110:0.55000001 111:0.73000002 112:0.37 113:0.18000001 114:0.37 115:0 116:0.73000002 117:0 118:0.37 119:0 120:0.18000001 121:0.18000001 122:0.18000001 123:0 124:0 125:0.18000001 126:0 127:0 128:0 129:0 130:0 131:0.18000001 132:0.18000001 133:0.18000001 134:0 135:0 136:0 137:0.37 138:0.18000001 139:0 140:0.18000001 141:0.18000001 142:0.37 143:0 144:0.55000001 145:0.18000001 146:0 147:0 148:0 149:0.37 150:0.55000001 151:0 152:0.37 153:0.55000001 154:0.18000001 155:0 156:0.37 157:0 158:0.18000001 159:0 160:0 161:0.37 162:0.18000001 163:0.18000001 164:0.18000001 165:0 166:0.37 167:0.18000001 168:0.37 169:0.18000001 170:1.1 171:0.37 172:0.18000001 173:0.18000001 174:0 175:0.37 176:0.37 177:0.55000001 178:0.18000001 179:0 180:0 181:0.91000003 182:0 183:0.91000003 184:0.55000001 185:0.55000001 186:0.37 187:0 188:0 189:1.46 190:1.28 191:0.18000001 192:0.37 193:0.18000001 194:0.73000002 195:0.18000001 196:0.91000003 197:0.18000001 198:0.18000001 199:0.18000001 200:0 201:0.18000001 202:0 203:0.18000001 204:0.55000001 205:0 206:0 207:0.37 208:0.18000001 209:0 210:0.37 211:0 212:0.18000001 213:0.18000001 214:0.37 215:0.18000001 216:0.55000001 217:0 218:0 219:0 220:0.55000001 221:0.37 222:0.18000001 223:0.18000001 224:0.18000001 225:0.18000001 226:0.91000003 227:0.18000001 228:0.18000001 229:0 230:0.73000002 231:0 232:0 233:0.37 234:0 235:0.73000002 236:0.18000001 237:0.37 238:0.18000001 239:0 240:0.37 241:0.91000003 242:0 243:0.37 244:0.18000001 245:0.18000001 246:0.18000001 247:0.37 248:0.37 249:0.18000001 250:0.37 251:0.37 252:0.55000001 253:0.91000003 254:1.1 255:0.55000001 256:0.73000002 257:0.73000002 258:0.37 259:0 260:0.37 261:0 262:0 263:0 264:0.37 265:0 266:0.18000001 267:0.18000001 268:0.55000001 269:0.18000001 270:0 271:0.18000001 272:0.37 273:0 274:0.55000001 275:0.55000001 276:1.46 277:0.18000001 278:0.37 279:0 280:0.37 281:0.55000001 282:0.18000001 283:0.18000001 284:0 285:0.18000001 286:0.18000001 287:0 288:0.18000001 289:0.18000001 290:0.37 291:0.37 292:0.37 293:0.18000001 294:0 295:0.55000001 296:0.55000001 297:0.37 298:0.73000002 299:0 300:0.37 301:0 302:0.55000001 303:0 304:0.37 305:0.55000001 306:0.37 307:0.37 308:0.18000001 309:0.37 310:1.65 311:0 312:0.55000001 313:1.83 314:0.18000001 315:0.37 316:0.91000003 317:0.91000003 318:0.73000002 319:0.18000001 320:0.37 321:0.37 322:0 323:0 324:0 325:0.37 326:0.18000001 327:0 328:0.18000001 329:0.37 330:0.18000001 331:0.18000001 332:0 333:1.65 334:0 335:0.37 336:0.55000001 337:0 338:0.18000001 339:0 340:0.18000001 341:0 342:0 343:0.37 344:0.73000002 345:0.18000001 346:0 347:0 348:0.37 349:0.18000001 350:0.37 351:0.18000001 352:0.18000001 353:0.37 354:0.55000001 355:0.37 356:0.73000002 357:0 358:0 359:0 360:0 361:0.18000001 362:0.18000001 363:0 364:0 365:0 366:0 367:0 368:0 369:0.18000001 370:0.18000001 371:0 372:0 373:0 374:0 375:0 376:0 377:0 378:0 379:0 380:0 381:0.37 382:0.37 383:0.18000001 384:0.18000001 385:0.37 386:0.55000001 387:0 388:0 389:0.18000001 390:0.18000001 391:0.37 392:0 393:0.37 394:0.18000001 395:0 396:0.18000001 397:0 398:0 399:0.18000001 400:0 #
-0.00018926620019841771248685080575314 1:0.88 2:0.44 3:0 4:0.22 5:0.88 6:0 7:0.22 8:0 9:0 10:0.22 11:0 12:0.44 13:0.66000003 14:0.44 15:0.22 16:0.44 17:0 18:0.22 19:0 20:0 21:0.44 22:0 23:0 24:0 25:0 26:0 27:0 28:0.22 29:0.22 30:0.44 31:0.22 32:0.22 33:0 34:0.44 35:0.44 36:0 37:0 38:0 39:0 40:0 41:0.66000003 42:0.22 43:0.44 44:0 45:0.44 46:0.88 47:0 48:0.22 49:0.66000003 50:0 51:0.22 52:0.22 53:0 54:0.22 55:0 56:0.66000003 57:0.44 58:0.22 59:0 60:0.22 61:0 62:0 63:0.22 64:0 65:0.44 66:0.22 67:0 68:0.22 69:0.22 70:0.44 71:0.22 72:0.66000003 73:0 74:0.66000003 75:0 76:0.44 77:0 78:0 79:0 80:0.44 81:0.22 82:0 83:0.88 84:0.22 85:0.88 86:0.66000003 87:0.22 88:0 89:0.22 90:0 91:0.22 92:0.66000003 93:1.54 94:0.88 95:0.44 96:0.22 97:0.88 98:0 99:0 100:0.44 101:0.44 102:0 103:0 104:0.44 105:0.66000003 106:0.22 107:0.22 108:0.22 109:0.22 110:0.88 111:0.22 112:0.22 113:0.22 114:0.22 115:0.22 116:0.88 117:0.44 118:0 119:0 120:0.22 121:0.44 122:0 123:0.22 124:0 125:0.66000003 126:0 127:0 128:0.22 129:0.22 130:0 131:0 132:0.22 133:0.44 134:0.22 135:0 136:0.22 137:0.22 138:0 139:0 140:0 141:0 142:0.22 143:0.44 144:0.22 145:0.22 146:0.44 147:0 148:0 149:0.44 150:0 151:0 152:0 153:0.44 154:0.22 155:0 156:0.44 157:0.22 158:0.22 159:0 160:0.22 161:0 162:0 163:0.22 164:0 165:0.44 166:0 167:0.22 168:0.22 169:0.22 170:0.22 171:0 172:0.22 173:0.44 174:0.44 175:1.1 176:0.44 177:0.44 178:0 179:0 180:0.22 181:0.22 182:0 183:0.22 184:0.44 185:0 186:0 187:0.66000003 188:0.66000003 189:0.66000003 190:0.44 191:0.22 192:0 193:0.44 194:0.44 195:0 196:0.44 197:0.22 198:0 199:0 200:0 201:0.22 202:0 203:0.22 204:0.22 205:0 206:0.22 207:0 208:0.22 209:0.22 210:0.44 211:0 212:0 213:0 214:0 215:0.44 216:0 217:0.66000003 218:0 219:0 220:0.22 221:0.44 222:0 223:0.22 224:0 225:0.44 226:0.66000003 227:0 228:0.22 229:0 230:0.44 231:0 232:0.66000003 233:0.44 234:0.22 235:0.22 236:0.44 237:0.44 238:0.66000003 239:0 240:0 241:0.44 242:0 243:0.44 244:0.22 245:1.3200001 246:0.66000003 247:0.44 248:0.44 249:0.44 250:0.66000003 251:0 252:0.66000003 253:1.54 254:0.66000003 255:0.88 256:0.66000003 257:0 258:0.44 259:0.22 260:0 261:0.22 262:0.22 263:0.22 264:0.44 265:0.88 266:0 267:0.22 268:0 269:0 270:0.22 271:0.22 272:0 273:1.54 274:1.1 275:0.66000003 276:0.44 277:0.44 278:0.22 279:0 280:0 281:0 282:0.44 283:0.44 284:0.22 285:0.22 286:0 287:0.22 288:0.44 289:0.66000003 290:0 291:0.66000003 292:0.66000003 293:0.22 294:0 295:0.44 296:0.22 297:0.66000003 298:0 299:0 300:0.22 301:0.22 302:0.22 303:0.66000003 304:0.66000003 305:0.66000003 306:0.88 307:0 308:0 309:0 310:0 311:0.22 312:0 313:0.44 314:0.22 315:0.22 316:0.88 317:1.3200001 318:0.22 319:0 320:0.44 321:0.44 322:0.22 323:0.44 324:0.66000003 325:0.44 326:0.44 327:0.66000003 328:0.44 329:0.22 330:0.22 331:0.44 332:0.88 333:0.44 334:0 335:0 336:0 337:0.44 338:0.44 339:0 340:0 341:0 342:0.44 343:0.22 344:0.22 345:0 346:0 347:0 348:0 349:0.22 350:0.44 351:0 352:0 353:0.66000003 354:0.44 355:0 356:0.22 357:0 358:0 359:0 360:0 361:0 362:0 363:0 364:0 365:0 366:0.22 367:0 368:0 369:0 370:0 371:0 372:0 373:0 374:0 375:0 376:0 377:0 378:0 379:0 380:0 381:0 382:0.22 383:0.22 384:0 385:0 386:0.44 387:0 388:0 389:0 390:0 391:0 392:0 393:0.66000003 394:0.22 395:0.44 396:0.22 397:0 398:0.22 399:0 400:0 #
-0.00010783228705497048538486382085466 1:0.79000002 2:0.31 3:0 4:0 5:0.47 6:0.31 7:0.16 8:0.31 9:0.16 10:0.79000002 11:0 12:0.47 13:0 14:0.47 15:0.31 16:0.63 17:0.16 18:0.31 19:0 20:0.31 21:0.16 22:0 23:0 24:0.47 25:0 26:0.16 27:0 28:0 29:0.16 30:0.16 31:0.16 32:0.16 33:0 34:0.31 35:0.31 36:0.16 37:0 38:0.47 39:0.16 40:0 41:0.16 42:0.16 43:0.16 44:0 45:0 46:0.47 47:0.31 48:0 49:0.47 50:0.63 51:0 52:0 53:0.16 54:0.47 55:0 56:0.79000002 57:0.47 58:0.47 59:0 60:0.31 61:0.16 62:0.16 63:0.16 64:0.31 65:0.31 66:0.31 67:0 68:0.47 69:0.63 70:0.63 71:0 72:0.63 73:0 74:0.16 75:0.16 76:0.63 77:0.31 78:0.47 79:0 80:0.31 81:0.16 82:0.16 83:0.16 84:0 85:0.47 86:0 87:0 88:0.16 89:0.31 90:0.31 91:0 92:0 93:0 94:0.31 95:0.16 96:0.47 97:0 98:0.31 99:0 100:0 101:0.16 102:0.16 103:0.47 104:0.16 105:0.16 106:0 107:0 108:0 109:0.16 110:0.63 111:0.31 112:0.16 113:0.16 114:0.31 115:0.16 116:0.63 117:0.16 118:0.31 119:0 120:0.16 121:0 122:0 123:0.31 124:0 125:0 126:0 127:0 128:0.63 129:0 130:0.16 131:0 132:0 133:0.16 134:0.16 135:0 136:0 137:0 138:0 139:0.16 140:0.47 141:0.47 142:0.16 143:0.16 144:0.94 145:0.16 146:0.31 147:0 148:0.63 149:0 150:0.94 151:0 152:0.16 153:0.31 154:0.79000002 155:0.31 156:0.31 157:0.31 158:0.31 159:0 160:0.16 161:0.79000002 162:0 163:0.31 164:0 165:0 166:0.16 167:0.16 168:0.31 169:0 170:0.79000002 171:0 172:0.31 173:0.16 174:0.47 175:0.16 176:0.16 177:0.47 178:0.63 179:0 180:0 181:1.42 182:0.31 183:0.47 184:0.16 185:0.79000002 186:0.63 187:0.16 188:0.31 189:0.16 190:0.94 191:0.31 192:0.79000002 193:0.47 194:0.63 195:0.63 196:1.26 197:0.47 198:0.94 199:0 200:0 201:0.16 202:0 203:0.16 204:0.31 205:0 206:0.16 207:0.16 208:0 209:0.16 210:0.16 211:0 212:0.47 213:0.31 214:0.16 215:0 216:0.16 217:0 218:0.16 219:0 220:0 221:0.31 222:0.16 223:0.47 224:0.31 225:0 226:0.16 227:0.16 228:0.16 229:0.79000002 230:0.63 231:0 232:0.16 233:0 234:0.47 235:0.16 236:0.79000002 237:0.16 238:1.1 239:0 240:0 241:0.31 242:0 243:0.47 244:0.31 245:0 246:0.16 247:0 248:0.16 249:0 250:0.31 251:0.16 252:0.16 253:0 254:0.47 255:0.16 256:0.63 257:0 258:0 259:0 260:0.16 261:0 262:0.31 263:0.63 264:0.47 265:0.16 266:0.47 267:0.31 268:0.94 269:0.16 270:0.47 271:0.16 272:0.31 273:0 274:0.31 275:0.47 276:0.94 277:0.63 278:0.16 279:0 280:0.16 281:0.16 282:0.31 283:0 284:0.16 285:0 286:0.16 287:0.16 288:0.31 289:0.47 290:1.1 291:0.16 292:0.16 293:0 294:0.16 295:0 296:0.63 297:0.16 298:0 299:0 300:0 301:0.16 302:0 303:0.63 304:0.63 305:0.16 306:0.47 307:0.16 308:1.1 309:0.47 310:1.5700001 311:0.63 312:0.79000002 313:0.63 314:0.63 315:0.63 316:1.26 317:0.47 318:0.31 319:0 320:0 321:0.31 322:0.31 323:0.31 324:0.79000002 325:0.16 326:0.16 327:0 328:0.16 329:0.16 330:0.31 331:0.16 332:0.47 333:0.47 334:0.47 335:0.16 336:0.47 337:0.79000002 338:0 339:0 340:0.31 341:0 342:0.16 343:0.16 344:0.63 345:0.16 346:0 347:0.31 348:0.31 349:0.63 350:0 351:0.16 352:0.47 353:0.47 354:0.31 355:0 356:0.79000002 357:1.26 358:0.31 359:0 360:0.16 361:0.16 362:0 363:0 364:0 365:0 366:0 367:0 368:0 369:0 370:0 371:0 372:0.16 373:0 374:0 375:0 376:0 377:0 378:0 379:0 380:0 381:0.16 382:0.16 383:0 384:0.16 385:0 386:0.16 387:0 388:0.47 389:0 390:0.31 391:0.16 392:0.16 393:0.16 394:0 395:0.31 396:0 397:0.16 398:0.16 399:0 400:0 #
-0.00031751570862759148639042905415408 1:0.67000002 2:0.17 3:0.5 4:0.5 5:0.34 6:0.17 7:0.17 8:0 9:0.34 10:0.67000002 11:0.5 12:0.17 13:0.34 14:0.34 15:0.34 16:0.5 17:0.83999997 18:0.67000002 19:0 20:0 21:0 22:0 23:0 24:0.34 25:0 26:0.34 27:0 28:0.34 29:0.34 30:0.17 31:0.17 32:0 33:0.17 34:0.17 35:0.17 36:0 37:0 38:0.5 39:0 40:0 41:0.17 42:0 43:0 44:0.34 45:0 46:0.5 47:0.17 48:0.17 49:0.17 50:0.17 51:0 52:0 53:0.83999997 54:0.34 55:0.5 56:0 57:0.34 58:0.5 59:0 60:0.5 61:0.5 62:0 63:0.5 64:0.17 65:0.17 66:0.17 67:0 68:0.17 69:0.34 70:1.17 71:0.17 72:0.5 73:0.17 74:0.34 75:0.17 76:0.34 77:0.34 78:0.5 79:0 80:0 81:0.83999997 82:0 83:0.34 84:0.17 85:0.17 86:0.34 87:0 88:0 89:0 90:0 91:0.17 92:0 93:0.17 94:0.17 95:0.34 96:0.34 97:0.17 98:0 99:0 100:0 101:0.5 102:0.34 103:0.67000002 104:0.17 105:0.34 106:0.34 107:0.17 108:0 109:0.17 110:0.34 111:0.34 112:0 113:0.17 114:0.17 115:0.17 116:0.5 117:0.5 118:0.34 119:0.17 120:0.34 121:0.5 122:0 123:0.17 124:0 125:0.17 126:0.17 127:0.17 128:0.17 129:0.17 130:0.17 131:0.17 132:0.34 133:0.34 134:0.83999997 135:0 136:0 137:0 138:0 139:0 140:0.5 141:0.17 142:0 143:0.17 144:0.5 145:0.5 146:0 147:0.17 148:0.17 149:0.17 150:0 151:0 152:0.17 153:0.5 154:0.34 155:0.17 156:0.17 157:0.34 158:0.5 159:0 160:0.17 161:0 162:0.34 163:0 164:0.34 165:0.34 166:0.34 167:0 168:0.17 169:0.34 170:0.34 171:0.17 172:0.17 173:0.34 174:0.34 175:0 176:0.5 177:0.34 178:0.34 179:0 180:0 181:0.5 182:0.17 183:0.5 184:0.17 185:0.34 186:0.34 187:0.67000002 188:0.34 189:0.67000002 190:0.67000002 191:0.17 192:0 193:0.5 194:0.67000002 195:0.17 196:0.34 197:0.34 198:0.34 199:0 200:0.17 201:0.17 202:0 203:0.34 204:0 205:0 206:0 207:0.34 208:0.17 209:0 210:0.34 211:0.17 212:0.34 213:0.5 214:0.17 215:0 216:0.5 217:0 218:0.17 219:0 220:0.5 221:0.17 222:0.17 223:0 224:0.34 225:0 226:0.5 227:0.17 228:0 229:0 230:0.34 231:0.5 232:0.17 233:0.17 234:0.34 235:0.34 236:0 237:0.34 238:0 239:0 240:0.34 241:0.17 242:0.17 243:0.34 244:0.5 245:0.17 246:0 247:0.34 248:0.17 249:0.17 250:0.34 251:0.34 252:0.5 253:1.01 254:0.67000002 255:0.5 256:1.85 257:0.34 258:0.67000002 259:0 260:0 261:0.67000002 262:0.17 263:0.17 264:0.34 265:0 266:0.34 267:0.34 268:0.34 269:0.34 270:0.67000002 271:0 272:0.17 273:0.34 274:0.5 275:0.17 276:0.83999997 277:0.34 278:0.5 279:0 280:0.34 281:0.34 282:0.17 283:0.17 284:0.17 285:0 286:0.17 287:0 288:0.17 289:0 290:0.83999997 291:0.34 292:0.17 293:0.17 294:0.34 295:0.17 296:0.34 297:0.34 298:0.34 299:0 300:0.17 301:0.5 302:0 303:0.17 304:0.5 305:0.34 306:0.67000002 307:0.5 308:0.34 309:0.5 310:0.34 311:0.34 312:0.17 313:1.34 314:0.5 315:0.5 316:2.1800001 317:0.34 318:0.34 319:0 320:0 321:0.67000002 322:0.34 323:0 324:0.17 325:0.17 326:0.5 327:0.17 328:0.83999997 329:0.17 330:0.5 331:0 332:0.17 333:0.67000002 334:0.17 335:0.17 336:0.5 337:0.34 338:0 339:0 340:0 341:0.67000002 342:0.5 343:0.67000002 344:0.67000002 345:0.17 346:0.17 347:0.34 348:0.67000002 349:0.34 350:0 351:0 352:0.67000002 353:0.17 354:0 355:0.17 356:0.34 357:0.34 358:0.34 359:0 360:0 361:0 362:0 363:0 364:0.17 365:0 366:0 367:0 368:0 369:0 370:0 371:0 372:0 373:0 374:0 375:0 376:0 377:0 378:0 379:0 380:0 381:0 382:0.17 383:0 384:0.17 385:0 386:0.67000002 387:0.17 388:0.17 389:0.17 390:0 391:0 392:0.17 393:0.34 394:0.17 395:0.34 396:0.34 397:0 398:0.17 399:0 400:0.17 #
-5.4391866948988660309532994219239e-05 1:4.48 2:0.31999999 3:0.43000001 4:0.75 5:0.31999999 6:2.03 7:0.20999999 8:0.11 9:0 10:1.17 11:0.11 12:0 13:2.45 14:0.31999999 15:0.52999997 16:0.95999998 17:0.20999999 18:0.20999999 19:0.20999999 20:0.11 21:0.31999999 22:0.11 23:0 24:0 25:0 26:0.31999999 27:0.11 28:0.11 29:0.11 30:0.43000001 31:0.11 32:0 33:0.43000001 34:0.11 35:0.20999999 36:0.20999999 37:0 38:0.20999999 39:0 40:0 41:1.0700001 42:0.20999999 43:0.20999999 44:0.20999999 45:0.31999999 46:0.31999999 47:0 48:0.11 49:0.11 50:0.20999999 51:0 52:0.20999999 53:0.31999999 54:0.11 55:0.20999999 56:0.31999999 57:0.11 58:0.20999999 59:0 60:0 61:0.43000001 62:0.11 63:0.31999999 64:0.52999997 65:0.31999999 66:0.95999998 67:0 68:0 69:0 70:0.11 71:0.20999999 72:0 73:0.52999997 74:0.20999999 75:0.20999999 76:0.43000001 77:0.11 78:0.11 79:0 80:0 81:0.52999997 82:0 83:0 84:0.20999999 85:0.11 86:0.11 87:0.11 88:0.20999999 89:0.20999999 90:0.20999999 91:0 92:0.11 93:0.31999999 94:0.11 95:0.11 96:0.20999999 97:0 98:0.11 99:0 100:0.20999999 101:2.24 102:0.43000001 103:0.43000001 104:0.20999999 105:0.20999999 106:0.63999999 107:0.11 108:0.11 109:0.52999997 110:0.63999999 111:0.20999999 112:0 113:1.0700001 114:0.43000001 115:0.43000001 116:0.52999997 117:0.31999999 118:0.31999999 119:0.11 120:0.11 121:0.11 122:0 123:0.20999999 124:0 125:0 126:0.11 127:0 128:0.11 129:0.20999999 130:0.11 131:0 132:0.11 133:0 134:0 135:0 136:0.11 137:0 138:0.31999999 139:0 140:0.11 141:0.11 142:0.20999999 143:0.11 144:0.11 145:0 146:0.11 147:0.11 148:0 149:0.20999999 150:0.31999999 151:0 152:0.11 153:0.43000001 154:0.31999999 155:0.20999999 156:0.11 157:0.11 158:0.11 159:0 160:0.11 161:0.52999997 162:0.11 163:0.20999999 164:0.43000001 165:0.20999999 166:0.43000001 167:0.11 168:0.43000001 169:0.20999999 170:0.20999999 171:0 172:0.11 173:0.31999999 174:0.11 175:0.11 176:0.11 177:0 178:0.31999999 179:0.11 180:0 181:0.63999999 182:0.43000001 183:0.20999999 184:0.43000001 185:0.20999999 186:0.85000002 187:0.43000001 188:0.63999999 189:0.31999999 190:1.28 191:0.31999999 192:0.52999997 193:1.39 194:0.11 195:0.63999999 196:0.43000001 197:0.43000001 198:0.11 199:0 200:0.52999997 201:0 202:0 203:0.11 204:0.11 205:0 206:0 207:0 208:0 209:0.20999999 210:0.11 211:0.20999999 212:0 213:0 214:0 215:0.20999999 216:0.43000001 217:0.11 218:0.31999999 219:0.11 220:0 221:0 222:0.11 223:0.11 224:0.20999999 225:0 226:0 227:0 228:0 229:0.11 230:0.31999999 231:0 232:0 233:0 234:0.20999999 235:0 236:0 237:0.31999999 238:0 239:0 240:0.20999999 241:1.8099999 242:0.20999999 243:0.63999999 244:0.52999997 245:0.11 246:1.39 247:0.20999999 248:0.11 249:0.43000001 250:1.49 251:0 252:0.11 253:1.28 254:0.75 255:1.39 256:1.0700001 257:0 258:0.20999999 259:0 260:0.20999999 261:0.31999999 262:0 263:0.43000001 264:0.20999999 265:0.11 266:0.43000001 267:0.11 268:0.20999999 269:0.20999999 270:0.85000002 271:0.11 272:0.11 273:0.75 274:0 275:0.31999999 276:0.20999999 277:0.11 278:0.20999999 279:0 280:0.20999999 281:0.63999999 282:0.11 283:0.20999999 284:0.11 285:0.11 286:0.52999997 287:0 288:0.11 289:0.31999999 290:0.52999997 291:0.11 292:0.20999999 293:0.75 294:0.52999997 295:0.43000001 296:0.75 297:0.31999999 298:0.31999999 299:0 300:0 301:0.75 302:0.20999999 303:0.43000001 304:0.11 305:0.31999999 306:0.43000001 307:0 308:0.11 309:0.11 310:0.75 311:0 312:0 313:1.39 314:0.95999998 315:0.75 316:1.17 317:0.11 318:0.20999999 319:0.11 320:0.20999999 321:0.43000001 322:0.11 323:0 324:0.11 325:0.11 326:0.11 327:0 328:0.11 329:0.20999999 330:0.20999999 331:0.20999999 332:0 333:0 334:0.11 335:0.11 336:0.31999999 337:0.11 338:0 339:0 340:0.11 341:0.43000001 342:0 343:0.11 344:0.20999999 345:0.31999999 346:0.11 347:0 348:0.20999999 349:0.43000001 350:0.52999997 351:0.11 352:0 353:0.31999999 354:0 355:0.11 356:0.31999999 357:0 358:0.20999999 359:0 360:0.11 361:0 362:0 363:0 364:0.11 365:0 366:0 367:0 368:0 369:0 370:0 371:0.11 372:0 373:0.11 374:0.11 375:0.11 376:0.11 377:0 378:0 379:0 380:0 381:0.11 382:0.11 383:0.11 384:0 385:0.11 386:0.20999999 387:0 388:0.11 389:0.20999999 390:0.43000001 391:0 392:0 393:0.11 394:0.43000001 395:0 396:0.31999999 397:0 398:0 399:0 400:0 #
-0.0001069840826106899808831812714871 1:1.48 2:0.19 3:0.56 4:0.37 5:0 6:0.56 7:0 8:0.37 9:0.93000001 10:1.67 11:0.19 12:0.19 13:0.74000001 14:0.19 15:0.37 16:2.22 17:0 18:0.56 19:0 20:0.19 21:0.19 22:0 23:0.19 24:0.37 25:0.19 26:0.19 27:0 28:0 29:0.37 30:0.37 31:0 32:0 33:0 34:0.19 35:0.37 36:0.19 37:0 38:0.19 39:0 40:0 41:0.56 42:0 43:0 44:0 45:0 46:0.19 47:0 48:0.19 49:0.56 50:0.37 51:0.37 52:0.37 53:0.19 54:0.37 55:0.19 56:0.74000001 57:0 58:0.56 59:0.19 60:0 61:0.37 62:0.37 63:0.93000001 64:0.56 65:0.19 66:0.56 67:0 68:0.74000001 69:0.37 70:0.74000001 71:0.19 72:0 73:0.37 74:0.19 75:0.37 76:0.19 77:0.19 78:0.37 79:0 80:0.56 81:0.74000001 82:0.19 83:0.19 84:0 85:0.19 86:0.19 87:0 88:0 89:0 90:0.19 91:0 92:0 93:0 94:0.19 95:0.74000001 96:0.37 97:0 98:0 99:0 100:0 101:1.3 102:0.19 103:0.19 104:0.37 105:0.37 106:0.37 107:0.19 108:0.19 109:0.19 110:0 111:0.37 112:0.37 113:0.37 114:0.19 115:0.19 116:0.56 117:0.19 118:0 119:0.19 120:0.56 121:0.19 122:0 123:0 124:0 125:0 126:0 127:0.19 128:0.19 129:0 130:0.19 131:0 132:0 133:0 134:0 135:0.19 136:0 137:0 138:0 139:0 140:0.19 141:0.19 142:0 143:0.37 144:0.19 145:0.37 146:0.19 147:0.19 148:0 149:0.19 150:0.37 151:0 152:0 153:0.19 154:0.19 155:0 156:0.19 157:0.56 158:0.37 159:0.19 160:0.19 161:0.56 162:0.37 163:0.74000001 164:0.19 165:0 166:0.37 167:0 168:0.37 169:1.11 170:0.74000001 171:0 172:0.37 173:0.37 174:0 175:0.56 176:0.19 177:0.19 178:0.56 179:0 180:0.19 181:0.74000001 182:0.19 183:0.19 184:0.19 185:0.74000001 186:0.19 187:0 188:0.37 189:1.11 190:0.74000001 191:0 192:0.19 193:1.11 194:0 195:0.74000001 196:1.11 197:0.93000001 198:0.74000001 199:0 200:0 201:0.19 202:0.19 203:0 204:0.19 205:0.19 206:0.19 207:0 208:0 209:0.19 210:0.37 211:0.37 212:0 213:0 214:0 215:0.37 216:0 217:0 218:0 219:0 220:0.37 221:0.74000001 222:0.19 223:0 224:0.19 225:0 226:0.74000001 227:0 228:0 229:0.19 230:0.19 231:0 232:0.37 233:0 234:0.37 235:0.19 236:0.56 237:0 238:0 239:0 240:0 241:0.74000001 242:0 243:0 244:0.93000001 245:0.19 246:1.11 247:0.19 248:0 249:0.19 250:1.11 251:0 252:0.37 253:0.56 254:0 255:0.37 256:0.74000001 257:0.19 258:0.19 259:0 260:0.37 261:0 262:0.37 263:0 264:0.74000001 265:0 266:0.19 267:0 268:0.19 269:0.19 270:0.19 271:0.19 272:0.37 273:0.37 274:0.19 275:0 276:0.19 277:0 278:0 279:0 280:0 281:0.37 282:0 283:0 284:0.56 285:0.37 286:0.19 287:0.19 288:0 289:0.37 290:0.74000001 291:0.19 292:0 293:0.74000001 294:0.37 295:1.11 296:0.19 297:0.19 298:0.19 299:0 300:0.19 301:1.67 302:0.19 303:0.56 304:0.74000001 305:0 306:0.74000001 307:0 308:0.37 309:0 310:0.56 311:0 312:0.37 313:2.04 314:0.19 315:0 316:0.93000001 317:0.19 318:0.37 319:0 320:0.37 321:0.19 322:0.19 323:0 324:0.74000001 325:0 326:0 327:0 328:0.56 329:0.37 330:0.19 331:0 332:0.19 333:0 334:0 335:0 336:0.19 337:0.19 338:0.37 339:0 340:0 341:0 342:0.19 343:0.37 344:0.74000001 345:0 346:0.19 347:0 348:0.37 349:0.37 350:0.19 351:0.37 352:0.19 353:0.37 354:0.19 355:0.19 356:0.37 357:0.19 358:0.37 359:0 360:0.37 361:0 362:0 363:0.19 364:0 365:0 366:0 367:0 368:0 369:0.19 370:0.19 371:0 372:0 373:0 374:0 375:0 376:0 377:0 378:0 379:0 380:0 381:0.56 382:0 383:0.37 384:0.19 385:0.19 386:0.19 387:0.19 388:0 389:0 390:0.19 391:0.19 392:0.37 393:0 394:0.37 395:0 396:0.37 397:0.19 398:0.19 399:0 400:0 #
