SVM-light Version V6.02
2 # kernel type
3 # kernel parameter -d 
0.0005 # kernel parameter -g 
1 # kernel parameter -s 
1 # kernel parameter -r 
empty# kernel parameter -u 
400 # highest feature index 
159 # number of training documents 
62 # number of support vectors plus 1 
1.9256554 # threshold b, each following line is a SV (starting with alpha*y)
14.408549668139492894169961800799 1:1.2 2:0.17 3:0.34 4:0.69 5:0.34 6:0.51999998 7:0.34 8:0 9:0.17 10:0.86000001 11:0 12:0.17 13:0.34 14:0 15:0.51999998 16:0.34 17:0.17 18:0.69 19:0 20:0.34 21:0.17 22:0 23:0.17 24:0.34 25:0 26:0.17 27:0.17 28:0 29:0.34 30:0.34 31:0 32:0 33:0.51999998 34:0 35:0.17 36:0 37:0 38:0.51999998 39:0 40:0.17 41:0.51999998 42:0 43:0.34 44:0.17 45:0 46:0.34 47:0.34 48:0 49:0.69 50:0.51999998 51:0.17 52:0 53:0 54:0.69 55:0.51999998 56:0 57:0.17 58:0.51999998 59:0.17 60:0.51999998 61:0.51999998 62:0 63:0 64:0.34 65:0.17 66:0.17 67:0.34 68:0.34 69:0 70:0.69 71:0.34 72:0.17 73:0.17 74:0.17 75:0.17 76:0.34 77:0.69 78:0.34 79:0.17 80:0 81:0.17 82:0.17 83:0.69 84:0.17 85:0.34 86:0.86000001 87:0 88:0 89:0.34 90:0.17 91:0 92:0.17 93:0.17 94:0.17 95:0 96:0.17 97:0 98:0.17 99:0 100:0 101:0.69 102:0 103:0.34 104:0.51999998 105:0.34 106:1.03 107:0 108:0.17 109:0.17 110:0.86000001 111:0.17 112:0 113:0.86000001 114:0.34 115:0.17 116:0.69 117:0.17 118:0.17 119:0 120:0.51999998 121:0.34 122:0.17 123:0.17 124:0.17 125:0.17 126:0 127:0 128:0.17 129:0 130:0.34 131:0 132:0.34 133:0 134:0.17 135:0 136:0.51999998 137:0.17 138:0 139:0 140:0.17 141:0.17 142:0.17 143:0.34 144:0.17 145:0 146:0 147:0.17 148:0 149:0 150:0 151:0 152:0 153:0.34 154:0.17 155:0.34 156:0 157:0 158:0.17 159:0 160:0 161:0 162:0.34 163:0.17 164:0.17 165:0.86000001 166:0.17 167:0 168:0 169:0.17 170:0.86000001 171:0 172:0 173:0.17 174:0.17 175:0.69 176:0 177:0.17 178:0.69 179:0.17 180:0.17 181:0.51999998 182:0.34 183:0.86000001 184:0.34 185:0.69 186:0.86000001 187:0.51999998 188:0.17 189:0.34 190:1.89 191:0.51999998 192:0.34 193:0.34 194:0.69 195:0.51999998 196:0.17 197:0.69 198:0.51999998 199:0 200:0.17 201:0 202:0.17 203:0.17 204:0.17 205:0 206:0 207:0.17 208:0.17 209:0.34 210:0.34 211:0.17 212:0 213:0 214:0 215:0.34 216:0.34 217:0.17 218:0.34 219:0 220:0.17 221:0.17 222:0 223:0 224:0.17 225:0 226:0.51999998 227:0 228:0 229:0.69 230:0.51999998 231:0.17 232:0 233:0.17 234:0.17 235:0.17 236:0.17 237:0.17 238:0.17 239:0 240:0 241:0.86000001 242:0 243:0.51999998 244:0.86000001 245:0.34 246:0.51999998 247:0.17 248:0 249:0 250:0 251:0.34 252:0.17 253:1.2 254:0.69 255:0 256:0.34 257:0.86000001 258:0.34 259:0 260:0.17 261:0.34 262:0.34 263:0.17 264:0.17 265:0 266:0.17 267:0.17 268:0.34 269:0.34 270:0 271:0.34 272:0.69 273:0.51999998 274:0.51999998 275:0.69 276:0.34 277:1.2 278:0.34 279:0 280:0.17 281:0.51999998 282:0.17 283:0.34 284:0.34 285:0.17 286:0.69 287:0.17 288:0.17 289:0.51999998 290:0 291:0.34 292:0.34 293:0 294:0.34 295:0 296:0.34 297:0.17 298:0.17 299:0 300:0.17 301:0.17 302:0.17 303:0.17 304:0 305:0.17 306:0.69 307:0 308:0 309:0 310:0.69 311:0 312:0 313:1.38 314:0.51999998 315:0.17 316:0.69 317:0.51999998 318:0 319:0.17 320:0.17 321:0.17 322:0.51999998 323:0.34 324:0.17 325:0 326:0.17 327:0.17 328:0.17 329:0.17 330:1.2 331:0.17 332:0.34 333:0.17 334:0.51999998 335:0 336:0.51999998 337:0.17 338:0.69 339:0 340:0.17 341:0.17 342:0.34 343:0.51999998 344:0 345:0.17 346:0.17 347:0 348:0.17 349:0.51999998 350:0.51999998 351:0.17 352:0.34 353:0.86000001 354:0.86000001 355:0.51999998 356:0.51999998 357:0 358:0.17 359:0 360:0.17 361:0.17 362:0 363:0 364:0.17 365:0 366:0 367:0 368:0 369:0 370:0 371:0 372:0 373:0 374:0.17 375:0 376:0.17 377:0 378:0 379:0 380:0 381:0.34 382:0 383:0 384:0 385:0 386:0.17 387:0.17 388:0.17 389:0.17 390:0.69 391:0 392:0.17 393:0.17 394:0.51999998 395:0 396:0 397:0.34 398:0.17 399:0 400:0.17 #
-0.38177718755605383194051682949066 1:0.85000002 2:0.41999999 3:0.85000002 4:0.41999999 5:0.20999999 6:0.20999999 7:0.20999999 8:0.63999999 9:0.41999999 10:0.20999999 11:0.41999999 12:0.20999999 13:0.41999999 14:0.41999999 15:0.20999999 16:0.20999999 17:0.41999999 18:0.20999999 19:0 20:0 21:0 22:0 23:0 24:0.85000002 25:0 26:0.41999999 27:0 28:0 29:0.20999999 30:0.41999999 31:0 32:0.20999999 33:0.20999999 34:0.41999999 35:0.41999999 36:0.20999999 37:0 38:0 39:0 40:0 41:0.20999999 42:0 43:0 44:0.41999999 45:0.20999999 46:0.20999999 47:0 48:0.20999999 49:0.20999999 50:0.41999999 51:0.20999999 52:0 53:0 54:0.41999999 55:0.20999999 56:0.20999999 57:0.63999999 58:0 59:0 60:0 61:0.63999999 62:0.41999999 63:0.85000002 64:1.27 65:0 66:0.41999999 67:0 68:0.41999999 69:0 70:1.27 71:0.20999999 72:0 73:0.20999999 74:0.41999999 75:0.41999999 76:0.85000002 77:0.20999999 78:0.41999999 79:0 80:0.20999999 81:0.63999999 82:0 83:0.20999999 84:0.20999999 85:0.20999999 86:0.20999999 87:0.20999999 88:0 89:0.63999999 90:0.41999999 91:0 92:0.63999999 93:0 94:0.20999999 95:0.85000002 96:0.63999999 97:0 98:0.20999999 99:0 100:0 101:0.41999999 102:0.41999999 103:0.20999999 104:0.20999999 105:0.41999999 106:0.63999999 107:0 108:0.41999999 109:0.41999999 110:0.20999999 111:0.20999999 112:0 113:0.41999999 114:0 115:0.20999999 116:0.63999999 117:0.41999999 118:0.63999999 119:0 120:0.20999999 121:0.20999999 122:0.20999999 123:0 124:0.20999999 125:0.63999999 126:0 127:0.20999999 128:0 129:0 130:0 131:0.20999999 132:0 133:0.41999999 134:0 135:0.41999999 136:0.20999999 137:0.20999999 138:0 139:0 140:0.20999999 141:0 142:0.20999999 143:0 144:0.41999999 145:0.20999999 146:0 147:0.20999999 148:0.20999999 149:0.20999999 150:0 151:0.41999999 152:0.20999999 153:0.20999999 154:0.20999999 155:0.20999999 156:0.85000002 157:0.63999999 158:0 159:0 160:0 161:0.20999999 162:0.20999999 163:0.20999999 164:0.85000002 165:0.20999999 166:0.85000002 167:0 168:0.20999999 169:0.63999999 170:0.20999999 171:0 172:0.20999999 173:0.41999999 174:0 175:0.41999999 176:0.41999999 177:0.41999999 178:0.41999999 179:0.20999999 180:0 181:0.20999999 182:0.41999999 183:0 184:0.85000002 185:0.63999999 186:0.20999999 187:0.41999999 188:0.20999999 189:1.27 190:1.0599999 191:0.63999999 192:0 193:0.85000002 194:1.0599999 195:1.48 196:0.41999999 197:0.41999999 198:0 199:0 200:0 201:0.41999999 202:0 203:0.20999999 204:0 205:0.20999999 206:0 207:0 208:0.41999999 209:0.63999999 210:0.63999999 211:0.20999999 212:0 213:0 214:0.41999999 215:0 216:0.41999999 217:0.41999999 218:0 219:0 220:0 221:0.85000002 222:0 223:0 224:0 225:0.20999999 226:0 227:0.41999999 228:0 229:0 230:0.20999999 231:0 232:0 233:0 234:0 235:0.20999999 236:0 237:0.20999999 238:0.20999999 239:0 240:0.20999999 241:0.63999999 242:0 243:0.20999999 244:0.41999999 245:0.41999999 246:0.63999999 247:0.20999999 248:0.20999999 249:0.20999999 250:0.63999999 251:0.20999999 252:0 253:0.20999999 254:0.41999999 255:0.20999999 256:0.41999999 257:0 258:0 259:0 260:0 261:0.63999999 262:0.20999999 263:0.20999999 264:0.41999999 265:0.20999999 266:0.20999999 267:0.41999999 268:0.41999999 269:0 270:1.0599999 271:0.20999999 272:0 273:0.41999999 274:0.20999999 275:0.41999999 276:0 277:0 278:0.20999999 279:0 280:0 281:0.63999999 282:0.20999999 283:0.20999999 284:0.41999999 285:0.41999999 286:0.41999999 287:0 288:0.20999999 289:1.0599999 290:1.0599999 291:0.20999999 292:0.20999999 293:0.63999999 294:0.20999999 295:0.63999999 296:0.20999999 297:0.41999999 298:0.41999999 299:0 300:0 301:0.20999999 302:0 303:0.20999999 304:0.20999999 305:0.20999999 306:0.63999999 307:0.20999999 308:0.20999999 309:0 310:1.48 311:0 312:0.20999999 313:0.20999999 314:0.20999999 315:0.20999999 316:0.20999999 317:0.20999999 318:0.63999999 319:0.20999999 320:0.63999999 321:0.20999999 322:0.20999999 323:0 324:0.63999999 325:0.41999999 326:0.85000002 327:0.20999999 328:0 329:0 330:0.20999999 331:0 332:0 333:0.20999999 334:0.41999999 335:0.63999999 336:0 337:0.20999999 338:0.41999999 339:0.20999999 340:0.20999999 341:0 342:0.20999999 343:0.20999999 344:0.20999999 345:0.20999999 346:0.20999999 347:0.20999999 348:0.20999999 349:0 350:0.63999999 351:0.20999999 352:0.20999999 353:0.20999999 354:0.20999999 355:0.41999999 356:0.20999999 357:0.20999999 358:0.20999999 359:0.20999999 360:0 361:0 362:0 363:0 364:0.20999999 365:0 366:0 367:0 368:0 369:0 370:0 371:0 372:0.41999999 373:0 374:0 375:0 376:0.20999999 377:0 378:0 379:0 380:0 381:0 382:0.20999999 383:0 384:0 385:0.20999999 386:0 387:0.20999999 388:0.20999999 389:0.20999999 390:0 391:0.41999999 392:0 393:0 394:0 395:0 396:0 397:0 398:0.20999999 399:0 400:0 #
-5.7936469005538953069844865240157 1:0.31999999 2:0.31999999 3:0.31999999 4:0.64999998 5:0 6:0.64999998 7:0.64999998 8:0 9:0.64999998 10:1.3 11:0.31999999 12:0 13:0.31999999 14:0.64999998 15:0.31999999 16:0.31999999 17:0.31999999 18:0.31999999 19:0 20:0.31999999 21:0 22:0 23:0 24:0.64999998 25:0 26:0.64999998 27:0.31999999 28:0 29:0.31999999 30:0.64999998 31:0 32:0 33:0.64999998 34:0 35:0.31999999 36:0.31999999 37:0 38:0.31999999 39:0 40:0 41:0.31999999 42:0 43:0 44:0.64999998 45:0 46:0.31999999 47:0 48:0.31999999 49:0 50:0.31999999 51:0.31999999 52:0 53:0 54:0.97000003 55:0.64999998 56:0 57:0 58:0 59:0 60:0 61:0.64999998 62:0 63:0.97000003 64:0.64999998 65:0 66:0.31999999 67:0 68:0.97000003 69:0 70:0.97000003 71:0.31999999 72:0 73:0 74:0.64999998 75:0 76:0 77:0 78:0.31999999 79:0 80:0 81:0.64999998 82:0.31999999 83:0 84:0.31999999 85:0.31999999 86:0 87:0 88:0.31999999 89:0 90:0.64999998 91:0.31999999 92:0.31999999 93:0 94:0 95:0.97000003 96:0 97:0.31999999 98:0.31999999 99:0 100:0 101:0.97000003 102:0.31999999 103:0.31999999 104:0 105:0.31999999 106:0 107:0 108:0 109:0 110:0.64999998 111:0.31999999 112:0 113:0.64999998 114:0.31999999 115:0 116:0.31999999 117:0.31999999 118:0.31999999 119:0 120:0.64999998 121:0 122:0.31999999 123:0 124:0 125:0.64999998 126:0 127:0.31999999 128:0.64999998 129:0 130:0.31999999 131:0.31999999 132:0 133:0 134:0.31999999 135:0 136:0 137:0.31999999 138:0 139:0 140:0 141:0 142:0.64999998 143:0.31999999 144:0.64999998 145:0 146:0.31999999 147:0.31999999 148:0 149:0.64999998 150:0.31999999 151:0 152:0.64999998 153:0 154:0.64999998 155:0.31999999 156:0.31999999 157:0 158:0.31999999 159:0 160:0 161:0 162:0.31999999 163:0.64999998 164:0.31999999 165:0.31999999 166:0.97000003 167:0 168:0 169:0 170:0.31999999 171:0 172:0 173:0 174:0.31999999 175:0 176:0.31999999 177:0.31999999 178:0 179:0 180:0 181:0.97000003 182:0.31999999 183:0.31999999 184:0 185:0.31999999 186:0.64999998 187:0 188:0.31999999 189:0.31999999 190:1.62 191:0 192:0.31999999 193:1.3 194:1.95 195:1.3 196:0.97000003 197:0.64999998 198:0.31999999 199:0 200:0.31999999 201:0.64999998 202:0 203:0 204:0 205:0.31999999 206:0.31999999 207:0 208:0.31999999 209:0 210:0 211:0.31999999 212:0 213:0.31999999 214:0 215:0.31999999 216:0 217:0 218:0.31999999 219:0 220:0 221:0.31999999 222:0.31999999 223:0 224:0.31999999 225:0.31999999 226:0 227:0 228:0 229:0 230:0 231:0 232:0 233:0 234:0 235:0 236:0 237:0.64999998 238:0 239:0 240:0 241:0.64999998 242:0 243:0 244:0 245:0.31999999 246:0.31999999 247:0 248:0.31999999 249:0 250:1.3 251:0 252:0 253:0.31999999 254:0 255:0.31999999 256:0 257:0.64999998 258:0.97000003 259:0 260:0 261:0.64999998 262:0 263:0 264:0.97000003 265:0.64999998 266:0.31999999 267:0.31999999 268:0.64999998 269:0.31999999 270:0.64999998 271:0 272:0.31999999 273:0.31999999 274:0.64999998 275:1.3 276:0.31999999 277:0.64999998 278:0.31999999 279:0 280:0 281:0.64999998 282:0 283:0.97000003 284:0.31999999 285:0.31999999 286:0 287:0.64999998 288:0 289:0.31999999 290:0.31999999 291:0 292:0.31999999 293:0.97000003 294:0 295:1.62 296:0.64999998 297:0.64999998 298:0 299:0 300:0.31999999 301:0.64999998 302:0.31999999 303:0 304:0 305:0 306:0 307:0 308:0.64999998 309:0.97000003 310:0.64999998 311:0 312:0 313:0 314:0 315:0.31999999 316:0 317:0 318:0 319:0 320:0.31999999 321:0 322:0.64999998 323:0 324:0 325:0.64999998 326:0.31999999 327:0.31999999 328:0.31999999 329:0.31999999 330:0.97000003 331:0.31999999 332:0 333:0.31999999 334:0.97000003 335:0.31999999 336:0 337:0.31999999 338:0.31999999 339:0 340:0 341:0 342:0.31999999 343:0 344:0.31999999 345:0.31999999 346:0 347:0 348:0.31999999 349:0 350:0.97000003 351:0 352:0 353:0 354:0.64999998 355:0 356:0.64999998 357:0.64999998 358:0.31999999 359:0 360:0 361:0 362:0 363:0 364:0 365:0 366:0 367:0 368:0 369:0 370:0 371:0 372:0 373:0 374:0 375:0 376:0 377:0 378:0 379:0 380:0 381:0.31999999 382:0 383:0 384:0 385:0 386:0.31999999 387:0.31999999 388:0.31999999 389:0 390:0 391:0 392:0 393:0 394:0.31999999 395:0 396:0 397:0.31999999 398:0 399:0 400:0 #
-29.523930855881417301134206354618 1:1.21 2:0.27000001 3:0.30000001 4:0.47999999 5:0.079999998 6:0.62 7:0.13 8:0.31999999 9:0.31999999 10:0.46000001 11:0.19 12:0.43000001 13:0.43000001 14:0.46000001 15:0.46000001 16:1.13 17:0.77999997 18:0.34999999 19:0.029999999 20:0.050000001 21:0.27000001 22:0.079999998 23:0.13 24:0.11 25:0.050000001 26:0.30000001 27:0 28:0.029999999 29:0.11 30:0.11 31:0.029999999 32:0.079999998 33:0.13 34:0.16 35:0.11 36:0.31999999 37:0.23999999 38:0.079999998 39:0.050000001 40:0.13 41:0.38 42:0.13 43:0.62 44:0.46000001 45:0.11 46:0.40000001 47:0.050000001 48:0.20999999 49:0.27000001 50:0.27000001 51:0.13 52:0.30000001 53:0.11 54:0.20999999 55:0.11 56:0.30000001 57:0.19 58:0.19 59:0.029999999 60:0.11 61:0.43000001 62:0.079999998 63:0.58999997 64:0.69999999 65:0.23999999 66:0.34999999 67:0.079999998 68:0.11 69:0.38 70:0.43000001 71:0.16 72:0.16 73:0.40000001 74:0.38 75:0.050000001 76:0.38 77:0.31999999 78:0.34999999 79:0.029999999 80:0.13 81:0.11 82:0.079999998 83:0.029999999 84:0.23999999 85:0.079999998 86:0.27000001 87:0.029999999 88:0.079999998 89:0.16 90:0.27000001 91:0 92:0.050000001 93:0.16 94:0.23999999 95:0.13 96:0.30000001 97:0.11 98:0.20999999 99:0.029999999 100:0.050000001 101:0.67000002 102:0.079999998 103:0.34999999 104:0.43000001 105:0.11 106:0.69999999 107:0.079999998 108:0.20999999 109:0.34999999 110:0.50999999 111:0.11 112:0.58999997 113:0.16 114:0.19 115:0.19 116:1.15 117:0.46000001 118:0.40000001 119:0.029999999 120:0.079999998 121:0.029999999 122:0.029999999 123:0.029999999 124:0.050000001 125:0.050000001 126:0.16 127:0.029999999 128:0.16 129:0.11 130:0.050000001 131:0 132:0 133:0.029999999 134:0.11 135:0.079999998 136:0.19 137:0.11 138:0.050000001 139:0 140:0.050000001 141:0.20999999 142:0.13 143:0.16 144:0.16 145:0.13 146:0.13 147:0.13 148:0.20999999 149:0.20999999 150:0.31999999 151:0.11 152:0.11 153:0.27000001 154:0.27000001 155:0.079999998 156:0.56 157:0.11 158:0.38 159:0.029999999 160:0.050000001 161:0.38 162:0.27000001 163:0.23999999 164:0.38 165:0.19 166:0.16 167:0.11 168:0.31999999 169:0.50999999 170:0.46000001 171:0.16 172:0.30000001 173:0.46000001 174:0.31999999 175:0.38 176:0.67000002 177:0.30000001 178:0.31999999 179:0.029999999 180:0.16 181:0.56 182:0.11 183:0.38 184:0.56 185:0.13 186:0.47999999 187:0 188:0.30000001 189:0.72000003 190:0.62 191:0.029999999 192:0.38 193:0.56 194:0.82999998 195:0.16 196:0.62 197:0.40000001 198:0.23999999 199:0 200:0.19 201:0.16 202:0.050000001 203:0.19 204:0.13 205:0.079999998 206:0.11 207:0 208:0.13 209:0.079999998 210:0.19 211:0.029999999 212:0.029999999 213:0.079999998 214:0.13 215:0.13 216:0.13 217:0.13 218:0.079999998 219:0.029999999 220:0.050000001 221:0.46000001 222:0.19 223:0.19 224:0.30000001 225:0.16 226:0.47999999 227:0.050000001 228:0.050000001 229:0.16 230:0.46000001 231:0.079999998 232:0.16 233:0.30000001 234:0.34999999 235:0.16 236:0.63999999 237:0.20999999 238:0.27000001 239:0.029999999 240:0.20999999 241:0.47999999 242:0.11 243:0.16 244:0.20999999 245:0.029999999 246:0.30000001 247:0.079999998 248:0.34999999 249:0.31999999 250:0.54000002 251:0.19 252:0.23999999 253:0.27000001 254:0.67000002 255:0.19 256:0.75 257:0.50999999 258:0.31999999 259:0.050000001 260:0.050000001 261:0.69999999 262:0.050000001 263:0.11 264:0.20999999 265:0.27000001 266:0.20999999 267:0.079999998 268:0.20999999 269:0.23999999 270:0.62 271:0.19 272:0.47999999 273:0.91000003 274:1.66 275:0.40000001 276:0.47999999 277:0.30000001 278:0.54000002 279:0.029999999 280:0.11 281:0.11 282:0.19 283:0.050000001 284:0.16 285:0.11 286:0.27000001 287:0.050000001 288:0.20999999 289:0.38 290:0.23999999 291:0.050000001 292:0.31999999 293:0.19 294:0.23999999 295:0.23999999 296:0.43000001 297:0.19 298:0.16 299:0.029999999 300:0.050000001 301:1.21 302:0.30000001 303:0.30000001 304:0.30000001 305:0.20999999 306:1.21 307:0.13 308:0.58999997 309:0.88999999 310:0.67000002 311:0.11 312:0.62 313:0.67000002 314:0.50999999 315:0.34999999 316:2.0899999 317:1.1 318:0.50999999 319:0.029999999 320:0.050000001 321:0.72000003 322:0.13 323:0.27000001 324:0.30000001 325:0.31999999 326:0.43000001 327:0.050000001 328:0.11 329:0.27000001 330:0.40000001 331:0.13 332:0.40000001 333:0.31999999 334:0.56 335:0.16 336:0.91000003 337:0.67000002 338:0.40000001 339:0.029999999 340:0.20999999 341:0.31999999 342:0.13 343:0.23999999 344:0.31999999 345:0.20999999 346:0.19 347:0.079999998 348:0.11 349:0.40000001 350:0.43000001 351:0.20999999 352:0.19 353:0.30000001 354:0.46000001 355:0.19 356:0.56 357:0.54000002 358:0.43000001 359:0 360:0.13 361:0 362:0 363:0 364:0.050000001 365:0.029999999 366:0 367:0.029999999 368:0 369:0.050000001 370:0.079999998 371:0 372:0 373:0.050000001 374:0 375:0.029999999 376:0.11 377:0 378:0.050000001 379:0 380:0 381:0.079999998 382:0.11 383:0.23999999 384:0.19 385:0.029999999 386:0.079999998 387:0.11 388:0.050000001 389:0.16 390:0.16 391:0.029999999 392:0.11 393:0.029999999 394:0.050000001 395:0.079999998 396:0.11 397:0.16 398:0.11 399:0.029999999 400:0.050000001 #
88.305848292204245808534324169159 1:0.18000001 2:0 3:0.36000001 4:0.18000001 5:0.36000001 6:0.18000001 7:0.18000001 8:0.72000003 9:0.36000001 10:0.72000003 11:0.36000001 12:0.18000001 13:0.36000001 14:0.18000001 15:0.36000001 16:0.72000003 17:0 18:0.18000001 19:0 20:0.18000001 21:0 22:0 23:0 24:0.36000001 25:0 26:0.18000001 27:0 28:0.36000001 29:0.36000001 30:0.18000001 31:0 32:0.18000001 33:0.36000001 34:0.18000001 35:0.18000001 36:0 37:0 38:0 39:0.18000001 40:0 41:0 42:0 43:0.18000001 44:0.36000001 45:0.36000001 46:0.18000001 47:0.18000001 48:0 49:0.36000001 50:0.36000001 51:0 52:0 53:0.18000001 54:0.54000002 55:0.72000003 56:0 57:0 58:0.54000002 59:0 60:0.72000003 61:0.54000002 62:0 63:0.36000001 64:0.36000001 65:0.18000001 66:0.36000001 67:0.18000001 68:0.18000001 69:0.72000003 70:0.88999999 71:0.18000001 72:0.54000002 73:0.36000001 74:0.54000002 75:0 76:0.36000001 77:0.36000001 78:0.18000001 79:0.18000001 80:0.18000001 81:0 82:0 83:0.18000001 84:0 85:0.36000001 86:0.54000002 87:0 88:0 89:0.54000002 90:0.54000002 91:0 92:0.18000001 93:0.18000001 94:0.36000001 95:0.18000001 96:0.36000001 97:0 98:0.36000001 99:0 100:0 101:0 102:0 103:0.54000002 104:0.36000001 105:0.18000001 106:0.18000001 107:0.18000001 108:0 109:0.18000001 110:1.25 111:0.18000001 112:0 113:0.18000001 114:0.36000001 115:0.18000001 116:0.36000001 117:0.18000001 118:0.18000001 119:0 120:0.72000003 121:0.18000001 122:0 123:0 124:0 125:0.18000001 126:0.88999999 127:0 128:0.18000001 129:0 130:0.18000001 131:0 132:0 133:0 134:0 135:0.36000001 136:0.36000001 137:0 138:0.54000002 139:0 140:0.18000001 141:0.18000001 142:0 143:0.36000001 144:0.36000001 145:0.36000001 146:0 147:0.18000001 148:0.18000001 149:0.18000001 150:0.36000001 151:0.18000001 152:0 153:0.36000001 154:0.36000001 155:0.36000001 156:0.54000002 157:0.18000001 158:0.18000001 159:0 160:0.18000001 161:0.18000001 162:0.36000001 163:0 164:0.18000001 165:0.54000002 166:0.36000001 167:0.54000002 168:0.18000001 169:0.36000001 170:0.88999999 171:0.36000001 172:0.18000001 173:0 174:0.36000001 175:1.0700001 176:0.18000001 177:0.18000001 178:0.54000002 179:0 180:0 181:0.18000001 182:0.54000002 183:0.36000001 184:1.0700001 185:0.36000001 186:0 187:0.36000001 188:0.72000003 189:1.0700001 190:1.79 191:0 192:0 193:1.0700001 194:0.54000002 195:0.36000001 196:0.54000002 197:0.36000001 198:1.0700001 199:0 200:0.18000001 201:0.36000001 202:0 203:0.18000001 204:0 205:0 206:0.18000001 207:0 208:0 209:0.36000001 210:0.36000001 211:0.18000001 212:0 213:0.54000002 214:0.18000001 215:0.18000001 216:0.36000001 217:0.18000001 218:0.18000001 219:0 220:0.18000001 221:0.18000001 222:0.36000001 223:0 224:0 225:0.18000001 226:0.36000001 227:0 228:0.18000001 229:0.18000001 230:0.54000002 231:0.18000001 232:0.54000002 233:0 234:0.36000001 235:0.54000002 236:0 237:0.18000001 238:0 239:0 240:0.36000001 241:0.72000003 242:0 243:0.54000002 244:0.54000002 245:0.18000001 246:0.18000001 247:0.54000002 248:0.36000001 249:0.36000001 250:0.18000001 251:0.18000001 252:0.18000001 253:0.36000001 254:0.36000001 255:0 256:0.18000001 257:0.18000001 258:0.18000001 259:0 260:0.72000003 261:0.54000002 262:0 263:0.18000001 264:0.72000003 265:0.36000001 266:0.18000001 267:0 268:0.18000001 269:0.36000001 270:0.36000001 271:0.36000001 272:0.88999999 273:0.18000001 274:0.54000002 275:0.36000001 276:0 277:0.54000002 278:0.88999999 279:0 280:0 281:1.25 282:0.18000001 283:0.18000001 284:0.54000002 285:0.18000001 286:0.18000001 287:0.18000001 288:0 289:0.18000001 290:0.54000002 291:0.18000001 292:0.36000001 293:0.18000001 294:0.36000001 295:0.18000001 296:0.88999999 297:0.18000001 298:0 299:0 300:0.18000001 301:0.72000003 302:0.18000001 303:0.36000001 304:0.54000002 305:0 306:0.36000001 307:0.36000001 308:0.88999999 309:0.36000001 310:0.54000002 311:0.36000001 312:0.18000001 313:0.88999999 314:0.36000001 315:0.18000001 316:1.25 317:0 318:0 319:0 320:0.36000001 321:0 322:0.36000001 323:0.18000001 324:0.54000002 325:0 326:0.36000001 327:0 328:0.18000001 329:0 330:0.36000001 331:0.18000001 332:0 333:0.18000001 334:0.18000001 335:0 336:0.54000002 337:0 338:0.18000001 339:0 340:0 341:0.54000002 342:0.36000001 343:0.36000001 344:0.54000002 345:0 346:0.18000001 347:0 348:0.18000001 349:0.18000001 350:0.18000001 351:0.18000001 352:0.54000002 353:0.18000001 354:0.54000002 355:0.54000002 356:0.36000001 357:0.36000001 358:0.18000001 359:0 360:0 361:0.18000001 362:0 363:0 364:0 365:0 366:0 367:0 368:0 369:0 370:0 371:0 372:0 373:0 374:0 375:0 376:0.18000001 377:0 378:0 379:0 380:0 381:0 382:0.18000001 383:0.36000001 384:0 385:0 386:0.36000001 387:0.18000001 388:0 389:0.36000001 390:0.36000001 391:0.18000001 392:0.18000001 393:0.36000001 394:0.36000001 395:0.18000001 396:0.72000003 397:0.36000001 398:0 399:0 400:0.18000001 #
19.531173521234045153960323659703 1:0.80000001 2:0.2 3:0.40000001 4:0.40000001 5:0 6:0.2 7:0.40000001 8:0.2 9:0.40000001 10:1 11:0 12:0.2 13:0.60000002 14:0.40000001 15:0.40000001 16:0.80000001 17:0.2 18:0.2 19:0 20:0.40000001 21:0.40000001 22:0 23:0 24:0.40000001 25:0 26:0.2 27:0.2 28:0.40000001 29:0.40000001 30:0.40000001 31:0 32:0.2 33:0.40000001 34:0 35:0.2 36:0 37:0 38:0 39:0.2 40:0.2 41:0 42:0.2 43:0 44:0.2 45:0 46:0 47:0.2 48:0 49:0.40000001 50:0.2 51:0 52:0 53:0 54:0.60000002 55:0.80000001 56:0.2 57:0.2 58:0.2 59:0 60:1 61:0.40000001 62:0 63:0.40000001 64:0.2 65:0.2 66:0 67:0.2 68:0 69:0 70:1.59 71:0.2 72:0.2 73:0 74:0.80000001 75:0.40000001 76:0.80000001 77:0.2 78:0.40000001 79:0.2 80:0.40000001 81:0 82:0.2 83:0 84:0 85:0.40000001 86:0.40000001 87:0 88:0 89:0.40000001 90:0 91:0 92:0.2 93:0.2 94:0.2 95:0 96:0.60000002 97:0 98:0.2 99:0 100:0 101:0 102:0 103:0.40000001 104:0.2 105:0.2 106:0.2 107:0 108:0 109:0.2 110:0.80000001 111:0.40000001 112:0 113:0.2 114:0.40000001 115:0.2 116:0 117:0.2 118:0.2 119:0 120:0.40000001 121:0.2 122:0 123:0 124:0 125:0 126:0.2 127:0.40000001 128:0 129:0 130:1 131:0.2 132:0.2 133:0 134:0 135:0 136:0 137:0.2 138:0 139:0 140:0.60000002 141:0.2 142:0 143:0.2 144:0.2 145:0.2 146:0.2 147:0 148:0 149:0.2 150:0.40000001 151:0 152:0 153:0.60000002 154:0.2 155:0.2 156:0.2 157:0.2 158:0.2 159:0 160:0 161:0.2 162:0.2 163:0 164:0.40000001 165:0.2 166:0.2 167:0.2 168:0.40000001 169:0.2 170:0.40000001 171:0.2 172:0.2 173:0 174:0.40000001 175:1 176:0.2 177:0.2 178:0.40000001 179:0 180:0.2 181:0.80000001 182:0.60000002 183:0.40000001 184:1 185:0.40000001 186:0.2 187:0.60000002 188:0.80000001 189:0.80000001 190:1.79 191:0.40000001 192:0.60000002 193:0.60000002 194:0.60000002 195:0.60000002 196:1 197:0.60000002 198:0.80000001 199:0 200:0.2 201:0.2 202:0.2 203:0.2 204:0.2 205:0 206:0 207:0 208:0.2 209:0.2 210:0.2 211:0 212:0 213:0 214:0 215:0.40000001 216:0.2 217:0 218:0 219:0 220:0.2 221:0.2 222:0.2 223:0 224:0 225:0 226:0.2 227:0 228:0.2 229:0.40000001 230:0.40000001 231:0 232:0.40000001 233:0.2 234:0.40000001 235:0 236:0.2 237:0.40000001 238:0.2 239:0 240:0 241:0.80000001 242:0.2 243:0.60000002 244:0.40000001 245:0.2 246:0.2 247:0 248:0.2 249:0.2 250:1 251:0.2 252:0 253:0.60000002 254:0.40000001 255:0 256:0.2 257:0.40000001 258:0.2 259:0 260:0.2 261:0.40000001 262:0 263:0.40000001 264:1 265:0.2 266:0 267:0 268:0.2 269:0.40000001 270:0.40000001 271:0.2 272:0.60000002 273:0.2 274:0.40000001 275:0.40000001 276:0.40000001 277:0.40000001 278:0.60000002 279:0 280:0.2 281:1 282:0.40000001 283:0.2 284:0.40000001 285:0.40000001 286:0.40000001 287:0 288:0 289:0.2 290:0.80000001 291:0.2 292:0.40000001 293:0 294:0.2 295:0.2 296:0.40000001 297:0.40000001 298:0 299:0 300:0.2 301:0.60000002 302:0.40000001 303:0.2 304:0.60000002 305:0.2 306:0.60000002 307:0 308:0.40000001 309:0.2 310:0.60000002 311:0 312:0 313:0.60000002 314:0.40000001 315:0.40000001 316:1 317:1 318:0.60000002 319:0 320:0.2 321:0.40000001 322:0.60000002 323:0.40000001 324:0 325:0.2 326:0.2 327:0.2 328:0.2 329:0 330:0.80000001 331:0 332:0 333:0.60000002 334:0.60000002 335:0.2 336:0.80000001 337:0 338:0.40000001 339:0 340:0.2 341:0.2 342:0.2 343:0.2 344:0.60000002 345:0 346:0.40000001 347:0.40000001 348:0 349:0.2 350:0.60000002 351:0 352:0.2 353:0.40000001 354:0.40000001 355:0.40000001 356:0.40000001 357:0.2 358:0 359:0 360:0.2 361:0.2 362:0 363:0 364:0 365:0 366:0 367:0 368:0 369:0 370:0 371:0 372:0 373:0 374:0 375:0 376:0.2 377:0 378:0 379:0 380:0 381:0.2 382:0 383:0.2 384:0.40000001 385:0 386:0.2 387:0.2 388:0.2 389:0.40000001 390:0.40000001 391:0 392:0 393:0.80000001 394:0 395:0 396:0.40000001 397:1 398:0.40000001 399:0 400:0 #
15.582744435046606668038293719292 1:0.20999999 2:0.41999999 3:0.41999999 4:0.83999997 5:0 6:0.20999999 7:0 8:0 9:0.41999999 10:1.05 11:0 12:0 13:0.20999999 14:0.63 15:0.41999999 16:0.41999999 17:0.20999999 18:0.41999999 19:0 20:0.20999999 21:0.20999999 22:0 23:0 24:0.41999999 25:0 26:0.41999999 27:0 28:0.41999999 29:0.20999999 30:0.41999999 31:0 32:0.41999999 33:0.83999997 34:0 35:0.20999999 36:0 37:0 38:0.20999999 39:0.20999999 40:0 41:0 42:0.41999999 43:0 44:0.20999999 45:0 46:0 47:0.20999999 48:0 49:0.63 50:0.20999999 51:0 52:0.20999999 53:0.20999999 54:0.41999999 55:0.83999997 56:0.41999999 57:0 58:0.20999999 59:0 60:0.20999999 61:0.41999999 62:0 63:0.20999999 64:0.83999997 65:0.20999999 66:0.20999999 67:0.41999999 68:0 69:0 70:1.26 71:0.41999999 72:0.20999999 73:0.20999999 74:0.63 75:0 76:0.41999999 77:0 78:0.41999999 79:0.20999999 80:0.63 81:0 82:0.20999999 83:0 84:0 85:0.41999999 86:0.20999999 87:0 88:0 89:0.63 90:0.20999999 91:0 92:0.20999999 93:0.41999999 94:0.20999999 95:0.20999999 96:0.41999999 97:0.20999999 98:0 99:0 100:0 101:0 102:0.20999999 103:0.63 104:0 105:0.20999999 106:0.20999999 107:0 108:0.20999999 109:0.20999999 110:0.63 111:0.20999999 112:0 113:0.41999999 114:0.41999999 115:0.83999997 116:0.83999997 117:0 118:0.41999999 119:0 120:0.41999999 121:0.20999999 122:0 123:0 124:0 125:0 126:0.20999999 127:0.20999999 128:0 129:0 130:0.20999999 131:0 132:0.41999999 133:0.20999999 134:0 135:0 136:0.20999999 137:0 138:0.41999999 139:0 140:0.20999999 141:0.20999999 142:0.20999999 143:0.20999999 144:0.20999999 145:0.20999999 146:0 147:0 148:0 149:0.20999999 150:0 151:0 152:0 153:0 154:0 155:0.20999999 156:0 157:0.20999999 158:0.20999999 159:0 160:0 161:0.20999999 162:0.20999999 163:0 164:0.20999999 165:0.41999999 166:0.41999999 167:0.20999999 168:0.20999999 169:0 170:0.63 171:0 172:0 173:0.20999999 174:0.20999999 175:1.26 176:0 177:0.20999999 178:0.41999999 179:0 180:0 181:0.63 182:0.41999999 183:0.41999999 184:1.46 185:0.41999999 186:0.63 187:0.63 188:0.63 189:0.63 190:2.9300001 191:0 192:0.20999999 193:0.20999999 194:0.63 195:0.20999999 196:1.26 197:0.63 198:1.26 199:0 200:0 201:0.41999999 202:0 203:0 204:0.20999999 205:0 206:0 207:0 208:0 209:0 210:0.41999999 211:0 212:0 213:0 214:0.20999999 215:0.41999999 216:0 217:0 218:0 219:0 220:0.20999999 221:0 222:0.20999999 223:0 224:0 225:0 226:0 227:0 228:0 229:0.41999999 230:0.41999999 231:0 232:0.41999999 233:0.63 234:0.83999997 235:0 236:0.20999999 237:0.20999999 238:0.20999999 239:0 240:0 241:0.63 242:0.20999999 243:0.83999997 244:0.20999999 245:0.41999999 246:0.63 247:0 248:0 249:0 250:0.63 251:0.20999999 252:0.20999999 253:0.83999997 254:0.41999999 255:0.20999999 256:0.83999997 257:0.20999999 258:0.20999999 259:0 260:0.20999999 261:0.63 262:0 263:0.20999999 264:0.83999997 265:0 266:0 267:0.20999999 268:0 269:0.41999999 270:0.63 271:0.20999999 272:0.41999999 273:0 274:0.41999999 275:0.41999999 276:0.41999999 277:0.41999999 278:0.83999997 279:0 280:0.41999999 281:1.46 282:0.20999999 283:0.41999999 284:0.20999999 285:0.41999999 286:0.63 287:0 288:0 289:0.20999999 290:0.63 291:0.20999999 292:0.20999999 293:0.20999999 294:0.20999999 295:0.41999999 296:0.41999999 297:0.20999999 298:0 299:0 300:0.20999999 301:0.20999999 302:0.63 303:0.20999999 304:0.20999999 305:0.20999999 306:1.05 307:0 308:0.41999999 309:0.41999999 310:1.05 311:0 312:0.41999999 313:0.63 314:0.20999999 315:0 316:0.83999997 317:0.20999999 318:0.83999997 319:0 320:0.63 321:0 322:0.41999999 323:0 324:0.20999999 325:0.20999999 326:0.20999999 327:0 328:0.20999999 329:0 330:0.83999997 331:0 332:0 333:0.20999999 334:0.20999999 335:0 336:0.41999999 337:0.63 338:0.41999999 339:0 340:0 341:0.20999999 342:0.20999999 343:0.41999999 344:0.63 345:0.20999999 346:0.41999999 347:0.20999999 348:0 349:0.20999999 350:0.63 351:0.41999999 352:0.20999999 353:1.05 354:0.63 355:0.63 356:0.41999999 357:0 358:0.20999999 359:0 360:0 361:0.20999999 362:0 363:0 364:0 365:0 366:0 367:0 368:0 369:0 370:0 371:0 372:0 373:0 374:0 375:0 376:0.20999999 377:0 378:0 379:0 380:0 381:0.20999999 382:0 383:0.20999999 384:0 385:0 386:0.41999999 387:0.20999999 388:0 389:0.20999999 390:0.41999999 391:0 392:0 393:0.41999999 394:0.20999999 395:0 396:0.41999999 397:0.63 398:0 399:0 400:0 #
85.396013076502640615217387676239 1:0.19 2:0.19 3:0.37 4:0.56 5:0 6:0.19 7:0 8:0 9:0.19 10:0.37 11:0 12:0.19 13:0.56 14:0.56 15:0.19 16:1.12 17:0.19 18:0.37 19:0 20:0.19 21:0.19 22:0 23:0 24:0.37 25:0 26:0.19 27:0 28:0 29:0.37 30:0.37 31:0.19 32:0.19 33:0.56 34:0 35:0.56 36:0 37:0.19 38:0.19 39:0.19 40:0.19 41:0 42:0.19 43:0.19 44:0.19 45:0.37 46:0.19 47:0.75 48:0 49:0.37 50:0.37 51:0 52:0 53:0.56 54:0.37 55:1.12 56:0 57:0 58:0.19 59:0 60:0 61:0.56 62:0 63:0 64:0.56 65:0.37 66:0.37 67:0 68:0.19 69:0.19 70:0.75 71:0.19 72:0 73:0.19 74:0.37 75:0.37 76:0.37 77:0 78:0.19 79:0.19 80:0.37 81:0 82:0 83:0 84:0 85:0.37 86:0.56 87:0.37 88:0 89:0.37 90:0.19 91:0 92:0.37 93:0.37 94:0.19 95:0 96:0.37 97:0 98:0.19 99:0 100:0 101:0 102:0.19 103:0.37 104:0 105:0.19 106:0.19 107:0.19 108:0.19 109:0.19 110:0.37 111:0.19 112:0 113:0.56 114:0.37 115:0.37 116:0.19 117:0.37 118:0.19 119:0 120:0.37 121:0.37 122:0 123:0.37 124:0 125:0.19 126:0.19 127:0 128:0 129:0 130:0.56 131:0 132:0 133:0.56 134:0.19 135:0 136:0.19 137:0.56 138:0.19 139:0 140:0.37 141:0.19 142:0.19 143:0 144:0.37 145:0 146:0 147:0.37 148:0 149:0 150:0.19 151:0.19 152:0.19 153:0.19 154:0 155:0 156:0.37 157:0.19 158:0 159:0 160:0 161:0.19 162:0.19 163:0 164:0.37 165:0.37 166:0.19 167:0.37 168:0.19 169:0.19 170:0.19 171:0.19 172:0 173:0.19 174:0.37 175:0.75 176:0.19 177:0 178:0.19 179:0 180:0.19 181:0.56 182:0.37 183:0.75 184:0 185:0.56 186:0.37 187:0.19 188:0.19 189:0.75 190:1.6799999 191:0.19 192:0.37 193:0.56 194:0.93000001 195:0.37 196:0.56 197:0.75 198:1.12 199:0 200:0.37 201:0.19 202:0.19 203:0.37 204:0 205:0 206:0 207:0 208:0 209:0.19 210:0.19 211:0 212:0.19 213:0.19 214:0.19 215:0.37 216:0.37 217:0 218:0.19 219:0 220:0 221:0 222:0.37 223:0 224:0 225:0 226:0 227:0 228:0.37 229:0.56 230:0 231:0.19 232:0.19 233:0.75 234:0.19 235:0.19 236:0.19 237:0.19 238:0 239:0 240:0.19 241:0.93000001 242:0.19 243:0.75 244:0.37 245:0.19 246:0.56 247:0.19 248:0.19 249:0 250:0.37 251:0.37 252:0.37 253:0.56 254:0.37 255:0.19 256:1.12 257:0.93000001 258:0.37 259:0 260:0.37 261:0.75 262:0 263:0.37 264:0.75 265:0 266:0 267:0.19 268:0.19 269:0.19 270:1.12 271:0.19 272:0.56 273:0.19 274:0.56 275:0.75 276:0.56 277:0.56 278:0.56 279:0 280:0 281:0.37 282:0.19 283:0.56 284:0.56 285:0.19 286:0.56 287:0.19 288:0 289:0.19 290:0.37 291:0.19 292:0.37 293:0.19 294:0.56 295:0.37 296:0.56 297:0.19 298:0.75 299:0 300:0.19 301:0.19 302:0.37 303:0.37 304:0.37 305:0.19 306:0.19 307:0 308:0.56 309:0 310:1.49 311:0 312:0 313:0.19 314:0.93000001 315:0.19 316:0.93000001 317:1.12 318:0.75 319:0 320:0.19 321:0.19 322:0.37 323:0.19 324:0.19 325:0.37 326:0.19 327:0.19 328:0.19 329:0.19 330:0.56 331:0.37 332:0 333:1.3099999 334:0.75 335:0 336:0.37 337:0.19 338:0.37 339:0 340:0.19 341:0.37 342:0.56 343:0.19 344:0.56 345:0 346:0.19 347:0.19 348:0.19 349:0.37 350:1.12 351:0 352:0.19 353:0.19 354:0.37 355:0.37 356:0.37 357:0.56 358:0 359:0 360:0 361:0.19 362:0 363:0 364:0 365:0 366:0 367:0 368:0 369:0 370:0 371:0 372:0 373:0 374:0 375:0 376:0.19 377:0 378:0 379:0 380:0 381:0 382:0.19 383:0 384:0 385:0 386:0.37 387:0.56 388:0 389:0 390:0.37 391:0 392:0.19 393:0.56 394:0.19 395:0.37 396:0 397:0.37 398:0 399:0 400:0 #
-0.20443039607931723367073573172092 1:0.37 2:0 3:0.18000001 4:0.55000001 5:0 6:0.18000001 7:0 8:0.37 9:0.55000001 10:0.55000001 11:0 12:0.18000001 13:0.18000001 14:0 15:0 16:0.37 17:0 18:0.37 19:0.18000001 20:0.18000001 21:0 22:0 23:0.18000001 24:0.37 25:0 26:0.18000001 27:0 28:0 29:0.18000001 30:0.55000001 31:0 32:0.18000001 33:0.18000001 34:0.18000001 35:0.74000001 36:0.18000001 37:0 38:0 39:0 40:0 41:0.37 42:0.55000001 43:0.18000001 44:0 45:0 46:0.18000001 47:0.18000001 48:0 49:0.37 50:1.11 51:0.74000001 52:0.18000001 53:0 54:0.18000001 55:1.29 56:0.18000001 57:0.37 58:0.18000001 59:0 60:0.18000001 61:0.18000001 62:0 63:0.18000001 64:0.37 65:0.74000001 66:0.18000001 67:0 68:0.18000001 69:0.18000001 70:1.11 71:0.37 72:0 73:0.55000001 74:0 75:0.37 76:0.18000001 77:0.18000001 78:0.37 79:0 80:0.18000001 81:0.74000001 82:0.18000001 83:0.18000001 84:0.18000001 85:0.37 86:0.37 87:0.18000001 88:0.18000001 89:0 90:0.18000001 91:0.37 92:0.92000002 93:0.18000001 94:0.18000001 95:0.55000001 96:0 97:0.37 98:0.18000001 99:0 100:0 101:0 102:0.18000001 103:0.37 104:0 105:0.55000001 106:0 107:0 108:0 109:0.18000001 110:0.37 111:0.18000001 112:0.18000001 113:0 114:0.37 115:0.18000001 116:0.18000001 117:0.37 118:0.37 119:0 120:0 121:0 122:0.37 123:0.37 124:0 125:0.18000001 126:0.18000001 127:0.55000001 128:0.18000001 129:0.18000001 130:0.18000001 131:0 132:0.18000001 133:0.37 134:0 135:0.18000001 136:2.4000001 137:0 138:0.37 139:0 140:0.18000001 141:0 142:0 143:0.18000001 144:0.37 145:0.18000001 146:0 147:0.74000001 148:0.18000001 149:0 150:0.55000001 151:0.18000001 152:0.18000001 153:0.18000001 154:0.18000001 155:0.18000001 156:0 157:0 158:0.18000001 159:0 160:0 161:0.55000001 162:0.37 163:0.18000001 164:0 165:0.37 166:0.18000001 167:0 168:0 169:0.37 170:0.55000001 171:0.37 172:0 173:0.55000001 174:0.18000001 175:0 176:0.92000002 177:0.55000001 178:0 179:0 180:0.18000001 181:0.18000001 182:0.18000001 183:0.74000001 184:0.92000002 185:0.55000001 186:0.18000001 187:0.37 188:0 189:0.92000002 190:1.66 191:0.18000001 192:0.18000001 193:0.55000001 194:1.29 195:0.55000001 196:1.66 197:0.37 198:0.92000002 199:0 200:0.18000001 201:0.18000001 202:0.18000001 203:0.37 204:0.18000001 205:0 206:0 207:0 208:0 209:0.37 210:0.18000001 211:0.18000001 212:0.55000001 213:0.18000001 214:0 215:0.18000001 216:0.18000001 217:0.55000001 218:0.18000001 219:0 220:0 221:0 222:0.18000001 223:0.55000001 224:0 225:0 226:0 227:1.29 228:0.18000001 229:0.55000001 230:0.18000001 231:0 232:0 233:0.37 234:0 235:0 236:0.55000001 237:0 238:0.18000001 239:0 240:0 241:0.18000001 242:0 243:1.29 244:0.37 245:0.37 246:0.37 247:0.37 248:0.18000001 249:0.18000001 250:0.74000001 251:0 252:0 253:0.37 254:0.37 255:0.37 256:0.37 257:0.18000001 258:0.18000001 259:0 260:0.18000001 261:0.37 262:0 263:0 264:0.74000001 265:0.18000001 266:0.18000001 267:0 268:0.18000001 269:0.37 270:0.92000002 271:0.18000001 272:0 273:0 274:0 275:0.18000001 276:0.18000001 277:0 278:0.37 279:0 280:0.37 281:0.37 282:0 283:0.18000001 284:0.37 285:0.37 286:0 287:0.37 288:0.37 289:0.18000001 290:0.18000001 291:0.18000001 292:0.55000001 293:0.55000001 294:0.74000001 295:0.55000001 296:1.29 297:0.18000001 298:0.18000001 299:0 300:0 301:0.37 302:0.18000001 303:0.37 304:0 305:1.11 306:0.55000001 307:1.29 308:0.37 309:0.18000001 310:1.11 311:0 312:0.18000001 313:1.66 314:0.18000001 315:0.55000001 316:0.37 317:0.18000001 318:0.74000001 319:0 320:0.37 321:0.18000001 322:0 323:0.37 324:0.37 325:0 326:0 327:0.18000001 328:0.18000001 329:0.37 330:0.74000001 331:0.18000001 332:0 333:0 334:0 335:0.37 336:0 337:0.18000001 338:0.37 339:0 340:0.37 341:0.18000001 342:0.37 343:0.18000001 344:0.55000001 345:0.18000001 346:0.18000001 347:0.18000001 348:0.74000001 349:0.18000001 350:0.55000001 351:0.18000001 352:0.37 353:0 354:0.18000001 355:0.37 356:0.18000001 357:0.18000001 358:0 359:0 360:0.37 361:0 362:0 363:0 364:0 365:0 366:0 367:0 368:0 369:0 370:0 371:0 372:0 373:0 374:0 375:0 376:0.18000001 377:0 378:0 379:0 380:0 381:0 382:0.18000001 383:0.18000001 384:0 385:0.18000001 386:0.55000001 387:0.18000001 388:0 389:0 390:0.18000001 391:0 392:0.18000001 393:0.18000001 394:0.18000001 395:0 396:0.37 397:0.18000001 398:0 399:0 400:0 #
-20.446680407307042059983359649777 1:0 2:0 3:0.22 4:0.86000001 5:0 6:0.43000001 7:0.22 8:0.22 9:0.22 10:0.64999998 11:0.22 12:0 13:0.22 14:0.43000001 15:0.22 16:0.86000001 17:1.08 18:0.64999998 19:0.22 20:0.43000001 21:0.64999998 22:0 23:0.22 24:0.43000001 25:0.22 26:0 27:0 28:0 29:0.22 30:0.43000001 31:0 32:0 33:0.22 34:0 35:0.86000001 36:0 37:0 38:0.22 39:0 40:0 41:0.22 42:0.22 43:0.22 44:0.22 45:0.22 46:0.43000001 47:0 48:0.22 49:0.43000001 50:0.22 51:0.22 52:0 53:0.43000001 54:0 55:0.64999998 56:0.22 57:0.22 58:0.64999998 59:0 60:0 61:0.86000001 62:0 63:0.43000001 64:0.43000001 65:0.64999998 66:0 67:0.43000001 68:0 69:0 70:0.86000001 71:0.64999998 72:0.22 73:0.22 74:0.64999998 75:0.22 76:0.86000001 77:0 78:0.22 79:0.22 80:0.22 81:0.22 82:0.22 83:0.22 84:0 85:0.43000001 86:0.22 87:0 88:0.22 89:0 90:0 91:0 92:0 93:0 94:0.22 95:0.43000001 96:0.43000001 97:0.64999998 98:0.22 99:0 100:0 101:0.22 102:0.22 103:0.22 104:0.43000001 105:0.22 106:0.22 107:0.22 108:0.43000001 109:0.22 110:0.43000001 111:0.22 112:0.22 113:0 114:0.22 115:0.43000001 116:0.86000001 117:0.22 118:0.64999998 119:0 120:0 121:0.43000001 122:0 123:0 124:0 125:0 126:0.22 127:0 128:0.22 129:0 130:0.22 131:0 132:0 133:0.22 134:0.22 135:0 136:0.22 137:0.22 138:0 139:0 140:0.22 141:0.22 142:0.22 143:0.22 144:0 145:0 146:0 147:0 148:0.43000001 149:0 150:1.08 151:0 152:0 153:0.64999998 154:0 155:0 156:0.43000001 157:0.43000001 158:0.22 159:0 160:0 161:0 162:0.22 163:0.22 164:0.43000001 165:0 166:0.22 167:0.22 168:0.43000001 169:0.22 170:0 171:0 172:0.22 173:0 174:0.22 175:0.43000001 176:0 177:0.22 178:0.22 179:0 180:0 181:0.43000001 182:0.22 183:0.64999998 184:0.64999998 185:0.22 186:0.86000001 187:0 188:0.22 189:0.43000001 190:3.23 191:1.08 192:0.22 193:0.86000001 194:0.64999998 195:0.86000001 196:1.08 197:0.64999998 198:0.43000001 199:0 200:0 201:0 202:0 203:0 204:0.22 205:0 206:0 207:0 208:0 209:0.43000001 210:0.64999998 211:0 212:0 213:1.08 214:0.22 215:0.64999998 216:0.43000001 217:0 218:0 219:0 220:0 221:0.22 222:0 223:0.22 224:0.22 225:0.22 226:0 227:0.22 228:0.22 229:0 230:0.22 231:0 232:0 233:0 234:0.43000001 235:0 236:0.22 237:0 238:0 239:0 240:0 241:0.22 242:0.22 243:0.22 244:0.22 245:0 246:0.43000001 247:0 248:0 249:0 250:0.64999998 251:0.22 252:0.43000001 253:0.22 254:0.22 255:0.22 256:0.22 257:0.43000001 258:0.86000001 259:0 260:0.22 261:0.64999998 262:0.64999998 263:0 264:0.22 265:0 266:0.22 267:0 268:0 269:0 270:0.64999998 271:0.22 272:0.43000001 273:0 274:0.43000001 275:0.22 276:0.64999998 277:0.43000001 278:0.22 279:0 280:0 281:0.86000001 282:0 283:0.43000001 284:0.43000001 285:0.64999998 286:0.64999998 287:0 288:0.64999998 289:0.64999998 290:0.64999998 291:0 292:0.22 293:0.22 294:0.22 295:0.86000001 296:0.43000001 297:0 298:0.43000001 299:0 300:0.22 301:0.64999998 302:0.43000001 303:0.22 304:0.64999998 305:0 306:0.22 307:0 308:0 309:0.43000001 310:1.51 311:0.43000001 312:0.22 313:0 314:0.22 315:0.43000001 316:0.64999998 317:0.43000001 318:1.72 319:0 320:0 321:0.22 322:0.22 323:0.43000001 324:1.51 325:0.22 326:0.22 327:0.64999998 328:0.43000001 329:0 330:0.64999998 331:0.22 332:0 333:0 334:0 335:0.22 336:0.43000001 337:0.22 338:0.22 339:0 340:0 341:0.86000001 342:0.43000001 343:0.64999998 344:0.22 345:0.43000001 346:0.86000001 347:0.22 348:0.22 349:0 350:0.86000001 351:0 352:0 353:0.64999998 354:0.43000001 355:0.86000001 356:0 357:0.22 358:0.64999998 359:0 360:0 361:0.22 362:0 363:0 364:0 365:0 366:0 367:0 368:0 369:0 370:0 371:0 372:0 373:0 374:0.22 375:0 376:0 377:0 378:0 379:0 380:0 381:0 382:0.22 383:0 384:0 385:0 386:0.43000001 387:0 388:0 389:0 390:0 391:0 392:0 393:0 394:0 395:0 396:0.22 397:0.43000001 398:0 399:0 400:0 #
-14.83218350174680466579957283102 1:0.38999999 2:0 3:0 4:0.38999999 5:0.38999999 6:0 7:0.76999998 8:0 9:0 10:0.76999998 11:0 12:0 13:1.16 14:1.16 15:0.38999999 16:1.9299999 17:0 18:0.38999999 19:0 20:0.38999999 21:0.38999999 22:0 23:0 24:0.38999999 25:0 26:0 27:0.38999999 28:0 29:0 30:1.16 31:0 32:0 33:0.38999999 34:0.76999998 35:0.38999999 36:0 37:0.38999999 38:0 39:0.38999999 40:0 41:0 42:0 43:0 44:0 45:0 46:0 47:0 48:0.38999999 49:0 50:0.38999999 51:0.38999999 52:0 53:0.38999999 54:0.38999999 55:0 56:0 57:0.38999999 58:1.16 59:0 60:0 61:1.16 62:0 63:0.76999998 64:0.38999999 65:0 66:0.38999999 67:0 68:0 69:0 70:0.76999998 71:0 72:0 73:0.76999998 74:0 75:0 76:0.38999999 77:0 78:0.76999998 79:0 80:0.38999999 81:0 82:0.38999999 83:0 84:0.38999999 85:0.38999999 86:0 87:0 88:0 89:0 90:0.76999998 91:0 92:0.38999999 93:0 94:0 95:0.38999999 96:0 97:0 98:0 99:0.38999999 100:0 101:0.76999998 102:0.38999999 103:0.38999999 104:0 105:0 106:0 107:0 108:0 109:0.38999999 110:0.76999998 111:0 112:0 113:1.16 114:0 115:0.38999999 116:0.38999999 117:0.38999999 118:0.38999999 119:0 120:0 121:0.38999999 122:0.76999998 123:0 124:0.38999999 125:0 126:0 127:0 128:0.38999999 129:0 130:0.38999999 131:0 132:0 133:0.38999999 134:0 135:0.76999998 136:0 137:0 138:0 139:0.38999999 140:0 141:0.38999999 142:0 143:0 144:0 145:0 146:0.38999999 147:0 148:0 149:0 150:1.9299999 151:0 152:0 153:0 154:0 155:0 156:0.38999999 157:0.38999999 158:0 159:0 160:0 161:0 162:0 163:0 164:0.38999999 165:0 166:0.38999999 167:0 168:0.38999999 169:0.38999999 170:0 171:0 172:0.38999999 173:0 174:0 175:0 176:0 177:0.38999999 178:0 179:0 180:0 181:1.16 182:1.16 183:0.38999999 184:2.3199999 185:1.16 186:1.16 187:0.38999999 188:0 189:1.16 190:3.8599999 191:0.38999999 192:0 193:0.76999998 194:0.76999998 195:0.76999998 196:0.38999999 197:0 198:0.38999999 199:0 200:0.38999999 201:0.76999998 202:0 203:0 204:0 205:0 206:0 207:0 208:0 209:0 210:0.38999999 211:0 212:0 213:0 214:0 215:0 216:0.38999999 217:0 218:0 219:0 220:0 221:0 222:0 223:0 224:0 225:0 226:0 227:0 228:0.38999999 229:0 230:0.38999999 231:0 232:0 233:0.38999999 234:0 235:0 236:0.38999999 237:0 238:0 239:0 240:0 241:0.76999998 242:0.38999999 243:0.76999998 244:0 245:0 246:0.76999998 247:0.76999998 248:0 249:0.38999999 250:0.38999999 251:0.38999999 252:0.38999999 253:0.76999998 254:0.38999999 255:0.38999999 256:1.16 257:0.38999999 258:1.16 259:0.38999999 260:0 261:0 262:0 263:0.38999999 264:0.38999999 265:0 266:1.16 267:0.76999998 268:0 269:0 270:0 271:0 272:0 273:0.76999998 274:0.76999998 275:0.38999999 276:0.38999999 277:0 278:0 279:0.38999999 280:0 281:0 282:0 283:0 284:0.38999999 285:0 286:0 287:0 288:0.38999999 289:0 290:1.16 291:0 292:0.38999999 293:1.16 294:0 295:0.38999999 296:0.38999999 297:0.76999998 298:0 299:0 300:0 301:0.38999999 302:0.76999998 303:0 304:0 305:0.76999998 306:0.76999998 307:0.76999998 308:0.38999999 309:0 310:0.76999998 311:0 312:0 313:0.38999999 314:0.76999998 315:0.38999999 316:0.76999998 317:0.38999999 318:0 319:0 320:0 321:0 322:0.38999999 323:0 324:0.38999999 325:0.38999999 326:0 327:0 328:0.76999998 329:0 330:1.16 331:0 332:0 333:0 334:0 335:0.38999999 336:0 337:0 338:0.76999998 339:0 340:0 341:0.76999998 342:0.38999999 343:0.76999998 344:0 345:0 346:0 347:0 348:0.38999999 349:0 350:0.76999998 351:0 352:0 353:0.76999998 354:0.38999999 355:0.38999999 356:0 357:0.38999999 358:0 359:0 360:0 361:0.38999999 362:0 363:0 364:0 365:0 366:0.38999999 367:0 368:0 369:0 370:0.38999999 371:0 372:0 373:0 374:0 375:0 376:0.38999999 377:0 378:0 379:0 380:0.38999999 381:0.38999999 382:0 383:0 384:0 385:0 386:0 387:0 388:0 389:0 390:0.38999999 391:0 392:0 393:0.38999999 394:0 395:0 396:0 397:0.38999999 398:0 399:0 400:0 #
64.807093595544131403585197404027 1:1.17 2:0 3:0.38999999 4:0.19 5:0 6:0.88 7:0 8:0.1 9:0.19 10:0.68000001 11:0.1 12:0.38999999 13:0.19 14:0.1 15:0.28999999 16:0.77999997 17:0.97000003 18:0.28999999 19:0 20:0.1 21:0.19 22:0 23:0.1 24:0.1 25:0.1 26:0.1 27:0.19 28:0.1 29:0.19 30:0.1 31:0.1 32:0 33:0.19 34:0 35:0.1 36:0 37:0 38:0.1 39:0 40:0.1 41:0.28999999 42:0 43:0.49000001 44:0.28999999 45:0.19 46:0.28999999 47:0.19 48:0.1 49:0.28999999 50:0.28999999 51:0.19 52:0.28999999 53:0.1 54:0.28999999 55:0.38999999 56:0.28999999 57:0.19 58:0 59:0.1 60:0.28999999 61:0.49000001 62:0.1 63:0.19 64:0.19 65:0.19 66:0.1 67:0 68:0.28999999 69:0 70:0.38999999 71:0.1 72:0 73:0.1 74:0 75:0.1 76:0.38999999 77:0.1 78:0.49000001 79:0.1 80:0.1 81:0.19 82:0 83:0.19 84:0.28999999 85:0.28999999 86:0.19 87:0 88:0 89:0.28999999 90:0.19 91:0 92:0.28999999 93:0.1 94:0.1 95:0.1 96:0.19 97:0 98:0.19 99:0 100:0.1 101:0.19 102:0 103:0.28999999 104:0.19 105:0.1 106:3.3099999 107:0.38999999 108:0.28999999 109:0.1 110:0.77999997 111:0.1 112:1.66 113:0.57999998 114:0.19 115:0.1 116:1.75 117:0.68000001 118:0.19 119:0 120:0.38999999 121:0.19 122:0.1 123:0.1 124:0.1 125:0 126:0.1 127:0.57999998 128:0.19 129:0.1 130:0.49000001 131:0.19 132:0.1 133:0.1 134:0.38999999 135:0.28999999 136:0.57999998 137:0.1 138:0 139:0 140:0.1 141:0.38999999 142:0 143:0.57999998 144:0.28999999 145:0 146:0.28999999 147:0.19 148:0.19 149:0.19 150:0.28999999 151:0 152:0 153:0.1 154:0.1 155:0.1 156:0.28999999 157:0 158:0.19 159:0 160:0 161:0 162:0.1 163:0.38999999 164:0 165:0.38999999 166:0.19 167:0.19 168:0 169:0.1 170:0.49000001 171:0 172:0.1 173:0.19 174:0.19 175:0.38999999 176:0 177:0.28999999 178:0.38999999 179:0 180:0 181:0.38999999 182:0.28999999 183:0.49000001 184:0.38999999 185:0.49000001 186:0.38999999 187:0.38999999 188:0.19 189:0.28999999 190:1.17 191:0.49000001 192:0.38999999 193:0.38999999 194:1.17 195:0.19 196:0.28999999 197:0.28999999 198:0.19 199:0 200:0.1 201:0.1 202:0.1 203:0.1 204:0.1 205:0 206:0.38999999 207:0 208:0.1 209:0.28999999 210:0.57999998 211:0 212:0.19 213:0.19 214:0.1 215:0.19 216:0.38999999 217:0.1 218:0 219:0 220:0.1 221:0.49000001 222:0 223:0.19 224:0.19 225:0.19 226:1.5599999 227:0.28999999 228:0.28999999 229:0.28999999 230:0.38999999 231:0.19 232:1.75 233:0.68000001 234:0.1 235:0.1 236:1.0700001 237:0.49000001 238:0.28999999 239:0 240:0.1 241:0.19 242:0 243:0.28999999 244:0.1 245:0.1 246:0.38999999 247:0.19 248:0.19 249:0 250:0.19 251:0.57999998 252:0.49000001 253:0.1 254:0.49000001 255:0.1 256:0.68000001 257:0.49000001 258:0.19 259:0 260:0.1 261:0.38999999 262:0 263:0.19 264:0.1 265:0 266:0 267:0.49000001 268:0.1 269:0.38999999 270:0.88 271:0.19 272:0.49000001 273:0 274:1.66 275:0.19 276:0.38999999 277:0.38999999 278:0.68000001 279:0 280:0 281:0.28999999 282:0.1 283:0.1 284:0.19 285:0.19 286:0.38999999 287:0 288:0.1 289:0.38999999 290:0 291:0.1 292:0.38999999 293:0.1 294:0.19 295:0 296:0.28999999 297:0.19 298:0.1 299:0 300:0 301:0.68000001 302:0.38999999 303:0.19 304:0.19 305:0.1 306:1.95 307:0.28999999 308:0.38999999 309:0.1 310:0.57999998 311:0.28999999 312:1.17 313:0.77999997 314:0.28999999 315:0 316:2.3399999 317:0.77999997 318:0.68000001 319:0.1 320:0 321:0.77999997 322:0.28999999 323:0 324:0.1 325:0.1 326:0.38999999 327:0.19 328:0.28999999 329:0.1 330:0.28999999 331:0.1 332:0.38999999 333:0.49000001 334:0.49000001 335:0.1 336:0.88 337:1.46 338:0.38999999 339:0 340:0.1 341:0.19 342:0.19 343:0.28999999 344:0.38999999 345:0.19 346:0.38999999 347:0 348:0.28999999 349:0 350:0.19 351:0.1 352:0.49000001 353:0.28999999 354:0.38999999 355:0.38999999 356:0.49000001 357:0.1 358:0 359:0 360:0.1 361:0.1 362:0 363:0 364:0 365:0 366:0 367:0 368:0 369:0 370:0 371:0 372:0 373:0 374:0.1 375:0 376:0.1 377:0 378:0 379:0 380:0 381:0.1 382:0.1 383:0 384:0 385:0.1 386:0.1 387:0.19 388:0 389:0.1 390:0 391:0.1 392:0.1 393:0.19 394:0.19 395:0 396:0.1 397:0.28999999 398:0.1 399:0 400:0 #
48.077663060808930595158017240465 1:1.4299999 2:0 3:0.72000003 4:0.47999999 5:0.23999999 6:0.60000002 7:0 8:0.82999998 9:0.12 10:0.60000002 11:0.12 12:0.12 13:0.12 14:0.12 15:0.23999999 16:0.94999999 17:0.23999999 18:0.36000001 19:0 20:0 21:0.12 22:0 23:0.12 24:0.23999999 25:0 26:0.12 27:0.12 28:0 29:0.23999999 30:0.12 31:0.12 32:0 33:0.23999999 34:0 35:0.12 36:0.36000001 37:0 38:0.12 39:0 40:0.12 41:0.12 42:0 43:0.36000001 44:0.12 45:0.23999999 46:0.47999999 47:0.12 48:0 49:0.36000001 50:0.47999999 51:0.12 52:0.12 53:0.23999999 54:0.36000001 55:0.36000001 56:0.36000001 57:0.36000001 58:0.12 59:0.12 60:0.36000001 61:0.23999999 62:0 63:0 64:0.36000001 65:0 66:0.36000001 67:0.23999999 68:0.36000001 69:0 70:0.72000003 71:0.12 72:0.12 73:0.23999999 74:0 75:0.12 76:0.36000001 77:0.12 78:0.47999999 79:0.12 80:0 81:0.12 82:0 83:0.47999999 84:0.23999999 85:0.23999999 86:0.12 87:0 88:0.12 89:0.36000001 90:0.12 91:0 92:0.12 93:0 94:0.23999999 95:0 96:0.47999999 97:0 98:0.12 99:0 100:0 101:0.47999999 102:0.12 103:0.23999999 104:0.12 105:0.12 106:2.5 107:0 108:0.47999999 109:0 110:0.47999999 111:0.12 112:0.36000001 113:0.36000001 114:0.36000001 115:0.12 116:1.1900001 117:0.72000003 118:0.72000003 119:0 120:0.36000001 121:0.23999999 122:0.12 123:0.12 124:0.23999999 125:0.12 126:0 127:0.82999998 128:0.47999999 129:0 130:0.23999999 131:0.12 132:0.23999999 133:0.12 134:0.60000002 135:0 136:0.23999999 137:0 138:0.12 139:0 140:0.12 141:0.36000001 142:0.12 143:0.47999999 144:0.36000001 145:0.23999999 146:0.23999999 147:0.23999999 148:0.47999999 149:0.36000001 150:0.12 151:0.12 152:0.23999999 153:0.47999999 154:0.60000002 155:0.12 156:0.36000001 157:0.36000001 158:0 159:0 160:0.12 161:0.12 162:0.12 163:0.12 164:0 165:0.60000002 166:0.12 167:0.12 168:0.23999999 169:0.12 170:0.72000003 171:0 172:0 173:0.12 174:0.12 175:0.47999999 176:0 177:0.23999999 178:0.47999999 179:0 180:0.12 181:0.36000001 182:0.12 183:0.36000001 184:0.23999999 185:0.36000001 186:0.72000003 187:0.82999998 188:0.47999999 189:0.23999999 190:1.4299999 191:0.23999999 192:0.47999999 193:0.12 194:0.82999998 195:0.23999999 196:0.60000002 197:0.47999999 198:0.23999999 199:0.12 200:0.23999999 201:0.12 202:0.12 203:0 204:0.12 205:0 206:0 207:0.23999999 208:0.12 209:0.36000001 210:0.23999999 211:0 212:0 213:0 214:0.12 215:0.23999999 216:0.12 217:0.12 218:0 219:0 220:0.12 221:0 222:0 223:0 224:0.12 225:0 226:0.60000002 227:0 228:0.36000001 229:0.36000001 230:0.36000001 231:0.12 232:0.23999999 233:0.47999999 234:0.47999999 235:0.12 236:0.47999999 237:0.23999999 238:0.23999999 239:0 240:0.12 241:0.23999999 242:0 243:0.36000001 244:0.12 245:0 246:0.23999999 247:0.12 248:0.23999999 249:0.12 250:0.23999999 251:0.23999999 252:0 253:0.12 254:0.36000001 255:0 256:1.0700001 257:0.72000003 258:0.23999999 259:0 260:0.23999999 261:0.23999999 262:0.36000001 263:0.12 264:0.36000001 265:0 266:0.12 267:0.47999999 268:0.23999999 269:0.23999999 270:0.47999999 271:0.12 272:0.72000003 273:0.60000002 274:0.60000002 275:0.36000001 276:0.60000002 277:0.60000002 278:0.47999999 279:0 280:0 281:0.23999999 282:0.12 283:0.23999999 284:0.12 285:0.12 286:0.47999999 287:0 288:0 289:0.47999999 290:0.12 291:0.12 292:0.23999999 293:0 294:0.36000001 295:0 296:0 297:0.23999999 298:0.12 299:0 300:0 301:0.94999999 302:0.36000001 303:0.47999999 304:0.23999999 305:0.36000001 306:1.3099999 307:0 308:0.36000001 309:0.23999999 310:0.94999999 311:0 312:0.47999999 313:0.82999998 314:0.47999999 315:0 316:2.74 317:1.55 318:0.36000001 319:0.12 320:0.12 321:1.0700001 322:0.36000001 323:0.23999999 324:0 325:0 326:0.12 327:0.12 328:0.36000001 329:0.23999999 330:0.72000003 331:0 332:0.60000002 333:0.12 334:0.36000001 335:0.12 336:1.3099999 337:1.79 338:0.72000003 339:0 340:0 341:0.72000003 342:0.12 343:0.36000001 344:0.23999999 345:0 346:0.60000002 347:0.12 348:0 349:0 350:0.47999999 351:0.12 352:0.12 353:0.36000001 354:0.60000002 355:0.36000001 356:0.47999999 357:0.12 358:0.23999999 359:0 360:0.12 361:0.12 362:0 363:0 364:0 365:0 366:0 367:0 368:0 369:0 370:0 371:0.12 372:0 373:0 374:0.12 375:0 376:0.12 377:0 378:0 379:0 380:0 381:0 382:0.12 383:0 384:0.23999999 385:0.12 386:0.12 387:0.36000001 388:0.23999999 389:0.12 390:0.12 391:0 392:0.12 393:0.12 394:0 395:0 396:0.12 397:0.36000001 398:0 399:0 400:0 #
157.51670925272264867089688777924 1:0.81999999 2:0.41 3:0.81999999 4:0.41 5:0 6:0.55000001 7:0.14 8:0.27000001 9:0.14 10:0.41 11:0 12:0.27000001 13:0.14 14:0 15:0.41 16:0.68000001 17:0 18:0.41 19:0 20:0 21:0 22:0.27000001 23:0 24:0.27000001 25:0 26:0.41 27:0.14 28:0.14 29:0.14 30:0.27000001 31:0.14 32:0 33:0.27000001 34:0 35:0.14 36:0.27000001 37:0 38:0.14 39:0.27000001 40:0 41:0.41 42:0.14 43:0.41 44:0.41 45:0.14 46:0.27000001 47:0 48:0.55000001 49:0.41 50:0.81999999 51:0 52:0.14 53:0.27000001 54:0.41 55:0.27000001 56:0.27000001 57:0.27000001 58:0.14 59:0 60:0.14 61:0.55000001 62:0.14 63:0.27000001 64:0.68000001 65:0.14 66:0.14 67:0 68:0.68000001 69:0 70:0.41 71:0.14 72:0.27000001 73:0.27000001 74:0.14 75:0.14 76:0.81999999 77:0.41 78:0 79:0 80:0.14 81:0 82:0.14 83:0 84:0 85:0.14 86:0 87:0 88:0 89:0.14 90:0.14 91:0 92:0.14 93:0 94:0 95:0 96:0.41 97:0.14 98:0 99:0 100:0 101:0.41 102:0 103:0.14 104:0 105:0.14 106:1.1 107:0 108:0.68000001 109:0 110:0.95999998 111:0.14 112:0.41 113:0.27000001 114:0.14 115:0.27000001 116:1.64 117:0.95999998 118:0.95999998 119:0 120:0.14 121:0 122:0 123:0.14 124:0 125:0 126:0 127:0 128:0 129:0 130:0 131:0 132:0 133:0 134:0 135:0.14 136:0 137:0.27000001 138:0.14 139:0 140:0.14 141:0.14 142:0.14 143:0.27000001 144:0.41 145:0.14 146:0.55000001 147:0.14 148:0.41 149:0 150:0.68000001 151:0.14 152:0.68000001 153:0.27000001 154:0.27000001 155:0.41 156:0.55000001 157:0.27000001 158:0.81999999 159:0 160:0 161:0.14 162:0.41 163:0 164:0 165:0.14 166:0.27000001 167:0 168:0.27000001 169:0.14 170:0.27000001 171:0 172:0 173:0 174:0.14 175:0.27000001 176:0.14 177:0.27000001 178:0.14 179:0 180:0 181:0.41 182:0.14 183:0.95999998 184:0.41 185:0.14 186:0.81999999 187:0 188:0.41 189:0.55000001 190:1.23 191:0.55000001 192:0.27000001 193:0.68000001 194:0.27000001 195:0.81999999 196:0.81999999 197:0.68000001 198:0.81999999 199:0 200:0.14 201:0 202:0 203:0.14 204:0.27000001 205:0 206:0.27000001 207:0 208:0 209:0 210:0.41 211:0 212:0 213:0 214:0.27000001 215:0.14 216:0.14 217:0 218:0 219:0 220:0.14 221:0.41 222:0.14 223:0.27000001 224:0.14 225:0 226:0.27000001 227:0.14 228:0.27000001 229:0.14 230:0.68000001 231:0.14 232:0.81999999 233:0 234:0.27000001 235:0.27000001 236:0.68000001 237:0.41 238:0.27000001 239:0 240:0 241:0.27000001 242:0.14 243:0.41 244:0.41 245:0 246:0.41 247:0 248:0.14 249:0.14 250:0.14 251:0 252:0.55000001 253:0 254:0.14 255:0.27000001 256:0.27000001 257:0.14 258:0.14 259:0 260:0.14 261:0.27000001 262:0 263:0 264:0.27000001 265:0.14 266:0.41 267:0 268:0.27000001 269:0 270:0.68000001 271:0 272:0.27000001 273:0.14 274:0.27000001 275:0.27000001 276:0.27000001 277:0.14 278:0.27000001 279:0 280:0.14 281:0.27000001 282:0.14 283:0.14 284:0.41 285:0.14 286:0.14 287:0 288:0.41 289:0.27000001 290:0.95999998 291:0 292:0 293:0.14 294:0.41 295:0.14 296:1.1 297:0.68000001 298:0.27000001 299:0.14 300:0.41 301:0.68000001 302:0.41 303:0.68000001 304:0.41 305:0 306:1.92 307:0 308:0.55000001 309:0.27000001 310:0.95999998 311:0.41 312:0.68000001 313:0.27000001 314:0.41 315:0.81999999 316:2.3299999 317:1.37 318:0.55000001 319:0 320:0.27000001 321:0.27000001 322:0.14 323:0.41 324:0.27000001 325:0 326:0.27000001 327:0.14 328:0.81999999 329:0.27000001 330:0.41 331:0 332:0.55000001 333:0.41 334:0.14 335:0.55000001 336:1.23 337:0.95999998 338:0.95999998 339:0.14 340:0 341:0.41 342:0.14 343:0.41 344:0.55000001 345:0 346:0.41 347:0 348:0.41 349:0.14 350:0.27000001 351:0 352:0.27000001 353:0.41 354:0.27000001 355:0.41 356:1.1 357:0.81999999 358:0.27000001 359:0 360:0.27000001 361:0.14 362:0 363:0 364:0 365:0 366:0 367:0 368:0 369:0 370:0 371:0 372:0 373:0 374:0.14 375:0.14 376:0.14 377:0 378:0 379:0 380:0 381:0.27000001 382:0 383:0 384:0 385:0 386:0.14 387:0.14 388:0 389:0 390:0.41 391:0 392:0 393:0.14 394:0.14 395:0.27000001 396:0.14 397:0.14 398:0.27000001 399:0 400:0 #
15.189378004238847097440157085657 1:0.22 2:0 3:0.64999998 4:0 5:0.22 6:0.43000001 7:0 8:0 9:0.64999998 10:1.08 11:0 12:0.43000001 13:0.64999998 14:0.64999998 15:0.43000001 16:0.22 17:0 18:0.43000001 19:0 20:0 21:0 22:0 23:0 24:0.22 25:0 26:0.43000001 27:0.22 28:0 29:0.43000001 30:0.87 31:0.22 32:0 33:0.43000001 34:0 35:0.43000001 36:0 37:0.22 38:0 39:0.22 40:0 41:0.22 42:0 43:0 44:0.43000001 45:0 46:0 47:0.22 48:0.22 49:0.64999998 50:0.22 51:0 52:0 53:0 54:0.87 55:0.64999998 56:0.22 57:0 58:0.22 59:0.22 60:0.64999998 61:0.43000001 62:0 63:0.64999998 64:0.22 65:0.22 66:0 67:0 68:0 69:0.22 70:1.3 71:0.43000001 72:0 73:1.08 74:0.22 75:0 76:0.43000001 77:0.22 78:0.64999998 79:0 80:0.22 81:0 82:0.22 83:0 84:0 85:0.22 86:0.22 87:0 88:0.22 89:0.64999998 90:0.43000001 91:0 92:0 93:0 94:0.43000001 95:0 96:0.87 97:0 98:0.22 99:0 100:0 101:0.22 102:0.22 103:0.64999998 104:0 105:0.43000001 106:0.43000001 107:0 108:0 109:0.22 110:0.22 111:0.22 112:0.22 113:1.73 114:0.22 115:0.22 116:0.43000001 117:0 118:0.22 119:0 120:0.43000001 121:0.43000001 122:0.22 123:0 124:0 125:0 126:0.22 127:0 128:0.22 129:0.22 130:0.22 131:0 132:0 133:0 134:0 135:0 136:0.43000001 137:0 138:0 139:0 140:0.64999998 141:0 142:0 143:0.22 144:0.22 145:0 146:0.22 147:0 148:0 149:0.22 150:0.64999998 151:0 152:0 153:0 154:0 155:0.22 156:0.22 157:0 158:0.43000001 159:0 160:0.22 161:0.64999998 162:0.22 163:0.22 164:0.64999998 165:0.87 166:0.22 167:0.43000001 168:0.22 169:0.22 170:0.22 171:0 172:0 173:0 174:0.43000001 175:0.64999998 176:0.43000001 177:0.22 178:0.22 179:0 180:0 181:0.22 182:0.87 183:1.08 184:0.87 185:0.22 186:0.43000001 187:0.64999998 188:0.64999998 189:0.43000001 190:2.3800001 191:0 192:0.22 193:0.43000001 194:1.52 195:0.22 196:0.43000001 197:0.43000001 198:1.52 199:0 200:0.43000001 201:0.22 202:0 203:0.22 204:0 205:0 206:0.22 207:0 208:0 209:0 210:0.43000001 211:0 212:0 213:0.22 214:0.22 215:0.43000001 216:0.22 217:0.22 218:0.22 219:0 220:0.22 221:0.22 222:0.22 223:0 224:0.22 225:0 226:0.22 227:0.22 228:0 229:0.43000001 230:0.22 231:0 232:0.64999998 233:0 234:0 235:0.22 236:0 237:0 238:0.22 239:0 240:0 241:0.64999998 242:0 243:0.22 244:1.08 245:0.64999998 246:0.43000001 247:0.43000001 248:0 249:0.22 250:0.43000001 251:0.64999998 252:0.22 253:2.5999999 254:0.22 255:0.22 256:0.64999998 257:0 258:0.22 259:0 260:0.43000001 261:0.43000001 262:0 263:0 264:1.08 265:0 266:0 267:0 268:0.22 269:0.43000001 270:1.08 271:0.22 272:0.43000001 273:0.43000001 274:0.64999998 275:0.22 276:0.22 277:0.43000001 278:0.43000001 279:0 280:0.43000001 281:1.3 282:0.43000001 283:0.22 284:0 285:0.22 286:0.22 287:0 288:0.22 289:0.22 290:0.22 291:0.43000001 292:0.43000001 293:0 294:0.43000001 295:0.22 296:0 297:0.43000001 298:0 299:0 300:0 301:0 302:0.43000001 303:0.22 304:0.43000001 305:0 306:1.3 307:0 308:0.43000001 309:0 310:1.52 311:0.22 312:0.22 313:0.22 314:0.22 315:0 316:0 317:0.22 318:0.22 319:0 320:0.43000001 321:0 322:0.43000001 323:0 324:0.22 325:0.22 326:0.22 327:0 328:0.22 329:0 330:0.43000001 331:0 332:0 333:0 334:0.22 335:0 336:0 337:0 338:0.64999998 339:0 340:0 341:0.43000001 342:0.43000001 343:0.22 344:0.64999998 345:0.22 346:0.43000001 347:0 348:0 349:0.43000001 350:0.64999998 351:0 352:0 353:0.64999998 354:0.43000001 355:0.64999998 356:0.64999998 357:0 358:0 359:0 360:0 361:0.22 362:0 363:0 364:0 365:0 366:0 367:0 368:0 369:0 370:0 371:0 372:0 373:0 374:0 375:0 376:0.22 377:0 378:0 379:0 380:0 381:0.22 382:0 383:0.22 384:0 385:0 386:0.43000001 387:0.43000001 388:0 389:0.22 390:0.43000001 391:0.22 392:0 393:0.87 394:0 395:0.22 396:0.43000001 397:0.43000001 398:0 399:0 400:0 #
-46.917779418293520166116650216281 1:0.85000002 2:0 3:0.41999999 4:0.85000002 5:0 6:0 7:0 8:0.41999999 9:0.20999999 10:0.85000002 11:0 12:0 13:0.20999999 14:0.20999999 15:0.20999999 16:1.0599999 17:0 18:0.20999999 19:0 20:0.20999999 21:0.85000002 22:0 23:0 24:0.20999999 25:0 26:0.20999999 27:0 28:0.20999999 29:0.20999999 30:0.20999999 31:0 32:0 33:0 34:0.41999999 35:0.63 36:0 37:0 38:0 39:0 40:0 41:0.20999999 42:0 43:0 44:0.20999999 45:0 46:0 47:0 48:0.63 49:0.41999999 50:1.0599999 51:0 52:0 53:0 54:0.20999999 55:0.85000002 56:0 57:0.20999999 58:0.20999999 59:0.20999999 60:0.20999999 61:0.85000002 62:0 63:0.41999999 64:0.63 65:0.20999999 66:0.20999999 67:0 68:0.85000002 69:0 70:0.41999999 71:0 72:0.41999999 73:0 74:0.63 75:0.85000002 76:0.85000002 77:0 78:0.20999999 79:0.41999999 80:0.20999999 81:0.41999999 82:0 83:0.20999999 84:0 85:0.20999999 86:0.20999999 87:0.20999999 88:0.20999999 89:0.20999999 90:0 91:0 92:0.41999999 93:0.20999999 94:0.20999999 95:0 96:0.41999999 97:0.20999999 98:0 99:0 100:0 101:0 102:0.20999999 103:0.41999999 104:0 105:0.41999999 106:0.85000002 107:0 108:0.41999999 109:0.20999999 110:0.41999999 111:0.20999999 112:0 113:0 114:0.20999999 115:0 116:0 117:0.20999999 118:0.20999999 119:0.20999999 120:0.41999999 121:0 122:0.20999999 123:0 124:0.20999999 125:0.20999999 126:0 127:0.20999999 128:0.41999999 129:0 130:0.20999999 131:0 132:0.20999999 133:0.20999999 134:0 135:0 136:0 137:0 138:0.20999999 139:0 140:0.20999999 141:0.85000002 142:0.41999999 143:0.41999999 144:0.20999999 145:0.41999999 146:0.41999999 147:0 148:0.85000002 149:0.20999999 150:0.85000002 151:0 152:0.41999999 153:0.41999999 154:0.20999999 155:0.63 156:0.20999999 157:1.0599999 158:0 159:0 160:0.20999999 161:0 162:0.20999999 163:0.41999999 164:0 165:0 166:0.20999999 167:0.41999999 168:0.20999999 169:0 170:0.41999999 171:0.20999999 172:0 173:0 174:0 175:1.0599999 176:0.20999999 177:0 178:0.41999999 179:0 180:0 181:0.20999999 182:0.41999999 183:0.20999999 184:1.0599999 185:0.20999999 186:0.20999999 187:0.20999999 188:0.85000002 189:0.20999999 190:1.0599999 191:0.41999999 192:0.20999999 193:0.41999999 194:0.20999999 195:1.27 196:0.20999999 197:0.85000002 198:0.20999999 199:0.20999999 200:0.41999999 201:0 202:0 203:0.20999999 204:0.63 205:0 206:0.20999999 207:0 208:0.20999999 209:0.20999999 210:0.63 211:0 212:0.41999999 213:0.20999999 214:0 215:0 216:0 217:0.41999999 218:0.41999999 219:0 220:0 221:0 222:0.20999999 223:0.63 224:0.41999999 225:0 226:0.41999999 227:0.20999999 228:0.41999999 229:0.41999999 230:0.20999999 231:0.41999999 232:0.41999999 233:0.41999999 234:0 235:0.41999999 236:0 237:0.20999999 238:0.41999999 239:0 240:0.20999999 241:0.41999999 242:0 243:0 244:0.63 245:0 246:0 247:0 248:0.20999999 249:0 250:0 251:0 252:0.20999999 253:0 254:0 255:0 256:0.63 257:0.85000002 258:0.20999999 259:0 260:0 261:0.20999999 262:0 263:0 264:0.63 265:0.20999999 266:0.20999999 267:0.20999999 268:0 269:0.20999999 270:0.41999999 271:0.63 272:0.20999999 273:0.20999999 274:0.20999999 275:0.63 276:0.41999999 277:0.20999999 278:0 279:0 280:0.20999999 281:0.41999999 282:0.41999999 283:0.41999999 284:0.41999999 285:0.41999999 286:0 287:0.20999999 288:0.85000002 289:0.63 290:0.41999999 291:0.63 292:1.0599999 293:0.20999999 294:0.63 295:0 296:0.63 297:0.20999999 298:0.20999999 299:0 300:0.20999999 301:0 302:0.20999999 303:0.20999999 304:0.20999999 305:0.20999999 306:0.63 307:0 308:0.20999999 309:0 310:0.85000002 311:0.41999999 312:1.27 313:0 314:0.63 315:0.41999999 316:0.85000002 317:1.27 318:0.41999999 319:0 320:0.20999999 321:0 322:0 323:0.20999999 324:0 325:0 326:0 327:0.20999999 328:0.63 329:0.63 330:0.41999999 331:0 332:0 333:0.41999999 334:0.63 335:0 336:1.48 337:1.48 338:0.63 339:0.20999999 340:0.20999999 341:0 342:0.20999999 343:0.20999999 344:0.63 345:0 346:0.20999999 347:0 348:0.20999999 349:0 350:0.41999999 351:0.41999999 352:0 353:0 354:0.20999999 355:0.41999999 356:0.85000002 357:0 358:0.20999999 359:0 360:0.20999999 361:0.20999999 362:0 363:0 364:0 365:0.41999999 366:0 367:0.20999999 368:0 369:0 370:0 371:0 372:0 373:0.20999999 374:0.20999999 375:0 376:0 377:0 378:0 379:0 380:0 381:0.20999999 382:0.41999999 383:0 384:0.20999999 385:0.20999999 386:0.41999999 387:0.20999999 388:0 389:0 390:0.20999999 391:0 392:0.20999999 393:0 394:0 395:0.63 396:0.20999999 397:0 398:0 399:0 400:0.20999999 #
-50 1:0.30000001 2:0.30000001 3:0.30000001 4:0.30000001 5:0.44999999 6:0.60000002 7:0 8:0.30000001 9:0.15000001 10:0.15000001 11:0.15000001 12:0 13:0.15000001 14:0 15:0.44999999 16:0.89999998 17:0.30000001 18:0.44999999 19:0.15000001 20:0 21:0.15000001 22:0 23:0.15000001 24:0.15000001 25:0.30000001 26:0.30000001 27:0.15000001 28:0.15000001 29:0.15000001 30:0.30000001 31:0.15000001 32:0 33:0.15000001 34:0.30000001 35:0.15000001 36:0.30000001 37:0.30000001 38:0 39:0 40:0 41:0.15000001 42:0.15000001 43:0.44999999 44:0.75 45:0.44999999 46:0.60000002 47:0 48:0 49:0.15000001 50:0.30000001 51:0.15000001 52:0.15000001 53:0.15000001 54:0.89999998 55:0.30000001 56:0.44999999 57:0.44999999 58:0 59:0 60:0 61:0.60000002 62:0 63:0 64:0.15000001 65:0.30000001 66:0.30000001 67:0 68:0.30000001 69:0.15000001 70:0.60000002 71:0.30000001 72:0.30000001 73:0.15000001 74:0.15000001 75:0 76:0.44999999 77:0.15000001 78:0 79:0 80:0.15000001 81:0.15000001 82:0.15000001 83:0.15000001 84:0.15000001 85:0.15000001 86:0.30000001 87:0.15000001 88:0.15000001 89:0.30000001 90:0.30000001 91:0 92:0 93:0.44999999 94:0 95:0.30000001 96:0.75 97:0 98:0.30000001 99:0 100:0.44999999 101:0.60000002 102:0.15000001 103:0.60000002 104:0.15000001 105:0.30000001 106:1.05 107:0 108:0 109:0.44999999 110:0.60000002 111:0.30000001 112:0.30000001 113:0 114:0.30000001 115:0.30000001 116:1.2 117:0.44999999 118:0.75 119:0.15000001 120:0.30000001 121:0 122:0 123:0.15000001 124:0.15000001 125:0.15000001 126:0 127:0 128:0 129:0.15000001 130:0.15000001 131:0 132:0.15000001 133:0 134:0.15000001 135:0 136:0 137:0 138:0 139:0 140:0.15000001 141:0 142:0.15000001 143:0.15000001 144:0.15000001 145:0 146:0.30000001 147:0 148:0.30000001 149:0.30000001 150:0 151:0.15000001 152:0.30000001 153:0 154:0.15000001 155:0.30000001 156:0.60000002 157:0 158:0.15000001 159:0 160:0.15000001 161:0.75 162:0.15000001 163:0.44999999 164:0.30000001 165:0.15000001 166:0.15000001 167:0 168:0.30000001 169:0.15000001 170:0.75 171:0.15000001 172:0.15000001 173:0.44999999 174:0.15000001 175:0.30000001 176:0.44999999 177:0.15000001 178:0.44999999 179:0.15000001 180:0 181:0.75 182:0.60000002 183:0.60000002 184:0.15000001 185:0.60000002 186:0.75 187:0.15000001 188:0.15000001 189:0.60000002 190:1.8 191:0.15000001 192:0.44999999 193:0.75 194:0.44999999 195:0 196:0.89999998 197:0.75 198:0.60000002 199:0 200:0.15000001 201:0.15000001 202:0 203:0.44999999 204:0.15000001 205:0 206:0 207:0.15000001 208:0 209:0.30000001 210:0.60000002 211:0 212:0.15000001 213:0.15000001 214:0.15000001 215:0.30000001 216:0.60000002 217:0.60000002 218:0.30000001 219:0 220:0 221:0 222:0.15000001 223:0.15000001 224:0 225:0 226:0.15000001 227:0 228:0.15000001 229:0.15000001 230:0.44999999 231:0.15000001 232:0.15000001 233:0.15000001 234:0.30000001 235:0.30000001 236:0.75 237:0.60000002 238:0 239:0.15000001 240:0.15000001 241:0.30000001 242:0 243:0.44999999 244:0.30000001 245:0 246:0.30000001 247:0 248:0.15000001 249:0.44999999 250:0.44999999 251:0.44999999 252:0.15000001 253:0.15000001 254:0.15000001 255:0.15000001 256:0.60000002 257:0.44999999 258:0 259:0 260:0.15000001 261:0.15000001 262:0.44999999 263:0.60000002 264:0.30000001 265:0 266:0.30000001 267:0.15000001 268:0 269:0.60000002 270:0.60000002 271:0.44999999 272:0.30000001 273:0.15000001 274:0.44999999 275:0.15000001 276:0.15000001 277:0 278:0.30000001 279:0 280:0 281:0.15000001 282:0 283:0.15000001 284:0.15000001 285:0.30000001 286:0.30000001 287:0 288:0.15000001 289:0.44999999 290:0.44999999 291:0.30000001 292:0.30000001 293:0.15000001 294:0.15000001 295:0.15000001 296:0.44999999 297:0.15000001 298:0 299:0 300:0 301:0.44999999 302:0.44999999 303:0.60000002 304:0.30000001 305:0.30000001 306:1.35 307:0.15000001 308:0.30000001 309:0.30000001 310:1.05 311:0.60000002 312:0.60000002 313:0.75 314:0.60000002 315:0.15000001 316:2.54 317:1.35 318:0.44999999 319:0.15000001 320:0.75 321:0.44999999 322:0.15000001 323:0 324:0.15000001 325:0.30000001 326:0.44999999 327:0.15000001 328:0.15000001 329:0.30000001 330:1.05 331:0.30000001 332:0.15000001 333:0.44999999 334:0.15000001 335:0.15000001 336:1.35 337:1.5 338:0.30000001 339:0 340:0 341:0 342:0.30000001 343:0 344:0.30000001 345:0.44999999 346:0.44999999 347:0 348:0.30000001 349:0.60000002 350:0.30000001 351:0 352:0.15000001 353:0.30000001 354:0.15000001 355:0.15000001 356:0.60000002 357:0.15000001 358:0.15000001 359:0 360:0 361:0.15000001 362:0 363:0 364:0 365:0 366:0 367:0 368:0 369:0 370:0.15000001 371:0 372:0.15000001 373:0 374:0.15000001 375:0.15000001 376:0 377:0 378:0 379:0 380:0 381:0.15000001 382:0 383:0.15000001 384:0 385:0 386:0.30000001 387:0.15000001 388:0.30000001 389:0 390:0.30000001 391:0.15000001 392:0 393:0.15000001 394:0.30000001 395:0 396:0.15000001 397:0.15000001 398:0.15000001 399:0 400:0 #
-6.3210073940388156188419088721275 1:0 2:0.23 3:0.46000001 4:0.23 5:0.23 6:0.23 7:0.23 8:0.46000001 9:0 10:0.23 11:0 12:0.23 13:0 14:0 15:0 16:0 17:0.23 18:0 19:0 20:0 21:0 22:0 23:0.23 24:0.23 25:0 26:0.23 27:0 28:0 29:0.46000001 30:0.92000002 31:0.23 32:0.23 33:0 34:0.46000001 35:0.46000001 36:0.23 37:0 38:0.23 39:0 40:0 41:0 42:0 43:0.23 44:0.69 45:0.23 46:0.69 47:0.23 48:0.46000001 49:0.23 50:0.69 51:0 52:0 53:0.23 54:0.46000001 55:0.46000001 56:0.23 57:0.23 58:0.23 59:0 60:0.23 61:0.23 62:0 63:1.38 64:0.92000002 65:0.23 66:0.23 67:0 68:0.23 69:0 70:1.15 71:0 72:0 73:0.23 74:0.46000001 75:0.46000001 76:0.23 77:0 78:0.46000001 79:0 80:0.46000001 81:0.23 82:0.23 83:0 84:0.23 85:0.46000001 86:0.46000001 87:0 88:0 89:0.46000001 90:0.46000001 91:0 92:0 93:0.23 94:0 95:0.46000001 96:0.69 97:0.23 98:0 99:0 100:0 101:0 102:0.23 103:0.69 104:0 105:0.46000001 106:0.23 107:0 108:0.46000001 109:0.23 110:0.23 111:0.69 112:0.23 113:0.46000001 114:0.23 115:0.23 116:0.23 117:0.23 118:0.23 119:0 120:0.23 121:0 122:0 123:0 124:0 125:0 126:0 127:0 128:0 129:0 130:0.23 131:0 132:0 133:0.23 134:0.23 135:0.23 136:0.46000001 137:0.23 138:0 139:0 140:0.46000001 141:0.23 142:0.46000001 143:0 144:0.69 145:0.23 146:0.23 147:0 148:0.23 149:0.23 150:0.23 151:0.23 152:0.46000001 153:0.23 154:0.23 155:0.23 156:0.69 157:0.23 158:0 159:0 160:0.23 161:0.69 162:0.23 163:0.23 164:0.23 165:0.23 166:0.23 167:0 168:0 169:0.23 170:0.46000001 171:0 172:0.23 173:0 174:0.46000001 175:0.69 176:0.23 177:0.23 178:0.46000001 179:0 180:0.23 181:0.46000001 182:0.23 183:0.23 184:0.23 185:1.15 186:0.23 187:0.69 188:1.38 189:0.46000001 190:1.61 191:0.23 192:0.69 193:0.92000002 194:0.23 195:0.23 196:0.92000002 197:0.69 198:0.23 199:0 200:0 201:0 202:0.23 203:0.23 204:0.69 205:0 206:0.23 207:0.23 208:0 209:0.23 210:0.23 211:0.23 212:0.23 213:0.23 214:0 215:0 216:0.46000001 217:0 218:0 219:0 220:0 221:0 222:0.23 223:0 224:0.23 225:0.23 226:0.69 227:0 228:0 229:0.69 230:0 231:0 232:0.23 233:0 234:0.69 235:0.69 236:0 237:0.23 238:0.23 239:0 240:0 241:0 242:0 243:0.23 244:0.23 245:0.23 246:0.69 247:0.46000001 248:0 249:0 250:0.69 251:0.46000001 252:0.23 253:0 254:0.23 255:0 256:0.69 257:0.46000001 258:0.46000001 259:0 260:0 261:0 262:0 263:0.46000001 264:0.46000001 265:0 266:0.23 267:0 268:0.69 269:0 270:0.92000002 271:0.23 272:0 273:0.46000001 274:0 275:0.46000001 276:0.69 277:0 278:0.23 279:0 280:0.69 281:0.46000001 282:0.46000001 283:0.46000001 284:0.23 285:0.46000001 286:0 287:0 288:0.23 289:0.69 290:0.69 291:0 292:0.46000001 293:0 294:0.23 295:0 296:0.69 297:0 298:0.46000001 299:0 300:0.69 301:0.23 302:0.46000001 303:0.46000001 304:0.92000002 305:0 306:0.23 307:0.23 308:0.69 309:0.46000001 310:0.92000002 311:0.23 312:0.69 313:0.69 314:0.46000001 315:0.92000002 316:1.15 317:0.69 318:0.23 319:0.23 320:0.23 321:0.23 322:0.23 323:0 324:0.23 325:0 326:0.23 327:0 328:0 329:0.23 330:0.46000001 331:0 332:0 333:0.69 334:0.46000001 335:0 336:0.69 337:0.46000001 338:0 339:0.69 340:0.23 341:0 342:0.46000001 343:0.23 344:0.23 345:0 346:0 347:0 348:0 349:0.23 350:0 351:0.46000001 352:0.23 353:0.23 354:0.23 355:0.23 356:0.92000002 357:0.46000001 358:0 359:0 360:0.23 361:0 362:0 363:0 364:0.23 365:0 366:0 367:0 368:0 369:0 370:0 371:0 372:0 373:0 374:0.23 375:0 376:0.23 377:0 378:0.23 379:0 380:0.23 381:0 382:0.23 383:0 384:0 385:0 386:0.23 387:0 388:0.23 389:0.23 390:0.69 391:0 392:0 393:0.23 394:0.23 395:0.46000001 396:0.69 397:0.23 398:0.46000001 399:0.23 400:0 #
178.61893554316247900715097784996 1:1.36 2:0.12 3:0.37 4:0.37 5:0.12 6:0.74000001 7:0.37 8:0.25 9:0.12 10:0.25 11:0.12 12:0.37 13:0.5 14:0.25 15:0.37 16:1.12 17:0.25 18:0.37 19:0 20:0.12 21:0.12 22:0.12 23:0 24:0.37 25:0.12 26:0.12 27:0 28:0.12 29:0.25 30:0.25 31:0 32:0.12 33:0.25 34:0.37 35:0.12 36:0.25 37:0.12 38:0.12 39:0 40:0.25 41:0.25 42:0 43:0.12 44:0.12 45:0.12 46:0.12 47:0.25 48:0 49:0.25 50:0.25 51:0 52:0.12 53:0.12 54:0.25 55:0.25 56:0.37 57:0.62 58:0.12 59:0 60:0 61:0.5 62:0.12 63:0.12 64:0.5 65:0.12 66:0.12 67:0.25 68:0.25 69:0.37 70:1.36 71:0.5 72:0.37 73:0.25 74:0.12 75:0.12 76:0.25 77:0.12 78:0.25 79:0 80:0.12 81:0.12 82:0 83:0 84:0.25 85:0.12 86:0.25 87:0.12 88:0 89:0.25 90:0 91:0 92:0.12 93:0 94:0 95:0.12 96:0.37 97:0 98:0 99:0 100:0 101:0.37 102:0 103:0.25 104:0.87 105:0.37 106:0.87 107:0.25 108:0.37 109:0.25 110:0.37 111:0.12 112:0.25 113:0.37 114:0.12 115:0.25 116:0.87 117:0.37 118:0.12 119:0 120:0.12 121:0.5 122:0 123:0 124:0 125:0 126:0.25 127:0.25 128:0 129:0 130:0.5 131:0 132:0.12 133:0.12 134:0.25 135:0.25 136:0.62 137:0 138:0 139:0 140:0.25 141:0.37 142:0.25 143:0.25 144:0.25 145:0.12 146:0 147:0.12 148:0 149:0.74000001 150:0 151:0.12 152:0.5 153:0.37 154:0.25 155:0.12 156:0.5 157:0.12 158:0.25 159:0 160:0.12 161:0.25 162:0.5 163:0 164:0.12 165:0.25 166:0.25 167:0 168:0.37 169:0.12 170:0.25 171:0.12 172:0.37 173:0 174:0.12 175:0.12 176:0.62 177:0.25 178:0.62 179:0.12 180:0 181:0.74000001 182:0.12 183:0.25 184:0.25 185:0.25 186:0.62 187:0.12 188:0.37 189:0.37 190:1.49 191:0.25 192:0.25 193:0.74000001 194:1.12 195:0.74000001 196:1.12 197:0.5 198:0 199:0.12 200:0.25 201:0.12 202:0.12 203:0.25 204:0.37 205:0 206:0 207:0 208:0 209:0.37 210:0.37 211:0 212:0 213:0.12 214:0.12 215:0 216:0.37 217:0 218:0.12 219:0 220:0 221:0.12 222:0 223:0 224:0 225:0 226:0.74000001 227:0.25 228:0.37 229:0 230:0.74000001 231:0.37 232:0.12 233:0.37 234:0.12 235:0.12 236:0.62 237:0.25 238:0.25 239:0 240:0.25 241:0.74000001 242:0.37 243:0.62 244:0 245:0 246:0.12 247:0.12 248:0.62 249:0 250:1.36 251:0.12 252:0.37 253:0.5 254:0.25 255:0.12 256:0.87 257:0.5 258:0.37 259:0 260:0.12 261:0.5 262:0.12 263:0 264:0.62 265:0 266:0.12 267:0.12 268:0.25 269:0.12 270:0.5 271:0.12 272:0.25 273:0.5 274:0.5 275:0.25 276:0.87 277:0.12 278:0.25 279:0 280:0.12 281:0 282:0 283:0.12 284:0.37 285:0.12 286:0.37 287:0.37 288:0.37 289:0.37 290:0.37 291:0.12 292:0.12 293:0.12 294:0.25 295:0.37 296:0.37 297:0.62 298:0.12 299:0 300:0.12 301:0.62 302:0.5 303:0.62 304:0.5 305:0 306:1.12 307:0.25 308:0.62 309:0.25 310:0.87 311:0.25 312:0.62 313:1.49 314:0.5 315:0.5 316:2.5999999 317:0.5 318:0.5 319:0.25 320:0.25 321:0.12 322:0.25 323:0.25 324:0.37 325:0 326:0.37 327:0.25 328:0.25 329:0.12 330:0.62 331:0 332:0.37 333:0.37 334:0.25 335:0.37 336:0.5 337:0.74000001 338:0.5 339:0 340:0.12 341:0.74000001 342:0.25 343:0.12 344:0.25 345:0 346:0.12 347:0.12 348:0.25 349:0.37 350:0.12 351:0 352:0.25 353:0.74000001 354:0.12 355:0.37 356:0.25 357:0.12 358:0.12 359:0 360:0.12 361:0 362:0.25 363:0 364:0.12 365:0 366:0 367:0 368:0 369:0 370:0 371:0 372:0 373:0 374:0.12 375:0 376:0 377:0 378:0 379:0 380:0 381:0 382:0 383:0 384:0.12 385:0 386:0.25 387:0 388:0 389:0.12 390:0 391:0 392:0 393:0.25 394:0.25 395:0.12 396:0.25 397:0.62 398:0.37 399:0 400:0 #
42.210217667882375280896667391062 1:0.37 2:0 3:0.74000001 4:0.37 5:0 6:0.55000001 7:0 8:0.18000001 9:0 10:0.55000001 11:0 12:0 13:0.55000001 14:0.37 15:0.55000001 16:0.37 17:0.55000001 18:0.37 19:0 20:0 21:0 22:0 23:0 24:0.37 25:0.37 26:0.18000001 27:0 28:0 29:0.37 30:0.37 31:0 32:0 33:0.37 34:0.18000001 35:0.18000001 36:0 37:0 38:0.37 39:0 40:0 41:0 42:0 43:0.37 44:0.18000001 45:0.18000001 46:0.18000001 47:0.18000001 48:0.18000001 49:0.37 50:1.1 51:0 52:0 53:0.18000001 54:0.37 55:0.92000002 56:0.37 57:0.18000001 58:0.18000001 59:0.18000001 60:0.18000001 61:0.18000001 62:0 63:0 64:0.37 65:0 66:0.37 67:0 68:0.37 69:0.18000001 70:0.92000002 71:0.18000001 72:0.18000001 73:0 74:0 75:0 76:0.18000001 77:0.37 78:0.55000001 79:0.18000001 80:0 81:0.37 82:0 83:0.37 84:0.18000001 85:0.37 86:0.18000001 87:0.18000001 88:0.18000001 89:0.37 90:0.18000001 91:0 92:0 93:0.18000001 94:0.37 95:0 96:0.18000001 97:0.18000001 98:0.18000001 99:0 100:0 101:0.74000001 102:0 103:0.18000001 104:0.37 105:0.18000001 106:1.47 107:0 108:0.74000001 109:0 110:0.55000001 111:0.18000001 112:0 113:0.55000001 114:0.18000001 115:0.92000002 116:0.55000001 117:0.37 118:0.55000001 119:0 120:0.18000001 121:0.18000001 122:0 123:0 124:0 125:0.18000001 126:0 127:0.18000001 128:0.18000001 129:0 130:0.37 131:0 132:0.37 133:0.18000001 134:0.18000001 135:0 136:0.37 137:0.37 138:0.37 139:0 140:0.18000001 141:0.37 142:0 143:0.37 144:0.37 145:0 146:0 147:0.18000001 148:0.37 149:0.18000001 150:0.92000002 151:0 152:0.18000001 153:0 154:0.18000001 155:0.18000001 156:0.18000001 157:0 158:0 159:0 160:0.18000001 161:0 162:0.18000001 163:0.18000001 164:0.37 165:0.55000001 166:0.37 167:0.18000001 168:0 169:0.18000001 170:0.92000002 171:0 172:0 173:0 174:0 175:0.74000001 176:0 177:0.18000001 178:0.74000001 179:0 180:0.18000001 181:0.74000001 182:0.18000001 183:0.37 184:0.37 185:0.74000001 186:0.37 187:0.55000001 188:0.18000001 189:0.18000001 190:2.21 191:0.55000001 192:0.55000001 193:0.74000001 194:0.92000002 195:0.55000001 196:0.74000001 197:0.18000001 198:0.37 199:0.18000001 200:0.37 201:0 202:0.18000001 203:0.37 204:0.18000001 205:0 206:0 207:0 208:0 209:0.37 210:0.18000001 211:0 212:0 213:0 214:0 215:0.18000001 216:0 217:0 218:0 219:0 220:0.18000001 221:0.18000001 222:0 223:0 224:0 225:0.18000001 226:0.55000001 227:0 228:0 229:0.55000001 230:0.18000001 231:0 232:0 233:0.18000001 234:0.55000001 235:0.18000001 236:0.18000001 237:0 238:0 239:0 240:0 241:0.18000001 242:0.18000001 243:0.55000001 244:0.37 245:0.18000001 246:0.55000001 247:0.55000001 248:0.18000001 249:0 250:0.18000001 251:0.18000001 252:0.18000001 253:0.74000001 254:0 255:0.92000002 256:0.55000001 257:0.37 258:0.37 259:0.18000001 260:0.18000001 261:0.18000001 262:0.37 263:0.18000001 264:0.18000001 265:0.18000001 266:0.18000001 267:0.18000001 268:0.18000001 269:0.74000001 270:0.55000001 271:0.18000001 272:0.55000001 273:0.18000001 274:0.37 275:0.55000001 276:0.18000001 277:0.55000001 278:0.18000001 279:0 280:0 281:0.55000001 282:0.18000001 283:0.37 284:0.18000001 285:0.37 286:0.55000001 287:0.37 288:0.18000001 289:0.55000001 290:0.37 291:0.18000001 292:0.37 293:0.92000002 294:0.55000001 295:2.21 296:0.37 297:0.55000001 298:0.55000001 299:0.18000001 300:0 301:0.37 302:0.55000001 303:0.55000001 304:0 305:0 306:1.29 307:0.18000001 308:0.18000001 309:0 310:0.55000001 311:0 312:0 313:0.37 314:0.37 315:0.55000001 316:0.92000002 317:0.55000001 318:0.18000001 319:0.18000001 320:0 321:0.18000001 322:0.37 323:0 324:0 325:0 326:0.55000001 327:0.18000001 328:0.18000001 329:0.18000001 330:0.55000001 331:0 332:0.18000001 333:1.1 334:0.55000001 335:0 336:0.74000001 337:0.92000002 338:0.37 339:0 340:0.18000001 341:0.92000002 342:0.37 343:0.74000001 344:0.18000001 345:0 346:0.18000001 347:0 348:0.18000001 349:0.18000001 350:0.18000001 351:0 352:0 353:0.18000001 354:0.18000001 355:0.74000001 356:0.55000001 357:0.55000001 358:0.18000001 359:0 360:0.37 361:0 362:0 363:0 364:0 365:0 366:0 367:0 368:0 369:0 370:0 371:0 372:0 373:0.18000001 374:0.37 375:0.18000001 376:0.18000001 377:0 378:0.18000001 379:0 380:0 381:0 382:0.18000001 383:0 384:0 385:0 386:0.18000001 387:0.18000001 388:0.18000001 389:0.37 390:0.18000001 391:0 392:0.18000001 393:0.18000001 394:0 395:0 396:0.18000001 397:0.37 398:0 399:0 400:0.18000001 #
75.561607247326037395396269857883 1:0 2:0.20999999 3:0.43000001 4:0.43000001 5:0 6:0.43000001 7:0.20999999 8:0 9:0.20999999 10:0.86000001 11:0 12:0 13:0.43000001 14:0 15:0.43000001 16:0.86000001 17:0.20999999 18:0.20999999 19:0 20:0 21:0.43000001 22:0 23:0.43000001 24:0.20999999 25:0 26:0.43000001 27:0 28:0.20999999 29:0.43000001 30:0.86000001 31:0 32:0.20999999 33:0.43000001 34:0 35:0.43000001 36:0.20999999 37:0.43000001 38:0 39:0.20999999 40:0 41:0 42:0.20999999 43:0 44:0.20999999 45:0 46:0 47:0.20999999 48:0.43000001 49:0.20999999 50:0.63999999 51:0.20999999 52:0 53:0.20999999 54:0.43000001 55:0.63999999 56:0.20999999 57:0 58:0.43000001 59:0 60:0.20999999 61:0.43000001 62:0 63:0.43000001 64:0.20999999 65:0.20999999 66:0.43000001 67:0.63999999 68:0 69:0.63999999 70:1.28 71:0.43000001 72:0 73:0 74:0.20999999 75:0 76:0.43000001 77:0 78:0 79:0.20999999 80:0.20999999 81:0.63999999 82:0.20999999 83:0 84:0 85:0.43000001 86:0.20999999 87:0 88:0 89:0.43000001 90:0.20999999 91:0 92:0.20999999 93:0 94:0.20999999 95:0.20999999 96:0.63999999 97:0.63999999 98:0 99:0 100:0 101:0.43000001 102:0 103:0.43000001 104:0.20999999 105:0.63999999 106:0.20999999 107:0.20999999 108:0.20999999 109:0.43000001 110:0.63999999 111:0.43000001 112:0.20999999 113:0.43000001 114:0.43000001 115:0.20999999 116:0.20999999 117:0 118:0 119:0 120:0.20999999 121:0.43000001 122:0.20999999 123:0.20999999 124:0 125:0.20999999 126:0.20999999 127:0 128:0.43000001 129:0 130:0.63999999 131:0.43000001 132:0 133:0.20999999 134:0.43000001 135:0.20999999 136:0.63999999 137:0 138:0.20999999 139:0 140:0.20999999 141:0 142:0.20999999 143:0.20999999 144:0.43000001 145:0 146:0 147:0 148:0.20999999 149:0.20999999 150:0.63999999 151:0 152:0.20999999 153:0 154:0.20999999 155:0.20999999 156:0.20999999 157:0.43000001 158:0.20999999 159:0 160:0.63999999 161:0.20999999 162:0.43000001 163:0 164:0.20999999 165:0.43000001 166:0.20999999 167:0.63999999 168:0.20999999 169:0.20999999 170:0.86000001 171:0 172:0 173:0 174:0.43000001 175:0.43000001 176:0 177:0 178:0.43000001 179:0 180:0.20999999 181:0.43000001 182:1.0700001 183:0.43000001 184:0.86000001 185:0.43000001 186:0 187:1.5 188:0.63999999 189:0.63999999 190:2.78 191:0.63999999 192:0.20999999 193:0.63999999 194:0.86000001 195:0.43000001 196:1.0700001 197:0.86000001 198:0.63999999 199:0 200:0.20999999 201:0.43000001 202:0.20999999 203:0.20999999 204:0.20999999 205:0 206:0 207:0 208:0.20999999 209:0 210:0.43000001 211:0 212:0 213:0.20999999 214:0 215:0.43000001 216:0.43000001 217:0 218:0 219:0 220:0 221:0 222:0.20999999 223:0.20999999 224:0 225:0 226:0 227:0 228:0 229:0.43000001 230:0.20999999 231:0 232:0.43000001 233:0.63999999 234:0 235:0 236:0.43000001 237:0 238:0 239:0.20999999 240:0 241:0.20999999 242:0.20999999 243:0.43000001 244:0 245:0.63999999 246:0.86000001 247:0 248:0.43000001 249:0 250:0.43000001 251:0 252:0 253:0.43000001 254:0.43000001 255:0 256:0.86000001 257:0 258:0.20999999 259:0 260:0 261:0.20999999 262:0.20999999 263:0.20999999 264:1.0700001 265:0 266:0.20999999 267:0 268:0.20999999 269:0.20999999 270:0.86000001 271:0.20999999 272:0.43000001 273:0.20999999 274:0 275:0.86000001 276:0 277:0.20999999 278:0.63999999 279:0 280:0.20999999 281:0.43000001 282:0.43000001 283:0.20999999 284:0 285:0.20999999 286:0.43000001 287:0.20999999 288:0.20999999 289:0.43000001 290:0.63999999 291:0.20999999 292:0.20999999 293:0.20999999 294:0.43000001 295:0 296:0.20999999 297:0.43000001 298:0 299:0 300:0 301:0 302:0.43000001 303:0.20999999 304:0.63999999 305:0.20999999 306:0.86000001 307:0.63999999 308:0.20999999 309:0 310:1.28 311:0 312:0.43000001 313:0.63999999 314:0 315:0.20999999 316:1.28 317:0.86000001 318:0.43000001 319:0.43000001 320:0.20999999 321:0.43000001 322:0.20999999 323:0 324:0.20999999 325:0.43000001 326:0.43000001 327:0.20999999 328:0.20999999 329:0 330:0.43000001 331:0 332:0 333:0.43000001 334:0.86000001 335:0 336:0.63999999 337:0 338:0.20999999 339:0 340:0 341:0 342:0.20999999 343:0.20999999 344:0.63999999 345:0.20999999 346:0.43000001 347:0 348:0 349:0.20999999 350:0.20999999 351:0 352:0 353:0 354:0.63999999 355:0.20999999 356:0.43000001 357:0.20999999 358:0 359:0 360:0 361:0.43000001 362:0 363:0 364:0.20999999 365:0 366:0 367:0 368:0 369:0 370:0 371:0 372:0 373:0 374:0 375:0 376:0.20999999 377:0.20999999 378:0 379:0 380:0 381:0 382:0.20999999 383:0 384:0 385:0 386:0.20999999 387:0.20999999 388:0.20999999 389:0.20999999 390:0.43000001 391:0 392:0.20999999 393:0 394:0.43000001 395:0 396:0 397:0.20999999 398:0 399:0 400:0 #
-24.141930624845599595573730766773 1:1.88 2:0 3:0.13 4:0.54000002 5:0.81 6:1.34 7:0.27000001 8:0.13 9:0.27000001 10:0.67000002 11:0.13 12:0.40000001 13:1.21 14:0.67000002 15:0.13 16:2.28 17:0.40000001 18:0.67000002 19:0.13 20:0.13 21:0.13 22:0 23:0 24:0.27000001 25:0 26:0.27000001 27:0 28:0 29:0.13 30:0.27000001 31:0.13 32:0 33:0.27000001 34:0.27000001 35:0.27000001 36:0.13 37:0 38:0.27000001 39:0 40:0 41:0.13 42:0 43:0.13 44:0.13 45:0 46:0 47:0.27000001 48:0.27000001 49:0.13 50:0.40000001 51:0.40000001 52:0.13 53:0.13 54:0.27000001 55:0.13 56:0.27000001 57:0 58:0.27000001 59:0 60:0 61:0.27000001 62:0.13 63:0.13 64:0 65:0 66:0.13 67:0 68:0 69:0.13 70:0.67000002 71:0.13 72:0 73:0.27000001 74:0.40000001 75:0 76:0.13 77:0 78:0 79:0.13 80:0.13 81:0 82:0 83:0.27000001 84:0 85:0.40000001 86:0.40000001 87:0.27000001 88:0 89:0.13 90:0 91:0.27000001 92:0.27000001 93:0.13 94:0.13 95:0 96:0.27000001 97:0.27000001 98:0.13 99:0 100:0 101:0.40000001 102:0.27000001 103:0.40000001 104:0 105:0.27000001 106:1.34 107:1.0700001 108:0.40000001 109:0.40000001 110:0.67000002 111:0.27000001 112:0 113:0.13 114:0.67000002 115:0.13 116:2.6800001 117:0.27000001 118:0.67000002 119:0 120:0 121:0.54000002 122:0 123:0 124:0.13 125:0 126:0.40000001 127:0.54000002 128:0.13 129:0 130:0.40000001 131:0 132:0.13 133:0.13 134:0 135:0.13 136:0.81 137:0 138:0.27000001 139:0 140:0.27000001 141:0.27000001 142:0.13 143:0.40000001 144:0.13 145:0.13 146:0.13 147:0 148:0 149:0.54000002 150:0.13 151:0.13 152:0 153:0.13 154:0 155:0.13 156:0.13 157:0 158:0.13 159:0 160:0 161:0.27000001 162:0.13 163:0.13 164:0.13 165:0 166:0.40000001 167:0.13 168:0 169:0.13 170:0.27000001 171:0.13 172:0.13 173:0 174:0.27000001 175:0.13 176:0.40000001 177:0 178:0.13 179:0 180:0 181:1.21 182:0 183:0.27000001 184:0 185:0.40000001 186:0.67000002 187:0.67000002 188:0.13 189:0.54000002 190:1.21 191:0 192:0.40000001 193:0.40000001 194:0.13 195:0.27000001 196:0.81 197:0.54000002 198:0.27000001 199:0 200:0.27000001 201:0.13 202:0.13 203:0.27000001 204:0 205:0.27000001 206:0.54000002 207:0.13 208:0 209:0 210:0.27000001 211:0 212:0.13 213:0.13 214:0.13 215:0.13 216:0 217:0 218:0 219:0 220:0 221:0.13 222:0.27000001 223:0.13 224:0 225:0 226:0.40000001 227:0 228:0.54000002 229:0 230:0.27000001 231:0 232:0.27000001 233:0.27000001 234:0.27000001 235:0.13 236:0.40000001 237:0 238:0 239:0 240:0 241:0.81 242:0 243:0 244:0.13 245:0.27000001 246:0.67000002 247:0.13 248:0.13 249:0 250:0.81 251:0.27000001 252:0.13 253:0.67000002 254:0.13 255:0.27000001 256:1.21 257:0.81 258:0.54000002 259:0 260:0.27000001 261:1.21 262:0.40000001 263:0.27000001 264:0.40000001 265:0.13 266:0 267:0.13 268:0.27000001 269:0 270:0.13 271:0 272:0.13 273:0.40000001 274:0.54000002 275:0.13 276:0.67000002 277:0.27000001 278:0.67000002 279:0 280:0.27000001 281:0.27000001 282:0 283:0.13 284:0.13 285:0 286:0.27000001 287:0 288:0.13 289:0 290:0.40000001 291:0 292:0.54000002 293:0.13 294:0.13 295:0.27000001 296:0.27000001 297:0 298:0.27000001 299:0.13 300:0.27000001 301:2.8199999 302:0.54000002 303:0.13 304:0.27000001 305:0.27000001 306:2.01 307:0.13 308:0.13 309:0.13 310:1.21 311:0.27000001 312:0.27000001 313:0.67000002 314:0.94 315:0.67000002 316:2.6800001 317:0.67000002 318:0.67000002 319:0 320:0.40000001 321:0.54000002 322:0.13 323:0.13 324:0 325:0 326:0.54000002 327:0 328:0 329:0.13 330:0 331:0 332:0 333:0.81 334:0.27000001 335:0 336:0.81 337:0.67000002 338:0 339:0 340:0.13 341:0.94 342:0.13 343:0.13 344:0.40000001 345:0 346:0.27000001 347:0 348:0.13 349:0 350:0.40000001 351:0 352:0.13 353:1.21 354:0.27000001 355:0.27000001 356:0.27000001 357:0.27000001 358:0.40000001 359:0.13 360:0 361:0.13 362:0 363:0 364:0 365:0 366:0 367:0.13 368:0 369:0 370:0 371:0 372:0 373:0 374:0.13 375:0 376:0.13 377:0 378:0 379:0 380:0 381:0.13 382:0.13 383:0 384:0 385:0 386:0.27000001 387:0 388:0.13 389:0.13 390:0.13 391:0 392:0 393:0.13 394:0.40000001 395:0.13 396:0.54000002 397:0 398:0 399:0 400:0 #
-39.344414271701680263504385948181 1:0 2:0.61000001 3:0.2 4:0.2 5:0.40000001 6:0.61000001 7:0 8:0 9:0.40000001 10:0.40000001 11:0 12:0.40000001 13:0 14:0.2 15:0.40000001 16:1.01 17:0.61000001 18:0.2 19:0 20:0 21:0 22:0 23:0.61000001 24:0.40000001 25:0.40000001 26:0.40000001 27:0 28:0.2 29:0.2 30:0.40000001 31:0 32:0 33:0.2 34:0.2 35:0.2 36:0.2 37:0 38:0.2 39:0 40:0 41:0.2 42:0 43:0.40000001 44:0.81 45:0 46:0.40000001 47:0 48:0.61000001 49:0.2 50:0.40000001 51:0 52:0 53:0.2 54:0.40000001 55:0.2 56:0.2 57:0.40000001 58:0.81 59:0 60:0 61:0.40000001 62:0.40000001 63:0 64:0.2 65:0.2 66:0.40000001 67:0.2 68:0.61000001 69:0 70:0.40000001 71:0.2 72:0 73:0.40000001 74:0 75:0.40000001 76:0.2 77:0 78:0.61000001 79:0 80:0.40000001 81:0.2 82:0 83:0 84:0 85:0.2 86:0 87:0.2 88:0.2 89:0.2 90:0.2 91:0 92:0.2 93:0 94:0.40000001 95:0.40000001 96:0.2 97:0 98:0 99:0.2 100:0.40000001 101:0.2 102:0 103:0.40000001 104:0.2 105:0.40000001 106:1.8200001 107:0 108:0.2 109:0.2 110:0.2 111:0.2 112:0.61000001 113:0 114:0.2 115:0.2 116:0.81 117:1.01 118:0.61000001 119:0.2 120:0.2 121:0 122:0.2 123:0 124:0 125:0 126:0 127:0 128:0.2 129:0 130:0.2 131:0 132:0.2 133:0 134:0.2 135:0 136:0.2 137:0.2 138:0 139:0 140:0.2 141:0.40000001 142:0 143:0.2 144:0.2 145:0.2 146:0.2 147:0 148:0 149:0.40000001 150:1.41 151:0 152:0.2 153:0.2 154:0.2 155:0 156:0.2 157:0.40000001 158:0 159:0 160:0.2 161:0.61000001 162:0.2 163:0 164:0.61000001 165:0.2 166:0.2 167:0 168:0.2 169:0.2 170:0.81 171:0 172:0 173:0 174:0.40000001 175:0.40000001 176:0.40000001 177:0 178:0 179:0 180:0.2 181:0.61000001 182:0.81 183:0.40000001 184:0.81 185:0.2 186:0 187:0.40000001 188:0 189:0.81 190:2.4200001 191:0.2 192:0.81 193:0.61000001 194:0.40000001 195:1.01 196:1.01 197:0.40000001 198:0.40000001 199:0 200:0.2 201:0 202:0 203:0.2 204:0.2 205:0 206:0.2 207:0 208:0 209:0.61000001 210:0.40000001 211:0 212:0 213:0 214:0.2 215:0 216:0.2 217:0 218:0 219:0 220:0 221:0.40000001 222:0.2 223:1.01 224:0.40000001 225:0 226:0.81 227:0 228:0.2 229:0.2 230:0 231:0.2 232:1.01 233:0.2 234:0 235:0 236:0.61000001 237:0.2 238:0.2 239:0 240:0 241:0.2 242:0 243:0.2 244:0.2 245:0.2 246:0.2 247:0 248:0 249:0 250:0.40000001 251:0 252:0.40000001 253:0.40000001 254:0.2 255:0.2 256:0.81 257:0 258:0.2 259:0 260:0 261:0.40000001 262:0 263:0 264:0.2 265:0 266:0.40000001 267:0 268:0.40000001 269:0.40000001 270:0.81 271:0.2 272:0.2 273:0 274:0.40000001 275:0.2 276:0.61000001 277:0.40000001 278:0.40000001 279:0 280:0 281:0.2 282:0 283:0.61000001 284:0.2 285:0.40000001 286:0.40000001 287:0.2 288:0.2 289:0.2 290:0.40000001 291:0.2 292:0.2 293:0 294:0.61000001 295:1.21 296:0.2 297:0.2 298:0.2 299:0 300:0 301:0.61000001 302:0.61000001 303:0.40000001 304:0 305:0 306:1.41 307:0.2 308:0.61000001 309:0.2 310:1.62 311:0 312:0.61000001 313:0.81 314:0 315:0 316:1.8200001 317:0.40000001 318:1.21 319:0.2 320:0.40000001 321:0.2 322:0.40000001 323:0.2 324:0.2 325:0.2 326:0 327:0 328:0.40000001 329:0 330:0.2 331:0.40000001 332:0.81 333:0.61000001 334:0.2 335:0 336:1.01 337:0.61000001 338:0 339:0 340:0 341:0.40000001 342:0.2 343:0.2 344:0 345:0 346:0 347:0.2 348:0.40000001 349:0.2 350:0.40000001 351:0 352:0 353:0 354:0.40000001 355:0.61000001 356:1.41 357:0.2 358:0.40000001 359:0.2 360:0.2 361:0.40000001 362:0 363:0 364:0 365:0 366:0 367:0 368:0 369:0 370:0 371:0.2 372:0 373:0 374:0 375:0.2 376:0 377:0 378:0 379:0 380:0 381:0.2 382:0 383:0.2 384:0.2 385:0 386:0.2 387:0.2 388:0 389:0 390:0.40000001 391:0 392:0 393:0 394:0.40000001 395:0.2 396:0 397:0.40000001 398:0 399:0 400:0.40000001 #
-17.288635049111945818367530591786 1:0.16 2:0.31 3:0.16 4:0.31 5:0 6:0.31 7:0.47 8:0.16 9:0.16 10:0.31 11:0.16 12:0 13:0.31 14:0.31 15:0.16 16:0.63 17:0.31 18:0.79000002 19:0 20:0 21:0 22:0 23:0 24:0.16 25:0.16 26:0.31 27:0 28:0 29:0.31 30:0.31 31:0.16 32:0.16 33:0.47 34:0.16 35:0.16 36:0.16 37:0.31 38:0 39:0 40:0 41:0.47 42:0 43:0.16 44:0.16 45:0.31 46:0.31 47:0 48:0 49:0.31 50:0.31 51:0 52:0.47 53:0.16 54:0.16 55:0.16 56:0.16 57:0.16 58:0.16 59:0 60:0 61:0.16 62:0 63:0.31 64:0.16 65:0.31 66:0.16 67:0 68:0.31 69:0.94 70:0.63 71:0.31 72:0.31 73:0 74:0.16 75:0 76:0.16 77:0.31 78:0.47 79:0 80:0 81:0.16 82:0 83:0.16 84:0.31 85:0.16 86:0.31 87:0.16 88:0.31 89:0.16 90:0 91:0 92:0.16 93:0.16 94:0.31 95:0.31 96:0.63 97:0.47 98:0 99:0 100:0.16 101:0.16 102:0.16 103:0.31 104:0.16 105:0.47 106:0.63 107:0.16 108:0.16 109:0 110:0.47 111:0.47 112:0.16 113:0.16 114:0 115:0.31 116:1.42 117:0.47 118:0.47 119:0 120:0.16 121:0.16 122:0.16 123:0.47 124:0 125:0.16 126:0.16 127:0.47 128:0.16 129:0.16 130:0.16 131:0 132:0.47 133:0.16 134:0.16 135:0.16 136:0.16 137:0 138:0 139:0 140:0.16 141:0.16 142:0 143:0.16 144:0.16 145:0 146:0.16 147:0.16 148:0 149:0 150:0.16 151:0.16 152:0.16 153:0.47 154:0.31 155:0.16 156:0.31 157:0.31 158:0 159:0.16 160:0.31 161:0.16 162:0.31 163:0 164:0.31 165:0 166:0.16 167:0.47 168:0 169:0.31 170:0.94 171:0 172:0.16 173:0 174:0.16 175:0.16 176:0.47 177:0.47 178:0.16 179:0 180:0 181:0.63 182:0.16 183:0.16 184:0.31 185:0.31 186:0.63 187:0.16 188:0.16 189:0.63 190:1.42 191:0.16 192:0.79000002 193:0.31 194:0.31 195:0.31 196:0.94 197:0.63 198:0.31 199:0 200:0 201:0.16 202:0 203:0 204:0.16 205:0.16 206:0.31 207:0.31 208:0 209:0 210:0.31 211:0 212:0.31 213:0 214:0.31 215:0.16 216:0.16 217:0.31 218:0.47 219:0 220:0.31 221:0.16 222:0 223:0.16 224:0.31 225:0.31 226:0.47 227:0 228:0.16 229:0.31 230:0 231:0.63 232:1.42 233:0 234:0.16 235:0.79000002 236:1.5700001 237:0.63 238:0.47 239:0 240:0 241:0.47 242:0.63 243:0.16 244:0.16 245:0 246:0.63 247:0.16 248:0 249:0.16 250:0.31 251:0.16 252:0.79000002 253:1.1 254:0.47 255:0.16 256:0.63 257:0.47 258:0.31 259:0 260:0.16 261:0.16 262:0.16 263:0.16 264:0.31 265:0 266:0 267:0.16 268:0 269:0 270:0.47 271:0 272:0.63 273:0.47 274:0.63 275:0.47 276:0.47 277:0.16 278:0.16 279:0 280:0.16 281:0.31 282:0.31 283:0.47 284:0.47 285:0.63 286:0.16 287:0 288:0.63 289:0 290:0 291:0.31 292:0.31 293:0.16 294:0 295:0.16 296:0.47 297:0.47 298:0 299:0 300:0 301:0.63 302:0.31 303:0.16 304:0.79000002 305:0.47 306:0.94 307:0.16 308:0.47 309:0.16 310:1.1 311:0.63 312:0.79000002 313:2.04 314:0.47 315:0.47 316:3.3 317:0.31 318:0.47 319:0 320:0.16 321:0.31 322:0.16 323:0.16 324:0 325:0.47 326:0.16 327:0 328:0.47 329:0.31 330:0.94 331:0.16 332:0.16 333:0.79000002 334:0.16 335:0.31 336:1.1 337:0.16 338:0.47 339:0 340:0.16 341:0.63 342:0.16 343:0.31 344:0.31 345:0 346:0.31 347:0.16 348:0.16 349:0.16 350:0.47 351:0 352:0.31 353:0.16 354:0.31 355:0.47 356:0.47 357:0.31 358:0.31 359:0 360:0 361:0 362:0 363:0 364:0.16 365:0 366:0 367:0 368:0 369:0 370:0 371:0 372:0 373:0 374:0 375:0 376:0 377:0 378:0 379:0 380:0 381:0.16 382:0 383:0 384:0 385:0 386:0.16 387:0.31 388:0.16 389:0.16 390:0 391:0 392:0 393:0 394:0 395:0 396:0.63 397:0.16 398:0 399:0 400:0 #
-7.8111888547755370382219552993774 1:0.80000001 2:0.23 3:0.11 4:0.23 5:0.11 6:0.34 7:0 8:0.56999999 9:0.46000001 10:0.56999999 11:0.34 12:0.68000001 13:0.34 14:0.56999999 15:0.23 16:0.68000001 17:0.34 18:0.80000001 19:0 20:0 21:0.11 22:0.11 23:0.34 24:0.34 25:0.11 26:0.34 27:0 28:0 29:0.23 30:0.23 31:0 32:0 33:0 34:0.23 35:0.23 36:0.23 37:0 38:0.11 39:0 40:0 41:0.11 42:0.11 43:0.11 44:0.23 45:0.11 46:0.11 47:0.11 48:0 49:0.11 50:0.56999999 51:0.11 52:0.23 53:0 54:0.23 55:0.23 56:0.80000001 57:0.11 58:0.23 59:0 60:0.11 61:0.11 62:0.23 63:0.34 64:0.56999999 65:0.11 66:0.11 67:0.11 68:0.46000001 69:0.34 70:0.23 71:0.23 72:0.34 73:0.11 74:0.23 75:0.34 76:0.46000001 77:0 78:0.23 79:0 80:0.23 81:0.23 82:0.11 83:0 84:0 85:0.23 86:0.23 87:0 88:0 89:0 90:0.11 91:0.11 92:0.11 93:0 94:0 95:0.23 96:0.34 97:0.11 98:0.11 99:0 100:0.11 101:0.46000001 102:0.23 103:0.23 104:0 105:0.34 106:2.74 107:0.23 108:0.34 109:0 110:0.91000003 111:0.68000001 112:0.80000001 113:0.23 114:0.34 115:0.23 116:0.68000001 117:0.11 118:1.25 119:0 120:0.34 121:0.34 122:0.11 123:0.11 124:0 125:0.11 126:0.46000001 127:0.11 128:0.11 129:0 130:0.23 131:0 132:0 133:0 134:0.34 135:0 136:0.34 137:0.11 138:0 139:0 140:0.11 141:0 142:0 143:0.23 144:0.11 145:0.23 146:0.46000001 147:0 148:0.11 149:0 150:0.68000001 151:0.11 152:0.23 153:0.56999999 154:0.34 155:0 156:0.11 157:0.91000003 158:0.23 159:0.23 160:0.23 161:0.34 162:0.34 163:0.11 164:0.23 165:0.23 166:0.34 167:0 168:0.11 169:0.56999999 170:0.46000001 171:0.23 172:0.11 173:0 174:0 175:0.23 176:0.34 177:0 178:0.11 179:0 180:0 181:0.68000001 182:0.23 183:0.23 184:0.34 185:0 186:0.56999999 187:0.46000001 188:0.56999999 189:0.46000001 190:0.68000001 191:0.23 192:0.34 193:0.91000003 194:0.91000003 195:0.46000001 196:0.46000001 197:0.68000001 198:0.46000001 199:0.11 200:0 201:0.46000001 202:0.11 203:0.11 204:0 205:0.11 206:0.46000001 207:0.11 208:0 209:0.34 210:0.23 211:0.11 212:0 213:0 214:0.23 215:0.46000001 216:0.34 217:0.23 218:0 219:0 220:0.23 221:0.46000001 222:0 223:0.11 224:0.46000001 225:0 226:1.8200001 227:0 228:0.23 229:0 230:0.23 231:0.11 232:0.23 233:0 234:0.34 235:0.34 236:0.23 237:0 238:0.23 239:0 240:0 241:0.56999999 242:0 243:0.23 244:0.34 245:0 246:0.34 247:0 248:0.23 249:0.11 250:0.23 251:0.11 252:0.11 253:0.34 254:1.6 255:0.23 256:1.03 257:0.11 258:0.23 259:0 260:0 261:0.11 262:0.11 263:0.34 264:0.56999999 265:0 266:0.11 267:0.56999999 268:0.46000001 269:0.11 270:1.37 271:0.11 272:0.46000001 273:1.6 274:0.68000001 275:0 276:0.34 277:0.56999999 278:0 279:0 280:0.11 281:0.46000001 282:0 283:0.23 284:0.11 285:0 286:0 287:0.23 288:0.23 289:0.23 290:0.34 291:0.23 292:0.11 293:0.23 294:0.11 295:0.68000001 296:0.34 297:0.11 298:0.11 299:0.11 300:0.11 301:0.91000003 302:0.11 303:0.34 304:0.56999999 305:0.23 306:0.56999999 307:0.34 308:0.46000001 309:0.11 310:0.91000003 311:0.34 312:0.34 313:0.34 314:0.56999999 315:0 316:1.8200001 317:0.91000003 318:0.68000001 319:0 320:0.34 321:0.80000001 322:0.23 323:0.11 324:0.23 325:0 326:0 327:0 328:0.34 329:0.23 330:0.56999999 331:0 332:0.23 333:0.68000001 334:0.46000001 335:0.11 336:0.68000001 337:0.80000001 338:0.11 339:0 340:0.11 341:0.23 342:0.11 343:0.11 344:0.34 345:0.11 346:1.14 347:0.11 348:0.34 349:0.23 350:0.11 351:0.11 352:0.23 353:0.46000001 354:0.34 355:0 356:0.46000001 357:0.46000001 358:0.23 359:0 360:0.11 361:0 362:0 363:0.11 364:0 365:0 366:0 367:0 368:0 369:0 370:0.11 371:0 372:0 373:0 374:0 375:0 376:0.11 377:0 378:0 379:0 380:0.11 381:0.34 382:0.23 383:0.11 384:0.11 385:0 386:0 387:0.11 388:0.23 389:0.23 390:0 391:0.23 392:0.23 393:0 394:0.11 395:0 396:0.11 397:0.11 398:0.11 399:0 400:0.11 #
